	0	1	2	3	4	5	6	7	8	9	10	11	12	13	14	15	16	17	18	19	20	21	22	23	24	25	26	27	28	29	30	31	32	33	34	35	36	37	38	39	40	41	42	43	44	45	46	47	48	49
how	0.08213504	-1.1940253	1.0579236	-0.8844656	0.8375529	-0.03223326	-0.99307	1.1109669	-0.028215986	0.8497282	-0.102042064	-0.771363	-0.62805754	0.341942	1.1265095	0.1271874	1.0620389	-0.2338844	0.79939735	-1.0336152	0.257889	-0.94849837	0.79931825	-1.259871	0.018370423	-0.76837814	-0.6332263	-0.62826955	-0.9873754	0.17648754	-0.17882928	-0.84911865	-1.2140951	-0.12089184	0.28510588	-0.24712491	-0.43344325	-0.73194987	1.0283686	-1.0402782	-0.7805019	-0.9740468	-0.46510357	-0.8679125	0.94792163	0.90755737	0.85319316	0.079800904	-1.0637642	0.9396956
war	-0.42967325	-0.9244495	-0.07025078	-0.5363969	-0.24028562	0.17848502	-0.7039727	0.0615779	-0.5639603	0.8520645	-0.70757365	-0.39740148	-0.46633548	0.27179325	1.2624032	-0.18250011	1.2832224	-0.9514948	0.51413673	-1.5729231	-0.14909258	0.050762683	0.92122716	-0.7518028	0.022456065	-0.67263246	-0.95151865	-1.4234182	-0.3106894	0.5101125	1.0928941	-0.09942606	-1.1400433	0.065359175	0.87960863	-1.0002995	-1.1360116	-1.5562376	0.2925617	0.09167701	-1.0276763	-0.24661034	-0.6313806	-0.35407352	0.16286227	0.1463379	1.3510406	-0.078516096	0.000161767	-0.4294338
tri	0.35810864	-1.0165895	0.6154007	-0.9441556	0.80102265	0.034908175	-0.3397045	0.5201788	-0.07113779	1.0048283	0.4311105	-0.7995877	-0.8145269	0.5377242	0.51012784	0.038358282	0.866778	-0.10753724	0.48042497	-1.2149339	0.63012606	-0.08261894	0.607288	-1.1280105	0.26714554	-0.42428207	-0.96403825	-0.71288085	-0.72848725	-0.03299545	-0.13113123	0.13199441	-1.1648366	-0.48962152	0.3504728	0.0026671793	-0.7198287	-0.12849087	0.78170514	-0.75509983	-0.4000604	-0.594188	-0.39693832	-0.7979369	0.7272307	0.80606306	1.0292823	0.42624557	-1.019594	0.962348
theater	-1.488519	-0.14380771	0.20866245	-0.5209135	-0.2862511	0.2534191	0.13778734	1.2071719	-0.20429657	-0.2294159	0.5268	-0.5628711	-0.24375752	0.47790962	0.70110035	0.75848866	1.5101755	-0.1665474	0.6011022	-0.5647871	-0.8436068	-0.7697179	-1.1015182	0.7263016	-0.69826484	-1.3525146	-0.5157446	-1.3339341	-1.6983663	-0.6586443	-1.2106305	-0.6219294	-0.22757925	0.17526515	0.5211786	-1.5504036	-0.2740503	-0.92237437	0.052028082	-0.5221861	-0.18554984	-0.5565557	-0.4819131	-1.3033099	-0.60567534	0.04372639	0.13788205	-0.8744867	0.22664085	-0.12900531
male	0.11150168	-1.0148867	1.0143652	-0.2143195	-0.12807775	-0.05257733	-0.103548296	1.099523	0.4672563	0.06889541	-0.10723955	0.6070791	-0.2901147	1.2115722	0.28239962	0.5663806	1.2375234	-0.57189226	1.0988234	-0.43726766	-0.13158116	-0.49349725	1.6251873	-1.4684236	0.013753634	-1.557294	-0.5461588	-1.2049658	-0.7764803	0.18193477	-0.80792415	-0.6546377	0.9185872	0.22679645	0.29594207	-0.92460304	-1.9707549	-0.06940809	-0.4300413	-0.6276282	-1.1153202	-0.7119602	0.32574567	-0.489289	-0.021267893	0.4819461	0.30909663	-0.38654608	0.3445485	1.2225456
divis	-0.030779399	-0.23989232	-0.30494398	0.56178516	0.16865197	0.64649343	-1.0506766	0.753469	0.72048104	2.0359776	-1.1343632	-0.70701003	0.23591533	-0.5667775	-0.60345006	-0.22365016	0.26130748	-0.00081279874	0.34483138	-0.9626317	-0.033484653	-0.65900195	1.035141	-1.4085919	-0.1780197	-0.8568387	-1.1220735	-0.5787091	-0.11167091	-0.52013844	1.2330971	0.8578423	-0.5643859	0.19806248	-0.060322255	0.57780415	-0.4402744	-0.051569343	1.005397	-0.21146983	0.15359071	0.21062869	-0.32108724	-0.9376309	-0.7263898	-0.23896939	-0.8852128	-0.45760125	-0.8933257	-0.43621945
coverag	0.375414	-0.79188025	0.4243003	-0.20635474	1.1611423	0.95937276	-0.048842695	1.7650104	0.008969214	0.84098274	-0.9782747	-1.3470623	-0.22195655	0.25300968	-0.4958151	1.0494359	0.3808881	-0.78522164	0.63682944	-1.4927615	-0.088131905	-0.19213949	0.4473188	-0.8405489	0.4437503	-0.7556386	0.15237823	-0.36964056	-1.5084815	0.3038067	0.7435041	-0.40975273	-0.042582467	1.060184	-0.64957815	-0.96180683	0.029031016	0.76972246	0.9487077	-0.09804732	0.24947795	-1.5545686	0.6455128	-0.117951676	0.4070593	0.9537232	0.73691964	-0.057184696	-0.50542486	-0.122458205
happi	0.25077686	-0.18488619	0.2992339	-0.1813828	-0.20993397	-0.68249524	-1.0473248	1.4430368	-0.8612222	0.0837397	-0.43370903	-0.43370962	-0.00045207143	-0.2795182	0.5433545	-0.81319237	1.1307703	0.12596159	0.37523067	-0.57638377	-0.11857736	-0.34738374	0.5101288	-0.48089957	0.45883712	-1.8024657	-0.78256303	0.5096841	-0.5755738	-0.68425584	0.08264224	-0.40405604	-0.6717836	0.66194636	-0.429003	-0.33894908	-0.40007287	-0.028304666	1.2070822	-0.42562646	-0.7682308	0.12827514	-0.4879198	-0.49571234	0.6773115	-1.1088569	0.9068333	0.18585059	-0.6998265	0.65402186
unfold	-0.08337424	-1.742688	-0.54657406	-0.65963995	0.57777274	0.93718207	-0.41120225	0.39442748	1.4045154	-0.105572075	0.5477801	-0.75035733	0.27307105	0.40494612	-0.5157256	0.5799849	0.60804677	-0.37831268	-0.2057966	-1.1361408	1.0100564	-1.6824715	0.41865858	-0.466631	-0.05028406	0.35635898	0.16066572	0.16674419	-0.49804622	0.59458303	1.0361855	-0.39455247	-0.0993599	1.1423124	0.53635174	-0.77447164	0.4603437	0.4615745	0.26657474	0.0765593	-0.34467018	-1.034549	-1.2948732	-0.9414115	-0.7942252	-0.022271413	0.013247475	0.2627154	-0.6558186	0.205264
via	-1.1178446	-0.1815326	0.61256754	-0.93466353	1.0814234	0.6391543	-0.6376917	1.3881649	-0.06463271	-0.519672	0.18786031	-1.5139593	-0.703547	0.13205099	-0.6623427	-0.85357153	0.61627924	-1.4107449	0.5155527	-0.93742096	0.24616396	-0.7788509	0.45104033	-0.69940066	-0.7957084	-0.829044	-1.2964513	-0.9604864	-0.53638846	2.2363489	0.7943758	0.27357817	0.19416338	-0.747486	-0.0030892976	-0.5281904	-0.21711424	0.7743367	0.18832856	-1.1009697	-1.7114409	-0.288447	-0.58719754	-1.0000691	1.3330182	0.81156147	0.85413	0.050995655	-0.77813494	0.2040273
super	0.18047135	0.023208555	0.06882123	-0.26379657	0.20305005	-0.25208998	-0.92814046	0.11284628	-1.3237574	0.80593884	0.14840576	-0.7352886	0.14783925	-0.22599831	-1.1918	-0.14259481	0.53428054	0.3656999	0.623675	0.32838827	0.47524932	-0.69635963	0.6482667	-0.33362463	0.6449609	0.038185265	0.17375991	-0.80650055	-1.6527805	-0.2282925	-0.5640141	-0.6577649	-1.3607258	0.070680045	-0.14223973	-0.5026578	-0.058727298	0.6498042	1.0270455	-0.4275897	0.25021333	-0.4854276	-0.14878535	-0.94585717	0.4620588	-0.0039022155	-0.45883036	-1.0289888	-0.16722779	-0.9688696
aliv	1.0587521	0.402326	1.2854135	-0.21176314	1.2958077	0.5761268	-0.004385099	0.6993259	0.026128627	0.047842532	-0.48394245	-0.4890781	-0.014035791	0.9848747	0.75757486	-0.8756169	0.9239193	-0.10268906	0.33553392	-0.34532675	-0.059932113	-0.9425242	0.07374472	-0.2323568	-0.064817436	-0.97042596	-0.049482785	-0.5283997	-0.53318715	-0.28474635	-1.5174856	-1.0650551	-0.33775538	0.020359892	0.9117482	-1.2147448	-1.4358068	-0.073247194	0.76938283	0.4211254	-1.2660326	-0.7977065	-0.41030732	-0.70351434	0.85101914	0.09245597	0.69543016	0.8370067	0.5110202	1.7822361
celebr	-0.22561863	0.17460304	-0.09043599	-0.9104164	-0.9454172	0.38801047	-1.6418641	1.3609865	-0.49734855	0.36353257	-0.55662614	-0.62629306	0.009924546	-0.2668349	0.09546673	-1.1285412	0.68087	-1.009371	0.48974144	-1.1188284	-0.2235038	0.23929608	-0.6499114	-0.0060319845	0.7623501	-1.1728196	-0.49324012	0.6808653	-1.5543969	0.8050883	0.80762285	0.12022859	-0.2978632	0.4530512	0.41935563	-0.059590198	-0.38892126	-0.15491176	1.2475817	-0.32590026	0.14255866	-0.15552706	-0.167935	-0.9958475	0.8346649	0.14002338	1.0442941	-0.43406364	-0.93703914	0.92075473
parent	0.8899535	-1.2019172	0.6867127	-0.7257341	0.641516	-0.032105975	-0.630387	1.2674233	-0.11533825	0.9049064	-0.20578317	-0.4287634	0.74186754	0.7224306	0.7316375	-0.118541114	-0.036502466	-0.081821695	0.8654498	-1.0289593	0.96010983	-0.30001426	-0.023591287	-0.7370852	-0.0062269345	-0.82193935	-0.7758918	-0.61067295	-1.2018563	-0.28721285	-0.85531163	-0.4423142	-0.11547871	-0.6493659	-0.49207106	0.6906799	1.3158929	-0.7882278	0.4660748	-0.4588494	-1.3027599	-0.42596388	-0.68540305	-0.68426484	0.6073917	0.8763703	0.7895249	0.43678778	-0.52927786	1.0756792
illeg	-0.07008192	-0.9080411	0.5088105	-0.109424874	0.3847072	-0.825899	-0.5471145	0.917212	-0.9278712	0.84054905	1.0158603	0.6398996	0.479711	0.1966871	0.63785136	-0.2662655	0.47604978	0.66383183	1.973027	-1.1180257	0.18531922	-0.4851344	1.04658	-1.1655657	0.35057846	-0.40447676	-1.186012	-0.8361937	0.28685308	0.21193537	-0.82081103	0.057977688	0.25319484	-0.9516281	-0.42379767	-0.30443293	-0.852896	-1.283636	0.54259586	-0.8124011	-0.5736116	-0.4567963	1.3211281	-0.051511325	0.7766214	1.0964603	0.44438127	0.61790335	-0.73610675	-0.3426659
buy	-0.87319934	-1.7733843	0.615377	0.033564344	1.0213909	-0.37076074	-0.12939593	0.26520067	-1.5857216	-0.021120667	0.29801852	-0.49837387	0.23248568	0.5715638	1.0194448	0.2142127	0.684242	0.05143997	0.3975472	-1.0611703	0.60441256	-0.78439206	1.0248296	-0.41201127	-0.4275123	-0.27011752	-0.12245822	-1.0140581	-0.9471315	-0.24727374	-1.0544579	-0.33045387	-0.6239543	-0.87235546	-0.15351285	0.7157892	-0.29468858	-0.4551109	0.5918941	-1.3313663	-1.065629	-0.083687976	0.74893224	-0.5439637	0.78081656	1.3379657	1.1762017	0.32964385	-0.5983478	-0.41270852
mental	-0.10652584	-0.82598805	0.7168364	-0.3617734	-0.06558523	0.68349576	-0.6116444	0.9118556	0.415013	0.48156637	0.052383646	-0.5897269	-0.6728282	0.4100073	0.98614836	0.7230047	1.0387961	-0.0013307184	1.5309637	-0.8526995	0.30977046	-0.44396544	1.2758071	-0.4833833	-0.29381794	-0.57212865	-0.07807953	-1.3394675	-1.3861833	0.42653152	-1.0233908	-0.928488	-0.9276215	-1.4337939	0.078441285	1.2453451	-0.943614	-0.663602	1.0583112	-1.2836286	-1.6037889	-0.6526272	0.14262226	0.5794045	-0.44534838	0.88991344	1.2992148	-0.37342367	-0.8162224	0.62885636
dept	0.005205527	-0.33765584	-0.4637529	-0.81704825	0.61883193	-0.10988232	-0.76337945	1.1318443	0.5853351	-0.44544992	-0.27977604	0.62512434	0.5099524	1.386329	-0.36576122	0.20419553	0.009784874	0.29627785	0.93855643	-0.8679204	-0.60734606	-0.3544917	0.5765963	0.006666854	0.68160075	-0.41662067	0.813802	-1.1964672	0.07968395	0.33221376	0.62136	1.7532549	-1.5789077	-1.1629474	-0.5364433	0.0067735813	-0.09568042	0.20868689	-0.018047482	-0.4825288	-0.64682174	-1.0786082	-1.0186213	-0.89921474	0.4729181	1.1382053	0.33218753	0.5913586	-0.1472505	-0.4310528
pic	0.8322643	-0.08619747	1.0124121	-0.060064718	0.21650693	-0.644874	-0.6872509	1.334545	-0.9171421	-0.41226074	-0.19637696	0.081573516	0.4697866	0.48330146	0.16446465	0.28583848	0.32195616	-0.63634753	0.34799516	-0.04504379	0.8111192	0.41895828	-0.5268629	-0.8845932	-0.3088497	-1.1257353	-0.41709134	-1.0038514	0.4610117	0.7038106	0.18245375	0.33607316	0.34392786	1.1751212	0.088813975	-0.08695038	-0.6167496	0.010989606	1.154042	-1.2589602	0.26156437	-1.3630093	-0.34267324	-0.55008334	0.50179505	1.3307223	0.10022982	-0.9145229	0.19845283	0.82095325
horrifi	-0.29531068	-0.5468191	0.13904242	-1.5325336	-0.28901815	0.32112402	-1.2532115	0.9589043	0.42419145	0.1941823	-0.37702692	-0.4007374	0.102369234	-0.25893974	-0.18241024	0.03601808	1.6244423	0.8477746	0.7842384	-0.85767686	-0.08614002	-1.0675834	1.056656	0.29152557	-0.6889434	-0.28009894	-0.6094271	0.273978	-0.47086817	0.51932	0.8151406	-0.748758	-0.37093297	1.2672154	-0.10755132	-0.7342759	1.1214496	0.2916758	0.3323692	0.08089922	0.06831042	-0.28047788	-0.96286416	-0.5808841	0.3808784	0.10005635	0.5071738	0.72936845	-0.08272455	0.9069027
center	-0.66413105	-1.0190533	-0.29346684	-1.1852429	-0.3711316	0.1815356	-1.1757612	0.84579575	0.094196446	-1.0457513	-0.6615577	-0.4550809	-0.81619596	1.2817128	-0.84961843	0.796507	0.9856689	-0.13890392	0.69259715	-0.38650095	-0.47379404	0.6804635	-0.019326791	-0.1859701	0.045740414	-0.75579536	0.15535033	-1.3318601	-1.9490788	0.47599202	0.33604732	-0.24216723	0.18337396	-0.6911386	0.44001353	-1.302731	-0.056147803	0.071238816	0.057471674	-1.5897267	-1.1152617	-1.1836951	-0.44574976	-0.0048813447	-0.09560478	0.5361738	0.5114621	0.32247794	-1.9937744	-0.9458837
take	0.11998671	-0.8815011	0.69088614	-1.0162464	1.0153325	0.12686518	-0.8033031	0.7745096	-0.44623655	0.74108917	-0.2251805	-1.332789	-0.9469254	0.52519083	0.99357384	-0.05336292	0.97318137	-0.24279651	1.0617287	-0.75696325	-0.08243352	-0.4241975	0.47295728	-1.0628817	0.1459608	-1.0767043	-0.82855946	-0.5660349	-0.7485385	-0.1377272	-0.24002138	-0.53359056	-1.0490543	-0.2085135	0.6804155	0.3374536	-0.004205382	-0.7931386	0.7269855	-0.8888531	-0.9448577	-0.71895623	-0.61686015	-0.5390111	0.8369099	0.8001728	0.71130013	0.123456344	-0.88130856	0.5775492
brown	-0.6798056	-0.47485524	1.4089799	-0.77666754	0.56135666	-0.62435406	-0.019677512	0.72761434	0.5825274	0.20063661	-1.1766984	0.4399888	-1.178633	1.4878204	-0.1942521	0.06874987	0.6989666	-0.23790382	1.6147273	0.1526222	-0.13491589	-0.12836412	0.34283742	-0.3444599	0.37249798	-1.2922466	-0.06624955	-1.1126404	-0.13576871	0.103991374	-0.13577017	-0.50953543	-0.5206694	0.40496388	0.17404628	0.44519636	-1.8928928	-0.33197767	0.23920998	-0.9800626	-0.654147	-0.786387	-0.85798484	0.5409496	-0.09577291	-0.0735139	-0.20752545	-0.62055874	0.43654275	0.492127
whether	0.024644285	-1.1116126	1.8872753	-0.37223053	0.014617175	0.22352716	-0.38306046	-0.041663986	1.4078555	0.01741691	-0.36410174	0.044580087	-0.7228658	0.17980498	0.37595755	-0.1516631	1.1475217	-0.061993048	0.667012	-0.5244117	0.4493087	-0.43112493	0.5788827	-0.30331564	0.056247436	-0.48670483	-1.0834508	-0.32355127	-0.91143286	-0.026155688	-1.075428	0.4852249	-0.82830185	-0.30653098	0.7689756	0.006574575	0.06389286	0.32687056	0.25263613	-0.26411092	-0.2577643	0.049322575	0.20406902	-0.78481054	0.658617	0.89054537	0.25380072	0.98676264	-0.777272	-0.00014147162
gunmen	-0.1027102	-1.2688	0.03726752	-0.7052575	0.27538377	0.18617651	-1.3621118	-0.4547713	0.25343403	-0.44466782	-0.64799666	0.31585002	-1.0423181	0.6596096	0.28122	0.86661327	0.93215764	-0.25223625	-0.17469257	-0.16486564	-0.011373013	0.043379724	0.2863048	-1.0040342	-0.45423114	-0.9605711	1.2966006	-1.181236	-0.51628226	0.42090714	-0.5208342	0.44389632	0.43210772	-0.29217407	0.45403457	-1.7274652	-0.80585	-0.4851418	0.88299984	0.017589051	-0.32521373	-0.6775107	0.11006794	-0.49550575	-0.07682047	0.20677617	-0.18646924	0.42152685	-1.0726532	0.35630843
care	0.31900442	-1.0303586	0.6947936	-0.7457867	0.6907377	-0.678172	-1.1236372	0.8097371	0.018978924	0.70543164	-0.29903138	-0.42674553	-0.27525142	0.040936492	1.08059	0.12853558	0.58967435	-0.228142	0.70490867	-1.2377214	-0.5213516	-0.014485672	0.05805508	-0.6955483	0.29731616	-1.0974298	-0.48496577	-0.7115637	-1.6343595	-0.109546155	-0.2902975	-0.97809327	-0.82969767	-0.5491921	-0.45857775	0.24617717	-0.5518759	-0.22529876	0.40015242	-0.8473079	-0.30821952	-0.69884586	-0.27710852	-0.18460718	0.4374643	0.5872482	0.79756045	0.103366464	-1.2138143	0.81168675
knew	0.7597817	-0.11947723	1.2135799	-0.6662527	0.16841614	-0.42123803	-0.5468832	0.61405146	0.7863891	0.26229554	0.2733998	-0.7787248	0.42131037	0.73254794	0.1297802	0.32991973	0.9063456	0.5320638	0.6345255	-0.44052	1.4550632	-0.9003196	-0.33393812	-0.76871353	0.46119916	-0.09106043	-0.60378623	0.024224423	-0.17517185	-0.076298565	-0.23494452	0.27868775	-0.58902156	-0.7897718	-0.050440352	-0.28783745	-0.41685593	-0.79284316	0.68027556	-1.4557548	-0.83405083	-0.6175966	-0.34977	-0.7169069	0.7903737	0.47721827	0.7453034	0.18762282	-0.590479	1.3518128
#updat	-0.146649	-0.78624487	0.13759345	-0.32910913	0.28922474	0.40669942	-0.96245253	0.45515922	0.6844914	-0.35052615	-0.5080631	0.30109712	-0.52482915	1.3810761	-0.44958603	0.17993678	0.49040627	-1.5856433	0.8713456	0.5507705	-0.3933301	-0.44457644	1.2015008	-0.56721586	0.14523496	-0.6575244	-1.2707613	0.0601352	0.6941197	0.011205465	-0.6027987	0.9597081	0.95726776	-0.6954931	0.012397364	-1.6060545	-0.4879494	1.3981749	-0.643143	-0.20492376	-0.80777395	0.11650619	-1.5920687	0.10877843	-0.8983593	-0.18067294	0.43591836	0.9684887	-0.76548713	0.17069829
process	-0.30468076	-1.4971092	0.009730563	0.08266297	0.99517715	0.28711563	-0.13744459	0.9973117	0.28700355	0.25665298	-0.5657477	-0.253886	-0.14879817	0.4796639	0.09086022	-1.2512424	0.11642393	0.3316976	0.73721457	-1.0487878	0.80352676	-0.19347094	0.5736254	0.13216642	0.48529863	0.27759475	-0.4518441	-0.30341494	-0.49224317	0.52127147	0.58762765	0.2573454	-1.4156735	-0.4530527	0.9605713	-0.045863505	0.4118089	0.25270763	-0.0727814	0.8808855	-0.37745863	-1.346283	-0.6694919	-0.107830815	0.75650513	1.4783287	0.11388072	0.21053734	-0.84916776	0.049335018
through	-0.30357945	-1.490777	0.05993269	-0.5453436	0.5611979	-0.20729166	-0.70041776	0.67130756	-0.5240022	1.082602	-0.30485272	-0.8253127	-0.9981444	0.31200817	-0.19100842	0.15855011	0.06219164	0.0074247792	0.6625369	-0.60646963	1.3178117	0.29234922	0.45898348	-0.81323564	0.057529923	-0.22723147	-0.1813	-0.44170743	-0.20076361	-0.13986191	-0.2987814	-1.0337713	-0.5106163	-0.5151576	0.3641618	-0.52138686	0.49971646	-0.04214096	0.52322274	-0.5367555	-1.0983739	-0.78042614	-0.5520592	-1.0749389	0.3626063	1.7819583	0.6229013	0.3781116	-0.7792728	0.8687819
secret	0.15139909	0.35694176	-0.08235478	0.45906523	0.8868996	1.4843429	-2.3544338	0.4548533	0.21441928	-0.4334912	0.8805761	-0.5276718	0.094757855	0.7755752	-0.49621034	0.3983458	0.59879863	1.1203388	0.80370903	-0.19161227	0.6311133	-0.34743556	-0.17022555	0.33943477	0.5864794	-0.09456447	-2.0799785	-0.71752644	-1.3231469	0.18537539	0.024152808	0.9428972	0.36890873	-1.3890785	0.37332383	0.64604914	-0.859337	0.034256995	0.71351653	-0.5445323	-0.782724	-1.0006263	0.23055005	-0.88831365	-0.14822032	-0.065824114	0.92849106	0.40990558	0.25269017	0.7113285
opinion	0.2241155	-0.6408272	1.8673141	-0.62808114	0.79845697	-0.043264102	-0.68597615	1.4331656	-0.34067592	1.55396	1.099066	-0.4877429	-0.114827245	-0.8671299	0.14789909	-0.25697368	0.41511703	0.13325292	0.41915646	-0.09267546	0.27566034	-0.044635206	0.22996217	-0.10202511	-0.47701702	-1.0230795	-0.34141886	-1.9023871	-0.04045114	0.39125842	0.4470469	-1.3362406	-0.29094672	0.66298395	-0.110973746	-0.014482137	0.5974009	0.7852651	0.3933564	-0.76298577	-0.11076605	0.35045588	-0.48222375	0.19688022	1.4595468	0.7922944	-0.18311223	-0.11363751	-0.8624518	-0.2349221
newtown	-0.58801275	-0.7139188	0.036795825	0.32763433	0.46321335	-1.351301	-1.3775347	0.5119405	0.886104	0.2908801	0.9082307	0.10047071	0.7831924	0.05371569	0.8232299	0.36272416	0.8699467	-0.21487892	-0.15485425	-0.6651398	-0.36745644	-1.7952697	0.18647394	0.13236885	0.36006773	-0.7683679	-0.6454321	-0.25303757	-0.4593909	0.47398388	-0.41163185	-0.40952554	0.84977305	0.07091548	-1.0848742	-0.44748676	0.36641723	-1.2570945	0.64097303	0.406743	-0.6504617	-0.97752917	-0.88908553	-0.29839477	0.8264921	-0.0008376045	-0.68800235	-0.32998976	-0.17084299	-0.35837573
wouldn	-0.066674426	-0.45334512	1.0167781	-0.7807766	0.8552082	-0.9004464	-0.75156534	0.14285137	0.06188897	0.6279594	-0.07133266	-0.50569665	-0.1499736	-0.009947896	0.4344527	-0.6471017	0.8683006	0.32218105	0.61986524	-0.8260923	0.5803261	-0.15954563	-0.018377826	-0.50055814	-0.027336596	-0.22796354	-0.57318014	-0.64466417	-0.02493166	-0.5712019	-0.5083144	-0.3767928	-1.0738642	-0.9295157	-0.23178482	-0.11267815	-0.7633946	-1.0453427	0.5903068	-0.017637327	-0.9272851	-0.9032223	0.66281354	-0.92146826	0.7955166	1.0019695	0.5492711	0.09777897	-0.71937776	0.30457512
here	-0.04228728	-0.9555321	1.03051	-0.32376042	0.68484867	0.004122192	-1.0742139	0.51082855	-0.4580819	0.46027896	-0.057304427	-0.7761633	-0.59086764	0.6237713	0.5265545	0.101172216	0.7294978	-0.07419755	1.003092	-0.52031827	0.31622723	-0.2805953	0.5551532	-1.2308453	-0.30266786	-0.64489007	-1.0596049	-0.80182284	-1.0480318	0.2951824	-0.01382534	-0.56153685	-0.35842735	0.17085873	-0.09661476	-0.52625376	0.079145215	-0.19140378	1.0062857	-1.1905137	-0.68065464	-1.0260664	-0.35395378	-1.1832502	0.5486033	0.3944993	0.957331	-0.34874147	-0.9608964	0.74384856
politician	0.11464655	-0.7834858	-0.041629054	-1.2359079	0.70565534	0.14939275	-0.88237005	0.42060035	-0.20641604	1.3095183	-0.2785922	-0.8881411	-0.4569577	-0.54772735	0.86400115	-0.4008765	0.5469268	-0.71839696	0.52152646	-0.86257756	-1.0127152	-0.95846665	0.6564943	-0.55946124	0.3177137	-0.98656154	-0.24051939	0.16244149	-1.1893206	-0.14290074	-0.14322011	0.5409115	-0.26336855	-0.02079399	-0.30600345	1.2316782	0.8187691	-0.70358884	0.38100603	-1.2321037	-0.99486476	-0.003585048	-0.07630755	-0.72272	1.0556709	0.32436913	0.21374986	0.25834334	-1.0615733	0.70986974
louisiana	-0.36430588	-0.40040678	1.1162715	-0.9387243	0.7791016	0.86280036	-0.10413457	0.14754331	0.36583778	-1.0473838	-2.132195	-0.62249166	-0.36259627	1.6353204	-0.27963257	-0.40921086	0.44166195	0.3874713	-1.0169532	-0.14815372	-1.3560038	-1.173561	1.5497687	-0.54531026	0.48450506	-0.071115255	-0.6618088	-0.6658172	0.90543365	-0.97626376	1.6891334	0.050327465	-0.7591696	-0.25522345	-0.66813123	-1.244576	-0.021982964	0.30060184	0.5569232	-1.8535991	0.012663037	0.11447703	-0.7942785	-1.0088798	-0.52750206	0.8355732	-0.11851747	-0.6102147	-0.31234264	-0.113676354
fair	0.1068736	-0.47010934	0.4386143	-0.3267262	0.6463305	-0.5360668	-0.96689606	1.0585353	0.6867479	1.2320282	-0.16139358	0.054959655	0.36363432	0.14028525	-0.12112296	-0.3791594	1.2791915	-0.20251952	-0.4177695	0.15133913	-0.21013011	0.32563555	0.27728423	0.6247914	0.4061336	-1.2292938	-0.6916671	-1.0164146	-0.6971224	0.19322436	-0.71157295	-0.5583089	-0.8835728	-0.45656058	-0.11553027	-0.52717763	-0.17821866	0.33803135	0.7732614	-0.9607779	-0.5736291	-0.9468148	-0.20474459	0.46837398	-0.0037733084	0.12622029	-0.11132644	-0.061323345	-0.5097813	-0.7117697
shop	-1.3059648	-1.569704	-0.04506439	0.3683357	1.0931562	0.42539537	-0.8176265	0.19232512	-1.6647413	-0.7978662	0.114503354	0.016321063	1.0387255	0.8225883	0.19662172	-0.23991436	0.8663876	-0.15581273	-0.8658193	-0.8276258	0.058028877	-1.1086205	-0.27973047	-0.3120149	-0.009436509	-0.8050308	0.33186367	-0.85988605	-1.7781307	-0.3443049	-0.5253	-0.22234868	0.07066062	-0.6479076	0.24689645	-1.0293683	-0.21137643	0.8096268	0.54258657	-1.4380577	-1.0837162	0.35468057	0.25220323	-1.3724577	-0.076769866	0.6356913	0.30853534	0.050275233	-1.7746744	-0.33226606
those	0.2764786	-0.74826694	0.15046762	-1.0504894	0.51079476	-0.7974955	-0.94786	0.58940375	-0.09258591	0.7619741	-0.9495723	-0.8699039	-0.90686345	0.31127524	0.31258214	-0.61071813	0.842142	0.8903221	1.0047313	-1.1099186	-0.05925043	-0.36973473	0.8674702	-0.68559134	0.19073555	-1.0465297	-0.9880419	-1.058244	-1.029129	0.8012378	-0.5772431	-1.0362189	-0.26666725	-0.26787513	-0.12017378	-0.44294718	0.31654832	-0.76987946	1.4243457	-0.84133875	-0.6462947	-0.8029497	-1.3385236	-0.95669657	0.5234355	1.2869905	0.99627644	0.83332884	-0.86861104	1.0712206
control	-0.7291792	-0.94725525	0.77472603	-1.3732011	1.2316597	0.05265323	-0.8374699	0.7246587	0.02648984	1.1881609	0.50848895	-0.7475446	-0.9341178	0.04815536	1.2426741	-0.19960366	0.88242424	-0.08319285	0.9809133	-0.60149205	-0.37876055	-1.0864818	0.72322875	-1.3100652	0.7744969	-0.60758406	-1.2043085	-1.2747467	-0.7264825	0.39515024	-0.30275756	-0.32411146	-1.0675535	-0.22530693	-0.6487782	0.5384623	0.4258727	-0.8441458	0.78144765	-0.5889333	-1.1558566	-0.40656877	-0.20624009	-0.26693833	1.0851392	0.90189457	0.75531447	-0.4128268	-1.3600467	0.662781
hood	-0.73755515	0.5625211	0.51517415	-0.2988077	-0.017613232	-0.65397185	0.6207011	1.0266472	0.26140878	0.26809114	-0.7660879	-0.3088717	0.19923404	-0.12675901	0.26160073	1.4220788	0.88523436	0.30904314	0.39851552	-0.6015942	0.15324241	-1.3992876	-0.11438947	-0.046977174	0.07705493	0.19673479	-0.20271724	-1.1649116	-0.1378431	0.4623003	-1.1969879	0.20695351	0.7783447	0.73273224	-0.31802613	-1.2407184	-0.9246836	-1.821831	0.67744815	-0.0453092	-0.4595994	-1.0516893	-1.2924502	-0.8905899	0.4728178	-0.012954969	0.38735467	0.28724235	-0.49087366	-1.1753786
band	-0.33630067	-0.5827852	-0.47351265	-0.25225145	-0.091008514	-1.0930471	-0.59016705	1.3173616	-0.6128573	0.5180161	0.8208891	0.23228626	0.0312137	1.3403771	-0.51900005	-0.3108856	-0.5303554	-0.92719275	0.30865794	0.25394595	1.0084047	0.16776572	-0.37184957	-1.6777143	0.020415362	-0.9005618	-0.78928185	-0.63711375	0.7816676	1.0034645	-0.109396465	-0.33150184	0.10120669	0.5745275	-0.20997557	0.31646693	0.46029347	-0.5303284	1.5473275	-1.8153018	0.4336855	-0.29892293	-0.4757539	-0.1545634	0.9105011	-1.5618026	-0.2573269	0.25527304	0.27662358	0.0017809272
israel	-0.6282126	-0.039062053	0.4656921	-0.65066445	0.7498942	-0.3682191	-0.98499	0.95184284	1.3547215	0.3306052	-0.22679856	-1.1832322	0.51899815	-0.17678934	-0.4579183	-0.3171033	0.3805254	-0.03834766	0.9687489	0.50432825	0.2838066	-0.75390583	-0.398913	-1.0658414	0.65509784	-0.55648124	-0.24759263	-1.7644958	-0.14373703	-0.3423553	0.40633002	1.5570164	-0.022640124	-0.23019177	0.044143338	0.83992636	0.27435106	-0.007900238	-0.5332224	-0.98185223	0.24857262	-1.0943332	-1.1979069	-0.97117317	1.7740321	-0.1088225	0.43726745	0.55907756	0.29961598	0.19726214
#christian	-0.48986167	0.06444267	0.16367026	0.13335475	-0.54422915	0.04066883	-0.96684355	-0.05012542	1.1981204	0.6228295	-1.576375	-0.16040322	0.39930654	0.32436326	0.27783763	-0.33551836	1.0740464	-1.0046195	1.3513391	0.30356807	-0.08418879	0.35430124	-0.2904206	-0.58490074	-0.6505542	-0.18977258	-1.3238925	0.22851709	-0.28262103	0.37534726	-1.1790934	-0.34140572	0.1506913	0.84979975	0.17313522	0.5327691	-1.6878448	-0.15794152	0.4333705	-1.007338	0.048291698	1.3513458	0.4042184	-1.0199728	0.76425564	0.24493629	-0.9323264	0.69165254	-1.4253001	-0.7979711
million	0.48716027	-1.0059695	0.78666395	0.48343307	0.06683892	-0.11000413	-1.2309248	0.59808373	-1.48067	0.22092296	-0.112759076	-0.18335834	-0.22091293	-0.09979941	0.5124041	-0.6050241	0.010314206	-0.5662747	0.34997508	-0.6084324	-1.4881504	-0.22761834	0.1682917	-0.36904544	-0.0699173	-0.055439364	-1.0060581	0.16149506	-1.110246	0.38664356	-0.8722205	-0.13306394	-0.638077	-1.1557399	0.5317505	0.8258043	-0.004496418	0.3805161	0.5077908	-0.79158294	-1.022352	-1.0974681	-0.72319865	-0.49284798	1.0619977	0.9853412	1.2946559	0.64495564	-0.5600564	-0.30099016
where	-0.31263787	-0.96644366	0.899992	-0.6139794	0.78631926	0.081194855	-1.0000566	1.3164421	-0.37102157	0.32749864	-0.40454438	-0.8007702	-0.5123241	0.8680614	0.4649478	0.14745972	0.73172665	0.19187939	1.0795987	-0.60133934	0.09538459	-0.42231548	0.1162674	-0.94762707	-0.121875666	-0.9563823	-0.8638808	-0.7496128	-1.5366616	-0.4821455	0.3003567	-0.36914137	-0.33751616	-0.36403608	0.07372049	-1.1061072	-0.12215059	-0.646948	0.71706516	-0.9652116	-0.5299883	-0.9120878	-0.4035377	-0.873974	1.0655054	0.89749455	0.74839354	-0.04918891	-0.7616533	0.7267849
set	0.16998972	-0.96522856	0.84535694	-0.21935315	0.0019384325	0.15067127	-0.6961894	0.5377185	-1.1695726	0.29108602	0.06539454	-0.99075884	-0.94797194	0.86500055	-0.86278206	-0.2554637	0.1769462	-0.3391684	0.5074528	-1.4206612	0.065788776	0.06627141	-0.07129732	-0.6160153	-0.4073059	-0.20011653	-0.62498534	-0.4532404	-0.24653284	0.17773607	0.117536426	0.2782606	-0.933405	-0.6801222	0.92023915	0.062138923	0.07081602	0.14080435	1.1137881	-0.6204487	-0.73365164	-1.400415	-0.6210997	-0.11742725	0.67193055	0.37831482	0.81787944	0.4955101	-0.7793019	-0.27131426
peep	0.32725126	-0.08517912	0.027655363	0.20436943	0.13185278	-0.31840682	-0.6910043	1.7666912	-0.7374294	0.12790549	0.023738354	1.0325525	0.1471487	0.7712954	-0.60843885	0.3647982	1.4458041	0.003937632	1.4962509	-0.2677078	-0.6509423	-1.6692226	-0.38950145	-0.4959447	-0.45136204	-0.115201406	-0.7436867	0.2536677	-0.9306152	-0.4152455	-0.028452985	-0.72595465	-0.42584842	0.7715167	0.012066446	-0.6618103	-1.3493743	0.60241014	0.028315175	0.049126923	0.6576101	0.0555553	-0.34016427	-0.031001449	0.013314158	0.22463301	-0.65823984	-0.22424	-0.79302967	-0.17746192
place	-0.6400645	-1.1008749	0.72806686	-0.8786796	0.13725348	0.30418134	-0.71942997	1.4125235	0.05506516	0.0227509	-0.22294506	-1.143957	-0.07610637	0.48476756	0.39645767	-0.042582877	1.0512199	1.1364745	1.2375419	-0.7854939	0.10429926	-0.14581183	-0.0069419965	-0.4893822	-0.51012975	-1.1041642	-0.63012457	-0.7879361	-0.99310994	-0.3792008	-0.11128375	-0.6590148	-0.5835248	-0.44775462	0.23688582	-1.0777481	0.5808973	-0.5886223	0.7819034	-0.74322724	-0.6116748	-0.7099798	-0.26766086	-0.7994137	0.6292652	0.45147794	1.2525575	0.14524324	-0.85795474	0.53336155
free	-0.581571	0.16718042	0.21869458	-0.770639	0.49683514	0.1314862	-0.6700127	1.5332985	-0.6284009	0.31925285	-0.23353407	-1.0608385	-0.14480469	-0.33675182	0.14010984	-0.021479309	2.2008953	0.53163236	0.07948207	-1.2991022	-0.07342534	-0.37460312	-0.54455507	0.0037673041	-0.33550495	-0.5829318	-1.0676999	-1.696832	-0.821861	-0.3455776	-0.07223843	-0.8365458	0.15155351	-1.1004177	0.2274992	-0.37619933	-0.073213026	-1.4466394	0.915694	-0.69948024	-0.42815942	-0.74079454	0.5688859	-0.8804325	0.77920765	0.48971748	1.2354698	0.3214255	-1.4116175	-0.58136696
vet	-0.9438597	0.05967249	0.12459047	-0.07944243	-0.3861385	-0.7123171	-0.764761	0.26841807	-0.25187263	0.2539556	-0.0021849647	0.34893656	-0.19142269	1.4306655	0.6000596	-0.31705448	-0.4918988	-0.24691623	0.69291615	-0.9598128	0.5268841	0.0021751672	0.74498785	-1.3217013	0.17357409	0.66537946	0.25591642	-1.7228131	-0.8510379	1.2186964	0.5655445	-0.81579053	-1.2037191	-0.49308276	0.76383233	-0.22292909	-1.2797952	-0.9069202	-0.36340028	0.18231946	-0.5825529	-0.43737385	-0.31494826	-0.008602887	0.3122874	0.7343941	0.10314628	0.2133443	-1.5711191	-0.076014414
isi	0.19148369	0.3500806	1.26313	-0.5136656	-0.39653742	-0.35751557	-0.8901577	0.10768045	0.09460471	-0.15478244	-0.33856457	-0.5544376	-0.6952522	-0.018619865	1.0486809	1.5228484	0.92659885	-0.3527974	0.5715989	-0.11269928	-0.15055221	0.24210556	0.5178772	-0.89590746	0.16443408	-0.95291907	-1.1792107	-0.6621848	-1.0810454	1.76214	0.33873895	1.3497652	-1.4270606	0.34468812	0.6742619	-0.9757604	-0.9520074	-0.35424107	0.39589828	-0.37036687	-1.0596619	0.004723817	0.18971685	-1.5211849	1.4392594	0.56112766	1.1960876	-0.2499623	-0.6559922	-0.4156024
faculti	1.2566901	-0.546297	-0.99446416	-1.0564606	-0.5310948	-0.61480564	-0.8300636	0.8628915	0.59425753	0.43790537	-0.7160245	0.4220204	0.020896584	0.28222916	-0.9964318	-0.67910224	0.0054867566	0.58075535	1.2487504	-0.22126912	0.7073812	-0.52214783	0.20367625	-1.0125921	-0.032333523	0.1401682	0.58755314	-1.4059452	0.1590089	-0.99377906	-0.6176603	-1.433829	1.0784767	0.40394646	0.77334934	0.6226301	2.0205998	-0.5789558	0.034727328	0.16268054	-0.36686176	-0.7189378	-1.5942516	-0.45921186	0.18031202	0.715866	0.71256405	-0.061974924	-1.044923	-0.27395192
jewish	0.3430264	-0.578058	0.6983192	0.78324276	-1.3369579	-0.5382218	-1.8333064	1.6019493	0.38092995	-0.07918112	0.46516877	-1.0181077	-0.8039687	-0.9995147	-1.5228944	-1.5234344	1.8180892	0.47774234	1.196064	-0.072344035	0.34729254	-0.18445574	0.6244306	-0.94964355	-0.062457547	-0.8747572	0.44008583	-1.1985009	-0.9149878	0.46867716	1.4131308	-0.3107173	1.2016788	0.8331834	-0.5354599	0.16337796	-0.05036955	0.5409064	-1.3915873	-2.0469825	-1.1157777	-0.47076046	-1.6717634	-1.1783607	0.93199825	-0.1512082	0.338153	1.264185	-0.9586263	-0.4252054
tribut	-1.0324292	-0.57616407	-0.5620315	-0.3232885	0.7055358	0.24432406	-1.3016897	-0.72729003	-0.8817022	0.37396482	-0.8537595	-1.9784298	0.040321022	-0.39504912	-1.323568	-0.29159695	-0.30190483	-1.100033	-0.1848227	-0.9038117	0.6261345	-0.21049508	-0.34205273	0.3890766	1.1001832	-0.38438243	-0.690573	0.13966179	-0.75902915	2.0614977	0.7005574	-0.30560035	-0.1677993	-0.1748876	0.07755176	0.54713416	0.39269102	0.7566287	1.8033793	-1.3771477	-0.20100182	-1.207422	-1.3577266	-2.028342	-0.048579216	-0.32689357	0.0074195713	-0.11050244	0.7408568	0.50457084
anti	-0.26520035	-0.6863587	0.94009435	-0.3038858	-0.99511886	0.7997562	-1.2772152	1.453787	-0.14607102	-0.0894248	1.0147244	-1.098055	-0.39256045	-0.7061722	-0.07530391	-1.0345199	0.84620106	-0.2968134	0.4790573	-0.6061788	0.12181389	-0.79488266	0.95920527	-1.0048945	0.098446906	-0.8577937	-1.6259681	-1.4526198	-1.1634284	-0.18229689	1.1005435	0.6498081	-0.029843882	0.7291807	-0.1980778	0.6902709	-1.1095167	0.43154937	0.7685809	-0.46066082	-1.0233625	-0.029555976	-0.51476634	-0.720785	0.75068486	0.031701613	0.6659179	0.63290274	-1.1821147	1.0002208
access	-0.6433643	-0.98611826	0.643372	-0.53200376	0.40753356	0.66750115	-0.22718966	0.19897838	-0.21088775	0.21325289	-0.16964449	-0.3241203	1.0696182	0.14066717	1.5638291	0.54346687	0.837347	0.23985763	1.1755166	-0.97643113	0.43117094	-0.19628654	1.1679876	-0.15231723	-0.34046394	-0.76194954	-0.7962791	-0.8645903	-1.2653228	-0.0016524699	-1.0505021	-0.8516457	-0.30492288	-1.4074168	0.38499317	0.6494968	0.21897276	-0.6697064	1.3634732	-0.50069016	-0.9376489	-0.15210111	0.42959222	-0.013633728	-0.01361246	0.80128974	0.3976833	0.4455412	-0.2550276	0.21083432
owner	-0.34961978	-0.10016955	0.40304574	-0.27671948	0.3947568	-0.28168565	-1.1999421	0.9464289	-0.9449925	-0.6903166	0.54845756	-0.61051154	0.6852087	0.35491097	0.8417771	-0.6277586	0.7760056	0.24300635	1.1130627	-1.0320622	0.1348306	-0.9832703	0.0016584545	-0.53092486	0.6596116	-0.95409536	-0.46077	-0.539827	-1.0736077	-0.29730657	-0.51809186	-0.28236014	-0.21840662	-0.73158014	0.18595709	0.6664531	-0.16887392	-0.53309995	0.7022881	-0.5458667	-0.69782835	0.25062153	0.6666608	-0.65917003	0.71916413	1.6362809	0.97199774	0.86320055	-1.1119831	-0.118657544
vs	-0.6572899	-0.47128904	0.23674013	0.46317297	-0.044285893	0.37994623	-0.13802947	0.42818788	-0.049827572	0.24313332	-0.33890733	-1.5468116	-0.065693706	-0.4641818	0.6109072	-0.20942204	0.8047562	-0.8437532	0.6416224	-1.0150919	-0.39690766	-0.26226994	0.64367765	-0.6861257	0.9257134	-1.1852604	0.24743411	-1.0356374	-0.6852943	-0.32378274	-0.25510767	-0.09710094	-1.064585	0.78037333	0.36364153	-0.14363442	-0.8577549	-0.0065225363	0.92873424	0.34566805	-0.34354573	-1.3381621	-0.4237752	-0.39979738	0.5643166	0.19277242	0.042695537	-0.49022946	0.44761646	-0.22950931
propaganda	0.7440429	-0.7062046	-0.39560902	-0.59891534	-0.3487836	0.47609416	-0.8065711	0.28953132	-0.62319064	1.1401312	0.68593955	-0.11834121	-0.28006634	-0.7064244	-0.24793756	0.81706333	0.79324436	-0.9031105	-0.24298939	-0.46640748	-0.0030653775	-0.6954979	0.979981	-1.5608447	0.031694993	-0.074509725	-0.84713507	-0.7776203	-0.7041712	0.027314361	0.3818322	0.8831494	-0.11742768	0.6821677	0.11620647	0.18536125	-0.7382922	0.24938041	1.3615304	0.3115723	0.038672842	0.66622484	0.018861242	-1.1973735	0.7804829	0.577543	0.60329163	0.6311711	-0.66170603	-0.6841715
off	-0.018010035	-0.7318021	0.4886738	-0.7607329	0.8725122	-0.38035807	-0.22615881	1.0227722	-1.184374	0.8480452	0.13299069	-0.9686617	-0.90754724	1.0571254	0.37713102	0.3097367	0.40982538	-0.13834248	1.0327654	-1.0569217	0.61880237	-0.1467555	0.9224714	-0.75087225	0.09009938	-0.88983333	-0.7178378	0.05054293	-0.4757793	-0.4799111	-0.08435568	0.25766665	-0.73142916	-0.18795839	0.48777312	-0.44887167	-0.29316947	-0.47141206	0.94521147	-1.0748	-0.6110336	-0.6628404	-0.69980025	-0.25243866	1.0454682	0.35324788	1.0478593	0.28304246	-0.7047974	0.37202704
confer	-0.010493826	-1.4401649	0.8458641	-1.3300002	1.2467489	0.77402925	-0.53564787	0.96171975	0.5464295	-0.5995198	-0.88383955	-1.0204767	-1.1334854	2.2836342	-0.8463617	0.7802875	1.4605	-0.42058656	0.91466653	0.26481214	-0.2131045	-0.09341963	0.38592547	0.4282617	-0.12925203	-0.49679202	-0.46460629	0.23067579	0.045284823	0.38156515	1.4981465	0.048713963	0.000150159	0.57938105	-0.7611282	0.19341427	0.28704828	0.07194176	0.9985517	-0.0383813	-0.591573	-0.82839376	0.8460791	0.40246034	0.67752045	0.41109213	0.8368242	0.41141325	-0.42334685	-0.21293949
sens	-0.2981155	-0.5711133	0.9029359	-1.4704657	0.120216414	-0.0102846585	-0.7099302	0.29665703	-0.40521196	0.24168433	0.44175887	-0.9261766	-0.97699314	0.24491869	0.8716199	-0.19703735	0.76058733	0.2009755	0.81207407	-0.5754819	-0.65933645	-0.3246085	0.6475129	-0.42353892	0.17955601	-0.63894844	-1.4020864	-1.1088986	-0.76705384	-0.14794138	-0.33367926	-0.53426826	-0.74166155	0.02976831	-0.2816807	0.83619386	0.84195924	-0.8389292	0.4052593	-0.60824186	-0.5960574	-0.21068531	0.16037671	-1.731515e-05	0.814144	0.95430636	-0.04239075	-0.21233797	-0.63651603	0.55550385
old	0.27721235	-1.4762969	0.91657877	-0.015740491	0.2207317	0.03480443	-0.2560882	0.8642466	-0.6894829	-0.019779555	-0.057185255	-0.72556096	-0.06649105	1.8076584	0.16175327	-0.23691912	0.50213736	-0.916252	0.8289534	-0.53033984	0.50373954	-0.6271506	1.077274	-1.185241	0.33117127	-0.31693226	-1.3631432	-0.82033384	-0.5806626	0.17622355	-0.398149	-1.0155818	0.43270764	-1.1623974	-0.7069565	-0.5549654	-0.5578431	-0.033242434	0.23819998	-1.0321999	-0.8627597	-0.22944798	-0.9309373	-0.40382576	1.2108533	0.4881553	0.9070544	-0.295518	0.16505474	1.5036223
afraid	-0.3977548	-0.5290046	0.7292383	-0.79792607	0.617961	0.30455709	-0.8533685	0.2867115	-0.047228545	0.97569096	-0.18644461	0.012564503	0.14285702	0.79801655	0.41703054	0.04528927	1.0169785	0.74817115	0.06531903	-0.47583735	0.36642644	-0.2842769	0.17045735	-1.4374077	-0.30755207	-0.18416366	-0.72301733	-0.09646249	-1.6489894	-0.5494328	-1.0854949	-0.8087739	-0.8920647	0.26242733	0.23381138	0.123752415	-0.29745638	-0.64403564	-0.8462964	-0.4032445	-0.45182434	0.555316	-0.4655837	-1.6262139	0.43701303	-0.021902094	-0.032080084	-0.31900346	-0.12031222	-0.029506743
hrs	-0.2919169	-0.24617288	0.13197327	0.87297624	0.6655268	-0.18673483	-0.44093755	0.40940407	-0.08537229	0.402688	-0.36707678	0.5878118	0.5617171	0.59305346	0.4604939	0.13601401	0.35888648	-0.49270138	1.3632853	0.04342179	-0.69731915	-1.3601636	-0.30728632	0.43157277	0.1247561	0.484605	-0.066311754	0.5868499	0.4080884	-0.2649148	1.0516958	0.623144	-0.54742455	0.7204282	0.6209451	-0.9185411	-0.43855175	0.23047757	0.8469225	-1.3743732	-0.2739513	-1.5237796	-0.05646985	-0.27561572	0.79548246	-0.0463773	0.031223327	0.043468434	-0.9786247	0.4122696
plenti	-0.12557428	-0.4200567	0.0040397495	0.29318887	-0.18661796	-0.17397562	-0.82016665	0.57170653	0.11667539	1.1005845	-0.22555947	0.28655794	-0.10347852	0.89178896	0.11195961	-0.4028477	0.66251516	-0.34651187	1.0849309	1.038578	0.395824	-0.44293097	0.23867987	-0.30936325	-0.73528326	0.28866452	-0.7231207	-1.2240052	-0.39362407	-0.6426099	-0.96607935	0.3126056	-0.19060308	-0.2150048	-0.25083414	0.047956124	0.10975331	-0.7865	1.757956	-1.6469665	1.2757437	-0.55449104	0.49126154	-0.31998104	0.008166428	0.55377537	-0.485101	0.3781253	-0.3764465	0.2109739
shootout	0.038771797	-0.6819064	-0.24904715	0.057625055	0.29402894	0.35119414	-0.4950379	0.16539308	0.2844232	-1.2623224	-0.6145768	-1.0307899	0.17906319	0.6800083	0.41028327	-0.76065385	0.9844922	-0.2866816	0.13564554	-0.7679367	0.66165674	0.47397947	1.1368253	-0.31627274	0.30441588	-1.5159998	-0.27409422	-1.1574146	-0.14527199	-0.2825586	-0.011355102	0.969419	-0.31144974	0.10849706	-0.18599832	-2.0540094	-0.6103228	-0.12452027	0.7224678	0.35184258	-1.1418304	-1.3042669	-0.6463302	0.06752223	0.6230469	0.061506867	-0.7752409	-0.9086547	-0.020311683	0.5156688
deceas	1.3878411	-0.8192527	-0.40522206	-0.9714335	0.3136248	-1.2343954	0.30591872	0.81004095	0.26573342	-0.63274795	-0.9005773	0.53314066	-0.15309809	1.2527665	-0.81304276	-0.27391186	-0.29828843	-0.6086638	0.1775976	-0.1470863	-0.71487945	-0.38825428	1.7227285	0.0572611	-0.3317922	-1.1809363	-1.1972879	-1.3737488	-0.18239722	0.99361277	0.35109228	0.09212307	1.0411576	-0.112055935	-0.8043518	-0.74472046	0.15696324	0.49173188	0.5284747	-1.1211028	-0.2102711	-0.7905031	-0.57040274	-0.4075156	-0.28110707	-0.1800929	0.13306767	0.6909393	0.2696238	0.6875546
tweet	0.56317985	-0.5791899	0.9999572	-0.50289446	0.7151617	-0.50319755	-0.60034597	0.9666488	0.112537235	0.6175863	-0.298829	-0.28884977	-1.0498916	-0.27305335	0.32175618	0.6057569	1.3216505	-0.09578663	1.0579541	-0.7529352	-0.42770147	-0.19815084	0.42565763	-0.9658363	-0.41212153	-0.7848288	-0.779045	0.30702174	-0.8303753	-0.11922422	0.72229874	-0.44773155	-0.4578759	-0.14994444	-0.23162326	0.02063993	-0.98732626	0.3921842	1.2368962	-0.5098571	0.021362834	-1.1755297	-0.5720539	-1.2170458	1.0669309	1.0676055	0.36242217	-1.3004632	-1.0620483	1.198047
dead	-0.49082673	-1.075677	0.6961487	-0.78332144	1.4838667	0.8714669	-0.79802334	1.1422458	0.2958178	-0.45924282	-1.045239	-0.65506345	-1.2502242	0.8993535	0.6168617	0.06584562	0.95340675	-0.8239851	0.5207374	-1.0795083	-0.467615	-0.9071882	1.3200405	-1.4042246	0.15191013	-1.242749	-0.71014607	-0.8704419	-0.33344316	0.5372276	-0.23942524	-0.32953802	0.7139816	-0.7549192	-0.706267	-1.8546085	-0.45650017	0.15064137	0.76963663	-1.0615616	-0.90953016	-0.4740336	-1.0554892	-0.7603506	0.7952045	0.3449021	1.3435268	-0.0947894	-1.0478802	0.92099386
g	-0.3502755	-0.06598952	0.18433625	0.64025676	0.71590596	-0.70722425	0.14533013	0.40606743	-0.7774943	0.22005066	-0.5841245	-1.3540165	-0.039490685	-0.32986084	0.078498006	-0.7994944	1.7865275	-0.6202776	1.2228701	-0.20168754	0.30896384	-0.58425766	0.6095636	0.8363146	-0.33882642	-0.28317365	-0.6594695	-1.510829	-0.045067053	0.3163192	0.13152151	0.16011454	-0.8561837	-0.074753255	-1.312814	0.17495793	-0.65647894	0.06420338	-0.28878516	-0.6497451	-0.35460424	-0.82195294	-0.7060267	-0.7480043	-0.89110124	0.13447069	-0.22343464	-0.00083148666	-0.20689856	-0.019519806
ani	0.37410602	-1.1323929	1.3535645	-0.8710421	0.76555467	-0.42805696	-0.75511414	0.9210932	0.22910449	0.48502028	-0.48969114	-0.30943757	-1.0958991	0.24884513	0.65413004	0.108296886	0.8493175	-0.21281591	0.7241287	-0.9810138	-0.020408701	-0.34767175	0.76695204	-0.4254581	-0.33532727	-1.1590993	-0.94677746	-0.79495156	-1.0664303	-0.29683873	-0.15221082	-0.51879543	-0.9597573	-0.39855328	0.23794118	-0.009993618	-0.17632899	-0.28990382	0.88547826	-0.5553367	-0.51939327	-0.6492028	0.33711934	-1.0392705	0.86972296	1.4541554	0.5395715	0.45088673	-0.87036824	0.495296
stricter	-0.8783851	-1.0225923	0.7000951	-1.3602308	0.6106155	-0.0024910383	-1.0003569	0.38418138	-0.13368249	-0.0031425357	1.3477947	0.672573	-0.6098954	0.032755807	1.116732	-0.6687733	0.4397363	0.81307346	0.9095861	-0.31128705	-1.0426928	-0.48156393	0.07870261	-0.8856981	0.36775705	0.05872675	-0.74219966	-0.8385892	0.31475425	0.09385173	-0.49641913	-0.8552416	-1.1721065	-0.5925771	-0.7564911	0.7628573	0.91365355	-0.5918597	0.08673802	0.003707665	-1.3506567	-0.48070413	-0.07589396	0.100903496	0.16289409	0.44816744	0.36821473	-0.35205722	-1.2079415	0.05994284
sever	-0.057039097	-0.25000483	1.011976	-0.4333176	0.91570795	1.0035433	-0.90382135	0.27790612	0.35125482	-0.37444913	-0.5353825	-0.6541977	-0.96669865	0.5302483	0.14230323	0.07054432	0.9525497	-0.6153692	1.2627072	-0.41545805	-0.20766357	-0.19229476	0.9079652	-0.7579919	0.35463926	-0.88779616	-0.22459131	-0.12878355	-0.049046718	-0.40842637	0.13709697	-0.45732176	1.1759418	-0.9626886	0.08359313	-1.5023952	0.008323088	0.6017206	0.7550111	-1.0965213	-0.71151537	-0.36108738	-0.60761005	-0.39940608	-0.021651857	0.9488984	0.9457431	0.2818351	-1.1036527	0.33882242
airport	0.46290568	0.7964947	-0.111296326	-0.28203577	1.8889284	0.2959412	-0.13697824	0.70711106	-0.22595271	-1.2692565	-1.573875	-0.70024455	-0.93451023	-0.8514067	0.15588766	1.1433842	1.5958369	0.15238455	1.1944871	-0.67251664	0.37774354	-0.7922139	0.11795201	-1.5453112	-0.275923	-0.1769684	-0.27242985	-0.3311601	0.15241332	-0.7420858	-1.5184472	-0.21287462	-0.13477689	0.265651	-0.6199445	-2.1890087	0.55033576	1.2071667	1.0538406	-1.0314887	-1.6467643	-0.994688	-1.1734266	-0.8446038	0.24133989	0.6724907	2.5115142	0.6350011	-0.91035306	-0.84502155
trend	0.41629148	-0.90106034	1.3209555	-0.41583383	-0.3585109	0.47021246	-1.1770284	1.1395315	-0.05247832	0.06875852	0.36395195	0.082003534	0.5106807	0.12799904	0.67744666	0.47426954	0.4186822	-0.494669	0.25432208	-1.0139003	-0.0708535	-0.56160545	-0.06778972	-1.311159	0.38818583	-0.35888508	-0.5762527	0.070888154	0.3414319	1.040807	-0.44843817	-0.910823	-0.6178063	1.0710571	0.3846556	-0.7987286	0.25357053	0.49838096	1.3540395	0.017434236	0.5585114	-1.3811468	-0.10924447	-0.28056583	0.34972954	0.117525905	0.89800286	-1.7652049	-1.0087621	0.4826651
support	0.15587154	-0.3877115	0.59119034	-0.97665536	-0.23357308	-0.6338565	-1.1955156	0.6867683	-0.8173503	0.33025363	-0.07897261	-0.21920195	-0.7738831	0.2537529	0.081958815	-0.4210146	1.0251241	-0.09776408	0.95906943	-1.3887284	-0.66718394	-0.0014163554	0.8202664	-1.0619655	0.05977595	-1.590278	-1.1694224	-0.9539195	-1.476726	0.29580736	0.27892464	0.038693637	-0.46160358	-0.068071336	0.07345748	0.926595	-0.22623846	-0.2762554	0.7762104	-0.6904983	-0.77975166	-0.48692513	-0.4273837	-1.5007589	0.6894176	0.63604087	0.7835895	-0.14578193	-0.7968129	0.53531504
book	0.40216058	-0.24249811	0.788882	1.0424333	-0.15601537	-0.26512408	-1.046871	1.7295597	-0.86443484	-0.35056388	0.16706073	-0.7997589	-0.20253351	0.41123587	0.02559027	0.25604087	0.5134657	-0.34601244	0.9935155	-0.25694078	0.22395107	-0.69127595	-0.20519403	-0.48723066	-0.91038656	-0.34710354	-0.30783916	-1.0240988	0.72397166	-0.06977111	0.12395814	-0.33049077	-0.8305385	-0.5482737	-0.55379444	0.004690961	0.6367951	0.10827932	0.9242274	-1.3145952	-0.11740584	-0.6369458	0.18436097	-0.2511447	1.0694562	0.6196145	0.5267292	0.85540056	-0.008595094	0.11260988
air	0.074347265	-0.70591086	0.03715819	0.18116704	0.6607029	0.7104882	-0.33134764	1.0192323	-0.5262457	0.58111984	-0.5386926	-1.4909623	0.27145576	1.9099936	-0.5009849	0.8024494	0.5271121	-0.309466	0.19625995	-1.4861456	0.3186169	-0.89478314	0.7437271	0.1701103	-0.48591298	0.35172212	0.79334676	-0.7081803	-0.36725885	0.63169277	0.7834601	-0.059169896	-0.25716466	-0.21670577	-0.5719625	-0.35107487	-0.36687776	-0.45442075	1.0477086	-0.562827	-0.2416083	-0.15954584	0.019838952	-0.3753381	0.37737235	1.9565537	1.4836087	-0.037401658	-0.53548276	-1.260042
push	-0.09369471	-0.4949972	0.31547877	-0.89761925	0.5039166	0.017998174	-0.607922	0.33804697	-0.07867533	1.1201562	1.0948782	-0.77958107	-0.718245	-0.62922245	0.300677	-0.110787116	0.63190335	-0.38900703	0.10526319	-1.4071932	0.26109827	-0.9941237	0.5517885	-1.4670604	1.2016866	-0.2893448	-1.0814002	-1.1922563	-0.34062016	-0.3374914	0.19683507	0.35761556	-0.51409006	0.26318902	0.15537654	0.7556024	-0.15666528	0.014911801	0.8369949	-0.019678373	-0.54604983	-0.39882937	-0.37863225	0.0165652	0.43928707	0.68931305	1.2795267	-0.017680129	-1.3371116	0.2912696
question	-0.076888666	-0.7785336	1.8917143	-0.41133717	1.0080012	0.054116365	-0.8901208	0.49989456	0.66038233	0.35572463	0.010524921	-0.7643812	-0.5139174	0.004366532	0.46096697	0.5805322	-0.13219643	-0.30655253	0.49028435	-0.36979508	0.32142326	-0.6220515	-0.25880024	-1.1829107	-0.43417215	-1.0085998	-0.29282874	-0.9922225	-0.632452	0.111297876	0.13829006	-0.49284518	-0.5393584	-0.7143971	0.458521	0.025007393	0.2086047	0.096996665	1.0320647	-0.5012992	-1.0207094	-0.19759768	0.56569606	-0.24598631	1.0747881	0.8920394	0.7653198	0.5987944	-0.58637774	0.16308323
#bluelivesmatt	0.53945583	0.613096	-0.7274048	-1.72225	0.464315	0.24281944	-1.5168359	0.35842675	-0.38505828	-0.22376436	-2.2972972	-0.029242128	-0.06657177	1.01351	0.120884895	-0.9166716	0.54809	0.6157713	-0.4146204	-0.61568916	-1.441225	-0.33596456	0.50769806	-0.84681225	0.8898406	-0.7376905	-0.6322637	-0.20149583	-0.09480247	-0.5937519	1.2440307	-0.009368226	-1.1615236	1.345617	0.12085688	-0.36037794	-1.1153504	-0.3620415	1.0367727	-1.2708867	0.15166518	0.12711748	0.012208819	0.30417305	0.26291764	0.25549325	-0.7904877	0.5668285	-0.9304478	1.1034449
healthcar	-0.54290736	-1.2776387	-0.6912187	-0.5931272	0.03345391	0.56186855	-0.64488506	-0.48367813	0.017126996	1.0928832	0.5367477	-0.06364472	1.0006536	0.6964216	0.68999183	0.19415018	0.34093577	-0.2707766	0.77732575	-0.9926743	-1.5970445	0.24020335	0.42397076	0.67094123	-0.35233375	0.054858804	-0.35740942	-0.643474	-1.7168299	0.7191583	-0.95400685	-1.3438365	-1.2494822	-1.0521137	0.13425615	0.5820228	-0.6469406	0.5828228	0.2658204	-0.6752129	-0.48129606	-0.26221752	-0.10070394	0.09732881	-0.46958464	-0.5471739	0.034497857	0.34202915	-0.6589442	-0.13083228
flight	-0.12205801	0.7020873	-0.9700186	0.25645453	1.3739293	-0.10370768	-0.21105471	1.1164412	-0.16799933	-0.3386389	-0.7668164	0.48667625	0.12256524	0.17406082	-1.2942924	0.20591521	1.4620163	0.76193833	0.534796	-1.3552418	-0.141891	-0.97263706	-0.9164686	0.36218816	-0.88883376	-0.41597253	-1.011512	-0.15928204	-1.138423	0.21521135	-0.38425124	-0.04583854	-0.61012733	-0.5662083	0.384674	-0.52903414	0.41596305	0.6575362	1.1992879	-1.201016	-0.40423483	-0.6275817	-0.7855605	-0.38202542	0.8985157	-0.37593016	0.67589635	-0.22242504	0.3194436	-1.4440529
concert	-1.9231832	-0.41926622	-0.5223769	-0.4005606	0.39839813	-0.088296264	-0.24293414	0.9818184	-0.47096276	-0.05406694	0.90644175	-0.31613594	-1.3536446	0.79806304	0.8662472	0.007336855	1.1155156	-0.68596613	0.75416374	-1.3111099	-0.49660838	-0.44335136	-0.23625657	0.11741362	-0.8118564	-1.0350673	-0.81740046	-0.42742267	-1.1739873	0.47100225	-0.576608	-1.0190731	-0.77100325	-0.8286542	0.12069058	-1.7907267	0.08297897	-0.32980263	0.686288	-0.5501462	-0.008117676	-0.12501986	-0.08137614	-1.6488221	-0.05415999	0.22755016	1.286931	0.8611578	0.70856476	0.56068385
crash	-0.278588	-0.81174386	-1.5721736	1.0177782	0.051754653	0.57775676	-0.96967024	0.99908787	-0.23935357	0.2727057	-0.63515925	0.53072184	-0.41189972	0.41933456	-0.047975123	-0.110681705	0.7216104	-0.2495637	1.2651331	-1.6124249	1.065315	0.7097444	1.1939888	-0.012333009	0.84527504	0.2929015	-0.4329564	0.21921635	-0.4080015	-0.45711264	-0.19667049	0.6402114	0.4194675	-0.52894247	0.4370346	-0.5700151	-0.09468983	0.48944095	0.301039	-0.6566018	0.6660996	-0.8981255	-1.6181538	-0.23300655	1.3362637	0.9264794	0.96325994	-0.75244087	-0.28131086	-0.36816147
within	0.03914988	-1.5695422	0.41723093	0.23623681	-0.21287541	-0.21137595	-0.30563283	0.20241159	0.07735742	0.1891981	0.25846067	-0.6004263	0.1894392	0.23780058	0.368515	0.026259772	0.608425	0.07983725	1.3231108	-0.11171945	-0.8153449	-0.82771105	-0.118483864	-0.98783696	-0.012005499	-0.47929913	-0.42621654	-0.41279316	0.5582314	-0.4725489	1.1457541	0.2507745	-0.38186753	-0.30213994	0.73211735	-1.2743559	0.3941408	-0.11445743	0.55265725	0.01479944	-1.0833952	-1.0971291	-0.08733707	-0.593462	0.8910236	0.58500904	0.6965211	0.26008672	-0.6767791	0.6717219
stephen	-0.5466178	0.03616085	0.86201453	0.58323663	0.23667327	-0.4148103	-0.8426423	0.3707599	0.45296064	-0.6086171	1.0128036	-1.2635105	-0.42295617	0.5765542	0.66232574	-0.10473273	-0.3317049	-0.961705	1.6043295	-0.6678697	0.32666755	-1.4827743	0.22414027	-0.68850565	-1.7176845	-0.6504869	-0.8186563	-0.35102445	0.29201877	1.7148966	0.61781394	0.21669066	-0.3075121	-0.37658662	0.5620937	-0.6474204	-1.041631	0.28181872	0.7841693	-1.3130875	-0.14332783	0.25161776	0.43299544	0.26671463	1.4192901	0.052759316	0.58486867	0.52952045	0.4805542	0.8852804
you	0.5479829	-1.3780792	1.0175983	-1.0401976	1.1088278	-0.5025812	-1.2281655	1.0959225	-0.4991342	1.2185334	-0.4408841	-1.082074	-1.2210985	0.49011394	0.83054733	0.22222455	1.2738876	-0.1830563	0.98757255	-1.2445781	-0.028482959	-0.6379019	0.6005603	-1.1852007	-0.25111908	-1.1945653	-1.2247033	-0.8337103	-1.2817674	-0.11662407	-0.244901	-0.9555941	-1.2755961	-0.4837783	-0.030220268	0.10669467	-0.7709656	-0.8941913	1.2623214	-1.1228917	-0.3957808	-0.74576515	-0.7168342	-1.3609889	1.2132711	0.9372437	0.7321537	-0.06393704	-1.1249257	0.87351245
hundr	-1.5554742	-1.0954785	0.6460962	0.42655185	0.53212	-0.22139601	-1.1094046	-0.16581199	-0.5137505	0.37234503	0.001545012	-0.11442922	-1.2010128	-0.0018149465	0.049131185	-1.6687133	-0.20956856	-1.1099495	0.9895965	-0.8249907	-0.6496959	0.23426385	-0.8640948	-0.83544135	0.063372806	-0.1772287	-1.0690655	0.052854337	-1.0026195	0.38583964	-0.0045657083	0.45686275	1.1687477	-0.4339063	0.12770772	-0.6329732	0.35124394	-0.4462722	0.4582914	-1.3300476	-0.33788538	-1.4431398	-0.45453143	-0.9597362	0.55643594	0.6636815	0.08376217	1.4634962	-0.8380312	0.008059084
injur	-0.31842232	-0.59653354	0.079725966	-0.6148616	0.97565	0.3479548	-0.5493247	0.74260104	0.68035245	-0.9670001	-1.1865301	-0.70370287	-1.4655595	0.7320629	0.34588102	-0.17556964	0.5670663	-0.4025966	0.86085546	-0.9017508	-0.70888406	-0.49114853	1.4937701	-0.9364805	0.19662733	-1.2521052	-0.79160845	-0.3642686	-0.47095877	0.56947005	-0.40951848	-0.79750025	0.95612454	-1.0921056	-0.20411167	-2.2466974	-0.018040095	0.75164914	0.8059631	-0.8094289	-0.5023833	-0.68985885	-1.514326	-0.7959032	0.19969556	0.61490464	0.7713841	0.63874656	-0.98430413	1.2383816
inform	1.2440407	-0.68808085	1.4591504	-0.4520905	0.7252169	-0.12453512	-0.4130386	0.46781185	0.5653639	0.32745832	-0.12846777	-0.58553755	-0.46496254	0.8616142	-0.36077008	1.0158768	1.1514158	-0.44717556	0.6088377	-1.1562593	0.0203415	-0.014487043	0.4951448	0.010462779	-0.55053335	-0.7874404	-1.0822568	-0.86956406	-0.3673346	0.47306	0.5454372	0.41847253	0.019824341	0.1387197	-0.005273588	-0.12789927	0.8958609	0.85684836	0.82393	-0.7220173	0.40272135	-1.0107303	0.28528678	-0.53533745	-0.13656247	0.78280246	0.85583097	0.6854876	-1.3809075	-0.23475789
wed	0.30174655	-1.2482729	0.020524777	0.8821791	-0.38410485	0.7083814	-0.85628706	2.257728	0.09224013	1.2500432	0.14524794	0.26009768	0.35214728	-0.53379977	0.56499094	0.5435122	0.30256397	-0.3890656	1.0147225	-1.2778518	0.3238091	0.45117366	0.014959455	-0.44350973	1.0306356	-0.49257874	-0.06873277	-0.11833964	-0.72868514	-0.32658884	0.33695173	-0.4980294	0.25902492	0.8406731	-0.9497474	-0.7187023	0.57855535	0.4675594	0.37252504	-0.70916134	0.32595804	-1.0830858	-0.70972323	0.24115783	1.1469803	-0.8477784	1.1628466	-0.18565667	-0.4636021	0.4637977
eight	0.013278373	-1.2705674	-0.19532159	0.040723383	-0.25898603	1.3234847	-0.713437	0.623084	1.2927103	-0.05190909	-0.9764126	-0.1426574	-0.013752088	0.2179633	0.6681066	-0.7048696	0.43923712	-1.2794607	1.09284	0.61464155	-0.60512626	0.11272466	1.4086059	-0.02466839	0.53616637	-0.6352427	0.3534284	-0.49950492	-0.008337947	-0.9810666	-0.3066127	0.17510861	1.8307036	-0.7825115	-0.6477391	-1.0573364	1.0894094	0.49950647	0.38516623	-0.9166107	-0.24408765	-0.28047472	-0.9435361	-1.2291348	1.0586433	-0.51389796	1.4725993	-0.593006	-0.60137457	0.98214114
motiv	0.09450886	-1.3718348	1.892192	-0.31056994	0.501677	0.39950705	-0.16088179	0.15221	1.7469234	0.70581394	-0.097777456	-0.47438216	-0.9767822	0.41413736	0.15188172	0.28848612	0.59195423	0.2804783	-0.2565667	-1.1825656	0.6500831	-0.35259753	0.9426009	-0.08389266	-0.5708761	-0.7815101	-1.5174196	-1.8479619	-0.10684827	0.9614744	-0.41697192	0.458201	-0.7130266	0.25527474	0.6189045	-0.61475646	-1.2142222	0.80425036	0.7776306	-1.0775557	-0.08326757	0.3012993	0.89629036	-0.5342381	0.83681226	0.3399005	0.94340277	0.54832417	-1.1717503	0.8410889
rang	-0.43352476	-1.0389712	-0.4456426	-1.071645	-0.1387172	-0.41596204	0.24670216	-0.2509055	-0.1882143	0.28469905	0.89033043	-0.7041042	-0.11134066	1.3912768	-0.65101105	-0.29516688	0.20048341	-1.1136444	0.31062746	-0.5486347	0.8628843	-0.17005542	0.9132435	0.8933945	0.8100584	-0.11532611	-0.60732794	-0.391417	-0.6995697	-0.054994933	-0.21013665	-0.34531078	0.5583553	-0.28179893	-0.036069334	-1.3377807	0.22449248	-0.47469074	0.7317605	-2.4122152	-0.47473338	-0.3822369	0.49491876	-1.0122931	1.0636955	0.4965759	0.23024814	0.17550573	0.39141855	0.25702593
citizen	0.2795641	-0.1688017	0.2893894	-0.32166126	0.27990043	0.11673868	-1.2940705	0.95953727	-0.36754596	0.013103142	0.18976788	-0.45951706	-0.1625383	0.8783548	0.7735886	-0.77824694	1.45941	0.41982746	0.8281355	-0.5833359	-0.9630623	-0.5807043	1.3675325	-1.205401	0.6469823	-0.4949015	-0.9416971	-0.9373388	-0.08321211	-0.08074047	0.5199301	-0.34722131	-0.43442866	-0.46549308	0.47842854	-0.006633796	-0.7632997	-1.2062845	-0.15320778	-0.5590642	-0.26197842	-0.6894027	0.696682	-1.275008	0.67782795	1.2104886	0.8189795	0.2998736	-0.60283417	-0.012429178
onli	-0.0287752	-1.3005719	0.7394371	-0.44007808	0.5797252	-0.12636933	-0.9533636	0.81626564	-0.21616626	0.61836195	-0.4445127	-0.82316047	-0.48280787	0.0694355	0.87967944	-0.2890765	0.8285788	-0.30330884	0.65015864	-0.90846395	0.018331185	-0.825156	0.6763476	-0.9871386	0.038115755	-0.8668702	-0.774387	-1.0076046	-0.8011507	-0.25260025	-0.009349972	-0.6532342	-0.7922012	-0.54721344	0.41532117	-0.47091258	-0.5600513	-0.74347544	0.9087257	-0.7706679	-0.8696127	-0.911152	-0.09326784	-0.8358853	0.86053044	0.90680087	0.6675773	0.03353662	-0.9314618	0.9274399
r	-0.30335817	0.08041385	0.5221326	-0.27775818	0.86968595	-0.7564242	-0.6620026	0.6742283	-0.663324	0.3450276	-0.98623896	-0.8785305	-0.12886307	0.08846087	0.8581957	-0.32011408	0.6989212	-0.17275128	0.6909828	-0.14985424	-0.37122297	-0.29048672	1.0762012	-0.85652786	0.009588169	-0.40729862	-0.520096	-1.2262855	-1.012419	0.48891747	0.14586234	-0.16944069	-0.47733206	0.4094947	-0.9380408	0.05321295	-1.1473943	-0.391648	0.35668153	-1.1025465	-0.44826508	-0.8036422	-0.9603045	-0.7079445	0.11451327	0.9817531	0.72431016	0.5844903	-0.64555734	0.23617841
media	0.42015135	-0.90941066	1.2672402	-0.7435073	0.19579627	0.51039994	-0.92904943	1.228219	0.23386064	1.1015705	-0.46016896	-0.5639774	-0.42054552	-0.16612178	-0.059344202	0.6021024	0.87430614	-1.038883	0.7735828	-0.97203094	0.3841314	-0.61153674	0.47999123	-1.4022344	0.07432194	-0.9373454	-0.1807843	-0.9247594	-0.8280987	0.1183992	0.6864208	0.42077103	-0.33336347	0.20841971	0.09927189	-0.23985471	-1.0348127	0.41114974	1.1636041	-0.93612844	-0.6857131	-0.6066794	0.29430926	-1.0480536	0.36667377	1.0515313	1.2581165	0.27235487	-1.5856596	0.9639478
everyday	-0.2126757	-0.2738957	0.82059836	-0.63393223	-0.28471273	0.46110484	-1.5737195	0.7436547	-0.85739577	1.1411514	-0.6079148	-0.5841663	0.609462	-0.38054812	0.48603714	0.28871545	0.04205505	0.6600547	0.04816539	-1.7236125	-0.48125327	-0.05776325	-0.034209475	-0.64768404	-0.57050097	-0.16802907	-0.16701767	-0.094319426	-0.5358232	-0.57403314	-0.41437793	-1.3913326	-0.45868683	0.35167018	0.033463903	-1.0977414	0.21583885	-0.5749447	0.13847484	-0.9327979	-0.025813073	-0.52814984	-0.8544223	-0.40532678	0.8478978	-0.26408845	-0.312256	-0.062661715	-0.51087445	0.3947799
alarm	0.24503446	0.18647686	-0.123401836	-0.7615943	0.023802012	-0.12832975	-1.1873691	0.8164845	0.37640345	1.0728798	1.1843069	0.15991366	-0.39229283	0.061255112	-0.6112802	0.08050545	-0.6031533	-0.78558296	1.8040588	-0.39650115	1.2031853	-0.7186913	1.0266094	-0.8795904	-1.3035333	0.29856244	0.6634748	0.13040695	0.6796847	-1.4497979	-0.6130338	-0.010349594	-0.08162895	0.1098263	1.2963673	-0.8280895	0.46222228	-0.029824853	0.12183295	-1.0740359	-1.1329006	-1.2111444	-0.7314152	-0.58417374	0.94221216	-0.023975305	0.036935106	0.6828896	-0.33372417	-0.20097825
rather	0.0032272711	-0.6664045	0.6405951	-0.16023369	0.43264252	0.20748493	0.004372351	0.29104838	0.5404267	0.71068233	-0.34745964	-0.5128572	-0.14325793	0.22520307	1.1378099	-0.074224606	1.4528663	-0.5531635	1.346338	-1.2319683	0.04047665	0.7852508	-0.035798892	-1.5124879	0.37310156	-1.0936546	-0.14325485	-0.16534132	-0.91267586	-0.10051337	-0.11125446	-0.57172424	-0.83431125	-0.39056215	-0.11513489	0.41009146	-0.061035708	-0.29955336	0.5383789	0.04797198	0.063077606	-0.16059084	0.09348474	-0.2095949	0.656817	0.46971977	0.20025206	0.41231552	-0.19926262	0.22525877
author	0.107579425	-1.1641259	1.3829267	-0.69570804	0.9794135	1.1362505	-0.60024947	0.36035138	0.62429935	-0.77014	0.050205626	-0.5407975	-0.344549	1.5167701	-0.5858364	-0.03931893	0.6400424	-0.22373696	0.7045262	-0.103459455	0.5413756	-0.536855	1.227156	-0.3433499	0.32246467	-0.4025378	-1.0970377	-1.1793963	0.3172416	0.8533616	0.06695454	0.2365534	0.87979984	-1.5082339	0.2681664	-0.6208028	0.023901429	0.5942334	0.5606011	-1.387671	-0.45430174	-0.38170058	0.011139944	-0.999113	0.47858185	0.41700286	0.7465775	0.6160854	-0.6741785	0.5092114
howev	0.42828602	-1.0073144	0.90949214	-0.9280769	0.16797633	-0.10266506	-0.13490166	0.6980485	0.41435426	0.47285745	-0.031265073	-0.17374353	-0.07424982	-0.3768087	-0.035048246	-0.41105965	0.9230405	0.6229828	1.12364	-0.082204305	0.3331332	-0.26755235	1.0733765	0.4995728	0.6784289	-0.73560834	-1.019581	-0.99594826	-0.7280592	-0.6260216	0.060263894	-0.5606119	-0.5130137	-0.45126683	0.2529356	0.1599587	0.286155	-0.129534	0.77499616	-0.025076944	0.039334312	-0.43834668	0.50467896	-0.5157379	0.3166884	0.7196996	0.17325924	-0.29260734	-0.35991645	-0.004837513
high	0.3689773	-1.3297346	0.9453287	-0.9869872	0.60791606	0.30616575	-0.86869514	1.5279373	-0.24273175	0.9858694	-0.44594073	-0.7536924	-0.65439045	1.0133047	0.26020113	-0.11283192	0.5913839	-1.261041	1.216363	-1.0357268	1.0836504	-0.6648884	1.2926793	-1.2014306	0.025359727	-0.91793025	-0.95811284	-1.0471654	-0.92669773	-1.2334001	-0.76090944	-0.842772	-0.33066517	-1.1612248	-0.07506694	-0.36711	1.2105105	-0.5181062	0.9817981	-0.94593894	-1.1150545	-0.9668477	-1.3499384	-1.2134917	1.2258272	0.5583252	1.0434906	-0.72630155	-0.52776927	0.7022232
general	-0.6089808	-0.83751255	1.6663182	0.034792736	-0.35257968	0.7969508	-0.1467843	1.2785299	0.79796445	-0.26120293	-0.21290249	-0.34471595	-0.6123307	0.72933054	-0.16690657	0.4092487	0.4751738	0.6480679	0.56807184	-0.32210803	-0.14662142	-0.3458667	0.68208194	-0.3243218	-0.10117201	-0.34915817	-0.5073335	-1.0199256	-0.82340455	-0.15982695	0.28751603	-0.40736586	-0.6712862	-0.6460881	-0.90587366	0.1591827	0.0647933	0.07722676	0.82565165	-0.57880604	-0.41796228	0.900257	-0.88936126	-0.8112015	-0.014459666	0.3804208	0.6147358	0.87329006	-0.7883364	-1.6039243
releas	0.38318735	-1.051722	2.2769454	-0.42497426	0.5209481	-0.064921744	-1.2696354	1.2029557	0.47887033	-0.4657561	0.14936204	0.23297371	-0.063012615	1.6487556	-0.10095334	0.24764596	0.8133291	-0.6160073	-0.5475646	-0.11625968	-0.18814567	-0.23622523	0.81058365	1.018256	-0.6623099	-1.1428485	-0.80334854	-0.5279336	-0.028954512	1.4781702	0.34155583	0.5045743	0.457669	0.45691353	0.43947956	0.04452374	0.06374347	0.7130663	0.92230904	-1.777783	-0.6040244	-1.6807041	-0.50139683	-0.7649715	1.0810881	-0.058731735	1.3130593	0.73246646	0.047307257	0.6001194
onlin	0.25194892	-0.7207506	0.6059843	-0.12969895	-1.0518558	1.0202239	0.14329861	0.15109308	-1.3202796	0.39671022	-0.15304361	-0.027741004	-0.68470806	0.46423444	-0.64734364	0.77046645	0.42839327	-0.8402022	1.2201766	-0.8617213	0.69822764	0.3622439	0.7827801	-0.46012288	-1.3859143	0.6344048	-0.2841276	-0.4027262	-0.8144347	0.9164579	0.32779184	1.1749012	-0.07441485	0.28596795	-0.357312	-0.044468522	0.097574204	0.28979796	1.11958	-0.6301783	-0.62888885	-0.25404355	0.45316005	-1.9414065	0.86787236	0.54662514	0.5009365	-0.6121247	-0.79694235	0.45250648
restrict	-1.0115366	-0.2064967	0.23219247	0.025405213	0.8628108	1.0044197	-1.865	0.17322652	-0.31826216	-0.3842475	0.8796735	0.012479499	-0.41971657	0.35642973	0.1698944	0.074269116	0.61589	0.9375251	0.7297073	-0.55823183	-0.5527498	-0.31397	0.96057034	0.14150204	0.6298056	-0.13052274	-1.9506506	-1.4179293	-0.666697	-0.27739692	-1.2584401	-0.14000252	-0.11202201	-1.5908873	-0.378492	0.96487916	0.5700403	0.018443346	0.6878424	-0.31268972	-0.9034301	-0.96387196	0.96932554	-0.31405175	0.41337782	0.74216324	0.055890292	-0.34294945	-0.19060853	-0.097687095
continu	0.0664767	-1.5620257	0.15914771	-0.7348744	0.8122228	1.2881305	-0.20105943	1.2240077	-0.0913955	0.83090734	-0.4172996	-1.0329473	-0.6051482	0.34712106	0.1895924	0.12763599	1.0583634	0.10027339	0.25761348	-0.8776254	-0.706501	-0.26571143	0.8404385	-0.65979403	0.2643785	-1.1531005	-0.8137562	-0.8980843	-0.69552344	0.4441483	0.31163806	-0.31588227	0.10100182	-0.0041720867	0.5566956	0.17523518	0.6128734	-0.00029978156	0.43641382	-0.2591832	-0.7000567	-0.5779761	-0.35811502	-0.8360541	0.18115698	1.0832161	0.4016837	0.07530394	-0.93130875	0.63583434
rhetor	0.14693177	-0.094199374	-0.06314996	-0.23163044	-0.35418883	0.55349386	-0.7252426	0.32165685	0.5282368	1.8142247	-0.50700384	-0.92918825	-0.22205329	-0.65926826	-0.19403908	-0.062060967	0.75829136	0.123125754	0.10650696	-1.0436585	-0.76912946	0.10064356	1.0407598	-0.578503	-0.56326574	-1.0057163	-1.5779691	-0.66153246	-1.1058602	-0.6876906	1.0000169	0.9540882	-0.670225	0.6565917	-0.035529662	0.6060605	-1.4122677	0.61031294	1.1789378	-0.44832462	-1.5199952	0.60383904	0.45734426	-0.25970933	0.604098	0.7255194	-0.09156136	0.48509222	-1.4055638	0.64609784
obama	-0.9601437	-0.36440748	1.104637	-0.6476332	1.1369944	-0.008878313	-0.67980325	1.0410349	0.6229897	0.6138485	-1.6331344	-0.46187943	-0.5986208	0.48975676	0.2112762	0.97576684	0.80672705	1.0619111	-0.36617833	-0.8610452	-0.30437723	-0.84803116	0.6463353	-1.0559704	0.8550569	-0.7051763	-1.1231966	-0.95609844	-0.6161171	0.6251323	1.0161449	0.78447974	-1.1576467	0.17108455	0.08228047	0.806424	-1.2285666	-0.7567341	1.2480433	-0.54945123	-1.4182738	-0.55726564	-0.49486512	-0.758301	1.4098992	0.25117618	1.252936	-0.09592783	-1.1476196	-0.32116318
hope	1.2085233	-0.760841	0.51743686	-0.71447754	0.49762827	-0.2058686	-0.7345662	1.068052	-0.2954368	0.8006884	-0.6913272	-0.8535341	-1.1465391	0.4257372	0.070246875	-0.44616136	0.9421764	0.50661933	0.1085441	-0.7831421	0.09669909	-0.30950284	0.2620792	-0.68366265	0.00987256	-1.489733	-0.6428942	-0.37342858	-0.6542002	0.687269	-0.76191276	-0.51918554	-0.9192934	0.30644146	-0.23678339	-0.474325	0.49955022	-0.44876876	1.1792215	-0.28957617	-1.3153067	-0.1700196	-0.5090648	-0.8375136	0.46249476	0.5340868	0.5976778	0.1816628	-1.0811763	0.9206623
mourn	-1.285903	-0.5842858	0.49161178	0.10683712	-0.06850329	0.3920317	-0.6263508	0.7207917	0.47727072	1.0210185	-0.8670757	-0.9880328	-1.1458371	0.07044147	-0.05503434	-1.557678	0.5636138	0.12656894	0.2595324	-1.7947836	-0.11875963	0.3213477	0.11948466	-0.8961869	0.59475887	-0.5368784	-1.2705936	-0.6974536	-0.26769963	1.2158942	0.24725753	-0.5779562	1.0100849	0.91911507	-0.09872519	0.25540963	1.0852349	-0.42227668	-0.063518606	-0.87749755	0.15739012	-0.623558	-1.4011703	-0.6656254	0.9190601	0.2332325	0.15648231	0.5516637	-0.65750355	0.85245174
troubl	0.75129384	-0.51037896	1.2052343	0.5768094	-0.41348287	0.78761166	-0.6266371	0.35056704	0.43868133	0.2026099	-0.005887829	0.2639225	0.3661482	0.7407955	0.48008683	-0.3272193	0.5154128	0.2957804	0.3291356	-0.32091212	0.86930645	-1.1051483	0.5773914	-1.29591	-0.56879854	-0.16269574	0.7684449	-1.1080747	-1.2463167	0.5347725	-0.39771706	0.0010035988	-0.34936613	-0.36372426	0.99917305	0.50752443	0.08753987	-0.25363657	1.2399435	-1.651253	-0.3209606	-0.029939607	-0.88379246	0.09137408	0.11577574	0.43957305	0.49322015	-0.17714792	-0.58003044	0.3368768
same	0.04346349	-0.7485996	1.144733	-0.61964357	-0.09512024	-0.11783825	-0.96040356	1.0852665	-0.09480996	0.68031746	-0.018403463	-0.77310586	-0.6004874	0.0736184	0.41607672	0.19097053	0.5620794	-0.31705967	0.91432035	-0.7472141	0.22984457	-0.8511626	0.39852324	-0.51019764	0.28349045	-0.76285136	-0.7085645	-0.81422806	-1.082264	-0.23162213	-0.17765468	-0.30279917	-0.7443186	-0.24522766	0.036978953	-0.57435036	-0.53404164	-0.7634124	0.9090866	-0.71289325	-0.992279	-0.81276125	-0.27856073	-0.54439974	0.9526106	0.90742755	0.5512333	0.08412352	-0.42989668	0.7192351
polit	-0.29409218	-1.5267525	0.5961358	-1.2428398	0.34521908	-0.07534043	-0.06200799	0.44104055	1.0513006	1.3651001	0.5975035	-0.8958409	-0.56294227	-0.3947081	0.38824534	-0.05090299	0.743748	-0.37681836	0.5530524	-1.1984172	0.04199981	-0.47362205	0.9124269	-0.83816355	0.65124273	-1.1964214	-1.1830351	-1.2265811	-0.68906033	0.16611677	0.11374916	-0.013729932	-0.61268985	0.5329013	0.3131229	0.61337423	-0.4344352	0.44289926	0.92053485	-0.66074145	-0.3208843	-0.02767609	-0.13007945	-0.40526456	0.8319701	0.48603195	0.9995699	0.26099285	-0.9064313	0.6911776
taught	0.6155103	-0.8061144	0.4294054	-0.069588795	-1.5722054	-0.098966844	-0.028407611	2.6812	0.28793174	-0.3089921	-0.2143203	-0.5528611	-0.025424406	0.717006	0.17986593	0.0601442	-0.5574869	-0.6046887	-0.28248096	1.449085	0.7998278	-0.69700617	0.05543478	0.050300367	0.87293077	-0.74060243	-1.2920511	-1.0300896	-0.50504667	-0.24648687	-0.08219689	-0.6036192	-0.76059157	-0.19157474	0.1385107	-0.060921997	0.46729207	-1.4334795	1.017838	-1.255846	0.0735836	0.75737804	0.20557864	-2.2272947	0.47212726	0.029310364	0.048318192	0.80485475	-0.015958719	-0.16251537
wing	0.3396433	-0.14041135	-0.032167405	-0.8001966	-1.0649716	0.19289282	-0.77858454	0.56192964	0.12420963	0.9274892	0.7009188	-1.2559581	-0.89621353	-0.102928564	-0.3528929	-0.08257678	0.5412798	-0.48507857	0.533171	-0.39718896	-0.5287554	-0.5919957	0.7273287	-1.3724527	0.0714159	-0.6392621	-0.7970561	-0.8851714	-1.7291436	-0.27888858	-0.21685639	0.69471943	-0.21973887	0.5957493	0.780036	0.0019173995	-1.5624857	0.02382639	0.43137783	0.5679082	-0.49995095	0.15502834	0.47319502	-0.84416103	0.70955396	0.09350899	1.2950857	0.1043738	-1.1950256	0.46175784
hell	0.50532115	-1.3985833	0.22131857	-0.95160896	0.4204255	-0.23281676	-0.38486034	1.106203	-1.0617666	0.33421683	-0.6310941	-1.1661973	-0.69620043	0.33002293	0.5111399	0.067772165	0.04756593	0.5674146	0.4426983	-0.33541375	-0.07817936	-0.3142736	0.11915482	-0.87019545	-0.54962134	-0.77537096	-0.093828514	-0.123732015	-0.43228602	0.024639692	-0.71264446	-0.13978796	-0.96524817	-0.30943328	-0.07216859	-0.7353004	-0.6797305	-0.815546	0.74747515	-0.5889407	-0.447856	0.0063705146	-0.78529775	-0.59491414	0.61734307	0.1674904	1.012272	-0.02038884	-0.6071589	0.39900473
use	0.22350948	-1.2038233	1.2351329	-1.199065	0.5745217	-0.40371397	-0.520279	1.254133	-0.9300853	0.26125282	0.6980579	-0.9521586	-0.13175277	-0.07552659	0.54573214	0.22128963	1.0514562	-0.520432	1.393899	-1.2667465	0.9608567	-0.88498914	1.7286122	-0.94796586	0.5477475	-1.1724946	-1.2482274	-0.61824924	-0.62465507	0.52491575	-0.07122363	-0.124155074	0.07605303	-0.37701792	-0.1542784	-0.043656506	-0.92814505	-0.91914773	1.0581284	-0.20373343	-0.7605127	-0.7214415	-0.411211	-0.82391864	0.7974637	0.90918267	-0.03276746	0.32437402	-1.0909361	-0.017194532
exampl	0.45575714	-0.60633475	0.4027488	-0.8823409	-0.7540873	0.9363385	-0.6613856	0.9584933	-0.048455823	0.50470203	0.2868356	-1.440814	0.37238616	-0.5046816	-0.29756942	-0.00030311197	0.8802297	0.33806726	0.64107835	-0.48609427	-0.51246303	-0.06970525	0.39278442	-1.2215415	0.033807676	-0.38353196	-1.3494992	-1.5144238	-0.4048913	0.27928245	0.052013274	-0.79188013	-0.4810347	-0.6577476	-0.12516712	0.07122576	-0.20457228	-0.91710526	1.1355214	-0.4564304	-0.37076107	-0.76279855	0.61142194	-0.13497047	0.09572275	0.50998354	-0.2759836	-0.33246142	-0.12057568	-0.40849793
gunman	-0.5934982	-0.58606625	1.6206274	-0.33636022	0.75233483	1.34536	-0.51366556	0.5444298	0.07110047	-0.7337811	-0.30768728	-1.3173914	-1.4955491	1.315376	0.0024129078	-0.20523009	0.9348156	-0.8512858	1.196238	-0.87631416	0.9320946	-0.80252403	1.1283503	-1.0611687	-0.6860319	-0.3351578	-0.16045706	-0.7432845	-0.48865938	1.1325805	-0.01665728	-0.19815001	0.6318309	-1.3316798	0.55242765	-1.2352132	-1.1882317	0.2666121	0.5784457	-0.988389	-0.6737578	0.16354653	-0.83840156	-1.1363672	1.2972987	1.0074949	0.7729741	0.04545472	-1.1448196	0.9004465
design	-0.48095685	-1.4490964	0.4218154	-1.0614974	-0.6345569	0.036611285	-0.87282014	-0.5521281	-0.52976084	-0.22982524	-0.60349375	-0.563206	-0.11871083	-0.8511277	0.13195083	0.9456845	0.7866818	-0.21631253	0.82119715	-0.6934512	0.394192	-0.10041572	1.3382559	0.104479745	-0.056902893	-0.12763515	-0.86740583	-0.56730384	-0.19569333	0.057258192	-1.0326257	-0.12397413	-0.06815234	-0.27644327	1.2562603	0.40991604	-0.1252352	-0.8309246	0.9488623	-0.58554363	0.056308717	-1.0027634	-1.1535363	-0.35849088	0.38663465	-0.22829913	-0.7310969	0.28774393	-0.027989954	-1.4869283
year	-0.19144255	-1.2747998	0.91339004	0.18838972	-0.073642574	0.1782201	-0.79857486	0.9251919	-0.57157123	0.6770313	-0.5077419	-0.85909474	-0.19540773	1.2420087	0.4034478	0.12849526	0.48709822	-0.9637316	0.9910902	-0.49817193	0.33721364	-1.0004177	1.1053143	-0.90680254	0.3891292	-0.09623887	-1.3819642	-0.7668264	-0.5531421	-0.0039394572	-0.103036255	-1.0208902	-0.16735086	-1.5740898	-0.20150986	-0.8948611	0.12456149	-0.3978647	0.65913737	-0.88437337	-1.267704	-0.86344135	-0.47397393	-0.9488026	1.2803097	0.4939285	0.95929384	-0.20074916	-0.3865342	1.6775163
baptist	-0.35829374	-1.0614414	-0.15240313	0.35857445	-0.64581853	0.053067684	-0.51881063	0.05630268	1.039463	-0.1791403	-0.26569286	-1.6742244	-0.28047398	1.274493	0.108457506	-1.3331809	0.5797188	0.47010165	1.8027337	-1.3124032	-1.089676	0.60018146	-0.22187889	0.13390802	-0.44777662	-0.93397534	0.24247165	0.0122892335	-0.20747504	0.7553269	0.13346253	0.27192506	1.0798594	-0.1917487	-1.5200002	-1.4932355	-0.41672903	-0.6775632	0.6030522	-0.5606146	0.34390596	-0.0070201755	-1.2594428	-0.7608812	0.68255377	1.2506595	1.607106	-1.0914359	0.4267849	-0.05444944
commit	0.0026697405	-0.41477615	1.0516213	-0.16034997	-1.1835523	0.13460752	-0.30950487	1.3163753	0.1036225	0.53340137	-0.5462707	-0.5070341	-0.12720415	-0.24699196	0.20643464	-0.025020782	1.0311735	-0.08418352	1.478318	-1.1252282	-0.053581595	-0.7858068	0.6492272	-0.813067	-0.05751715	-0.654197	-0.06596227	-0.74286985	-0.65954375	0.509769	-0.879241	-0.077356406	0.15397513	-0.8388344	-0.03363517	0.46585268	-0.85509515	-0.96980995	0.37023777	-0.6104547	-0.92659557	-0.64946157	0.124404125	0.05483032	0.67190266	1.043229	0.039010383	0.93330073	-0.03745926	1.1571578
ambush	0.34769568	-0.6108821	0.99820614	-1.0588734	0.2824193	0.4945839	-1.1230191	-0.41275808	-0.18122843	-1.4038105	-0.83156484	-0.56567585	-1.0463314	0.5480726	-0.3710849	-0.831863	0.5196563	0.87433136	-0.93635046	-1.6361804	-0.27210593	-1.4409757	1.3687401	-0.5541825	0.5046275	-0.7028463	-0.028244983	-0.5701389	0.08640002	-0.24616453	1.8890678	0.29950595	-0.08783144	-0.070579454	0.5654679	-1.104749	-1.1913882	-0.6320864	0.59018207	-1.0271492	-0.43633974	0.1892982	-0.9150474	-0.103484124	-0.19502486	-0.35739547	-0.6936573	0.28660855	-1.0477326	0.07271689
realdonaldtrump	0.17852563	-0.21225074	0.5693574	-0.6551349	1.0852579	-0.52574265	-0.5324303	1.2617329	-0.030149974	0.62477124	-0.59808403	-0.76624537	-0.9046273	-0.30415535	0.32320133	0.6380793	1.0864642	0.421691	1.110467	-0.51555914	-0.9912996	-0.26510212	0.6636772	-1.0920644	-0.6521223	-0.82087666	-0.6226976	-0.21272504	-0.8005495	0.15757197	0.39319205	-0.6388165	-0.007906772	-0.6104124	-0.2060723	0.8143885	-1.3635633	-0.5242305	0.07221518	-0.7227008	-0.4952147	-1.2095597	-0.368373	-1.1473303	0.85750854	0.3424009	0.41435832	-0.7296784	-0.6679646	0.7028525
just	0.11977631	-1.1791036	1.0213504	-0.8570012	0.8249051	-0.066047505	-0.9936291	0.911371	-0.32700193	0.7358755	-0.4564131	-0.9200292	-0.954103	0.55799675	0.58221716	0.26660708	0.9461212	0.04166856	1.0647938	-0.9337548	0.4263943	-0.7372388	0.69099915	-1.1015491	-0.110164315	-0.70408165	-1.015841	-0.692578	-0.90646243	-0.06457595	-0.10215074	-0.6441487	-1.1592796	-0.081237204	-0.068445966	-0.9422441	-0.5291911	-0.46594855	1.1588569	-1.2291309	-1.0704548	-0.8393824	-0.6139933	-0.7127574	1.138052	0.6498409	1.1221426	-0.24461511	-0.9931928	0.99938804
#enough	0.29280865	-0.80593127	0.15706521	-0.9796413	0.19598988	0.51449454	-0.79858226	0.053403694	-0.7936014	-0.005324185	-1.0888427	-0.91068393	-0.1871216	0.42476583	0.70806503	0.0464101	1.178437	-0.88765013	0.52769184	-0.63487625	-0.77726394	-1.1526868	-0.0845613	-0.62311196	-0.12795848	-0.83620465	-1.2389936	0.03527887	-0.28608984	-0.27044064	-0.3650337	-0.8001917	0.43426606	0.6285318	0.17393997	0.5321081	1.4568602	-0.97097945	-0.18017411	-0.9054876	-0.76431465	0.42294598	-0.01999557	0.0029982105	0.35059345	0.30378324	-0.00826475	-0.7333305	0.06228146	0.4983438
drop	0.20841327	-0.4115803	0.11613329	-0.17581806	0.696564	-0.12097859	-0.5346824	1.077351	-0.73618615	0.898345	0.6574729	-1.5143397	-0.032798246	0.54695505	-0.12196377	0.40440258	0.327325	0.017312258	1.0160979	-0.8059583	1.109135	-0.92514026	0.8425605	0.14459422	1.0523381	-0.57542086	-0.65042037	0.32927513	0.07545429	-0.5108154	-0.31362432	1.3158464	-0.3564975	-0.019875653	0.29085296	-0.13153456	0.06916599	-0.17437434	0.095364064	-1.2784805	0.053450994	-0.41839942	-0.2711004	-0.6308731	0.5348655	1.36275	0.588848	-0.2904879	-0.34430245	0.1954841
unconfirm	1.2350178	-0.27677253	-0.7497726	-0.40603855	-0.12898132	0.20581509	0.028811902	0.22444916	1.0312033	-0.46119463	-0.87104356	-0.48872894	-0.28969422	0.08900437	-0.8444514	0.40817696	0.3065221	-1.8670332	0.8298069	-0.6827501	0.4218322	0.06389311	0.43351245	-0.42050594	-0.21109107	-0.37950328	-1.4062283	-0.8844099	0.3757616	-0.2561226	-0.14399323	0.8743153	1.3313146	0.28085107	0.28298384	-2.2597077	-0.752215	0.32386297	0.42745334	-0.56757545	0.43706143	-1.2025821	0.17444044	-0.38233596	-1.2560422	0.28485245	-0.36191034	0.18651575	-0.9495117	-0.24899185
appear	-0.041389912	-0.8549192	1.388563	0.021483019	-0.15574631	0.36414087	-0.8011346	0.14847243	0.40316862	-0.5517046	-0.598251	-1.0442094	-0.041134894	0.3760754	-0.35158238	-0.028492495	1.2768188	-0.39616677	0.17403707	-1.1052909	0.47089422	0.12920731	1.1851716	-0.2880564	-0.8074261	-0.66562146	-0.115047194	-1.2208371	-0.06259529	0.07713908	0.3419801	0.39796922	-0.34587014	0.05261475	0.12980433	-0.050829142	-0.47834522	0.9607828	0.6622292	0.47367	-1.1148144	-0.85240155	-0.44212812	-0.3674365	1.2607387	0.88264567	1.0634979	-0.12968281	-0.21994112	0.02919212
strength	1.843174	-0.26952234	-1.1078389	0.714233	0.47823668	-0.17313847	-0.943599	0.21911904	0.26176828	0.83468795	-0.9004886	-0.9455256	-1.042196	-0.2747879	-0.37803623	-0.018063776	0.568105	0.6292817	0.7697408	-0.016894516	0.041925058	0.25497866	0.4460506	0.20185474	0.20114094	-1.5784998	-0.080008626	-1.2126417	-0.106977254	1.0765235	-0.62425166	-0.88735723	0.023234755	0.4601155	0.37358305	0.30283868	1.574913	0.3235573	0.731868	-0.37831149	-0.173881	0.37421682	-1.245761	-1.3003645	0.7390861	0.07114173	-0.2759142	1.0409694	0.3586247	-0.060433567
defens	0.3980214	-0.76010084	-0.54013234	-0.3708954	-0.5906886	-0.23955828	-0.2564922	1.6568184	-0.5028668	-0.5287829	-0.57383525	-1.7393447	0.07505891	0.35428593	-0.2075386	-1.008271	1.2943432	-0.48340172	0.10743506	-0.68075323	0.39449954	-0.020474628	1.1947445	0.53878605	0.6389445	-1.0898175	-0.41154784	-0.4060235	-0.31099448	-0.5768494	-0.14777794	-0.07295916	-1.1434774	-1.1155149	0.45879978	0.32736492	-0.3519217	-0.726783	0.53731954	-0.81832206	-0.3028276	-0.27001303	0.04640067	-0.25582582	0.67704415	0.13325578	0.08865251	-0.14922342	-0.8913619	-1.1936224
pretti	0.3755816	-0.70126486	1.2728121	-0.25777915	0.23891161	-0.3684309	-0.5360277	-0.086434275	-0.20008098	0.5599532	0.20740028	-1.1441436	-0.37298128	-0.06490259	0.13042152	-0.068021365	1.0359173	0.5165665	0.4377699	-0.08961718	0.39483213	-0.17792049	0.4641659	-0.5772404	-0.07137895	-0.9198208	-0.24832891	-0.78150314	-0.8050056	-0.46116894	-0.7830986	-0.57000506	-0.8543991	0.12456322	-0.13562934	-0.763868	0.028565358	0.097109884	1.5114335	-0.93449295	-0.090473846	-0.47258037	0.7495456	-0.32162505	1.0140452	-0.17876834	0.63951814	-0.49075472	-0.33975086	0.3577059
cannot	0.14094242	-2.0112357	0.1639453	-1.2040174	0.13979991	0.46326807	-0.6427704	1.1193566	0.20408192	0.25583744	-0.06371864	-0.20980483	-0.28168672	-0.26553217	0.45657367	-0.21920088	1.417243	0.5757471	0.14012067	-0.6352738	0.061132617	-0.37430513	0.46992823	-0.5770651	-0.71269417	-0.84603715	-0.9707816	-0.9703094	-0.12363872	0.09615241	0.2642921	-0.6801965	-1.0258255	-0.19150074	0.4453258	0.0063340347	0.5588857	-0.03495434	-0.22205707	-0.22127606	-0.6801319	0.2001889	-0.3623871	-0.610355	-0.0054858467	1.3751624	0.41025317	0.419064	-0.06813561	0.75915444
shouldn	-0.28480712	-0.9112292	1.2979996	-0.9825994	0.4699853	0.25768456	-0.62687635	0.73946047	-0.011194043	0.33845764	-0.42694044	0.12061115	0.55077523	0.3837329	1.2558421	-0.4606891	0.566623	0.74508935	0.49662143	-0.91774005	0.41662306	-0.42975602	0.5204413	-0.03570125	-0.121952236	-0.1995004	-0.54773235	-0.32235694	-0.8563696	-0.5506643	-0.43831977	-1.0602044	-1.0065367	-0.14824025	0.10244864	-0.077331595	-0.02539775	-0.8181641	0.3997897	-0.09165123	-0.77835035	-0.027899697	-0.069055386	-0.52421796	0.32791364	0.6792486	1.0245671	0.3971821	-0.560446	0.3795733
friend	0.65575343	-0.28710622	0.01516534	-0.4095817	0.16324408	-0.98519313	-0.4386863	0.4877162	-0.5969657	0.30653888	-0.9370273	-0.82868016	-0.49028245	0.8587952	-0.23117813	0.06535954	0.7179095	0.7219205	1.0460832	-1.2907739	0.87855196	-0.42066142	0.30261832	-1.0058639	0.11283791	-0.75601965	-1.1194253	-0.53807235	-1.3219774	0.7236396	-0.24529934	-0.91727877	-0.23947711	-0.060828097	-0.3336949	-0.7516284	0.78091407	-0.041883424	0.87982416	-0.66487586	-0.867036	-0.08346593	-1.3922029	-1.0978554	1.0494955	1.049416	0.28102994	0.3583237	-1.0264367	1.5817268
centr	-1.5174507	-1.3775032	-0.32244933	0.23306927	-0.26621684	1.3488228	-1.2080598	-0.012499258	-0.6101812	-0.5024897	-0.86135864	0.24143212	0.6308204	0.9560285	-0.16844147	-0.13046592	1.4613883	-0.34251657	-0.76592475	0.15154798	-1.2690097	0.27120057	0.05468999	-0.16098589	0.97436905	-0.2975778	0.36603653	-0.9206783	-1.0621674	0.5329927	-0.38882384	-0.37871194	0.33008212	-0.925928	-0.2173758	-1.4685073	-0.55141586	0.93643177	0.3857191	-1.0849544	0.19780953	0.43169978	-0.46860987	-1.4392755	-0.13391438	-0.57951427	-0.3008499	-0.15591148	-2.0435948	-0.96840453
surround	0.2515277	-0.09498512	-0.2595425	-0.2522123	1.2913023	-0.10038135	-1.4235063	0.13653576	0.19859967	-0.089411974	0.19193244	-0.9152887	0.282804	0.7676996	-0.62555337	-0.53419155	-0.027764298	0.9034704	0.36555305	0.725278	0.5473371	-0.029193044	0.25158745	-1.3565841	-0.42954943	-0.65812314	-1.3382419	-1.5662892	-0.6048231	0.021548893	-0.6031287	0.79359597	0.72540486	0.4668642	0.812194	-0.6905434	0.7518707	0.35989177	0.9665508	0.34773856	0.12926564	-0.9106958	-0.7498909	0.05296642	0.4276533	1.2285626	-0.042071395	0.5648663	-0.52742636	-0.5393552
develop	0.14780319	-0.44441414	0.10116488	-0.10982104	0.6605467	1.4749413	-0.39017868	0.41819766	0.66232234	-0.36699393	-0.39700353	-1.492034	-0.18095042	1.0541159	-0.23573545	0.5898519	1.1445804	-1.2848408	0.46205395	-0.7371067	0.25576758	0.6763195	1.4929824	-0.7455487	0.3563047	-0.78740215	0.053455036	-0.7045759	-0.6235852	0.2058752	-0.28419155	-0.5894301	-0.34292692	-0.052808642	-0.15921552	-0.97883415	1.1800352	1.2897191	0.41018087	-0.6046293	-0.0055777505	-1.0454851	-0.13602662	-0.8836236	-0.64825815	0.06436035	0.21737112	-0.33443075	-0.8098832	-0.90200955
sort	0.10183286	-1.2028935	0.30889437	0.0024321526	-0.20158832	0.26376477	-1.9834077	0.7141387	-0.044016417	0.45904744	-0.06607516	-0.6048526	-0.7186353	-1.0751002	0.55835044	0.1421736	0.8518433	0.583033	1.1580836	0.38299966	0.28301555	-0.14873967	0.265693	-0.03982084	-0.30867386	-0.6282474	-0.011242485	-0.22960949	0.41017193	-0.03900089	-0.83959985	-0.056800462	-0.86845344	-0.08873738	0.47932908	-0.24486971	0.4007701	-0.3102626	0.35554993	-1.0235829	-0.42800632	-0.3984496	0.23767644	-0.061378583	0.16073772	-0.050967734	-0.080879316	-0.2201547	-1.5338479	-0.14660096
thank	1.0494548	-0.11656365	0.046724856	-0.44657674	1.0854199	-0.43736374	-0.7339111	0.47949135	-0.536041	0.10890947	-0.71180373	-1.5501065	-0.5167905	0.7913089	-0.112176195	0.21354707	1.2278149	0.5169648	0.9875912	-0.89045554	-0.40368536	-0.20704553	0.18859671	-1.098674	-0.13906321	-1.1172485	-0.6032003	-0.74516106	-0.945537	0.48169005	0.5509057	-1.3105491	-0.56270564	-0.33406892	0.063447244	0.4478297	0.0022328906	-0.38328856	1.0100422	-0.7455838	-0.5123167	-0.93595237	-0.21872938	-1.2231495	0.9115646	0.6866132	0.18558073	-0.3680806	-0.5541361	0.6274695
juli	-0.92819697	0.101422325	0.6375723	-0.22389384	-0.14650846	0.6265507	-1.599199	1.3752489	-0.8034831	0.15216905	-0.48031893	-0.39389944	-0.22719815	0.7988607	-1.7710932	0.35399646	-0.35318685	0.59790915	-0.16715187	0.13730752	-0.03487502	-0.22330856	0.55937856	0.7371159	1.5360575	-0.12978987	-1.9316456	-0.62184274	1.0729816	-0.07952799	0.7442236	-0.78054917	0.64200485	-0.09583546	0.97827566	0.20858887	-0.5929554	0.3378396	0.6163622	-0.71860516	-1.2470983	-1.2519951	-0.65448797	-0.35529673	-0.1127197	0.14271094	0.16390306	-0.0059439633	-0.14912343	-0.3175373
assault	-0.38730377	-1.40118	1.106389	-0.99986434	0.73252124	0.17643158	0.056336395	0.1533961	-1.3790514	-0.622624	0.2901553	-1.1201956	-0.18094993	0.53417385	0.7373098	0.0375418	0.56962633	-0.29027826	0.3969295	-1.1568567	0.30809715	-1.2042474	1.894772	-0.62292945	0.27588993	-1.326345	-0.3782693	-0.7712858	-1.2730895	-0.029456215	-0.0986049	-0.77015966	0.62924194	-1.1475948	0.30177772	0.39361927	-0.9682152	-1.0972288	0.8142067	-0.11033382	-1.3279326	0.26358408	-0.28058344	-0.7676116	0.68726796	1.0116606	-0.16470481	-0.72793674	-0.1190633	0.14840764
real	0.4027254	-0.57512087	0.68685436	-1.1100545	0.67053664	0.3140547	-0.5312066	0.70055723	-0.12840524	1.1177174	0.1661979	-1.016736	-0.7321898	-0.21448144	0.591586	0.33100796	0.5113934	-0.4295525	0.8098838	-0.900337	0.21808481	-0.14552179	0.4093617	-1.360457	-0.224644	-0.46121755	-0.74334645	-0.6443791	-0.8374229	0.49978906	0.026041426	-0.5875436	-0.8795966	-0.08463537	0.2825682	0.062767774	-0.35427767	-0.50165975	0.6249688	-1.0305133	-0.4809631	-0.9189634	-0.23496905	-0.63713133	0.37407044	0.49111417	0.5738816	-0.4713938	-0.5239964	0.66785556
georg	-0.17311426	-0.45958474	-0.75352895	0.8040904	0.639742	-0.49108195	-0.4869908	-0.6734097	0.2008073	1.2117039	-0.5360465	0.42251253	0.463234	0.21638694	0.6024032	0.08823074	1.6733587	-0.6102397	0.47749466	-0.38292357	0.050752386	0.30592996	0.31891215	0.2094258	-1.1248705	0.25605834	-1.8199959	-2.076697	-0.7271192	0.11370227	1.6951578	1.1630118	-0.30048305	-0.08357381	0.2991968	-0.027208896	-0.55244887	-0.7234731	0.8142627	0.069019616	-0.7326396	-1.2873766	-1.4368569	-0.09451392	0.2929454	0.13395707	1.205677	-0.03233321	0.72136426	-0.8081995
enter	-0.6746408	-0.8372707	0.17065132	-0.41898778	0.6090443	0.42381316	-0.44138122	1.3026235	0.3354248	-0.23774865	0.27096158	-0.87489855	-0.29464886	1.1169043	0.1781004	0.18166776	0.774567	-0.20796828	1.0478164	-0.14980376	0.72357535	0.026607081	0.35198948	-0.03423936	0.1729416	-0.18873657	0.76486325	-0.76204515	0.67031384	-0.60674053	-0.22510986	-0.36988026	0.2602737	-0.696208	1.0329725	-0.4169937	-0.59285927	-0.38763225	-0.5888864	-0.60967934	-0.3744107	-1.1990358	-0.6222609	-1.6297472	1.4503789	1.2763555	0.22723745	0.082053065	-0.50860655	0.4943213
small	-0.09205145	-0.8897737	0.86142373	0.6152298	-0.15995051	-0.061169207	-0.84828824	0.21679056	-0.04199949	0.45671028	0.30969438	-1.3386409	-0.16850302	0.09193258	-0.32114276	-0.61003816	0.15291241	0.31177002	0.29098916	-1.5243062	0.41515788	-0.2129523	0.37163198	-0.72460365	-0.54618335	-0.9487735	-0.48081243	-0.5428585	-0.89453894	-0.83471483	0.20172662	-0.91597366	0.98774487	-0.13994224	-0.3107746	-1.3178723	0.5854164	-0.400828	0.9261967	-1.3853818	-0.092988044	0.3886621	-0.18926112	-0.7732861	0.2682114	0.59368557	1.125113	0.14309222	-0.2515815	-1.0421468
job	0.76483905	0.18069582	0.071594976	-0.7085948	0.6840644	-0.044656716	-0.2658463	0.7118863	-0.3238495	1.068269	0.011187814	-1.6011896	0.11397682	0.714583	0.3508762	0.5095393	0.50917894	0.1562176	0.35973197	-1.1701162	-0.12554692	-0.06528578	0.77092636	-0.5115429	0.413109	-0.6871487	-0.24738681	-1.0100226	-0.7172091	-0.41516507	0.30233732	-0.62258273	-0.76240766	-0.5072244	0.20528862	0.05510961	-0.20964512	-0.345789	0.6091437	-1.1789019	-0.43406862	-0.5828631	0.11759349	-1.3421111	0.8423772	0.1215144	0.6678522	0.7325688	-1.1900431	0.7928338
agent	0.704491	-0.2941054	0.87136614	-0.37659264	1.0840926	0.22843653	-1.5901569	-0.7366519	-0.1791841	0.11966662	-0.3721096	-1.5812697	0.40893802	0.9450673	-0.7987597	1.390197	0.6492579	0.05968809	1.1826642	-0.59128165	0.69554317	-0.8196273	0.37559086	-0.6904129	-0.23368827	-0.55311733	-0.6217247	-0.49081445	0.53859866	1.2021897	0.041795067	1.054655	-0.43146265	-1.5028543	0.26709202	0.2508244	0.44959897	-0.039929897	0.40786394	0.47450593	-0.0060197264	-0.2618425	-0.0020343587	-1.6057085	0.05979358	-0.9776587	0.4567158	0.6833775	0.08774121	-0.54620296
confirm	0.5269377	-0.9050529	0.90032053	-1.4915185	0.54889905	0.10930597	-0.8342744	0.82038194	0.88965607	-1.1190815	-0.9049244	-0.110896096	-0.35920987	1.3212409	-0.24795559	0.17114238	0.39635757	-1.230567	1.1068965	-0.25997275	-0.3756124	-0.36001465	1.0877469	-0.20216656	0.16278084	-1.0690713	-1.2350111	-0.7588972	0.017221779	0.27611893	0.32147267	0.22974801	0.5399161	-0.7434927	-0.05433336	-2.0638728	-0.06289424	0.94686	-0.19854292	-0.961407	-0.7779848	-0.4752637	-0.44199398	-0.48708194	-0.024720624	0.6927738	1.1753057	-0.06488729	-1.2591902	0.2637517
fatal	0.26335293	-1.1249604	0.6212521	-0.84646845	0.9646552	1.1034863	-0.77466524	0.6252847	0.3841639	-0.38730994	-1.4914863	-0.5345211	-0.774536	0.11276246	-0.5645443	0.06635739	0.8102257	-0.8468957	1.303845	-0.70956135	-0.12997691	-0.0137319565	0.85312355	-0.21816258	0.029980378	-0.56594706	-0.93100643	-0.9492878	0.18921712	-0.38995284	0.18523324	0.018615682	1.58336	-0.9854368	-0.7489157	-1.1976469	0.728287	0.7099496	-0.22427055	-0.88354504	-0.9191473	-1.0186892	-0.30960217	-0.37299615	0.1833464	0.47488928	0.903918	-0.8387207	-1.2084856	0.7245502
immedi	-0.12869613	-0.23384456	0.7299242	-0.91584325	0.12406708	0.04857078	-1.0818791	0.9951594	1.3296918	0.558986	0.48581234	0.19917418	-0.79850197	0.5360332	-0.3412988	0.2852136	0.2799037	0.12211136	0.61401963	-0.6406061	-0.013054639	-0.4311608	0.18377215	-0.8781184	0.22764462	-0.70203876	-0.73104346	-0.15036483	0.50045824	-0.24718353	0.15953697	-0.10244	-0.22933772	0.33240676	0.73672616	0.4627747	-0.29878643	0.088724464	0.6108476	-0.4380674	-1.4924014	-0.6428535	-0.43624976	-0.43761265	0.26419312	1.7434888	0.7366184	-0.32728463	-0.7090733	0.28359663
coat	-0.40105367	-0.90087175	0.5661216	-0.3086244	-0.7952063	0.41804957	-0.6458784	0.87887275	-0.6100905	-0.15394871	-0.15973492	0.51463985	0.28722796	1.2566533	-0.53173447	0.46146	0.4188404	-0.5110134	0.21251726	-1.0626776	1.2034086	-0.7206824	0.1390202	-0.8264395	-1.2215018	-0.8441202	-0.54444015	-0.60332143	0.2216137	-1.6629367	-1.0890099	-0.18716149	1.0745962	0.13994467	0.8913511	0.0449474	-0.78495467	-0.47210675	1.2281199	0.12402475	-0.020705849	-0.03532414	-0.8711635	-0.13021733	0.10527462	0.42800212	-0.37622315	-1.9065709	0.48708242	0.524414
traffic	-0.07968404	-0.46929926	-0.19380951	-0.1224508	0.90038663	0.75666827	-0.9303378	0.22088699	-0.3461396	-0.12866046	-0.8947161	-0.12782554	-0.40574834	0.9158721	-0.9969208	0.18082076	0.2962836	-0.47811288	1.1201899	-0.83457005	-0.016724646	-1.817664	0.70891756	0.17641753	-0.2985536	0.04442063	-0.18759511	-0.3543864	-0.5271064	-1.2270486	-0.40038133	0.5878861	-0.27380067	1.15585	0.51963276	-0.62837696	0.029273115	0.45708066	0.39319676	-0.3842842	-0.2878847	-0.5484003	-0.02647999	0.7072289	0.6479515	1.1847184	-1.2829752	0.705609	0.30979627	-0.6513953
cours	0.027103357	-0.6219864	0.3567256	-0.33191675	0.1360464	-0.6141268	-0.4004888	1.004004	0.25677776	0.18234372	-0.25522643	-1.1338482	0.15920502	0.27505854	-0.087014675	-0.53839874	0.67500013	-0.19269106	0.62331575	-0.95157814	0.24611342	-0.5987305	0.629501	-0.3661729	0.05287703	-0.95766914	-0.2158427	-0.9779246	-0.5069328	-0.41358212	-0.47947937	-0.054860204	-0.90393984	-0.085899755	0.437932	0.48732895	-1.104934	0.24423614	0.44834656	-0.17870218	-0.46180648	-1.1616911	0.45810968	-0.9705357	0.8675496	0.11139136	1.2545552	-0.5446727	-0.5229739	0.78707457
write	0.7201737	-0.87610793	0.91995245	0.014398694	-0.2910861	-0.89626193	-1.2571605	0.7975318	-0.3181231	0.47200763	0.20756456	-0.55393666	-1.1365725	-0.5075365	-0.42743224	0.6705629	2.0541096	-0.7694639	0.023611873	-0.089556426	0.46003628	-0.63629335	0.22868186	0.35433376	0.5360098	-1.4310453	0.4728303	0.06868912	-0.42277312	0.12653187	0.24414271	-1.524523	0.06102705	0.117400855	-0.93429065	0.12721118	0.7643288	0.084236056	0.93455744	-1.1455896	-0.9447473	0.01575458	-0.53528565	-0.4471243	0.5919087	0.72323513	-0.7750825	-0.24669302	-0.49720147	-0.0825859
#maga	0.30692446	0.38231853	-0.9912863	-0.64398414	0.42519128	-0.2646903	-1.1219205	0.982861	-0.3504598	0.011563495	-0.35665575	-0.7529198	0.11875618	-0.22416352	0.5134401	0.23364843	1.0400494	-0.7179236	0.42430544	-1.1099632	-0.20410493	-0.68055266	0.44841346	-1.5442209	-0.87265444	-0.9482204	-0.9779531	-0.5318201	0.06026029	-0.21895495	-0.15371051	0.27394035	0.49498847	-0.16461582	0.495416	0.8832121	-0.73200965	-0.6881965	0.31618088	-1.0366857	-0.575142	-0.43168086	0.81286275	-0.72697663	1.0350852	0.13568676	1.4895496	-0.45977575	-0.18284142	0.82587594
hous	0.63404214	-1.0279998	1.5607316	-0.14566949	1.6856556	1.0755832	-1.1986772	1.2385083	-0.7877413	0.35517895	0.036474675	-0.71713024	-1.3787148	0.95579827	-0.14447086	0.03846119	1.2747893	1.1146553	1.1833727	-0.70447004	-0.25472948	-0.74035335	0.26455	-0.9030765	0.18605424	-0.7404392	-1.3246074	-0.5405437	-1.1032606	0.1856392	-0.11858325	-1.281615	-0.18740529	-1.8580055	0.93950546	0.10426857	-1.6658401	-0.18875381	1.4163611	-0.7279877	-0.5070887	-1.3345618	-0.22389644	-1.0336487	0.78700495	0.7256682	0.79739	-0.7680079	-0.5367764	0.96923923
becam	-0.22830582	-0.43974924	0.049082033	-0.23779757	-0.77876794	0.05299787	-0.96224535	0.9078728	0.050454646	0.09498231	0.4870729	0.0154130645	0.9883686	-0.42195344	-0.11843586	-0.23212375	1.0871456	-0.0031327605	0.57797015	0.5191281	1.0841727	-1.4625456	1.0865378	-0.040952966	-0.07729821	-0.20811622	-0.39006168	0.16614017	-0.32618028	0.27673376	0.5290699	-0.1958297	0.3274806	-0.14877972	1.1676774	-0.6452395	-0.37771598	-0.56493944	1.3010209	-0.5071856	-0.6822708	-0.47719106	-0.75427544	-0.71022576	1.0120593	-0.7197323	0.34045246	-0.8670547	0.0073619336	-0.031303912
tell	0.72802424	-0.62195075	1.0581311	-0.907464	1.0463729	-0.38114142	-0.812973	0.47591904	-0.02120994	0.23659834	-0.082274325	-0.7905179	-0.6325217	0.8681855	0.62607807	0.2993492	0.6892071	-0.62627053	0.75934577	-0.86995685	0.28352275	-0.3757108	0.40522748	-1.2625121	0.2992636	-0.785102	-0.7873501	-0.6263186	-0.40114307	0.009313125	0.2531319	-0.44557798	-0.68702316	-0.41870168	-0.7385809	-0.36481047	-0.63259923	-0.29414248	0.28094715	-1.0181714	-0.8645036	0.020619974	-0.10823171	-1.0963669	0.57012445	0.78515464	1.149201	0.14892119	-0.86241424	0.48243487
recent	-0.31175682	-0.013688337	1.1655586	-0.27812755	-0.45018116	-0.29631782	-0.88828963	0.5724716	0.3755539	0.33068806	-0.2662256	-0.38388234	-0.628024	0.16846077	0.03343731	-0.0074731186	0.61264193	0.1681521	1.395432	-0.5854629	-0.0065539926	-0.3246339	0.89269626	-0.36384505	0.2532044	-0.69823736	-1.0598445	-1.2460555	-1.0903437	0.26975453	0.47585174	-0.5298724	-0.22910962	-0.27465388	-0.026986562	-0.5019983	0.45743635	-0.066167176	1.2177281	-0.2926623	-0.30081618	-0.9090826	-0.40461826	-0.7298368	0.766513	1.051779	0.3969323	-0.105234265	-0.39393324	0.70813996
illinoi	-0.51497793	-0.6470928	0.7296543	-0.1320168	-0.16440055	0.9056494	-0.4074257	1.4524437	-0.39366388	-0.56232214	1.1772935	-0.20638855	-0.48969278	1.1100771	-1.619758	-0.8864539	0.22089191	1.1107851	1.3669021	0.28870377	-0.1954417	-1.0580608	0.5025299	-0.7845724	0.57748383	-1.0637122	-2.3050265	-0.464823	0.07804408	-0.7502888	0.6064431	0.31277975	1.0472397	-1.4915121	-0.5171714	0.75467056	-0.39380908	0.18064988	1.4756753	-0.23254576	-0.97613037	0.61763275	0.35715386	-0.14520046	0.4247642	-0.35519722	-0.3793321	-0.13353044	0.033202216	0.6087801
react	-1.7935112	0.15377991	0.38515356	-0.5550451	0.07387638	0.39253542	-0.49840754	1.4006352	1.0970491	0.43526354	0.0890481	-0.33987707	-0.22950935	0.21253178	0.049249202	-1.3796163	0.99709	-0.68850654	0.633374	-0.99709636	0.07288647	-1.0601081	0.7590841	-0.8282519	0.4409899	-1.4699173	0.980513	0.95024467	-0.92850244	1.112535	0.6889427	0.10378756	-0.60299367	0.23921755	0.09419459	-0.0810196	0.4934165	-0.06676325	0.9465481	-0.6963433	-0.04953219	0.089469016	0.058778197	-1.3539655	0.010817222	-0.79225576	0.97488856	-0.5814105	-0.6609333	-0.10103822
regist	-0.12988617	0.18926531	-0.11227188	0.40095434	-0.5688522	-1.1676202	-0.5410873	0.7021159	-0.68582135	0.0034511983	1.1029713	0.45783025	0.44180572	1.0688858	0.17691693	-0.92056227	1.7749233	-0.9238742	0.88338304	-0.6266105	-0.544403	-0.7942712	0.36039034	-0.14856204	0.38479623	-1.5603757	-0.17744717	-2.1086478	-0.09087771	0.035313644	-1.2704656	0.5012029	-0.74279004	0.07665675	0.09783085	0.7231078	-0.19943872	0.45735866	-0.1017499	-0.40183038	-0.6642504	0.010104656	0.24090841	-0.45163974	1.4406209	1.1522366	0.6072699	-0.9957609	0.4455419	0.35031864
harm	0.5273312	-0.30780104	-0.13370404	-0.95189303	0.05860287	0.17364177	-0.4442985	0.47399995	0.7728274	0.479825	-0.4493256	-0.26010576	-0.15324244	-0.11073306	0.5556882	-0.47130248	1.4546528	0.5262169	0.78511584	0.12400366	0.11059068	0.4449972	0.9584701	0.3978142	0.19843344	-0.9499251	-0.98514295	-0.26405966	-0.027128361	-0.49806675	-0.59051186	-0.571869	-0.56662464	-0.92435735	0.5058653	0.112423494	-0.24623497	-0.4469044	1.0392673	-1.2397459	-0.3016148	0.18788147	-0.90314054	-0.96432835	-0.5705848	0.6890231	-0.6813143	1.0832431	-0.8192071	0.25547904
pleas	0.97515994	-1.0241919	0.48904204	-1.0259113	0.73802793	-0.5131753	-0.7677455	0.5632309	-0.59996897	-0.10024053	-0.58138984	-0.7005438	-1.2754843	0.5166634	0.31431577	0.29115558	0.9190124	0.1519982	1.2311566	-1.0108122	-0.46689102	0.31370145	-0.08402459	-1.2994504	-0.59265506	-0.96897143	-1.2690908	-1.210877	-0.6887854	0.68510497	0.121819116	-0.9829442	-0.31385145	0.448797	-0.26653337	0.204656	0.39885354	-0.14938179	0.7372485	-0.9215652	-0.56008756	-0.9010081	-0.92695963	-0.5122931	0.26767138	1.2936571	0.48681772	0.1755889	-1.2413397	0.5315931
equal	0.87155235	-0.22881047	0.4272477	-0.45443267	-0.55543566	0.6165037	-1.3501214	0.48880425	0.47286767	-0.5925957	-0.1549377	0.047516998	0.44084185	-0.7318314	0.48919597	-0.54391456	0.76747227	-0.08021064	0.61137176	-1.6965528	-0.7732837	-0.30825192	-0.24335095	-0.6722062	1.2687731	-1.2354103	-0.56200224	-0.7079364	-0.99205256	-0.0010198429	0.017501041	-0.6771145	-1.2389791	-0.14777106	0.20115787	0.37412056	-0.28254157	-0.24297556	1.08525	-0.021940995	-0.20369527	-0.36865026	-0.871378	-0.065130904	0.006511637	0.21621977	-0.20730153	0.849393	0.7742432	-0.44512138
weird	-0.051442463	-0.90155077	1.3083649	-0.17442949	-0.71366864	-0.41463345	-1.1821691	0.73457605	-0.34380805	0.384711	-0.07060015	-0.19139649	-0.5396303	0.4573578	-0.1456849	0.590643	0.7491361	0.022230089	1.007106	0.49427497	1.0533155	-0.5821583	0.34095985	-0.82992893	-0.5009922	-0.3450575	0.02148636	0.046678435	-0.9281881	-0.24863143	-0.81009316	-0.14657252	-0.37697023	0.6846881	0.12904215	-0.9544383	-0.30841842	0.11775583	1.2754879	-0.46520865	0.9301812	-0.36949998	0.623489	0.30667183	0.7335441	-0.32479626	0.41878477	-0.17256999	-0.5433144	0.7264668
employe	-0.80367655	-0.12097191	0.44956112	-1.4390258	-0.0011031628	-0.24250515	-0.64317006	-0.1047449	-0.10312593	0.19136783	-0.29251778	-0.44163424	-0.44811434	0.7031931	-1.012543	0.7770062	1.0464679	-0.043042757	0.83709437	-0.95369357	0.26758805	0.3986128	-0.038973406	0.52460754	0.8251834	-0.5025359	-0.38842317	-0.7783412	-0.098880306	-0.0647258	-0.17050652	-1.3626821	0.60446215	-1.1401492	0.88996756	-0.6653158	-0.9456334	0.7764654	0.37653404	-1.0707177	-1.1696407	-0.46908647	-0.3520211	-0.9076326	0.53653044	-0.31436455	0.29532242	0.9703115	-1.9268167	0.8647967
effort	0.54579335	-0.8691378	0.49014968	-0.62746245	0.29780018	0.069990955	0.64368296	0.5544814	-0.41340095	0.5998821	0.13420503	0.5278022	-0.54884034	0.5390703	-0.41096807	-0.07345514	0.65420735	-0.01570253	0.7631667	-0.7821808	-0.40530592	0.15720627	1.1660618	-1.3097031	0.41672003	-0.19669108	-0.6748923	-0.44486743	-0.14849351	1.1164105	-0.0077600777	0.17584461	-0.660249	-0.54059774	0.54605377	1.3819342	0.87058955	0.26109245	0.28343898	-0.767369	0.21314588	-0.93159163	-0.21453068	-0.8498759	0.8615788	0.24821979	-0.59953207	0.013729303	-0.14438857	-0.14984809
top	-0.57343894	-0.23623413	0.6566111	0.18926032	0.17264663	0.22130075	-0.95459867	1.2043531	-0.81134415	0.568662	0.08351858	-0.6616154	-0.9701913	0.6781377	-0.107633054	0.33034378	0.51752543	-1.1103898	0.38956177	-0.66373235	-0.47377843	-0.19036815	0.7306694	-0.8636414	0.36434135	-0.6237806	-0.075251676	-0.122223526	-0.23035078	1.002656	-0.048228547	-0.3782376	-0.5796774	-0.2201531	-0.26042658	-0.1710738	0.24621493	0.8329087	1.5506362	0.040837053	0.5949174	-0.8746512	-0.1603927	-0.6353254	0.71559703	0.46557516	1.1638193	-0.80625254	-0.45937127	-0.06107363
