	0	1	2	3	4	5	6	7	8	9	10	11	12	13	14	15	16	17	18	19	20	21	22	23	24	25	26	27	28	29	30	31	32	33	34	35	36	37	38	39	40	41	42	43	44	45	46	47	48	49
come	-0.1164798	1.0045223	0.5998449	0.6520257	0.7546698	0.7298766	-0.56531787	-1.0609028	0.17122042	0.5798724	0.86479986	0.8407247	-0.91524816	0.39702508	0.3256491	-0.6559454	0.56349754	1.0001554	-0.17541781	0.5071883	1.0155171	-0.4048612	-0.37789822	-0.66765356	-0.5618033	-0.8274151	-0.03436802	0.90829015	-0.950549	0.736819	-0.72954816	-0.14048931	1.0355005	-0.5901866	-0.057203367	0.45511287	-1.0060322	-0.10478029	-0.27055436	0.25837073	0.6336222	-0.28638467	0.620129	0.7540679	-0.6889989	-0.73536444	-0.59530056	-1.1835991	0.25663912	0.13970666
is	0.29334563	0.780476	1.3353121	0.940081	0.8928788	1.0024854	-1.111213	-1.3180922	0.05720429	1.0983274	1.4218519	1.0462754	-1.0971403	1.0586085	0.2266609	-0.921613	0.98605967	1.19279	-0.42833167	0.7849651	0.91388595	-1.0138434	-0.9251646	-0.57208717	-0.8078976	-0.92942643	-0.4706596	0.8730662	-0.9122634	1.1218636	-0.78866214	-1.2491866	1.2512755	-1.2664849	-0.29173526	0.2705737	-1.241462	-0.5528955	-0.2862854	0.12336845	1.0138105	0.008802881	0.45851	1.3743448	-1.2915652	-1.2703438	-1.1508064	-1.2141318	0.1319392	0.5337915
said	0.4229837	1.0475895	0.542528	0.9663967	0.75299835	1.1047552	-0.80278456	-0.71438193	-0.26652324	1.0551617	0.9199965	0.28688642	0.26982504	0.96373165	0.045011386	-0.6244981	1.2499642	0.8191782	-0.07610096	1.2703636	0.5196545	-0.39752868	-0.8275785	-0.59097457	-0.5595936	0.11796838	-0.022818323	0.923842	-0.9697659	0.7821982	-0.77510154	-1.1936932	0.73645675	-1.1835362	-0.32709813	0.53558654	-0.83835244	0.39861137	-0.8145015	0.7158853	0.26327556	0.61715245	0.07984925	0.81631845	-0.3980535	-0.7335297	-0.14928	-0.84216857	0.4511394	0.1304951
past	0.8481692	0.43567783	0.22993377	0.34600672	0.13949493	0.6342617	0.16825143	-0.077520974	-0.2006279	0.6443063	0.8077465	0.5075614	-0.7554634	0.3750497	-0.14748743	-0.61531496	0.15541294	0.6383711	0.32390624	0.027835637	0.78610706	0.49673295	-0.8267362	-1.2002256	-0.21309768	-1.1988614	0.6493332	0.69010687	-0.6984112	0.78732085	-0.800831	-0.511958	0.8394741	-0.7942066	0.32440794	-0.42390713	0.0783978	-0.32385084	0.10726088	1.0444351	0.5802926	0.41353434	0.16493365	0.7988943	-0.85621536	-0.31939188	-0.91215265	-0.4262882	-0.22723484	0.79882014
polit	-0.46276832	0.090823434	1.0963235	0.89266074	0.5205126	0.9541287	-0.5874876	-1.0689894	0.7106788	1.8142236	1.4192276	0.9358237	0.075088434	0.23740906	0.49229103	-0.9129689	0.5410399	0.12962048	-0.029233307	0.26009473	0.83157367	-0.11866095	-0.68806815	0.519752	-0.056841776	-0.6307931	-0.7088693	1.5272866	-0.539274	0.5722131	-0.4807946	0.052154005	0.93975055	-0.3383948	-0.083762944	-0.5118005	-1.2035515	0.10931355	-0.105999865	-0.5115726	0.657961	-0.1670875	-0.08045614	1.3080074	-0.602064	-0.7703651	-0.3188849	-0.23240633	-0.38214293	0.7863061
also	0.012580298	0.7654913	0.85227776	0.6156203	0.769348	0.9407637	-0.49253348	-0.97795427	-0.44743288	0.7480409	0.4049896	0.169094	-0.24765527	0.6410729	0.04773753	-0.79945886	1.0918465	0.78425723	0.25138688	0.5739838	0.908126	-0.29256836	-0.72777975	-0.2939795	-0.0657824	-0.18750416	-0.5730094	0.9650198	-0.67289305	1.0131981	-0.47419292	-0.7277863	0.4997924	-0.84460974	-0.352101	0.30891043	-0.7909386	-0.6189891	-0.03794298	0.23114747	0.9545176	0.5263666	0.26118955	0.6588223	-0.91197777	-0.8784162	-1.234231	-0.67734265	0.018815538	0.08816401
alreadi	0.18537012	0.26674876	0.9849813	0.8276887	0.38437858	0.41825384	-0.12835939	-1.2457571	-0.27940753	0.021118514	1.3780365	-0.030649453	-0.19081593	0.07169697	0.5469821	-0.95482373	1.3922774	0.45756182	0.1326305	0.95709616	0.9880549	-0.20163491	-1.1440326	-0.16318524	-0.31951833	-1.4270716	0.14211445	0.484783	-0.6516411	0.365314	-0.71941376	-0.47288424	0.27590787	-0.4118939	-0.12118254	0.12613685	-0.79371375	-0.3859157	0.0035344772	0.61254334	0.90928006	-0.10065594	0.15073852	1.1188803	-0.62404364	-0.4700132	-0.46547735	-0.76190317	-0.6048679	0.55002457
m	-0.25923356	0.6477392	0.67717135	1.5711896	0.75486064	0.7892885	-0.6207669	-0.784618	-0.2823648	0.6913421	0.7460542	0.6987926	-0.49616864	0.57272935	0.3939011	-1.3435078	0.28333807	1.139284	0.17685792	0.92280054	0.8271681	-0.17968611	-0.5706885	-0.82428586	-0.7100421	-0.8751559	-0.64281183	0.47983593	-1.1119692	1.0689726	-0.79590046	-0.54944706	1.2117089	-0.878927	0.36616248	1.5471599	-0.19842702	-0.30088878	-0.39429218	-0.07225239	0.50430894	-0.5182635	0.109881826	1.2959042	-0.75303483	-0.8619566	-0.8792473	-1.0823691	0.42015135	0.04957212
find	-0.40202713	0.9493199	0.92074394	0.24316953	0.6777111	-0.021771617	-0.4004885	-0.82421064	-0.26591334	1.2197874	0.5566137	0.9833605	-0.36345354	0.55589044	0.55212724	-0.6709026	0.84485996	0.8898902	0.06148787	0.21686062	0.96541464	-0.40346822	-0.23330893	-0.57763094	-0.18013859	-0.6615558	-0.5496977	1.181109	-0.47149855	0.6095957	-0.7061449	-0.41749924	0.41712585	-0.55168736	0.63133323	0.5729216	-0.63971263	-0.4923582	-0.19554758	0.5984478	1.0261226	-0.34866464	0.35121295	0.70208824	-0.5543281	-0.45628643	-0.10424411	-1.0947086	-0.5250273	0.6072187
some	0.32128477	0.8839473	0.89765775	0.7859907	0.56219745	0.7127905	-0.81781614	-1.007314	-0.83810914	1.2448356	0.6353105	0.42716587	-0.5675931	0.33980763	0.081559494	-0.8477625	1.0494013	0.82966095	0.059502274	0.47646838	0.7440331	-0.3897066	-0.583449	-0.20619528	-0.35763296	-0.9451627	-0.34650466	0.91035014	-0.70810235	0.88955915	-0.5012773	-0.51411533	0.7361598	-0.6131953	-0.14934742	0.8140367	-0.9748663	-0.40439805	-0.18897182	0.015736347	0.72696865	-0.17930076	0.29014143	1.1676464	-1.1673291	-0.5271287	-0.60326517	-0.94689167	-0.14775273	0.3463843
updat	0.31938815	1.2972597	1.0394515	-0.15398626	1.2625372	-0.7107414	0.04158952	-0.7702474	0.15775649	0.34140158	0.05668635	0.34071696	-0.2846682	0.79033273	1.0098046	-1.4445045	0.20324805	0.8921233	-1.2396538	0.018432513	1.4794104	0.8502024	-0.9604252	-1.4122059	-0.53246284	1.3814635	0.028968945	0.46443003	-0.76092666	0.9544537	0.24200085	-0.23680243	0.486776	-0.8066206	-1.4614923	0.21043369	-1.1875174	0.16693878	0.5035086	0.21963507	0.6148422	-0.059018806	-0.2066033	1.5089512	-0.11759433	-1.1317849	-0.75142586	-0.7905314	1.0748489	0.23448285
someth	-0.09616934	1.0245745	0.8321965	0.89724696	0.58515775	0.89936125	-0.8980847	-0.60427564	-0.27930546	0.8177085	1.0882946	0.76351905	-1.0556314	1.205976	-0.1407976	-0.6860481	0.9796283	0.5381315	0.36596975	0.9132292	0.6729613	-0.3685824	-0.87048733	-0.36666298	-0.76659274	-1.3919758	0.578218	0.6354599	-0.3289888	1.1153556	-0.44703567	-0.4678137	0.690909	-0.8657231	0.7568143	0.56598336	-0.68765616	-0.17732918	0.25623828	0.12167764	0.380607	-0.13727179	0.37280908	1.0261852	-0.43199632	-0.61967206	-0.090714045	-0.6706313	-0.46312684	0.22839446
crime	0.72373754	0.8467897	1.6935678	0.32916284	0.29973638	1.1282232	-0.5421753	-1.1448262	0.49612972	-0.08817002	-0.15123503	0.6451793	-0.5559578	0.71468943	0.158139	-0.6989801	0.34104034	0.07084251	-0.38877416	-0.07802985	0.5504091	-0.010944337	-0.90517855	-0.14471449	0.19788884	-1.0135914	-1.2738209	1.0822066	-0.31817433	0.51928973	0.10954426	-1.5761619	1.0021755	-0.51360506	-0.3763739	-0.55328584	-0.33298296	-0.68832165	-0.9620504	0.8223262	0.58619297	0.2982214	0.12032178	0.84561	-0.9323537	-1.2363955	-0.30593976	-0.4723932	0.010446331	0.43222597
close	0.07058157	1.1785583	0.8775295	0.065774	0.7109717	0.4663068	-0.73774374	-0.35925654	-0.6591646	-0.04367184	0.6923232	1.1299982	-0.15998217	-0.50333303	-0.46492735	-0.4534506	0.5067898	1.2326597	0.5799256	0.9524615	0.26400748	0.4854717	-0.40119383	-1.9395618	-0.37708518	-0.36928406	-0.20522965	0.8494774	-0.5937375	0.04323539	-0.25571764	-0.6342386	0.8483076	-0.6714425	0.5342862	0.6475198	-0.13614139	-0.5597003	0.289018	0.15592748	0.27514026	-0.41446325	0.40662944	1.1463488	-1.0739021	-0.51055145	-0.77430433	-0.94917953	0.121468514	0.15766618
citi	0.6954887	0.9451904	1.0076348	1.0341921	0.66294825	0.06847171	-0.757826	-1.4147733	0.4823939	0.28491297	1.1021655	-0.29907063	-0.9251479	-0.13286175	0.65122736	-1.2263608	0.70724046	1.0413272	-0.14754954	0.44485486	-0.06502464	0.10676684	-0.53048724	-1.8780072	0.038283408	-0.47919017	-0.18564759	1.2223125	-0.38739043	0.009372035	-0.094499074	-0.07616861	1.1686726	0.112784386	-0.52715904	-0.03570838	-0.20447195	-0.37025514	-0.018493097	0.34708995	0.80855894	0.3791895	0.38262016	0.6789562	-0.82637644	-0.4598953	-0.83736396	-0.8092153	1.1736639	-0.33037263
mean	0.012083631	0.69327265	0.67167336	1.040978	0.77086145	1.1702676	-0.9874509	-0.86790824	-0.06805799	0.670421	0.9438878	0.36812884	0.035774037	0.5163436	0.22036652	-0.7078818	0.7950196	0.7423658	-0.09812255	0.5090802	0.5456469	-0.54765344	-0.4130379	0.37489173	-0.42819723	-0.8809546	-0.20654038	0.49038702	-0.3729805	0.87575674	-0.31508932	-0.6424949	0.28160155	-0.8855387	-0.10505774	0.4670605	-0.58066475	-0.60626185	-0.46065384	-0.029063717	0.35165066	0.061843704	0.0102568865	0.78659207	-0.7112076	-0.5418329	-0.8423864	-0.74028504	-0.52600837	-0.31048375
scene	0.17323174	1.0510602	1.8123343	-1.1601385	0.79419166	0.12577686	-0.24141517	-1.2326548	-0.2476329	0.08015724	1.0240088	0.9771161	-0.20140384	-0.023600254	0.028484069	-0.89894176	1.092391	-0.12537457	-0.5691347	0.65782315	0.34150407	0.09763639	-0.27279478	-1.6838384	-0.2194496	0.97980034	-0.0156814	0.84970605	-0.9531531	0.9984511	1.2046739	-0.33407924	1.1134945	-0.074273765	-0.7441275	0.2987937	-0.91490734	0.12551999	0.27202883	0.645736	0.9394699	0.5424406	-0.6964826	0.82735753	-0.8239956	-1.1395264	0.04602482	-1.1537423	0.74111676	0.4845836
thought	-0.5307039	1.0612131	1.1933451	0.8719468	0.568627	1.2274065	-1.1288964	-0.38485974	0.24507329	0.82385623	0.72672087	0.48002666	-0.7852404	1.2753253	0.03071475	-0.5275701	1.3059686	0.5545676	0.3550098	1.4351895	0.8388215	-0.3345585	-0.73816407	-1.5203044	-0.25525305	-1.0349827	-0.14492477	0.9736265	-0.43888563	1.1040542	-0.07806532	-0.47539216	0.51460236	-0.52603424	0.75602233	0.75363517	-0.42016256	-0.7260798	0.6676771	-0.6425909	0.8618704	-0.058272067	0.92145526	0.05549272	-0.6380705	-0.9546748	-0.9696205	-1.3630042	0.5940193	1.171878
your	-0.08013734	0.94680667	1.2194227	0.90445685	1.054416	1.3167937	-1.4745202	-0.6087936	-0.5246658	1.3623608	0.758355	0.76851	-0.4081087	0.780263	0.21538194	-0.76055276	0.79102707	0.79329133	-0.09983557	1.0171236	0.9658867	-1.2625552	-0.7309247	0.13430129	-0.35790616	-0.85222155	0.3072903	1.0385338	-0.7331924	0.91581887	-0.7714712	-0.37203595	0.9640664	-0.6199515	0.2804943	0.2826497	-0.52741075	-0.26467773	-0.2711741	-0.1576303	0.85907674	-0.5153172	1.2004759	0.9442586	-1.0182203	-1.4233425	-1.0029513	-0.61674774	0.21044824	0.14579895
look	0.47857377	1.0088294	0.86691904	0.3180767	0.620451	0.43371478	-0.8211817	-1.0013669	-0.35211644	0.878054	0.91259587	0.7846493	-0.83548874	0.19840679	0.21247588	-0.75446427	0.7800809	0.7537126	0.01574228	0.532658	1.0999336	-0.4451198	-0.55580544	-0.10516003	-0.46230134	-0.47951227	-0.1740712	1.019262	-0.45954078	0.49717855	-0.616734	-0.77254665	1.043285	-0.5405072	-0.036906082	0.53186184	-0.97048163	-0.038774736	-0.4490333	0.4700645	0.49715972	-0.15253979	0.09749915	0.80089754	-0.85331625	-1.017844	-0.64857405	-1.2798854	-0.37910283	0.19220692
we	-0.36967516	1.2548983	0.91556805	1.2226193	0.8261049	0.8194313	-1.171469	-1.1497905	0.23828544	0.8748218	1.0536957	1.1364837	-1.3328433	0.7837715	0.43632978	-0.9100344	0.8885955	1.1422484	0.06612607	0.71821153	1.1309812	-0.7871721	-0.74708724	-0.64737505	-0.77602875	-1.3959143	-0.2337933	1.0565724	-1.0720142	1.1150231	-0.753122	-0.5622849	1.1185346	-1.094153	0.13738021	0.13714272	-0.7723596	-0.7654104	0.25645196	0.35378736	0.8667381	-0.11105783	0.86337674	0.93634593	-0.8824628	-1.0238931	-0.993626	-0.97499037	0.26998946	0.19428463
about	0.03603658	0.76651406	1.0177279	1.2263842	0.59763056	0.8508742	-0.9347651	-0.8796754	0.019248962	1.237128	1.0028255	0.6689367	-0.6450709	1.2241448	0.26642692	-1.1153412	0.5766129	0.91461354	0.36760277	1.0356784	0.94985986	-0.5922837	-1.1953342	-0.49351904	-0.96984875	-0.9414964	0.21057293	0.9012399	-0.9721005	1.2621822	-1.3170463	-0.86571074	0.8993734	-1.0097797	0.08562743	0.83599174	-0.93323493	-0.19493517	-0.4460168	0.12621343	0.9697731	0.020008307	0.5617344	1.2073209	-1.0651033	-1.6467619	-0.6345545	-0.87312955	0.14044483	0.61566776
know	0.13189909	0.9332	1.0448058	1.1248443	0.8850199	0.6883018	-0.64832103	-1.0431926	-0.37465346	0.7864672	1.1669021	0.6654372	-0.42616743	0.7987342	0.25899753	-1.0307511	0.9905404	0.82330585	0.19612527	0.7331476	1.1375797	-0.5968113	-0.6210898	-0.45356214	-0.45429718	-0.6847777	-0.15594254	1.1370006	-1.066288	0.8022071	-0.56332946	-0.99844134	0.4025602	-0.7637788	-0.04254991	0.8649416	-0.66356695	-0.35584545	-0.5733204	0.15848579	0.5522622	-0.007370604	0.39012226	1.008576	-0.64621353	-1.012475	-0.55427635	-1.0732884	-0.42952806	0.2950727
them	-0.14803159	0.94206536	0.6631287	0.7750442	0.728161	1.0889932	-1.1028336	-1.3172772	-0.7478756	0.8959261	0.36135486	0.8952327	-0.18188457	0.966646	0.17824179	-0.6314112	1.3004425	0.901741	-0.38785917	0.49667716	0.85136735	-0.79052466	-0.6705141	-0.1053171	-0.11012191	-1.04462	-0.40945393	1.1284444	-1.0551603	0.5909614	-0.55382824	-0.5349717	0.8441968	-0.76969415	0.1673994	0.3187186	-0.66059905	-0.44078785	-0.13314886	0.7955698	0.90597606	-0.3770268	1.0262678	0.80064726	-0.7764945	-0.4678049	-1.0307151	-0.9303316	0.061166048	-0.050268196
black	0.34545577	0.53509253	0.9230015	0.52175003	0.37123638	0.17467043	-0.6970334	-0.89653206	0.48180923	0.47563195	0.80979896	0.3413729	-0.7371669	0.8862873	-0.8084239	-0.8167494	1.1266195	0.23715083	-0.694299	0.15376173	0.648285	-1.1494703	-1.1637081	0.13658264	-0.13992125	-0.89668834	-0.39983827	1.0036452	-0.97279537	0.65858614	-1.03601	-0.69140893	0.69761395	-0.76178384	0.045883246	1.1192584	-0.8243268	-0.7388441	-2.2740872	1.4195663	0.6640067	0.72245365	0.022275532	0.58769596	-0.5879778	-1.5489492	-1.2653204	-0.9499101	0.58183485	-0.39717552
kind	-0.18459047	1.0353835	0.21408686	0.30674627	0.7123618	0.9601946	-1.358014	-0.16156109	-0.7604933	1.4099123	0.6263463	0.78882074	-0.36216113	0.5446369	0.35522777	-0.47087663	0.21891081	0.5863278	0.13808596	0.24142852	0.18894953	-1.1809978	-0.5467292	-0.46263605	-0.13877818	-0.71801174	-0.46000153	0.55862564	-0.7641458	0.45269167	-0.31047875	-0.5831624	0.6847384	-0.527634	0.19679506	0.47500378	-0.14450218	-0.5045451	-0.4526215	-0.52811193	0.16962242	0.18893549	-0.24580747	1.0384302	-1.2414358	-0.36104393	-0.10615141	-0.7918385	-0.27807578	0.17948568
protect	-0.6045685	1.0865474	0.5860653	0.78707933	0.795049	1.8079312	-1.1661017	-0.8064593	-0.32902396	0.7916983	0.6621387	1.1521473	-0.35301358	0.8153045	-0.26693913	-0.9122933	0.7264488	0.5392057	-0.48123932	0.31255436	0.27559635	-1.0099595	-0.4405713	0.46236774	-0.14493911	-0.6716211	0.19687986	0.36466667	-1.145722	0.5259241	0.5978776	-0.061353967	0.27892533	-0.9261147	-0.06891095	-0.14702189	-0.5089773	-0.6565235	0.26931238	0.42762923	1.7273154	-0.22719142	0.6563541	0.12759739	-0.8542035	-0.21933986	-0.9121276	-0.80127895	0.50663817	-0.57798517
violenc	-0.41714436	0.6118805	0.6344952	1.2214533	0.44688088	1.2040569	-0.8797586	-0.2564972	0.5062547	0.74618924	0.7766551	0.5857735	-1.413007	0.95977473	-0.0025481805	-0.34007314	0.61377215	0.8890263	-0.13342786	0.347497	0.80822235	-0.014391977	-0.54160374	-0.53867126	-0.65845174	-1.4978849	-0.7415172	1.26813	-0.9335488	1.0759606	-0.07765404	-0.20101713	1.2947378	-1.2372525	0.4688654	-1.0531809	-0.65411496	-0.63650906	-0.25517863	-0.08355359	0.3053534	0.18014775	0.55941725	0.5062004	-1.1744753	-1.0717748	-0.84150994	-0.87571347	0.4730615	0.2375006
respons	0.67252004	0.47115377	0.3521689	0.19869281	0.43087506	0.8235774	-0.7913442	-0.9686854	0.4185543	1.0151932	0.6657976	0.7263295	-0.052703783	1.1435057	0.4610778	-0.94148195	0.94233686	0.9643729	0.20042542	1.1233819	0.13274485	-0.39604804	-0.64482725	0.31945843	0.2501228	-0.4375292	-0.3177646	0.4891168	-0.60114896	0.9192059	-0.046961494	-0.7641289	0.78232527	-0.94103384	-0.22530505	-0.78656554	-0.5832071	0.036081925	-0.009571166	-0.042185582	1.2453175	-0.31094906	0.34100768	1.1830957	-0.903118	-0.65492374	-0.86065257	-0.9815409	0.35388637	0.1662705
send	-0.4685853	1.2197198	0.7086957	0.32249278	0.43469977	0.9713978	-0.9439673	-0.010385253	0.08427176	0.43372717	0.043467432	0.30452815	-0.6138723	1.2227368	0.5081273	-0.7250054	1.359237	0.7396711	0.35017103	1.3842328	0.28049824	-0.5584489	-0.25632024	-1.502419	-0.19640432	-0.75267625	-0.59549516	1.0367976	-0.14917684	1.249616	-0.509343	0.16256551	0.27432767	-0.20677698	0.76653606	0.38824117	-0.34173006	-0.56411946	0.44345325	-0.7807028	0.62408304	-0.61560166	1.3303468	-0.19902086	0.096631326	-0.7660603	-0.7621974	-1.3824874	0.68700576	0.31313792
shot	0.78839445	0.82606095	0.3873249	0.6423326	0.4413276	0.550963	-0.78841174	-0.9153323	-0.25290555	1.0204203	0.9442252	0.6916756	-0.5124284	0.49880838	-0.344158	-0.98729694	1.16751	0.8819314	-1.4680338	0.84391093	0.799474	-0.76695126	-0.6633718	-1.0175915	-0.90099865	-0.25888497	0.09976117	1.1779345	-0.96603054	0.51899165	-0.35259253	-0.7056696	0.78089976	-1.1751868	-1.1426606	1.6484444	-1.4211419	-0.61607283	-0.6241358	0.64989686	1.1859717	0.20302851	0.7303008	1.0678246	-1.0321208	-0.8825892	-1.3580496	-0.90241766	0.86629343	0.44028133
a	0.36154202	0.9259769	1.073772	1.095156	0.8863464	1.1040645	-1.3397012	-1.2177495	-0.60634756	1.1377538	1.3634926	0.8833354	-0.9160728	0.9029641	0.08015245	-1.0895958	1.2341805	1.1735322	-0.0108537	0.88036525	1.1560512	-1.2000452	-0.84182686	-0.6325639	-1.0007839	-0.7913878	-0.8577043	1.2093202	-0.92413807	1.1695061	-1.1019214	-1.1470618	1.2596531	-1.2603941	-0.90849984	0.7031867	-0.9037337	-0.4931842	-0.14002252	0.95435846	0.90791017	0.3822614	0.33198452	1.4114289	-1.4409363	-1.3972741	-1.427827	-1.3242393	0.6332804	0.62228876
think	0.1396701	0.6317357	0.56903887	1.0324492	0.6541927	1.1326712	-0.68022656	-0.8126339	-0.5919525	0.98111206	0.83453894	0.690837	-0.4793948	0.46233144	0.24316864	-0.9265027	0.94030714	0.982952	0.24626209	0.54196495	0.7565197	-0.6504976	-0.5896657	-0.18835972	-0.4835416	-1.0841825	-0.087841205	0.8523871	-0.85799885	0.97845685	-0.38678676	-0.913229	0.7139412	-0.88546187	0.29360312	0.7537625	-0.944237	-0.6779262	-0.31845582	0.18222755	0.7122654	-0.18365711	0.4485302	0.88816553	-1.1293993	-0.83798313	-0.5844618	-0.93414426	-0.23493284	0.18539745
usa	0.10965756	0.6877581	0.51332396	0.87445915	0.7943557	0.42728907	-0.6559028	-0.5848081	0.43897584	0.8085489	0.29877037	0.5308884	-1.2371235	0.30463457	0.07774957	-0.36915916	0.66680366	1.034755	-0.11571621	0.35213915	-0.2363028	-0.76508605	-0.89251435	-0.6718924	-0.09038837	-0.79794025	-0.0024845973	-0.36406904	-0.8132521	0.41626972	0.09118591	-0.28888977	0.80623376	-0.709579	-0.8798548	-0.39006728	-0.6986755	-0.40768632	0.48740143	0.24725342	0.27615544	0.56089586	0.6157012	0.7308616	-0.6329428	-0.9790789	-1.037069	-0.9586226	-0.21601707	0.22879294
turn	-0.14762971	0.62954986	0.26985157	0.3964938	0.21434675	0.65015453	-0.40177208	-1.3107584	0.044249192	1.0346546	0.41409546	0.5791264	-0.42493093	0.24361503	0.14139757	-0.029829606	0.5248174	0.3734271	-0.21169913	0.41173953	0.14463678	-0.4801662	-0.3439263	-0.20904578	0.0025780648	-0.875381	-0.49858308	1.1847944	-0.6785555	0.59934556	-0.4945969	-0.120623454	1.4236331	-0.5505204	-0.23762958	0.47192279	-1.3625517	0.5472156	-0.20538935	0.7973487	0.6529263	-0.15513222	0.43113345	0.85566473	-1.2690784	-0.36278936	-0.55827415	-0.79786223	0.015659414	0.42190695
show	0.685896	0.6649342	0.99958146	-0.07831538	0.8080572	0.18061264	-0.6791567	-1.1602893	-0.46014762	1.3368673	0.7983798	0.7938484	-1.0139894	0.37037295	0.7614539	-0.972338	0.3581273	0.83031905	0.49504223	0.6425411	0.36977047	-0.9443686	-0.87284166	0.19692957	-0.21945563	-0.42222077	-0.43768138	1.0967407	-0.9100496	0.8664621	-0.46474394	-0.03640468	1.4629654	-0.740776	-0.06388557	0.50842303	-0.49404192	0.20335239	-0.5073147	0.14925772	0.5780219	-0.102300406	0.051044367	0.40381652	-1.067929	-0.66409844	-0.59593827	-0.38320458	0.97425365	0.1983434
give	0.15769501	1.0943716	0.8493118	0.38313895	1.34815	0.74074817	-1.3104434	-1.447049	-0.49781	0.9047049	-0.05498127	0.715129	-0.24439256	1.2150495	0.4693535	-0.5211284	0.5253279	1.1901476	-0.21119314	0.16106154	0.8778192	-0.89461213	-0.8668429	0.26893806	0.31409353	-0.45001802	-0.19469282	0.43806452	-0.55420166	0.8773429	-0.37505662	-0.4941657	0.44626307	-0.8449807	0.27744874	0.61557126	-0.81223613	0.0786689	-0.104578495	0.33601993	0.51544714	-0.8561002	0.9316797	0.8875965	-0.28004098	-0.77020204	-0.53665435	-0.77629733	0.19580379	0.39145482
cnn	0.046174396	0.14910866	0.76225394	0.28334588	0.4684516	0.15234566	-0.49942827	-1.6488941	-0.22531424	0.88616264	1.145858	0.0026922151	-0.255419	1.0774305	0.18593365	-0.6034973	0.5615344	0.53312624	-0.4583938	0.9820592	0.60859066	-0.048507296	-1.680479	-0.2998355	-0.45156443	0.5441713	-0.41488165	0.81053925	-1.3139119	-0.3459983	-0.5555865	-0.3002375	0.6502152	-0.6551459	-0.93847597	0.0803487	-1.5945292	0.68743503	-0.762218	-0.14564367	0.77679896	0.065231286	0.16321914	1.1227243	-0.7951572	-1.5034091	-0.143455	-0.5237042	0.34908885	0.29850015
most	0.44468755	0.4952641	0.7693268	0.8050997	0.96373606	1.0176381	-0.5570482	-0.985585	-0.52699095	1.0657958	0.36823505	0.7061713	-0.448852	0.3411664	0.18202081	-0.87000585	0.46701586	0.575697	0.44897285	0.38184416	0.78268516	-0.34552372	-0.69834846	-0.22910374	-0.22221577	-0.7463521	-0.20047054	0.91424716	-0.62188494	0.46028495	-0.37722275	-0.94602585	0.69935524	-0.5994739	-0.1426498	-0.12568143	-0.5242245	-0.8770287	-0.015014853	-0.023145301	0.82870257	0.9739413	0.04052244	0.96837723	-0.6247829	-0.5659975	-0.9879297	-0.8172891	-0.11408722	0.044223316
hope	0.22135124	0.77275085	0.6523411	0.89404577	0.8006929	0.21643193	-0.9033172	-0.8279717	-0.28520063	0.8326658	0.32041502	0.9461111	-0.081373304	0.8430593	0.05597883	-0.005136326	1.098225	1.0477529	-0.05006736	0.50762063	0.7910497	-0.26685086	-0.47242507	-1.1152608	-0.020663053	-0.81938756	-0.6805804	0.71784365	-0.8410421	0.892199	-0.3777446	0.31516498	0.74608755	-0.56206906	0.8474343	0.75925565	-0.8568027	-0.5217905	-0.04378253	-0.22444163	0.5059608	-0.9583402	0.81595653	0.661004	-0.60234916	-0.55022556	-0.67613596	-1.5601786	-0.06880385	0.19653673
stand	-0.24176073	0.72723913	0.86977476	0.44058257	1.3407339	1.4291596	-1.1385183	-0.66699135	0.54087156	0.47278985	0.50064874	1.0134842	-0.8387372	0.7808962	0.06563188	-0.7013866	1.0235881	0.45879	-0.20786662	0.48653358	0.38440403	-0.2317754	0.26438206	-0.10511755	-0.08699979	-0.8225903	-0.22379534	1.0486525	-0.93871015	0.5860418	-0.40351635	0.4583564	1.8580873	-0.2381267	0.2703895	-0.16924384	-0.08916925	0.141347	0.07228524	0.03723246	0.7667943	-0.13836297	0.7659173	0.19602506	-0.55024886	-0.18215685	-0.67821395	-0.6938249	1.1180402	-0.4263903
someon	-0.02798579	0.83372545	0.65311354	0.727626	0.30946046	1.1076803	-0.485042	-0.64663625	-0.87077725	0.8373129	0.8092321	0.5613141	-0.21525085	0.6169783	0.3671995	-0.8715502	0.89654535	0.64448404	-0.24841726	0.84502196	0.56460595	-0.70067275	-0.31331754	-0.3536409	-0.33281255	-1.149242	-0.47639158	1.1446135	-0.71102357	0.9048611	-0.20943408	-1.1094673	0.6239641	-1.0862792	0.1447376	1.1166549	-0.57027626	-0.2967533	-0.2544874	0.36710152	0.5720464	-0.59176815	-0.19056359	0.7584137	-1.084166	-0.4052295	-0.40455592	-0.3731867	-0.34524697	0.11845801
had	0.08623319	0.97132504	0.41443515	0.6873416	0.6608153	1.0818837	-0.59828013	-1.0615079	-0.93047595	0.78050613	0.74108374	0.6482721	-0.059171584	0.5170536	0.38419116	-0.9030819	1.1918986	0.97623014	0.38999993	0.99677086	0.7296065	-0.7021134	-0.8670354	-0.44964755	-0.5632377	-0.36786768	-0.37578213	1.159987	-0.9730867	1.0770142	-0.58131427	-1.3621686	1.1828454	-1.0806139	-0.32114923	0.42938724	-0.9076655	-0.0816358	-0.13073206	1.4610727	0.9566142	0.67510974	0.11006345	0.6954373	-0.7808343	-0.58805114	-1.1499288	-0.69658387	-0.28247973	0.55441314
new	0.827641	1.1342435	0.16257663	0.7785101	0.68903816	-0.23466292	-1.3998399	-1.352975	-0.012444176	0.44208255	1.4368025	0.515333	-0.643516	0.7448921	0.69470376	-1.1736102	-0.48287794	1.3055245	0.21806732	0.46609026	0.6064944	0.001175195	-1.2970532	-0.43718916	-0.8383977	0.0046711564	-0.4995157	1.3420577	0.1301449	0.63470113	-0.40998042	0.20277883	0.34940296	-0.53971833	-0.5907397	-0.35456914	-0.7155168	0.13676998	0.50849646	0.6168649	0.98313737	0.21346378	0.39397034	0.7996466	-1.0578079	-0.6711811	-0.6974684	-1.2360485	0.11372551	0.4741668
twitter	0.5671684	0.22342885	1.4899178	1.117314	-0.49070626	-0.5578617	-0.66891176	-0.12727802	-0.1886518	0.51003826	0.093606815	0.7405246	-0.0659007	0.1490084	1.1859953	-0.92714024	0.8726316	-0.40917516	0.16457248	0.85295165	1.1268106	-0.61374336	-0.9988593	-0.21879199	-0.66726226	-0.23659232	-0.24704883	0.34979996	-0.37823436	1.5007632	-0.7765439	0.53059924	0.595229	-0.27478716	0.7488998	0.51196456	-1.2873595	0.7557977	-0.28262317	-0.17882583	1.1727834	-0.4698847	-0.6786314	1.100519	-0.6030115	-1.4090749	-1.5256362	-0.51333994	-0.27514854	0.5114101
would	0.106101595	0.7313553	0.5609251	0.87533474	0.72664416	1.2943027	-0.79981846	-0.9459922	-0.5165712	0.61052555	0.6804754	0.85467625	0.0790028	0.59765744	0.3848598	-1.032836	1.2963808	0.7087575	0.432848	0.89392316	0.864262	-1.3304753	-0.771987	0.122753665	-0.4216538	-1.0163311	-0.14693086	1.1730667	-0.87939614	0.83409274	-0.6036543	-1.1741707	0.65433	-0.8403722	-0.10312475	0.5124973	-0.8538182	-0.8062833	0.14568143	0.8301028	0.97027457	0.1077169	0.17874715	0.7738855	-1.2087536	-0.788821	-0.41631162	-0.89406717	0.07179798	0.06068144
first	0.9150652	0.93326485	0.5259724	0.59705245	0.7720051	1.3539653	-0.6946312	-1.0007925	-0.21409443	0.22964662	0.8127036	1.1824163	-0.3965116	0.23734644	0.37444425	-0.819309	0.44631875	0.40330637	0.29631686	0.60462904	0.8623673	-0.57325375	-1.3094816	-1.4201705	0.14084125	-0.43238983	-0.10793226	0.79813975	-0.734434	1.4818103	0.08453082	-0.07310851	0.172328	-0.6737576	-0.41556126	0.24184936	-0.8318871	0.4277614	0.31211996	0.58482534	0.7496167	-0.09296879	0.08058275	0.23313373	-1.7040906	-0.8797128	-0.46553904	-0.798373	0.70295316	0.6818932
clear	0.10760367	1.2153206	0.9874844	0.011850148	0.70597136	0.5949463	-0.50161195	-0.89246553	0.2387111	0.7245788	1.4432106	0.80693305	-0.13191557	0.41881722	0.31518164	-0.79213655	1.0392418	0.8449955	-0.10572397	0.5840639	0.3484317	0.2363708	-0.071549535	0.3741933	-0.29867673	-0.34158957	-0.13775244	0.8730805	-0.082111984	0.647174	0.04152973	-1.3930981	0.8178997	-0.6084187	0.1425732	-0.27478415	-0.7101166	-0.037650615	-0.3242262	-0.08959687	0.5854099	-0.032949943	-0.51274025	0.36444724	-0.7469815	-0.8015919	-0.62519425	-0.62021935	-0.2175931	-0.021593556
ani	0.10461827	0.81224096	0.8949667	0.41439518	1.2493773	0.5910182	-0.7541214	-0.9482306	0.047533356	0.92194855	0.5614941	0.72534305	-0.111918546	1.1018084	0.41993368	-1.1912504	1.0161316	0.6627069	0.018710835	0.7155938	0.7665859	-0.7087167	-0.59492546	0.07477372	-0.73309743	-0.7792085	-0.17429945	1.3429055	-0.89620537	0.80704373	-0.5684959	-0.94113755	0.19806762	-1.2357574	0.24427554	0.0053151366	-0.59271085	-0.9882587	-0.47633827	0.022698268	0.45418507	-0.18692575	-0.02683923	0.9056699	-0.68562484	-0.66618085	-0.57233834	-0.6639033	-0.089150965	0.006516479
respond	0.96597695	1.1327562	1.1180036	-0.095106386	0.6935222	0.9588274	-0.5509317	-1.1180034	0.42309934	0.050005674	0.7639761	0.89071226	-0.1548707	0.3894201	-0.72217923	-0.894714	0.91887784	0.18388285	-0.055898294	1.425905	0.39665508	-0.4242249	-0.9610723	-1.4903069	-0.1160201	0.74809253	-0.06931384	0.47223476	-1.0332237	1.0615784	0.7889069	-0.021481909	0.38800925	-0.40511608	-0.4244004	-0.4951827	-0.57232684	-0.34682572	0.8515259	-0.6066957	1.6569791	-0.11393553	-0.36435235	-0.25864264	-1.3940771	-1.0469027	0.3178538	-0.8209651	1.5776017	0.64117527
head	0.19695467	0.64470434	0.71776634	0.058423936	0.3599965	0.7710507	-0.81890404	-0.5090108	-0.31136966	0.77877367	0.3287472	0.93541694	-0.3860528	-0.19858885	-0.0027962998	-0.5247075	0.6915364	1.0798523	-0.087125555	0.6611725	0.3760765	-0.35970196	-0.5153873	-0.439321	0.0236215	-0.06446706	-0.043540217	1.1082637	-0.5477028	0.41160217	-0.349384	-0.097224765	1.0468016	-0.29661113	-0.17350934	0.7548645	-1.304371	0.51261425	-0.026670586	0.19389455	0.32646057	-0.23917463	0.9699408	1.1519865	-0.9409463	-0.34492552	-0.016196016	-0.82704514	0.388423	0.08653607
keep	-0.41653967	1.3959837	0.9743817	0.674066	0.63797915	0.5070451	-1.004761	-0.6853994	-0.22724009	0.7292502	0.7711283	0.7045984	-0.4195923	0.7178794	0.116055496	-0.31586644	0.5244684	0.5746942	-0.101386294	0.7059392	0.49435943	-0.4361775	-0.76421636	-0.18518846	0.02850455	-1.13291	0.24832512	0.99378526	-1.1053071	0.5497625	-0.18936676	-0.37325126	0.4693545	-0.6280583	0.2965887	0.292077	-0.8906656	-0.28946695	0.30223763	0.030544069	0.83725405	-0.650638	1.0190563	0.6307641	-1.034337	-0.9262567	-1.1880072	-1.027842	0.041682344	-0.029272161
do	0.0288581	1.1054215	1.024382	1.0480034	0.6655823	1.1625997	-1.2152396	-0.97141004	-0.19644019	1.1572988	0.97350764	0.98232806	-0.8162178	1.0408401	0.25339937	-0.919871	1.1797605	0.93741965	0.022002086	0.8196697	0.9119986	-0.9662578	-0.76802933	0.051338557	-0.7203033	-1.1786897	0.08463715	0.92216516	-0.9053273	1.0537217	-0.5162834	-0.69612944	0.8156451	-1.0550483	0.1587789	0.28035116	-0.70029503	-0.60274863	-0.20737776	0.33679664	0.6866977	-0.20425667	0.7533619	1.0555869	-0.79426086	-0.78004676	-0.60958266	-0.78899163	-0.10571915	0.016423631
follow	0.90284777	0.79710513	0.64035153	0.9176465	0.60116875	-0.7228741	-0.4721781	-0.8387909	-0.6109258	0.67074394	0.42411613	0.5838057	-0.25567132	0.6744306	0.22088191	-0.49215394	0.9153849	1.1374638	0.5518588	0.98268086	1.1778944	0.14352019	-0.42848545	-0.2250544	-0.3243312	0.1244126	-0.5611846	0.55223536	-0.54462546	1.3047054	0.44553927	0.11651203	0.7277924	-1.1695719	-0.44825006	-0.8383408	-0.10468599	0.016853958	0.33851403	-0.0061017666	0.7040001	0.3398133	0.2966155	1.5500373	-0.8099369	-1.5201283	-1.2145313	-1.6159675	1.2729702	0.22366482
seen	1.366564	0.33690262	0.7861988	0.21646431	1.3528624	-0.34655315	-0.32688513	-0.3311441	-0.2624138	0.77650684	0.2284481	1.2339561	-0.7497167	0.56555325	0.05996318	-0.5043627	0.5400561	0.03157972	0.4564752	0.6557914	0.9889037	0.008447036	-0.4940607	-0.6864791	-0.32380646	-0.2259463	0.11351106	1.8441181	-0.42176032	0.4832157	-0.1761258	-0.17278758	1.3019123	-1.0320468	0.5502493	0.9490029	-0.9581313	-0.066039234	-0.6656435	0.31407696	0.74224734	1.0610046	-1.1688783	0.55870754	-0.7302142	-0.2711583	-0.24836786	-0.30973625	-0.42770147	-0.44089153
stay	-0.45435756	1.1281264	0.80358815	-0.09570043	0.9851409	-0.3794879	-0.81695485	-0.31936458	-0.5039511	0.18673772	0.77064884	0.82210284	-0.28355432	0.0655632	-0.23687893	-1.1710392	0.4281038	0.6709461	-0.39706782	0.47660145	0.17413224	0.7064251	0.13940597	-1.4206562	0.15375695	-0.6019017	0.34951764	0.99970543	-1.2442654	0.6652759	0.1874274	-0.118328854	1.1594812	0.06678547	-0.045817014	1.082123	-0.72250265	-0.1757198	0.14198244	-0.6613188	1.299628	-1.5289326	0.35790306	0.35777783	-0.93000257	-1.447088	-0.47951043	-1.4344721	0.7566042	-0.17583483
free	0.029268464	0.33525717	1.0441078	1.4694625	0.6670242	0.9370285	-1.1986241	-1.087151	-0.8691952	0.42555124	0.3520372	0.35764664	-0.033748105	0.4738651	-0.0070493743	-0.6558857	0.06486017	1.5041837	0.9469583	0.47802293	0.81036466	-1.4455073	0.19165629	0.5323298	-0.20756876	-1.0700595	0.42323983	1.0685387	-0.58943933	0.15457478	1.2105904	-0.7435593	0.7293852	-1.2870278	-1.081838	-0.05585173	0.051727634	-0.6166159	0.22313601	0.33807802	1.3090153	-0.09614195	-0.40617314	-0.045838214	-0.16186713	-0.5528453	-1.2336508	-0.9832245	0.4107646	0.6152975
down	0.050998207	0.9200333	0.97110766	0.167575	0.6250644	0.61330914	-0.8510041	-0.75409716	-0.40518945	0.52986217	0.7622804	0.8043153	-0.24107693	0.553529	-0.50372046	-0.42915237	0.80887073	0.5814736	-0.609874	0.77841717	0.33162767	-0.6702918	-0.4771283	-0.6280211	-0.89822364	-0.5187715	0.2881204	1.1990972	-0.8235854	0.9129183	-0.47611186	-0.092013344	1.3225014	-0.6819916	-0.6492193	0.63989794	-1.0621878	-0.00029702485	-0.54145205	0.8023355	0.80009264	-0.36307916	0.6537296	0.84480035	-1.2209142	-0.8937573	-1.0906198	-0.5012518	0.6038728	0.2680662
by	-0.021337729	0.6484349	0.7622342	0.69954705	0.9939611	0.7500174	-1.2940518	-0.94356084	-0.043469418	0.5723207	0.705626	0.81448483	-0.81849223	1.1770005	-0.12936941	-0.59377277	1.2633957	1.083427	0.20722903	0.9387739	1.0454175	-0.6072924	-0.7964219	-0.5968957	-0.2995445	-0.54423916	-1.4427836	0.95536196	-0.8065256	0.9524853	-0.41616237	-0.56751966	1.2004017	-1.1481874	-0.14086573	-0.15911339	-0.37623423	-0.6032222	-0.32690015	0.37396944	1.1661226	0.5097299	0.60528624	1.0926704	-1.1603165	-1.0670419	-1.5975366	-1.2498343	0.53098905	0.9483402
make	0.14828858	0.69132864	0.65439576	0.92834556	0.8452849	1.2907424	-0.5790459	-0.49742335	-0.29758346	1.0613143	1.0337588	0.67899543	-0.7236639	0.72795033	0.5746287	-1.1223164	0.49885404	1.3847874	0.020311836	0.72978854	0.6298169	-0.6516051	-0.91858757	0.04943455	-0.5255257	-1.0391015	-0.44625178	0.84762263	-0.42832503	0.45511755	-0.26968414	-0.6749731	0.809674	-0.4734419	0.48798215	0.43258005	-0.9156939	-0.48977327	-0.09190691	0.5208118	0.619592	-0.35119355	0.42477572	1.1317513	-1.2566993	-1.0571685	-0.57136965	-1.2183306	-0.15533757	0.13724056
again	-0.4447905	0.5545883	1.068062	1.0807574	0.75955117	0.5222959	-0.75331306	-0.95512843	0.1332583	0.59498453	0.82035506	0.6407585	-0.91931593	0.88794166	-0.21509866	-0.018479764	0.39783353	1.1523325	-0.22797805	1.2180929	0.67320853	-0.61188	-0.9146856	-0.1936137	-0.4999975	-1.4706135	0.09369227	0.5937007	-0.73272276	0.6805766	-0.39290786	-0.34485066	0.8441567	-0.60455763	0.003915515	0.095222786	-0.9934583	0.119557664	0.072904326	0.3568362	0.6017822	0.0072669997	0.5314788	0.5773275	-0.59842324	-0.5578741	-0.8899876	-0.6417074	0.03793348	0.48807052
offic	0.3629282	0.96578467	0.4281503	0.8791946	0.61057127	0.43176895	-0.6372464	-1.0795568	0.39888725	1.1350632	1.2362332	0.15074643	-0.7545307	1.1153052	-0.041554525	-1.0864038	1.5806463	1.1363455	-2.2192037	0.7827349	0.7952629	-0.32019657	-0.6487299	-1.537667	-0.6950197	0.42638168	0.08391237	0.70913893	-1.1646453	0.9571398	0.8330654	-0.26732305	0.67739433	-0.5227003	-0.0011744276	0.4967785	-1.0672438	-0.706647	-0.9875681	0.97642124	1.6952068	0.28978032	0.64067626	0.5287481	-1.0292951	-0.67039657	-1.0987344	-0.49712014	1.7362142	0.30483958
man	0.2326347	1.03233	0.83139896	0.308287	1.1698887	0.628299	-1.019495	-0.25595742	-0.3384282	0.57176274	0.9168934	0.07396645	-0.36524194	1.1085927	-0.5573026	-0.5622822	0.5294684	0.6806213	-0.6929929	0.44589287	0.80280954	-1.1905413	-1.405909	-0.532132	0.026153939	-0.5520023	-0.8531964	0.73647064	-0.6295679	0.90338796	-1.2297571	-0.80971944	1.2202058	-0.70279133	-0.8791747	1.3359964	-0.65976673	-0.18537861	-1.0204633	1.2954168	0.660642	0.23894909	-0.27489877	0.58714867	-0.98116255	-1.3246899	-0.56479806	-1.0270593	0.3047482	0.5205015
identifi	0.5972647	1.0592369	1.2411952	1.7776959	1.3691521	-0.60125506	0.36283198	-0.44073808	0.31695604	0.03532785	1.4614123	0.3597396	-0.6976793	0.30542696	0.24918255	-1.5721087	0.36939305	-0.17645256	-0.7488855	0.21557029	1.3257319	0.05527191	-1.7964376	-0.74817467	0.6126857	1.5602564	-1.3165997	0.5530008	-0.9484564	0.8374171	-0.45015752	-0.534737	0.19580367	-0.25107902	-1.5098927	-0.19247633	-0.66734487	0.7365419	0.22815014	0.94760317	0.9819136	0.6592381	-0.10535975	0.6946363	-0.27087465	0.52431923	-0.75075495	-0.77384734	-0.37997618	0.4329261
american	-0.20322421	0.5894667	0.80814594	1.0789421	1.3516617	0.7983238	-1.6101902	-0.4265145	0.5048576	0.74342084	0.4973428	0.2971855	-1.1284995	0.8679562	-0.13125141	-1.0842044	0.74383897	0.49514222	0.20370804	0.12147091	-0.17822279	-1.5024984	-0.9814548	-0.33114776	-0.017131165	-1.3094141	0.37907442	0.6082778	-0.6272142	0.6156313	-0.85276246	-0.28718138	1.0478733	-0.81462616	-0.79125726	-0.7284782	-0.6263179	-0.10027426	-0.41088727	0.30131966	0.82058656	0.3521849	0.083269246	0.91234636	-0.93309224	-0.8949628	-1.0032412	-0.9364586	-0.07710074	0.11254237
need	-0.21492273	1.3055186	0.8943371	0.6633681	0.7630855	1.064642	-1.2469705	-0.7818662	-0.045928996	1.0425973	0.90040076	0.6742394	-1.2014909	0.83884144	0.3672508	-0.7288558	0.68057925	0.94029033	-0.0870812	0.83270705	0.8269679	-0.70139873	-0.9959357	0.004909294	-0.41792372	-1.3603752	-0.058450874	0.7055886	-0.70532525	1.2633376	-0.14750321	-0.613775	0.99809337	-1.0411527	0.28864855	0.12983188	-0.9954916	-0.88854283	0.42123753	0.36458236	0.93270415	-0.481075	0.7980223	0.76882046	-0.83449876	-0.5157581	-0.569835	-0.7556948	-0.029827457	-0.026425248
aw	0.10183558	0.18876605	1.1138237	0.6916591	-0.1688037	0.6754086	-0.08502527	-0.49285206	0.55423886	0.77860445	0.1901635	-0.05824174	-0.40930986	0.3673953	0.037749678	-0.121040866	0.1821037	0.34730244	-0.09228786	0.761751	0.3408017	-0.15754573	-0.7182068	-1.3767455	-0.2373651	-0.6683717	-0.35119325	0.3914956	-0.9329826	0.15813023	0.19324586	0.064488396	0.22424659	-0.104205236	0.58522034	1.1216576	-0.6616966	-0.9032436	0.0054426417	-0.9294195	0.48935485	0.3336572	-0.16185087	0.6821449	-1.1866027	-0.24379249	-0.739647	-1.0575576	-0.23438361	1.1161231
today	-0.33013877	0.47244665	0.8155129	1.2586205	0.70285475	0.8684989	-1.0540698	-0.8184146	0.13128082	0.8262282	0.586918	0.6279352	-1.0091892	0.73576105	0.09827119	-0.81004834	0.9396828	0.9989842	0.024253994	0.86390007	0.982018	-0.5366001	-0.8970981	-1.8300276	-0.24000669	-0.6200936	-0.1349783	0.9862643	-0.7608409	0.91370463	-0.5722749	-0.3989236	0.6814	-1.0941024	0.108046286	0.19457133	-0.42121327	0.05566109	0.07292248	0.1517285	0.47773266	-0.26656634	0.59774137	0.8676449	-1.3162212	-0.6962043	-1.3947055	-0.72380924	1.1172831	0.8050287
their	-0.3887775	0.78005326	0.94107485	0.6421612	0.6668915	1.2475679	-1.2145468	-1.1777918	-0.34729066	1.2465281	0.86022747	1.300868	-0.5591991	1.1948128	0.23020342	-0.8815719	1.0708339	0.65062195	-0.16881704	0.5464028	0.65179265	-1.0999407	-0.7190362	-0.7569463	-0.1726901	-0.9069394	-0.67785335	1.471842	-1.2208056	0.7016495	-0.5413898	-0.18533275	0.84773767	-0.5545613	0.32871887	0.026478251	-0.44643748	-0.5539266	0.20221345	3.103167e-05	1.1517372	-0.353434	1.0821861	0.7271302	-0.93682384	-0.71674633	-1.5028704	-0.56554174	0.5292337	0.6782156
r	0.034652572	0.4330669	0.65325	0.72368276	0.52486765	0.6727835	-1.2648118	0.37009034	0.3221964	0.7428993	0.60896266	1.057838	-1.0942954	0.53023934	0.15493569	-0.9725731	0.8125802	0.9113197	0.1431603	0.2619942	0.8115342	-0.31506377	-1.0807383	-0.016181357	0.43790528	-0.24681792	-0.42100406	0.27674243	-0.7929691	-0.025161108	0.60672057	-0.18372163	0.30945575	-1.1321826	-0.41164058	0.5327196	-0.38453576	-0.20385686	-0.9484786	0.003745325	0.66080356	-0.16352603	0.9789837	0.62278885	-0.03869842	-1.2824605	-1.183106	-0.37222248	0.21452329	-0.20986366
see	0.4347507	0.74465907	0.96377	0.8862726	0.4352697	0.25660318	-0.79495525	-1.0708212	-0.21270472	0.94600415	0.61617017	0.8783879	-0.91828316	0.8844063	0.39972407	-0.6483183	0.3265785	0.7768868	0.26481116	0.61146164	0.7926449	-0.6749202	-0.7233008	-0.30168617	-0.6649098	-0.9218403	-0.38657418	1.0962396	-0.6391313	0.7120296	-0.6355636	-0.29340082	1.0652525	-0.5656319	0.4545998	1.0158377	-0.9539843	-0.32069823	-0.38632742	0.13533024	0.8610182	-0.20165169	0.16303807	0.88078207	-1.0699086	-0.9331044	-0.8767765	-0.9152802	-0.07892318	0.16743074
report	0.68719065	1.1955752	1.0956013	0.349042	0.23936987	-0.099594474	-0.18108962	-1.3224587	-0.3950373	0.5959188	0.7308445	0.37771472	-0.64110017	0.8856395	0.10557455	-0.7488531	0.79358375	0.6032591	-1.0358683	1.7819536	1.0120611	-0.48517922	-1.1210779	-1.2150848	-1.2173318	0.83625764	-0.2631881	1.0478625	-1.375382	0.15344745	0.14075169	-0.7934954	1.1346569	-1.0840518	-1.2852886	-0.10912128	-1.0340331	0.37377435	-0.042201396	-0.30616212	0.80188835	0.27851045	-0.2782174	1.0241948	-0.778587	-1.0086504	-1.0293298	-0.87794065	0.6178266	0.69672155
lot	0.5058409	0.6981927	-0.02400766	0.06725403	0.59700555	0.7784388	-0.11907706	-0.98135126	-0.6303101	1.2420261	0.50691044	0.66629374	-0.3848952	-0.25489295	0.19015405	-1.0773026	0.85085845	0.6581112	0.22882104	0.84863144	0.8860539	-0.39989483	-0.33969155	-0.4193108	-0.56825686	-0.6186596	-0.10732022	1.0802673	-0.23239863	0.52938926	-0.5183965	-0.69375485	1.3199381	-0.51115596	0.1424387	0.7540475	-0.36912683	-0.7421992	-0.14808336	0.35024357	0.21268564	0.2650209	-0.09428317	1.2862526	-0.42203677	-0.9290241	-0.9761659	-0.4286785	0.19090676	0.18378223
then	0.11683581	0.80097157	0.4800111	0.5251149	0.34857124	1.2301588	-0.912043	-0.9820663	-0.3962972	0.8969848	0.7059084	0.5744914	-0.22283405	0.6902787	-0.21866514	-0.6142627	0.95245296	0.89788866	0.074410014	0.52885926	0.44849694	-0.6539717	-0.54435116	0.0056273937	-0.4353155	-0.9591094	-0.10152952	0.9676673	-0.6848265	0.95141196	-0.5715134	-0.41336334	0.98082805	-1.1599753	-0.36932856	0.7909844	-0.94546086	-0.028334498	-0.103618965	1.0346019	0.6229343	-0.2142441	0.25450516	0.91305816	-0.80900437	-0.7064234	-0.76758313	-0.6306262	-0.30421516	0.085471556
of	0.38304693	0.80490035	1.2532804	1.020045	1.2112589	1.0426133	-1.4605575	-1.421042	-0.16455042	1.0524454	1.308784	1.0097895	-1.1948721	1.0885345	0.55188435	-1.1996672	1.3254347	1.3175766	0.021222852	0.67474794	0.99925804	-1.1171672	-0.99992085	-1.0596191	-0.5679719	-0.684951	-1.2608919	1.2072031	-0.8944089	1.3274554	-0.9237436	-0.5383769	1.2334702	-1.3497654	-0.46621078	-0.06477918	-0.668883	-0.3350154	-0.12552005	0.32547748	0.9321525	0.17815208	0.51284355	1.256515	-1.3857069	-1.3274484	-1.3096983	-1.0465401	1.006959	0.6659116
reason	-0.095895305	0.8332131	0.86285794	0.79943323	0.7141817	0.47961444	-0.7063309	-0.85567343	-0.27648094	1.4804368	0.94615793	0.5905775	-0.044960186	0.5270996	0.21993575	-0.69040775	0.5350133	0.7185931	-0.29324993	-0.017512575	0.06475954	-0.0981677	-0.4268121	0.52859044	-0.21354781	-1.0133528	-0.28991255	0.6958031	-0.74089944	1.0431154	-0.058044717	-0.9948602	0.45912144	-0.7848891	0.12184599	0.42615554	-0.5515557	-0.78211236	-0.26193517	0.020365838	0.3152464	0.17068571	0.17312095	0.9069247	-0.9510446	-0.2584121	-0.82888305	-0.31788382	-0.16390347	0.259247
detail	0.12545894	1.2147603	0.45677683	-0.5886556	0.4793436	-0.55566156	0.057057127	-1.433948	0.27957547	0.36359578	1.447762	0.4975682	-0.57780737	1.1624606	0.40423927	-1.2292609	-0.9513942	0.65603316	-0.24642724	0.041711047	1.5684853	0.80380046	-0.65550107	-0.89750135	-0.6106955	0.6265638	-0.1370956	1.3309823	-0.9535186	0.7453378	-0.13099112	-0.3369638	-0.30495518	-0.3977425	-0.43072793	0.3040222	-0.35457593	0.29412335	0.18822649	0.20761271	0.4964227	-0.44269615	-0.51355	0.6239712	-0.46685773	-0.9382722	-0.41655836	-0.7135999	0.39386177	1.0603733
have	0.16896722	1.0089309	0.76255465	0.9165436	1.0642864	0.8685092	-0.84504646	-1.04795	-0.51046854	1.0459626	0.9819087	0.98966014	-0.60228825	0.9700694	0.3457789	-1.0171413	1.2548479	1.1030915	-0.21159086	0.85889566	1.0580581	-1.0150651	-0.95990515	-0.50660825	-0.9105339	-0.8605829	-0.16132547	1.0968802	-1.2015302	0.87100387	-0.65306675	-1.0332682	0.97652626	-1.1700196	-0.25608668	0.20806828	-0.9328954	-0.9563894	0.19535916	0.63640463	1.0551579	0.25706318	0.5506661	1.0939164	-0.9919386	-0.9107284	-0.95011866	-0.80673254	0.19678688	0.30267352
tell	0.0024768393	0.94334877	0.6400329	0.8921068	0.91556346	0.7557138	-0.64905226	-0.88935804	-0.34765804	0.6218861	0.7413605	0.38307726	-0.25783902	0.904742	0.2866028	-0.8906348	0.610976	0.34454393	-0.47595912	1.0969234	0.80958426	-0.3748508	-1.0577729	-0.15526552	-0.40057594	-0.06882392	0.19781114	0.91279274	-1.4044212	0.15309322	-0.422559	-0.6501045	0.8871286	-0.95762765	-0.55291677	0.52103496	-0.82011855	0.14837822	-0.47766718	0.10034895	0.5978097	-0.38812712	0.7661792	0.823256	-0.48276255	-0.60081553	-0.118800044	-0.9386178	-0.27621886	-0.3883846
kill	0.22314776	0.87093455	0.72988296	1.3769615	0.83444214	0.9933733	-1.2352328	-0.8601178	0.00067557395	1.2441082	0.9897057	0.43353263	-1.0628569	1.2869956	0.23454861	-1.0151649	1.3409636	0.8928141	-0.868603	0.19723225	0.8572824	-0.9998627	-0.9512602	-1.1051021	-0.69115764	-0.67903775	-1.0196583	0.7795762	-0.7391969	0.8900869	-0.7417982	-0.90897334	0.858412	-0.7785959	-1.3224194	0.9150097	-0.918612	-0.6833645	-0.93283117	1.1473383	0.99030924	0.42148846	0.97224766	0.9469552	-0.84340537	-1.1851964	-1.4027057	-0.7824719	0.7590195	0.6207038
up	0.3221899	1.2441089	1.2451403	0.7343122	0.26238787	0.84473836	-1.2944198	-1.1633604	-0.42846948	1.0145292	0.5324304	0.6060794	-0.705173	0.5720016	-0.3452454	-0.8502314	0.6872647	1.050437	-0.048854597	0.60757834	0.82701933	-0.56006193	-0.7180097	-0.3812496	-1.0656796	-0.80804884	-0.4089635	1.0592883	-0.6085849	1.2702107	-0.84495914	-0.58397007	1.3404552	-0.79352653	-0.83956397	1.1828291	-1.0271375	-0.5430696	-0.39355773	0.3767012	0.65816873	-0.57566535	0.8035679	1.1270117	-1.0800557	-0.78860044	-1.1560001	-1.142237	0.1248799	0.59772265
best	0.6589179	0.8820649	0.22690193	0.60962844	1.0618834	0.9749689	-0.43271476	-0.44047478	-0.60851884	0.9891224	0.49651796	0.9094069	-0.34300658	-0.58603156	-0.006148085	-0.6692455	0.16552614	0.8060266	0.35772187	0.30567303	0.746327	-0.783618	0.037101813	-0.68220186	0.19240385	-0.047764465	0.07116133	0.83798105	-0.96102023	0.7355565	-0.23003843	-0.38892323	0.5991051	-0.38457623	0.71231174	0.5543416	-0.7430843	-0.11587733	0.22574073	-0.10520613	0.5876649	-0.48402193	0.38355792	0.43957362	-0.50337005	-0.44356617	-0.52955574	-0.72944915	-0.090968974	0.5104974
talk	-0.19879007	0.60760057	0.3526407	0.96496904	0.26300126	0.66372955	-0.72874147	-0.9384614	0.26007837	1.2211733	0.6680132	0.524135	-0.5041063	0.81146073	0.2259351	-0.7176788	0.48282093	0.6407311	0.6311896	0.7393856	1.1050721	0.11411542	-1.0455375	0.10632002	-0.5709071	-0.7519522	0.61478627	0.70759237	-1.1177559	1.1550441	-0.9877887	-0.5339406	0.8356905	-0.7999401	-0.1417784	0.7942786	-1.0775936	-0.00060501695	-0.015155103	0.26568663	0.37321508	-0.10297452	0.8663432	1.0474261	-0.85737354	-1.3798583	-0.32896215	-0.68170583	0.09635626	0.26319754
week	0.42950284	0.37018043	0.15969156	0.93239844	0.5564424	0.9083191	-0.95144916	-1.0974033	-0.18917799	0.5782008	0.63563657	-0.102987505	-0.6104927	0.39079803	0.20021161	-0.9524891	1.2243652	0.87645006	0.30198655	0.12209685	0.3921408	0.06233889	-0.9456192	-1.355263	-0.7802161	-1.1927015	0.42132726	0.62520456	-0.7366901	1.0012038	-1.2899244	0.16323404	0.48009917	-1.1415917	-0.30786043	-0.14565349	-0.65484464	0.21932112	0.06954964	0.8023782	0.17242467	0.37395316	0.052027203	0.6179403	-1.1519209	-0.8786019	-0.99024165	-0.8123857	0.76075673	0.72612524
taken	0.42854714	0.94880176	0.15322462	-0.2359928	0.46812713	-0.09858568	-0.84501207	-0.990803	-0.24400286	-0.20398414	0.62965596	0.8569996	0.17321579	1.9437959	-0.5023204	0.050890405	0.9659388	0.76982945	-1.002927	0.24476488	0.65829754	-0.009865835	-0.7930849	-0.6599468	0.5549567	-0.87699246	-0.39220768	0.5818291	-0.3089496	1.305753	-0.38543144	-0.8996873	0.9493854	-1.134008	-0.21272412	0.8595856	-0.8927245	-0.20069945	0.56361216	0.7074095	0.91294307	0.12368798	-0.29436514	1.140049	0.012621041	-0.21380708	-1.3893895	-0.4963779	0.27082473	-0.014879346
latest	0.08071096	1.1441773	0.6191724	0.53605026	1.5005176	-0.5272288	-0.07817173	-1.0431019	0.40656278	0.645964	0.3677082	0.30129653	-0.81117785	0.64009637	0.64250654	-0.6642109	-0.76997733	1.0156751	-0.38130945	0.17694312	1.7797954	0.7797383	-0.4374833	-0.76848453	-0.6596984	0.35596368	-0.28318936	0.68152255	-0.69538254	0.83887196	-0.08505005	0.17748034	0.9559077	0.3819547	-1.0036142	-0.31306976	-0.72114193	0.07287991	0.27509776	0.14558646	0.58461	0.021330595	0.19540703	1.0425129	-0.6946993	-1.3189783	-0.58339244	-1.1903172	0.7264673	0.8069186
sure	0.10933706	0.83498824	0.6150274	0.94495547	0.7177737	0.73595095	-0.4305362	-0.97811955	-0.1325312	0.6505551	0.6577699	0.6814789	0.14769873	0.33554912	0.25167727	-0.85651803	1.0775859	0.90359616	0.31634504	0.8005974	0.96077454	-0.31786153	-0.28286302	-0.050953105	-0.29759926	-0.6955347	0.10305896	0.68117523	-0.56599885	0.59488106	-0.5298322	-0.87764424	0.5966655	-0.23549688	0.1914707	0.82343435	-0.59781027	-0.47592875	-0.31366915	0.14550355	0.44812685	-0.3417372	0.23464173	0.89666307	-0.6716731	-0.7570708	-0.6725353	-1.2893631	-0.301617	-0.073430866
me	0.051536717	0.7980404	0.7100779	1.1140685	0.6091693	1.132884	-0.5925479	-0.79873264	-0.74664915	0.6963337	0.74424577	0.55251354	-0.59740555	0.5152337	0.28433228	-0.9815945	0.22553591	1.0137362	0.26017684	0.82406336	0.6283561	-0.51599354	-0.54704595	-0.77109563	-0.51610434	-0.8340008	-0.35505122	1.013475	-0.7779764	0.7361785	-0.95023376	-0.8560641	1.0237968	-1.1953532	0.5342519	1.4024575	-0.67556214	-0.19219325	-0.39847237	0.29655856	0.92215276	-0.6739596	0.51686573	1.1126177	-1.2139556	-0.8113867	-0.6662388	-0.88794136	-0.14710933	-0.065749496
differ	0.8986243	0.7827716	-0.15522645	0.384737	0.75695944	1.3087791	-1.068401	-1.4238462	0.37719014	0.5887805	0.28326517	0.35218695	-0.5510292	0.076364726	0.111115165	-0.61944544	0.48262477	0.48385912	0.2260414	0.47934103	0.46866632	-0.23497567	-0.31590506	-0.07648865	-0.5663659	-0.42048305	-0.24765614	0.8605712	-0.72701454	0.3596957	-0.46662748	-0.887496	0.8175831	-0.4598971	0.3441549	0.047070332	-1.2672923	-0.82985175	-0.13462937	-0.14387581	0.40027153	0.48337573	-0.42470843	0.86444265	-1.1684133	-0.8274059	-0.8132893	-0.33585882	-0.6872852	-0.30935848
wonder	0.35160464	0.30957472	0.543601	0.8340104	0.43490955	0.13651519	-0.7270067	-1.3785429	0.18678945	0.34713668	0.7903906	0.8066827	-0.17578873	0.6426933	-0.2329311	-0.682513	0.9566536	0.9459028	0.45491368	0.6053884	0.696444	-0.95507246	-0.43091926	-0.23829354	-0.23231393	-0.7538582	0.024181038	0.8552394	-1.0993235	0.630798	-0.9450182	-0.41750163	-0.0379299	-0.19034615	0.07326196	0.5107446	-0.4040326	-0.208889	-0.29622853	0.3916331	0.27019858	0.027019057	0.21682234	0.79838085	-0.95627403	-0.9132665	-0.5369084	-0.89886016	-0.13479951	0.2757756
state	0.72085154	1.344366	1.1185193	0.7177131	0.9016928	0.781428	-0.48279214	-0.5582426	0.132211	0.6013634	1.5098398	0.05594828	-0.3573967	0.3808952	0.79781806	-0.2543652	0.8194457	0.5423292	-0.090353586	0.275099	0.08681717	-0.20836602	-0.86478496	-0.50736064	-0.56192374	-0.66026485	-0.08775604	0.5876006	-0.7655882	0.1448001	-0.28807965	-1.0486987	1.2675502	-1.0749109	-0.816583	-1.0660231	-1.158679	-0.46051195	0.30039352	0.37769017	0.7090097	0.13137603	0.12713337	0.32734075	-0.9682059	-0.38309205	-0.9764288	-1.4268911	1.0661421	0.40685067
he	0.3036837	1.0664597	0.87501323	0.90145063	0.84398437	1.1102972	-0.7770146	-1.0978923	-0.5466497	0.6439222	1.2301135	0.7766354	0.06512529	1.1887802	-0.12437551	-0.87414455	1.3941128	0.93302584	0.036340535	0.9494381	0.84884715	-1.3323096	-1.0228552	0.0066665225	-0.02676095	-0.27484643	-0.59288603	1.2454853	-0.91794	1.1390431	-1.284025	-1.4949386	1.1155431	-1.0975885	-0.4098875	1.0133079	-0.7870878	0.42346108	-0.7401907	1.2759036	0.7909522	0.36720717	0.34329543	1.1239791	-0.9249243	-0.87195647	-0.47995225	-0.96048725	0.17009379	0.40641025
when	-0.11194173	0.6771327	0.6873007	0.9846616	0.35954216	1.0020683	-1.0585376	-1.0379732	-0.05741466	0.8852296	0.9648758	0.8456698	-0.8504461	0.8597989	-0.11181155	-0.68243444	0.7793169	0.83279383	-0.16825089	0.8514588	0.683797	-0.91300535	-0.5895856	-0.460658	-0.82700443	-1.1667243	-0.084229276	1.0169182	-1.1199951	0.978975	-0.9198215	-0.7050946	0.92780745	-1.0640371	-0.20903659	0.8236675	-0.8636376	-0.24140109	-0.1622855	0.8803923	0.8340248	0.29917264	0.47966486	0.76985073	-0.97096896	-0.86397105	-0.7458672	-0.8341726	0.20540899	0.26303905
gunman	-0.15376598	1.8705009	-0.016168285	0.4460782	1.058624	-0.08897795	-0.9441565	-0.31954968	-0.5809978	0.72662175	1.1617222	0.22013715	-0.6306284	1.4133117	-0.022886677	-0.9846542	0.571661	0.6043576	-0.6233442	0.7314768	0.9814075	-0.45831686	-0.8659395	-0.8548722	-0.8400546	0.43343377	-1.6471937	0.77721155	-0.9802997	0.63086605	-0.7787286	-0.64988315	0.7552522	-0.4674951	-2.4480402	0.6252011	-0.2728387	0.31661406	-0.26566282	1.1391702	1.0355557	0.9500454	-0.34112853	0.90735275	-0.7877404	-1.1031519	-0.29631993	-1.0033361	0.17922878	0.8901675
re	0.11662008	0.6673501	1.0051553	0.97145176	0.769413	0.7280021	-0.8292046	-0.72276473	-0.2320016	1.002673	0.8184099	0.7815496	-0.53293467	0.7000031	0.09721864	-1.0749226	0.797906	0.8320415	-0.007830909	0.63755465	0.89732516	-0.53213	-0.50923306	0.0038547274	-0.60024226	-0.7755722	0.0069122165	0.7313138	-1.1481825	0.8254465	-0.5616189	-0.470272	0.6721429	-0.6080158	-0.046456542	0.65768117	-0.76721156	-0.41325322	-0.58548427	-0.28394336	0.63080364	-0.55981183	0.43383738	1.2460399	-1.0554032	-1.1119312	-0.79074883	-0.9575813	0.043479316	-0.07772403
sad	-0.25927016	0.36305577	0.5472521	1.116552	0.4600423	0.7558249	-0.4371819	-0.755691	0.23223837	1.0010452	0.8125496	0.59169114	-1.1366391	0.8808122	0.17436196	-0.5876426	0.04031764	0.9971614	-0.1243747	0.6358396	0.19842236	-0.74370944	-0.94839025	-1.7832516	-0.17181288	-1.2378185	-0.19293942	0.53673536	-0.83357775	0.4917879	-0.1932452	-0.52366054	0.9405329	-0.46520546	0.576089	0.80498034	-0.78902656	-0.7450801	0.036316056	-0.3784021	1.0011714	0.25856054	0.35411745	0.8285099	-0.7224554	-0.8752662	-1.0731754	-0.97489595	0.089898735	0.90803254
blame	-0.2776639	0.072908506	0.5995192	1.0116013	-0.4642266	0.618739	-0.045810036	-0.87498367	0.32652867	1.4575467	0.92321503	1.0788772	0.056161895	0.6197425	0.071330264	-0.69680417	1.1853424	1.798001	0.18921287	1.1505296	0.53929853	-0.7070067	-1.1005411	1.0690554	0.033045232	-1.0287204	-0.70940065	1.015269	-0.41305256	0.6607405	-0.03414402	-0.4223225	0.8183621	-1.0296702	-0.39358118	-0.4025041	-1.1770177	0.39188623	-0.9905264	0.27416855	0.9465318	0.060447756	0.4386336	1.3075042	-0.340779	-0.69340014	-0.72037506	-0.4059887	0.004316699	0.6520823
near	0.5328226	0.38600266	0.58679605	-0.5964354	1.5059019	-0.3204718	-0.25486046	-1.23435	-0.7524104	0.8165268	0.94849205	0.05611451	0.0044497997	0.40878862	-0.64442927	-0.13232853	0.28358412	1.0039726	-0.6521751	1.3937397	0.6889445	0.15768221	-0.371089	-1.7042277	-0.7023043	0.025508523	0.12471503	0.66574466	-0.09539181	1.0904357	-0.29146993	-0.5689185	1.0285912	-1.0777541	-1.4675367	0.34704933	-0.54229105	-0.91775876	0.025138952	0.4216801	0.39164078	-0.14239568	-0.4519765	0.58985186	-0.53846717	-0.95885193	-1.1299853	-0.943292	0.7560376	-0.2798006
which	0.28650048	0.45136702	0.9375788	0.47722572	0.5990666	0.8923396	-0.7190797	-1.0667632	-0.55776	0.65575457	0.36682507	0.25204542	0.024027914	0.2066041	0.21232948	-0.6602804	1.0680995	0.7432476	0.25399402	0.80838525	0.6463181	-0.54090065	-0.70223224	-0.13083939	-0.16548736	-0.6439334	-0.20357805	0.82876396	-0.7631193	0.8059999	-0.29647902	-0.84081936	0.21460316	-1.0098664	-0.18416774	-0.6149303	-0.70387685	-0.30604127	0.0034347698	0.44339436	0.4419261	0.60838944	-0.16689669	1.3408911	-0.96926236	-0.9591539	-0.9554893	-0.6044264	-0.049479302	0.07555926
hour	0.32692724	0.2124444	0.065621436	0.12371988	0.49193257	-0.014718477	-0.053496554	-0.95266414	-0.1286226	0.5410869	0.7359291	0.16460472	-0.107112914	0.10447178	0.35384265	-1.1804514	0.82304513	0.6450212	-0.011037402	0.6154576	0.48160863	-0.14862761	-0.7550093	-1.6151031	-0.6951954	-0.6522113	0.6822677	0.5005385	-0.4183552	0.57009363	-1.3491529	0.29378918	0.5577701	-0.92257744	-0.19449884	0.28151682	-0.67207205	0.66888344	0.19360332	0.93063295	0.98875	-0.529746	-0.38828564	1.4017715	-0.9953376	-0.9577486	-0.8579287	-0.52561474	0.10731015	1.3449987
back	-0.13872589	1.0053916	0.32661307	0.18620306	0.61883545	0.8472116	-1.094748	-1.4745889	-0.86593854	0.4637825	0.19604354	0.45332476	0.18512453	0.5973773	0.01882834	-0.20768353	0.50044817	1.4201709	-0.12396702	0.27145484	0.50521284	-0.1751277	-0.45842078	-0.03712936	0.07984174	-0.97175044	-0.07707329	1.0792694	-0.5676388	1.0733001	-0.4140798	-0.6700272	1.1876408	-0.9814376	0.14824381	0.67006814	-1.0454721	0.40005854	0.031323116	1.4787066	0.618096	-0.33312777	0.8200662	0.8252454	-0.48727557	-0.6318363	-1.2065413	-0.9961112	0.242167	0.5700518
whi	-0.012400375	0.7728807	1.0302601	0.8682303	0.6599558	0.30606183	-1.0691326	-1.3974884	-0.038104765	0.8660793	0.88235044	0.70210934	-0.66053736	1.1731343	0.38274822	-1.084842	0.85179937	0.78490007	0.124020904	0.5291983	0.38774616	-1.1118906	-1.1481161	0.16761896	-0.31163704	-1.1015248	-0.007746145	0.9182326	-1.0343218	0.8525746	-0.76444036	-1.2739611	0.47619566	-1.0053072	-0.39120692	0.5643272	-0.8307426	-0.4471897	-0.6360278	0.32428443	0.78826314	-0.08149552	0.22665997	0.66421413	-1.2373054	-1.0656779	-0.5485079	-0.58924496	-0.08717487	-0.06649781
due	-0.58982396	0.26576978	0.29813087	0.26358664	0.17743121	0.06175066	0.062225964	-0.3767	-0.068969436	-0.08953206	0.9307871	1.0225368	0.15503536	0.22339976	0.20137307	-0.47968608	0.44299704	1.4655492	-0.21723898	0.19291212	0.08449876	-0.28868052	-0.9869844	-0.8830941	0.39960146	-0.44522133	-0.51471496	0.55023146	-0.7456956	1.5798974	-0.015443623	-0.72585213	0.36565673	-0.924371	0.19958137	-0.6644057	-0.90580523	-0.11017881	0.2859578	0.31422293	0.18842407	-0.20707823	0.39586818	0.87592006	-0.6527089	-0.99058694	-1.6356714	0.19183356	0.65059936	0.23693798
want	-0.24884087	0.8842374	0.81610537	1.0302908	0.9449154	1.0119278	-0.8986559	-1.1104938	-0.44211572	1.0647703	0.9752592	0.4082157	-0.3819278	0.9721378	0.5564903	-1.0746319	1.0230453	0.83956254	0.013499807	0.6928232	0.41332114	-0.6648108	-0.7274967	0.4217807	-0.4272136	-0.8811647	-0.5776068	1.0282822	-0.7804254	0.866308	-0.4558378	-0.5762955	0.69112456	-0.9366394	0.036425896	0.57384044	-0.81334585	-0.4006532	-0.22925659	0.60466623	0.65112484	-0.32625192	1.0041921	0.47788358	-0.3550378	-1.2830732	-0.60688853	-1.116553	-0.090925395	-0.1265383
should	-0.034709543	0.9467912	0.77137154	0.9668863	0.71081877	0.9781668	-0.98620963	-1.1147778	-0.49285516	0.7761378	0.34242514	0.94780123	-0.2601959	1.4277087	0.37929863	-0.76251143	0.5319569	1.0352602	-0.0070876754	0.43120575	0.47764367	-1.0778648	-0.8162041	0.18837379	-0.30613977	-1.1136072	-0.31631598	1.0843188	-0.95857334	1.0674126	-0.2975373	-0.9425534	0.52316767	-0.88053435	-0.043879002	-0.08546665	-0.819378	-0.4499122	0.18863526	0.5961424	0.74985445	-0.40185308	0.31438535	0.8537568	-1.2503655	-0.4749527	-0.90893435	-0.5935136	0.23788905	-0.16603327
dure	-0.062240127	0.71597695	0.14528662	0.20593455	0.91400206	0.8536117	-0.4627761	-0.53751016	-0.60713243	1.5052826	0.8368986	0.52274984	-0.8322476	0.77786124	0.22576359	-0.9244592	1.0062958	0.624027	-0.23669471	0.75463605	0.202792	-0.18218675	-0.38603735	-1.1494764	-0.5317168	0.2256364	-0.9012017	0.66162074	-0.699057	0.8814691	-0.4752543	0.26594487	-0.0140276775	-1.1668103	-0.33932006	0.7732184	-0.89535785	0.71564615	-0.10257067	0.9956128	1.3848194	0.46619302	-0.18158747	0.14213543	-1.1106696	-1.3542678	-0.35300675	-0.12431772	1.5034194	0.21205217
occur	-0.19956203	-0.20070167	0.9650222	0.48718068	0.13674869	0.59201443	-0.21918312	-0.75203824	-0.26462218	0.38900554	0.66745245	0.47782114	-0.5412253	0.66255087	-0.027340665	-0.5721673	0.4201094	0.5794597	0.5875443	0.6194832	0.4809078	0.5484702	-0.13689812	-1.4679424	-0.5792381	-1.3270192	0.5999219	1.0803667	-0.3889485	0.70629215	0.40201932	-0.8288279	0.5394943	-1.2826763	-0.32764944	-0.6322346	-0.25936323	-0.49923617	0.45945233	-0.23792142	0.9074962	0.5954821	-0.85422903	0.51738083	-0.83290684	-0.9448061	-0.4922639	-0.2642778	0.53409725	0.55254394
let	-0.3409347	1.0289392	0.88206875	0.91291285	0.52245235	0.77683914	-0.88342977	-0.91824657	0.1410469	0.73888016	0.8159636	0.97490466	-0.77782404	0.48608994	0.16487712	-0.42801672	1.0240742	0.87757266	-0.018473893	0.17938554	1.1864929	-0.62692225	-0.49818212	0.2098582	-0.05524811	-1.4101045	-0.27338934	0.96425706	-0.82291853	0.5093136	-0.636871	-0.34528503	0.6339147	-0.7567762	-0.21934801	0.54000324	-0.94200313	-0.22413197	-0.02500546	0.4894672	0.7777339	-0.6380925	0.79786664	0.5955603	-0.9999561	-1.0996826	-0.7949294	-0.56895953	-0.017578669	0.16222477
well	0.12109326	1.076221	0.48713875	0.9035653	0.8866961	1.0100219	-0.8211435	-1.1613262	-0.099176034	0.6443979	0.7378542	0.35471022	-0.38724977	0.28542656	-0.18079045	-0.8063921	1.2563634	0.7939826	0.44178647	0.57632744	0.88760245	-0.35280925	-0.34528682	-0.027266402	0.034307763	-0.3733216	-0.11418656	0.6531967	-0.620919	0.8094107	-0.23987396	-0.9216019	0.29248986	-0.22417477	0.13391456	0.5886903	-0.853269	-0.36464947	-0.060743377	0.15947197	0.73558676	-0.034872122	0.50918394	0.5620276	-0.7929764	-0.27072316	-1.4575746	-1.0147707	0.13539621	0.3055744
these	0.0064313696	0.6538588	1.1143911	0.93281686	0.5607302	0.91781545	-1.0814867	-0.93765235	-0.5694052	1.165646	0.6094718	0.9372612	-1.340665	1.1772807	-0.15068033	-0.62055504	0.9174199	0.85279775	0.06107869	0.2801425	0.7087977	-0.38891113	-0.9817977	-0.39442652	-0.49036404	-1.156814	-0.57561874	0.7116903	-1.0250404	0.68586975	-0.2620833	-0.22627097	0.8776717	-0.66896856	0.45414543	0.36971858	-0.8132405	-0.70729506	-0.07830659	0.0987429	0.8695997	0.04161327	0.5951739	0.8647013	-1.0476916	-0.50469023	-0.8874091	-0.8731414	-0.19711494	0.115461156
less	0.3064302	-0.020230051	-0.458312	0.2400753	0.5713178	1.0583482	-0.6937772	-0.7921605	-0.37317848	0.7960967	0.3734446	0.3167079	-0.5256032	0.21139136	0.0774348	-1.3374412	0.7853912	0.2618832	-0.086260006	0.25103945	0.3575402	-0.53881854	-0.9826839	-0.7765427	-0.3808499	-1.1692133	0.8400263	0.39589763	-0.3231554	0.31689876	-0.30884278	-0.5325481	0.42793983	-1.2247729	-0.04790302	-0.1447743	-0.46158096	-0.8271465	0.33013734	0.49857277	0.72487545	0.10549163	0.013064206	1.4761324	-0.86755073	-1.1428046	-0.658601	-0.2551282	-0.40614393	0.45768827
alway	0.19933091	0.59831774	0.2885571	0.99277323	0.29208773	0.7471516	-0.58729506	-1.0484289	-0.18566398	0.4773356	0.9265403	1.1708498	-0.61119634	0.0729254	-0.3003765	-0.53735876	0.4498932	0.7307191	0.42489684	0.5022089	0.6329654	-0.6099572	-0.3734224	-0.16157356	0.36133534	-1.2708441	-0.25932235	1.0931234	-1.1965315	0.3751477	0.028877392	-0.72965044	1.085691	-0.45229736	0.27422655	0.5792207	-0.3341449	-0.2787924	-0.039502967	-0.14148065	0.32519227	0.2783761	0.24307272	0.437805	-0.2612396	-0.34051406	-0.5619805	-1.2384152	-0.08233769	0.22467479
did	0.30664995	0.70875525	0.8837333	0.61576486	0.36479545	0.94964427	-1.0393664	-1.1567674	-0.5296306	0.8818761	0.72200215	0.6750705	-0.044334203	0.9058964	0.074690804	-0.7893939	1.3133233	1.06567	0.56392175	1.0312144	0.69199157	-0.9253031	-0.92849725	-0.0030482002	-0.36788934	-0.46242046	0.0032263026	0.85140467	-0.8629726	0.9506562	-0.67166126	-1.1343379	0.45859188	-0.99149746	-0.183304	0.52476	-0.7397936	-0.059480432	-0.67188287	0.87681466	0.9681549	0.252661	0.2875277	0.62839997	-0.78349733	-0.8077827	-0.3749767	-0.4769308	0.03597003	0.14813915
pray	-0.48159963	0.85806555	0.8879461	0.7401557	0.8022951	0.9879525	-0.9832864	-0.7893876	0.32927006	0.7029673	0.6125957	0.7284021	-1.0804698	0.73661375	0.19765791	0.22555628	1.0783386	0.63049424	-0.3511116	0.8066875	1.2929044	-0.12266541	-0.45211452	-2.383349	0.17691258	-1.3359027	-0.4813301	0.72817975	-0.52318853	0.43632257	0.16856916	0.1874374	0.6357367	-0.97326344	0.15398692	0.8536577	-0.5909469	-1.4103246	0.28323302	-0.66526806	1.4648817	-0.59984696	1.3071922	0.37010908	-0.99347174	-0.6055012	-0.3720668	-0.8035266	0.5538933	0.22876206
am	-0.6196475	0.23508394	0.8021357	1.3296201	1.0891256	0.66683066	-0.34287345	-0.633933	-0.16441394	0.8750829	0.36762074	0.74875253	-0.4889893	0.730317	0.18547158	-1.0620881	-0.2530031	0.9819749	-0.13755059	0.97496426	0.46413454	-0.18656707	-0.6374346	-0.98361874	-0.42142826	-0.7644411	-0.46165708	0.4199377	-0.86407864	0.9313995	-1.0167661	-0.57824504	1.3722107	-0.7417288	0.7309241	0.72327197	-0.03928889	-0.42919463	0.11858521	-0.22530064	0.93240744	-0.29507774	0.13363886	0.96527183	-0.8837093	-0.40363687	-0.8186605	-0.8347597	0.64754975	-0.072349064
cover	0.5304718	0.66827613	1.0084996	-0.15511312	-0.08301203	0.04686651	-0.56002814	-2.3462427	-0.06275271	0.5981028	0.0018952712	0.7037854	-0.3881621	0.38601032	-0.16679499	-0.8154603	0.28922915	0.58390296	0.25298175	0.028844714	0.5137791	-0.8120636	-1.371469	-0.40168083	-0.47782588	0.109642416	0.3360301	1.0730286	-1.2180235	-0.083551496	-0.52756417	0.5576707	0.43079385	-1.1131239	-0.18819357	0.24380931	-0.40699017	0.101330236	-0.64927244	-0.29412344	0.4461013	-0.1985389	0.48046452	0.42355746	-0.5373912	-1.0053664	-0.6119575	-0.61362267	-0.25571424	0.8584324
one	0.31924003	0.54880697	0.63298595	0.9680966	1.0712544	0.5837958	-0.94656396	-0.8766458	-0.57840246	0.99569017	0.8573343	0.8588399	-0.71765226	0.78750104	-0.0450027	-0.745222	1.5360465	0.8438268	-0.22678044	0.8934089	0.93464637	-0.57923394	-0.65668106	-1.0559431	-0.53888124	-0.4626091	-0.46727556	1.0918782	-0.89287376	0.992641	-0.34572488	-0.6542586	0.92967397	-1.1264292	-0.07528452	0.58084536	-0.8322673	-0.67144966	0.06503032	0.36415315	0.7410171	0.65045035	0.5878602	0.994525	-0.94738734	-1.1480701	-1.6140103	-1.0635974	0.28013182	0.40223694
too	0.07950876	0.6875335	0.3118985	1.3054262	0.6854209	0.13589452	-0.7362699	-0.5300912	-0.6515002	0.6764139	0.679109	1.4699829	-0.50111914	0.6636202	-0.5638521	-0.2627868	1.0984209	1.3248897	0.8985812	0.79801506	1.1153085	-0.06849143	-0.58479893	-0.26019362	-0.37624362	-0.9378882	-0.32041073	0.32971826	-0.8117436	1.1696386	0.22981665	-0.3061673	0.9693842	-0.69897723	0.34473586	0.61170626	-0.2849923	-0.5883858	0.107318535	0.25187963	0.28425175	0.38294333	0.7692389	1.6600219	-0.7542844	-1.3455675	-1.3738685	-1.1809134	-0.109564245	0.19818094
america	0.09255794	0.73153174	0.8754665	1.1157174	0.7678398	0.9598952	-1.0779388	-0.56981623	0.34033614	0.8549754	0.8694554	0.39550203	-1.5441985	0.546098	-0.02391724	-0.3298601	0.34573057	1.1979651	-0.28618994	0.45718518	0.0032386854	-0.97313356	-0.6279218	-0.5753248	-0.5077125	-1.7422597	0.2339196	0.06839213	-0.55467415	0.7816781	-0.38799307	-0.33736756	1.0269709	-0.6932571	-0.30419564	-0.28781155	-1.1641033	-0.349337	0.2708818	0.3205679	0.68326354	0.16513063	0.4744673	0.896513	-0.7662544	-1.1543686	-0.89872026	-1.1311784	-0.23455356	0.3048654
few	0.28758234	0.23810245	-0.21672264	0.46482617	0.20340513	0.6490501	-0.37714788	-1.0078249	-0.23831211	0.5781528	0.56787753	0.48338357	-0.16686347	0.07805562	0.01922533	-0.8818358	0.7606168	0.51923084	0.37195504	0.43759233	0.6553808	0.21492012	-0.34187737	-1.1830707	-0.32775795	-1.0707374	0.83798957	0.40931046	-0.68083024	0.49713165	-1.0774608	-0.3288414	0.4063854	-0.9558327	0.13997641	0.43164948	-0.14582224	0.10615426	0.00031499192	0.9147067	1.0996284	0.21113099	0.10881026	1.2066196	-0.96119094	-0.84009016	-1.3820009	-0.6195034	-0.19690935	0.6111076
involv	-0.1248689	0.5479847	1.2146775	-0.061379656	0.75319314	0.6435007	-0.21766356	-0.77934575	0.17043473	0.39349	0.5743075	0.67037183	-0.7289116	0.50792146	0.1524739	-0.35500804	1.5000167	0.14942797	-0.17412557	0.9357155	0.71879506	0.3875184	-0.70460457	-1.9272575	-0.0115982	-0.18864477	-0.88882846	0.8985231	-0.69197327	0.49485976	0.5797671	-1.0983727	0.40434456	-0.9085092	0.6023959	0.24540377	-1.3770313	-0.9136028	-0.06696586	-0.59374875	0.8239291	-0.21928364	0.2216497	0.013366241	-0.28236994	-0.46763033	-0.9217026	-0.9660896	0.21938261	0.8491688
can	-0.05748444	1.0694509	1.1112732	0.74852645	0.96701753	0.96850896	-0.94426835	-0.8774047	-0.17811121	0.7420672	0.85514313	0.964312	-0.775246	0.6649294	0.55250686	-1.0351576	0.7110152	1.0597583	-0.059677772	0.57345676	0.76030207	-0.9925634	-0.68452257	-0.09461738	-0.6477145	-1.3407395	-0.3255033	1.0699675	-1.0648451	0.83997583	-0.56133777	-0.64439285	0.7840229	-1.0072174	0.14225845	0.68944544	-0.8869556	-0.79127944	0.0122669	0.31357566	0.6815378	-0.49957362	0.5579959	1.0007493	-1.086422	-0.8902825	-0.6874386	-0.9082068	-0.19871584	0.16235688
heard	0.15476854	0.37832752	0.44709313	0.60463977	1.2515817	0.40283507	-0.5771317	-0.56116176	0.03758868	0.20804428	0.59617245	0.3657558	0.12760065	0.44032675	-0.30111435	-0.35653582	0.69265974	0.8457537	0.23050646	1.7292662	0.48983002	-0.13058288	-0.5960684	-0.89431083	-0.6945198	-0.19152282	0.41590455	1.1650769	-1.1063108	0.39791754	-0.9760301	-0.32519382	0.79741156	-1.3049989	0.45766854	1.5874205	-0.98855823	0.004525006	-0.4211694	-0.045757793	0.6148243	0.5200428	-0.27635965	0.32224995	-1.0318186	-0.51854146	-0.13435675	-0.7184911	0.048479225	-0.039673552
seem	0.29980046	0.57607085	0.24810064	0.7189909	0.11973836	0.48230475	-0.5844405	-1.4273813	-0.17914854	1.0447443	0.6667176	0.5895753	-0.42869973	0.33054447	0.004809186	-0.99538106	0.7948601	0.5687072	0.32996655	0.33148628	0.65089786	-0.18184294	-0.6648153	-0.15100224	-0.52436	-0.7887293	-0.034547098	0.8041756	-0.6374996	0.65558577	-0.2602201	-0.83731425	0.6080877	-0.3774329	0.39558357	0.1728166	-0.54662114	-0.6108852	-0.5013685	-0.21810351	0.47036391	0.56997347	-0.34609026	0.6081066	-0.8562236	-0.8742411	-0.7458367	-1.2445867	-0.36575723	0.53036547
investig	-0.04060758	1.8548046	1.435039	-0.4312024	0.80208886	0.18344972	-0.4291873	-0.7991668	0.037675366	-0.18688408	0.48621222	0.78696525	-0.15408178	0.876904	0.48613644	-0.77063525	0.7992097	0.90768564	0.28685656	-0.30575457	0.7311183	0.85190356	-0.14075798	-0.47995588	-0.98326063	0.85881644	-0.7131442	0.40382278	-1.1745496	0.5648997	-0.3272699	-1.3289595	0.25488335	-0.41427472	-0.8626168	-1.3828846	-1.3803561	0.30063397	-0.39324307	0.92766845	1.0529102	-0.738761	0.31755304	1.3825352	-0.41348046	-1.2562498	0.16520032	-0.4394362	-0.20025846	0.8065898
just	0.26266554	0.65604734	0.9585376	1.0613058	0.5749982	0.89079666	-0.96056557	-1.0847416	-0.3314232	0.80024767	1.1500564	0.6532382	-0.8127897	0.7263562	0.18692225	-0.9269918	0.83982676	1.0395814	-0.034572996	0.9375309	0.70194936	-0.6235216	-0.8167821	-0.7879414	-0.82268536	-0.9854536	-0.15736681	0.8786163	-0.81587446	0.9233452	-0.70665836	-0.8568445	0.95221674	-1.127852	-0.15390515	1.0595253	-0.9798969	-0.22054909	-0.4538582	0.43696684	0.7688607	-0.16612072	0.4408422	1.1720109	-1.1343747	-0.9461199	-0.7816708	-0.99533725	0.058090545	0.5404815
guy	0.2253213	0.9669063	0.59477395	0.54693073	0.4949192	0.7845229	-0.87085533	-1.0251508	-0.3761145	0.53189576	0.914099	0.5059664	-0.019204065	0.23710158	-0.363464	-0.7151035	1.0149057	0.5710397	0.2056351	0.8304015	1.1378405	-1.0788064	-0.8648882	0.2969898	-0.13484791	-1.0882161	0.051875725	0.5707135	-0.8701651	0.99806964	-0.87526405	-1.1448958	0.87519515	-0.50877315	-0.5781575	1.740502	-0.7132419	-0.54138315	-0.8092744	0.8960351	0.96096903	0.076457106	-0.06563601	0.5762052	-1.0200782	-1.0712359	-0.9100984	-0.875559	-0.08911687	0.39030877
for	0.12545379	0.9291624	0.9610278	0.6822726	1.0527352	1.0214571	-1.0221266	-1.3010935	-0.025231227	1.0895249	1.2330672	0.82134616	-0.78436357	1.0893055	0.61148244	-0.91430366	1.2352896	1.2646272	0.06791393	0.7097405	0.9590864	-1.200764	-1.10798	-0.7387715	-0.40505737	-0.91649735	-0.93913054	1.1106772	-0.7474278	0.998436	-0.9174533	-0.32152408	1.1628927	-1.3232853	-0.23160234	0.13279173	-0.78805304	-0.5554662	-0.085449725	0.45698738	1.0432639	-0.5809453	0.91565806	1.0705206	-1.2356198	-1.155971	-1.1357124	-1.183241	1.1279532	0.73785347
leav	-0.29600382	1.5457155	0.3226133	0.8816163	1.1237231	0.025084373	-0.13922374	-0.8233535	-0.5261314	1.1336516	0.8205699	0.19251002	-0.18485343	1.0639826	0.12567267	-0.26888403	0.2531075	0.29467148	-0.82341075	0.61656266	0.31719422	-0.30829033	-0.38121492	-0.90729	-0.48531914	-0.5606678	-0.07525281	1.1742	-0.049942035	0.044725392	0.15909675	-0.04684843	0.9548023	0.2847453	-1.7017577	0.74918413	-0.8222256	0.05437787	0.21761325	0.2950404	0.4563556	0.08005141	0.5271909	1.3171203	-0.4124274	-0.5211669	-0.111499354	-1.0290059	-0.053422574	0.39836752
everi	0.43821293	0.4640042	0.47378975	0.70522046	0.5817682	1.114104	-0.9667413	-0.90569144	-0.2808711	0.83359164	0.5723642	0.9167743	-0.81704557	0.7751336	0.0645876	-1.0187608	0.5324948	0.7954463	0.007764682	0.6372641	0.4123835	-0.6403637	-0.7272887	-0.30333692	-0.88773596	-1.4835374	0.2574752	1.1780598	-0.6126342	0.7622285	-0.6032537	-0.3177992	0.7320576	-0.9106483	0.118518196	-0.0017380342	-0.4339183	-0.60502714	0.20179299	0.3121355	0.50631213	0.10127948	0.4556083	0.67047644	-0.83899486	-0.42505246	-0.99093914	-0.43271583	-0.023243418	0.15146075
don	-0.09143558	0.74334925	0.94542104	1.2071527	0.8065846	0.66322327	-0.9407929	-1.0773273	-0.25585398	1.245419	1.1825776	0.5981468	-0.5301048	0.8646977	0.41419572	-1.0399905	0.984956	0.7560403	-0.004694309	0.72866714	0.81248677	-0.76500934	-0.69909734	0.3310315	-0.46742898	-1.1792827	-0.27699545	1.1714599	-0.9862361	0.90555763	-0.28135622	-0.7179121	0.53514385	-0.9759073	0.020081162	0.7461959	-0.72161186	-0.72931075	-0.58579797	0.15882245	0.4941821	-0.2896449	0.8128029	0.9260837	-0.63857496	-1.2812983	-0.5985443	-0.95150256	-0.3846345	-0.16239332
say	0.33328325	1.0972557	0.8108276	0.89552295	1.0260739	0.7840333	-0.7887277	-0.90201306	0.023706652	1.1991332	1.239181	0.47860646	-0.25511765	1.4076622	0.13386367	-0.8927574	1.240115	1.0970597	-0.6018208	1.1724962	0.7236292	-0.29482096	-0.7647522	-0.53175366	-0.9268925	0.32522765	-0.6454377	0.88465774	-0.99604845	0.9263853	-0.3785929	-1.2480159	1.061682	-1.0754218	-1.0423394	0.36697465	-1.1638293	-0.11310242	-0.33942208	0.5615084	0.6067598	0.24821611	0.49448067	1.0771972	-0.48652232	-1.1656703	-0.16338246	-1.3210573	0.2563842	0.37507296
after	0.6602663	0.78289354	0.5339665	0.6932118	0.5529194	0.31947172	-1.2386343	-0.9897448	-0.1114791	1.06604	0.9536702	0.11025344	-0.21813671	1.1844578	0.52790785	-0.7486228	0.9106637	1.293318	-0.29414943	1.0865494	0.45652688	-0.46573544	-0.88782674	-0.732306	-0.71442014	-0.590136	-0.53633976	1.2396903	-0.69507897	1.3215283	-0.681903	0.10439048	1.0877306	-0.840117	-1.2442212	0.024724819	-1.3058054	0.29325125	0.5180291	0.8364498	0.86823565	0.1987913	0.34910136	1.0956562	-0.63287324	-1.1436431	-0.6523023	-1.1371993	1.0061462	0.65461004
her	0.17466486	0.50519186	0.57912403	0.47224218	0.70508957	1.8210602	-0.16414735	-0.65200484	-0.6051871	1.4136226	0.9068448	0.521698	0.041858084	0.9064269	0.059664533	-0.44843566	0.27426842	0.79861426	0.007854161	0.5671189	-0.3882765	-0.5160923	-0.29776895	-1.0753739	0.34470046	0.5691252	-0.1402692	1.6084418	-1.0341109	0.76038486	-1.0733731	-0.26512283	0.57132685	-1.236229	0.38275334	0.82140887	-0.8318324	1.0907522	0.31708908	0.7983874	0.48008513	0.19325149	1.1610136	0.05966116	-0.9831833	-1.4323801	-0.9931698	-0.9341763	-0.19491512	-0.012638681
fuck	0.15264195	0.5099662	1.472795	1.1519923	0.29754835	1.114175	-1.0170605	-0.2832306	-0.7074758	1.218687	0.66095996	0.33531967	-0.8841703	0.7982199	0.047999077	-0.5190129	0.8224022	0.86461854	-0.55596244	0.5565873	-0.08822133	-0.59180117	-0.65742934	-0.24523216	-0.6816021	-1.4332542	0.09358426	-0.010463744	-0.10675636	0.9671378	-0.28912795	-0.47415185	0.68127424	-0.6609975	-0.06617519	1.6009558	-1.3509078	-0.20334674	-0.6073138	-0.02274603	0.590258	-0.7055344	0.76597226	1.2961733	-1.0949913	-0.31601202	-0.67442876	-0.8819475	-0.4781122	0.19203447
same	0.4570034	0.39969665	0.6655477	0.6341251	0.10181555	1.0824308	-0.98858404	-1.2628517	-0.050720572	0.6188933	0.4762088	0.56676537	-0.51380163	0.5858072	0.033583812	-0.7679024	0.88203824	0.72036225	0.33873513	0.5256706	0.40664622	-0.19904128	-0.5928273	-0.038480133	-0.5322062	-0.7163751	-0.42289463	0.7191838	-0.6935334	0.91220903	-0.6670867	-0.7306292	0.8452314	-0.9672063	-0.061872456	0.3895148	-0.80357283	-0.3214457	-0.28187907	0.34707963	0.66198754	0.38211066	0.08629155	0.8744945	-0.902907	-0.71396613	-1.0776423	-0.40217414	-0.24476257	-0.09712045
yet	-0.41437346	0.5166488	1.3659778	0.74273777	0.9099356	-0.033182073	-0.41975108	-0.73426056	0.5826963	0.693651	0.9196305	0.690207	-0.44665226	1.4271994	-0.25549263	-0.70987314	0.89398193	0.73298097	-0.101776704	0.8906379	0.7881321	-0.5498866	-0.92659044	-0.40465844	-0.4497099	-1.0372802	0.25034162	0.7639059	-0.7019602	0.90414554	-0.92098826	-0.9063091	0.33195543	-0.77289414	0.008175677	0.12653911	-0.6616614	-0.46720615	-0.30802184	0.23431253	0.78194034	0.23408955	-0.19805962	0.7988465	-0.4493698	-0.7968485	-0.8000269	-0.7662225	-0.11839187	0.5810302
tv	0.5504342	0.18959706	0.8002498	-0.025560632	0.06616852	-0.6134987	-0.2627107	-1.4633207	-0.35983285	1.4184067	0.124815896	0.8515787	-0.6742333	0.3989763	0.04378432	-0.27568245	-0.7615407	0.7976044	-0.009065587	0.86403114	0.17910431	-0.34168005	-1.1608154	-0.11445274	-0.6302241	0.3125937	0.47309563	0.83438873	-1.219205	0.35747015	-0.030582577	0.05953616	1.3129025	-1.184217	-0.014327861	0.7796776	-1.1482508	0.558914	-0.4737747	0.16213453	0.36709458	-0.15082201	0.4211387	1.0151504	-0.25125614	-0.62836444	-0.19519496	-0.13063623	0.75663126	0.23327763
left	-0.31067932	0.08205685	0.66658026	0.50829995	0.6391653	0.35489178	-0.7309023	-1.0639465	-0.33129975	1.222952	1.1714947	0.91780186	-0.02415786	0.12261386	-0.13958287	-0.943799	0.74002427	0.018639855	-0.3047539	0.7900611	0.7184717	0.00495743	-0.7162676	-0.38319954	-0.067016885	-0.6802182	-0.79794383	1.0497204	-0.5278415	1.0739145	-0.5481704	-0.18796058	0.89703375	-0.16251189	-1.1691263	-0.27982512	-0.99123776	0.6099637	-0.41478813	0.4835488	1.0528736	0.18414417	0.07817694	0.9911746	-0.0037253015	-0.4837606	-0.9201563	-1.1039706	-0.1799941	1.1556635
god	-0.14766753	1.1539719	0.48747587	0.9504596	1.2012119	1.1661897	-1.1995168	-1.0640336	-0.2324999	1.0979816	0.6155729	1.1574485	-0.5016269	0.5552523	0.32489082	0.7473635	1.0606551	0.7400613	-0.33942425	0.923321	0.880098	-1.498559	-0.6806501	-1.3817914	0.5222753	-0.7359271	-0.5186898	-0.056122612	-0.36410165	0.27580053	-0.23392627	-0.42872328	0.7812295	-1.0771372	-0.1593539	0.6588975	-0.5300646	-0.6320645	-0.21206824	-0.48107225	1.3434055	-0.3199389	1.3874577	-0.09920016	-0.7109123	-0.8460784	-0.15497124	-0.69492304	0.015583352	0.23631842
him	0.2552086	1.2423128	0.67402	0.29841477	0.7835603	0.6723534	-0.72225344	-1.0867611	-0.72599065	0.46193206	0.7542212	0.7922362	0.5499189	1.096703	-0.15932605	-0.40101862	0.98511225	0.6487372	-0.04729685	0.63163227	0.9643212	-1.2497323	-0.97527885	0.018436924	0.50691503	-0.1726507	-0.30189317	1.1682459	-0.80849755	1.1609886	-1.1571302	-1.0909398	1.1603987	-0.9488516	-0.027896745	1.0190983	-0.62284803	0.44935316	-0.78254795	1.380071	0.9027989	-0.12744485	0.26781967	0.899495	-0.86920726	-0.55547076	-0.402547	-1.1297996	-0.048450787	0.25192702
our	-0.8915489	1.2604408	1.0453907	0.8542806	0.8831879	1.2914592	-1.379945	-0.8581786	0.13512844	0.8734443	0.89706635	1.06159	-1.3705463	0.83930945	0.122349665	-0.8603394	0.65559316	0.9281583	0.060942147	0.50616926	0.43982288	-0.97294074	-0.7882229	-1.1722441	-0.2763866	-1.0444214	0.033960916	0.96977246	-0.8672621	0.8760883	-0.34865063	-0.26521072	1.1856079	-0.836028	0.39552978	-0.5909619	-0.41649824	-0.6350839	0.33603165	-0.15223758	1.3244437	-0.11001339	1.206471	0.44024658	-0.8390763	-0.60708404	-1.218627	-0.8469368	1.0654624	0.36237657
there	0.33337966	0.6958058	0.7274449	0.6996187	0.73821104	0.7539865	-0.70890087	-1.0497069	-0.7362226	0.81984365	1.1456585	0.7630674	-0.7191938	0.5059083	0.2549788	-1.0004833	1.2010977	1.0083699	-0.15096818	1.0595589	0.8397875	-0.41644853	-0.49697906	-0.9530499	-1.0022527	-1.0657847	0.12193912	0.9299922	-0.99624383	0.8359126	-0.33364987	-1.2012331	0.9195702	-1.2512507	-0.26710156	0.63736093	-0.84985256	-0.71820784	-0.19549197	0.04427441	0.839576	0.07829882	0.20704749	1.0468769	-1.0307772	-1.0953643	-0.9809638	-0.8741926	0.19964883	0.35838705
other	0.07219371	1.2004781	0.46479565	0.5736091	0.76326346	0.72387683	-1.0026472	-0.7039366	-0.32534218	1.2740786	0.46989667	0.2900191	-0.6994372	1.0000135	0.1565525	-0.8614273	1.1668434	0.59709334	-0.74499553	0.23654875	1.1296158	-0.65154195	-0.7100538	-0.60988	-0.53462625	-0.5947027	-0.23779336	1.111733	-1.0179007	0.7085216	-0.51566213	-0.5717145	0.9864137	-0.6677599	-0.40524688	0.18492731	-0.9508692	-0.8379746	-0.23665425	0.20683119	0.8797295	0.37699687	0.24119717	1.0454639	-0.6395377	-0.9944039	-1.0203397	-0.64637035	0.20111643	0.27778122
got	0.55592453	0.8864429	0.34252292	0.48873156	0.13509552	0.72694546	-0.7731838	-0.87160146	-0.7783097	0.5596809	0.55028	0.28377727	-0.19126622	0.4192328	-0.015750725	-0.59358627	0.7183395	0.9379784	-0.048287142	0.78976125	0.3884672	-0.42199928	-0.90423375	-0.624436	-0.29840893	-0.78188246	0.21598129	0.7164427	-0.70714486	0.91229725	-0.60511875	-0.79655135	0.7861613	-0.88457024	0.19162956	1.5702066	-0.91094387	-0.10496619	-0.68603116	0.97153735	0.67477286	-0.40786314	0.9856562	0.71542346	-0.7471341	-0.47548306	-1.1745589	-0.9393463	0.022047495	0.44013703
anoth	-0.39488918	0.5077902	1.3255005	1.1329806	0.63177556	0.6607417	-0.7088323	-0.99219894	0.26218355	0.66224444	0.91905856	0.6513795	-1.5029104	0.9269502	-0.6272014	-0.23862678	0.68750226	0.8132409	-0.391753	1.0107064	0.73134106	-0.54789627	-0.8298505	-1.0683217	-0.7399618	-1.4445655	-0.066789895	0.3940798	-0.42642292	0.89607394	-0.25628155	-0.6798539	0.91304743	-0.6846933	-0.33658576	0.46694434	-1.1275504	-0.4406109	0.4002517	0.30268732	0.64291334	0.020798154	0.44703904	0.7964407	-0.6004816	-0.8638173	-1.2004807	-1.0590426	0.22029948	0.9724009
still	0.06332501	0.9850009	1.260647	0.22356221	1.0668452	-0.023478441	-0.5778478	-0.6269798	0.19029601	0.73380417	1.2419591	0.86130327	0.10759491	0.9554969	0.20521812	-0.9224522	1.1706805	0.91813695	-0.5532676	0.55742466	0.6149424	-0.4482388	-0.66665447	-0.7531319	-0.5477334	-0.61726135	0.2621686	0.8597332	-1.0238459	0.53799844	-0.8212725	-1.0573335	0.8682866	-0.4712307	-0.29828936	0.78177667	-0.8867655	-0.7034472	-0.20348078	0.382302	0.8702428	-0.15776823	-0.19297755	1.0421948	-0.8144771	-1.3125014	-0.8382833	-0.65438724	0.043045737	0.24472615
tonight	0.4168467	0.828762	0.21216023	0.30801037	0.86260796	0.37560916	-0.007099554	-1.5636897	0.64055437	0.9997573	0.81482065	0.5817596	-0.6556489	-0.109466396	0.7253623	-0.86757404	0.5097888	0.7233833	-0.038777273	-0.00749892	0.475036	0.5342234	0.027009502	-1.4682004	0.20839976	-0.30083683	-0.2631487	0.8766985	-0.812065	0.5063567	-0.23418258	0.39555562	0.93144834	-0.43919733	0.48249272	1.0422963	-0.15229292	-0.16784668	-0.3573951	-0.34616452	0.396628	-0.5926012	0.9293919	0.8401767	-1.0208521	-0.9453585	-1.2397032	-0.38032487	1.972329	0.3081056
terror	-0.11095175	0.9375716	1.0791643	0.9531064	0.8564882	0.61430764	-1.2989346	-0.76967824	2.0575418	0.24975345	0.47911912	0.9487698	-0.7560035	1.0564836	0.08482496	-0.7329572	0.8565726	0.9817878	0.7012359	0.18065004	0.16679592	0.018984575	-0.2543032	-0.47332078	-0.6974181	-0.4499409	-1.1935191	0.67519015	-1.0041132	0.47065055	-0.63457793	-1.5084343	0.39409372	-0.91123414	-1.2826799	-0.36892375	-1.4030358	-0.31022337	-1.1152523	0.00061889365	0.48111773	-0.38283116	0.007034257	1.1510811	-1.1224573	-1.1639519	-0.40989903	-0.50055975	-0.6905895	0.6505587
those	-0.34425288	0.73618615	0.812652	0.74598145	0.91354555	1.2474512	-1.0455933	-0.77478695	-0.24467996	0.8261837	0.5092046	0.72806484	-0.5589467	1.0711479	0.39205962	-0.42976654	1.5650649	0.94412357	0.14060402	0.48641872	1.0351121	-0.6759945	-0.7530453	-1.3608851	0.41271052	-1.0675068	-1.0546157	1.0381072	-0.91959286	0.7297313	-0.074272044	-0.21211024	0.65458953	-0.7959635	0.20800325	0.6415323	-0.44826043	-1.1181792	-0.06300545	-0.42101064	1.0732158	-0.21216014	1.081668	0.48533687	-0.8797076	-0.5981611	-1.4415636	-0.6722203	0.7212492	0.68250537
hit	0.6592988	0.8221431	0.16705807	0.26770446	1.2048687	0.95959216	-0.8739554	-0.5675484	-0.47569513	-0.4645763	0.27009505	0.92679346	-0.14973061	-0.7350118	-1.0042355	-1.1015944	0.5447442	1.6173809	0.26664093	0.8658483	0.0039770007	0.2690588	-0.43786573	-1.4194369	-0.30133766	-0.16148812	-0.38262695	1.6260077	-0.044316612	-0.112235844	0.2687902	0.23799582	0.13909051	-0.2568444	0.42837277	0.8763454	-0.8914882	-0.13841462	0.020861633	0.40339097	0.44673845	0.39703733	0.42804182	1.2828369	-1.0707209	-0.27291963	-0.5914626	-0.91476166	-0.42643312	0.53403383
area	0.560529	0.87126476	0.5506226	-0.7939631	1.2347269	-0.7611263	-1.0673678	-0.98680794	-1.3169632	0.23134553	0.24104431	-0.099627	-0.052535757	-0.019142903	-0.34733874	-0.5168298	0.47647637	0.936401	-0.3977269	0.9357152	0.6061125	0.8352889	0.016581118	-1.6925824	-0.030378252	-0.3408566	-0.1424655	1.4770811	-0.618714	0.5213934	-0.012193009	-1.277853	1.1368148	-1.0342933	-0.998549	-0.0017501935	-0.17624237	-0.94079065	0.01684232	0.13690515	0.3916903	-0.46677718	-0.22926667	0.57371515	-0.5629132	-1.0799234	-0.535673	-1.0746884	0.97441375	-0.26334444
yes	-0.14879116	0.5899936	0.34648597	0.60318714	0.6307492	1.101865	-0.84956145	-0.6889373	0.12267272	0.91614926	0.47970092	0.6775508	0.056604847	0.19579428	0.15974379	-0.24757953	0.7769849	0.9800253	0.06464959	0.6276737	0.76053965	-0.41425192	-0.48379368	0.326528	-0.03281045	-0.5970749	0.044697218	0.5841707	-0.46663108	0.38218278	-0.35697356	-0.883647	0.640208	-0.62764204	-0.08468501	0.39282426	-0.7710603	-0.45155302	-0.083418995	0.21002847	0.4328093	0.34975064	0.3376476	0.72941875	-1.0640187	-0.71580356	-1.0671077	-0.42032325	-0.2850894	-0.09328494
where	0.046094935	0.5328788	0.93344015	0.3836382	0.62375927	0.6346228	-0.97586465	-1.0588586	-0.56110525	0.91157055	0.85919386	0.693135	-0.60129285	0.6233875	-0.03762043	-1.0012503	0.63994575	0.8721378	0.1458638	0.8636247	0.24402085	-0.5820753	-0.36426103	-0.9774511	-0.58548003	-0.8219943	0.34416205	0.8796134	-0.8060386	0.80864733	-0.558882	-0.76400477	0.8117025	-0.9295129	-0.6436621	0.57561016	-0.45863965	-0.35496026	-0.28857458	0.56049824	1.0247786	0.1306067	0.114243075	0.92168784	-0.84543645	-1.2566094	-1.0700023	-0.5569643	0.58954775	-0.2751207
instead	-0.46839267	0.80750597	0.49344042	0.53565663	-0.091184735	0.7531022	-0.7120236	-0.820508	-0.0687	1.2231885	0.090008125	0.7799262	-0.5585516	0.7700413	0.13562283	-0.76242596	0.85181177	0.40356982	0.19424385	0.48427376	0.93037194	-1.2347848	-0.79397225	0.40700278	-0.13512483	-1.0033637	0.036772676	1.0002967	-0.3418402	0.49992788	-0.8754227	-0.28823626	0.34110528	-0.43601984	0.0807083	0.14056355	-0.978711	0.029216424	0.3048458	0.4373325	0.7577529	-0.7668175	0.42192572	0.80205816	-0.4451911	-0.99479985	-0.105428174	-0.22413823	0.21595338	0.25651026
are	0.030050132	0.77871287	1.325383	1.0002813	0.8360429	0.76398706	-1.0959774	-1.0747105	-0.34541544	1.1398537	0.9202213	1.0468624	-1.0718555	1.1979833	-0.056107476	-0.98581773	1.3127503	0.98644507	-0.24242431	0.81774783	1.015251	-0.7882504	-0.8131785	-0.53507215	-0.7992853	-0.8971434	-0.62688434	0.961945	-1.0586817	0.93801606	-0.38315043	-0.66126025	1.090699	-0.8958861	-0.1450803	0.09386566	-0.7755333	-0.99499136	-0.14767104	-0.19399224	1.0941777	0.081295796	0.7028253	1.3294156	-1.2153206	-1.2255605	-1.4699748	-1.3387318	0.43619996	0.31735563
morn	-0.20273253	0.91719925	0.79030824	0.3849541	0.940753	0.609828	-0.7880486	-0.49663746	-0.08922108	0.83876204	0.95162773	0.011673093	-0.6567556	0.5145745	0.06925604	-0.42567778	-0.47960997	0.41152066	-0.26368767	0.924741	1.3936012	0.011231616	-0.67190623	-2.1879444	-0.5119537	-0.2912663	0.20023789	0.8236826	-0.7360969	1.1611443	-0.6606118	-0.4609881	-0.06838244	-0.4362434	-0.15425341	0.58673036	-0.6487783	0.059963614	-0.11066983	0.45581144	0.4266741	0.03835652	0.022533529	1.141652	-0.5745721	-0.68735194	-0.6915805	-0.5938149	1.6635938	1.2108479
minut	-0.12196325	0.04653184	-0.3428453	-0.31143895	0.6763635	0.68514705	-1.1654985	-0.7972853	-0.23369505	-0.3256169	0.8267566	0.7247192	-0.29812118	0.12309871	0.70368767	-1.7336519	0.87416136	0.6465172	-0.31994602	0.3351247	0.9087988	0.39900863	-0.7404486	-0.95771766	-0.38180164	-0.5905764	0.89275897	0.31197125	-0.8477369	0.5520383	-0.67475486	0.022759661	0.5870737	-1.0249591	-0.2184304	0.98759854	-0.6976011	0.8876553	0.31176597	0.82997334	1.2713156	-0.1148628	-0.5074358	1.1212188	-0.836813	-1.0337313	-0.25289363	0.2681457	0.5716016	0.53534997
that	0.24972504	0.8416295	1.1000993	1.1445681	0.7966765	1.1289145	-1.1462324	-1.2144309	-0.54586184	1.0650947	1.1518878	0.83539015	-0.56309223	1.0010681	0.21279016	-0.9908147	1.2600819	1.1048238	0.0070692003	0.84894586	0.97209114	-0.96163404	-0.8843484	-0.5047723	-0.8061197	-1.0135348	-0.46156237	1.0862417	-1.0598555	1.1120973	-0.89813995	-1.2455057	0.9786037	-1.2487628	-0.07876651	0.50352556	-0.98919946	-0.66123503	-0.43427247	0.42971843	1.0726645	0.084289536	0.36844707	1.1307867	-1.1059108	-0.941909	-1.0546267	-1.0615959	0.04830334	0.5397551
w	-0.34625274	0.70263714	0.4153524	0.12597282	0.41270757	0.9669555	-0.7667279	-0.51914537	0.3248044	0.57189345	0.3607783	0.89361954	-0.87369454	0.21493399	0.27158648	-1.0592618	0.73366946	1.0724411	0.07994087	0.84500504	1.1215982	-0.30531308	-1.1282139	-0.31187207	0.043382637	-0.119353905	-0.26924217	0.87631196	-1.1904522	0.59198344	0.056493983	-0.75387466	0.95455956	-0.98652434	-0.25413933	0.27031112	-0.57074094	-0.109868534	-0.65018106	0.8918805	0.5170013	0.116019666	0.559822	0.28214014	-0.6049552	-1.3314784	-1.0492413	-0.34395188	0.42245984	-0.020972263
video	0.9415966	0.85561824	0.66899735	-0.27379948	0.6574688	0.21494988	-0.37521634	-0.85704994	-0.7999954	1.0523114	1.1272378	1.4269218	-0.81686896	0.7816978	0.8247024	-0.9298027	0.07368988	1.1855543	0.17453524	0.7498283	0.17999595	0.30247062	-0.82841235	0.3147832	-0.82590437	-0.072304115	-1.2507709	0.73323935	-0.7845769	1.0246556	0.08146221	0.64777535	0.5237577	-1.4185011	-0.4196891	1.2051537	-1.0063516	1.1921363	-0.57455194	-0.05150785	0.9467437	0.46522757	-0.3993184	0.3644002	-0.850219	-0.85718083	-0.5217405	-0.5074129	0.3394518	0.4218069
press	-0.21381122	0.91074425	1.1861067	0.7627727	1.1093736	0.8456236	-0.7767994	-1.380309	0.6630058	0.37715483	0.061735667	0.36840373	0.6857449	0.9375013	0.20525475	-0.89970726	0.09439528	1.7401285	-0.6174202	0.7265874	0.8354363	-0.18620619	-0.55214363	-0.06593123	-0.19377625	0.1635465	0.4380863	0.4894586	-1.2579465	0.46873617	0.5057663	0.45122233	0.83288246	-1.4250791	-0.31287074	-0.5897219	0.32356113	1.1238377	-0.73052084	-0.105312616	0.19085751	0.31405845	-0.70585006	1.620748	-0.4475217	-0.84201217	-0.15843865	-1.2727542	0.826588	0.83015364
didn	0.19301707	0.64715093	0.18960212	1.2681775	0.5451357	0.7945822	-0.61926234	-1.1267085	-0.503701	0.60364676	0.7515589	0.6728293	0.28920883	0.83280486	0.17817023	-0.7676855	1.207058	0.42194563	0.734599	1.0591288	0.6655535	-0.8862052	-0.98715687	0.14643887	-0.56064487	-0.53524834	-0.0026867986	0.8888348	-1.0669616	0.8338103	-0.51284415	-1.0605373	0.77486145	-0.779086	-0.2260491	1.0333828	-0.7149192	-0.35264286	-0.705408	0.68096346	0.73484266	0.33934605	0.39155	0.33965266	-0.52290225	-0.67329514	-0.33125252	-0.5722283	0.13164002	0.26065075
went	-0.125092	0.7139181	0.51030797	0.44594055	-0.06978814	1.1399409	-0.39389127	-0.8280593	-1.2198341	0.5313257	0.9072082	0.3166533	-0.31434128	0.1936982	-0.5251108	-0.5619868	0.60049236	1.0426987	0.4008913	0.55960506	0.31500977	-0.38595152	-0.41780818	-0.94827485	-0.5141302	-0.3852245	-0.36768505	1.2033694	-0.691222	0.6500635	-1.0547223	-0.91482115	0.89621055	-0.47980314	-0.42042604	1.1726396	-0.8587395	0.2759609	-0.3132973	1.1698694	0.6964941	-0.09948695	0.13646455	0.33318377	-0.7802689	-0.5803317	-0.5019103	0.27318013	0.20200415	0.3723923
may	-0.62821007	1.0734694	0.33202156	0.26774675	1.4074004	0.439143	-0.29053882	-0.75757074	-0.21568227	0.9982085	0.6592488	1.4426916	-0.31520534	0.40935326	0.54126304	0.24669018	1.5727537	1.5939684	-0.22182044	0.33894727	1.2116346	-0.7854593	-0.45155117	-1.4868777	0.42739728	-0.07457344	-0.7473777	0.83982	-0.5221878	0.32465327	-0.24574995	-0.57189584	0.55036044	-0.85772264	-0.16872634	-0.37492144	-0.909189	-0.16244923	-0.19814028	0.15172401	0.87331164	0.38978654	0.6998363	0.1127404	-0.6912581	-0.7179092	-0.96187955	-0.6290264	0.27564186	0.42669475
get	0.38694	1.0141892	0.6667277	0.7611158	0.3288232	0.7890141	-0.92506194	-0.94266695	-0.63454103	0.7426237	0.7735144	0.9988705	-0.639565	0.8044351	0.19320822	-1.0480766	0.6416166	1.11612	-0.2583744	0.25864387	0.7134541	-0.9298111	-0.97777474	0.10428986	-0.6065546	-1.2428832	-0.003112631	1.1224816	-0.74351907	0.8560245	-0.4774862	-0.6843649	0.89056724	-0.86534345	0.030275542	1.0441339	-1.0597948	-0.61868364	-0.15322156	0.84505725	0.7354242	-0.5267164	1.033253	1.069674	-0.92493725	-0.83172774	-0.8633945	-1.206068	0.009230843	0.20540982
t	0.11357466	0.8442179	0.9766803	1.4853876	0.92120117	0.83116937	-0.99265444	-1.3411677	-0.15907563	0.94804025	1.3438375	0.8700455	-0.5013282	1.0481553	0.43182588	-1.1776372	1.2902205	0.97497475	0.28439674	0.9086713	0.79926944	-1.1341279	-0.9475076	0.03493202	-0.7606666	-1.2048055	-0.28742883	1.2614436	-1.1227849	1.0903003	-0.59834146	-1.0993335	0.7664218	-1.1936458	-0.124162994	0.96323836	-0.9415026	-0.7772775	-0.6031526	0.47955287	0.64161575	-0.05429746	0.66525686	0.9240837	-0.7790023	-1.196977	-0.71373683	-0.94281656	-0.17779896	0.12737682
hous	0.024610214	1.3814484	1.2416784	0.23949124	1.5782784	0.20168807	-1.4475001	-0.81659406	-0.5859294	0.48527944	1.0696185	-0.31514597	0.4696108	1.4383159	-0.69011176	-0.22983035	0.39260608	0.80636823	0.07581635	0.07567683	0.94940364	-1.2632933	-1.282534	0.0794896	0.23311935	-1.1232064	0.14932896	0.98688906	-0.39715937	1.2738721	-1.381549	-1.2458601	1.2577331	-1.180435	-0.53202397	1.1493995	-0.7363837	-0.49701518	-0.6511745	1.4123085	0.7141784	0.034858882	-0.63843274	0.8752046	-0.52412844	-1.5642674	-1.160546	-1.5339273	0.9458039	0.8988158
took	-0.2533193	0.57529503	0.79514045	-0.010265343	0.7502243	0.7206434	-1.2386734	-1.0024159	-0.5398342	0.3855078	0.71014434	0.18426032	-0.33413637	0.7461906	-0.6806048	-0.822416	1.0014303	0.51217914	0.40741003	0.76578844	0.40906978	-0.4952994	-0.62496257	-1.0443599	0.344316	-0.5705956	0.42467904	0.5866844	-0.18392938	1.2773829	-0.6874335	-0.5984015	0.7353313	-0.93629026	-0.22604915	0.6204171	-0.34498656	0.5303417	0.13472018	1.0490444	1.1156152	0.14707384	-0.40878206	1.2990818	-0.47568142	-0.5906333	-0.7132944	-0.015515232	0.5644042	0.45640507
happen	-0.0983835	0.31276125	0.73553884	1.1579891	0.52419364	0.8868822	-0.65184927	-0.90260446	-0.32035244	0.7687119	1.0359883	0.96387976	-0.7776178	0.630906	0.2252976	-0.6467999	0.6897024	1.1925406	0.37268364	1.013833	0.45921358	-0.16259328	-0.6374074	-1.1662651	-0.9205618	-1.601298	0.35022253	0.6873	-0.9707506	0.8993883	0.027845725	-0.74327236	1.0661469	-1.4185003	0.23737124	0.5871892	-0.81212854	-0.62602854	-0.07589127	0.2626291	0.9166951	0.3316219	0.25998455	1.0161433	-0.8149663	-0.984771	-0.67138547	-0.9008379	-0.030438952	0.38146555
in	0.42085767	0.9929818	1.1096463	1.2117021	1.1541185	0.5990065	-1.3547459	-1.1807045	-0.20734973	1.0512688	1.1324816	0.89042896	-1.1981868	1.0940253	0.37597927	-0.9801457	1.3861885	1.3186905	-0.3853107	0.9185437	1.013104	-0.77831304	-0.92741406	-1.5014303	-1.0126796	-0.6522062	-0.8417841	1.1515315	-0.9097365	1.1219774	-0.5826165	-0.93237376	1.3583602	-1.2775922	-1.0168916	0.43906093	-0.9962498	-0.67378676	0.034225017	0.7124368	1.0885713	0.44894946	0.84862065	1.1996074	-1.278275	-1.4524412	-1.473146	-1.2848358	1.1330378	0.77919567
two	0.8003642	0.30088323	0.3671484	0.2469626	0.81993616	0.8461445	-0.23052624	-1.042646	-0.15764184	1.4130257	0.45225298	-0.50411344	-0.6897628	0.34316844	0.032133766	-1.0814579	1.3380835	0.6018892	-0.91915494	0.45588857	0.50117177	0.0254981	-0.8718174	-1.527174	-0.62566656	0.12451288	0.012735158	0.6619494	-1.0904005	0.5901818	-0.67909425	-0.2680486	0.6460327	-0.7288047	-0.70605195	0.21958679	-1.2726719	-0.57177866	-0.106438205	1.3600043	0.736024	0.43474504	0.05536598	0.9067005	-1.0016596	-0.59821284	-1.216633	-0.5098093	0.2877701	0.16971512
lost	-0.6142289	0.64858174	0.5886271	1.106084	1.217964	0.9898516	-0.6489526	-0.35682267	-0.452586	1.0772566	0.9493254	0.68629164	-0.5842114	1.173133	0.34538057	-0.1227411	1.025839	0.5004562	0.052197818	-0.0062101036	0.49591509	-0.25306153	-0.91527	-1.8856544	0.693661	-0.97283006	-0.6441405	0.8097191	-0.8045652	0.6436502	-0.4331744	0.17440794	0.6134709	-0.6484016	0.6271157	0.5394298	-0.3271585	-0.13006996	0.2747691	-0.42133403	0.5548219	-0.045751147	0.9659262	0.54334205	-0.51766634	-0.7962483	-1.5861776	0.16434306	0.55755174	0.7525477
accord	0.5929362	0.8599138	0.5995245	0.18856241	0.33137032	0.27040255	-0.28938138	-0.4766248	-0.19371472	0.3365644	0.919608	-0.07911271	-0.27061677	0.6628017	0.15775087	-0.5060271	0.90305036	-0.11070555	-1.1166687	0.8445728	0.73915803	0.34815368	-1.2164335	-0.87621474	-0.4732944	0.94746214	-0.11014885	0.2785643	-0.72461236	0.14227204	0.19270688	-1.0083338	1.0149397	-1.3544246	-1.1947734	-0.7694269	-0.87767935	0.35472122	0.1069108	0.35573786	0.39871663	0.52215636	-0.5916054	1.1426072	-0.21665412	-0.12012591	-1.1872928	-0.31253967	0.63286525	0.0446444
never	0.03382733	0.42243773	0.6515229	1.2256876	0.7262821	1.022022	-0.6669685	-0.8207097	-0.60744435	0.6719483	1.1532431	1.0512869	-0.6032397	0.7931408	0.017442841	-0.47637916	0.65715426	1.111975	0.17375793	0.40175772	0.70656335	-0.83963895	-0.36646283	-0.4499761	-0.39096013	-1.2756896	-0.052197713	1.1964705	-0.93990266	0.7019465	-0.6575626	-0.8414455	1.0731128	-0.60238767	0.44704366	0.54764825	-0.6028365	-0.39047456	-0.07584235	0.6756522	0.64142245	0.20746616	0.2997962	0.36017457	-0.642427	-0.6546301	-0.48230878	-0.30507195	0.022726404	0.02191044
hey	0.18146667	0.5596106	0.980987	0.90961516	0.6610924	0.49737138	-0.89554405	-0.24461845	-0.0043414906	0.79343224	0.19148074	0.10328269	-0.5822828	0.5140333	-0.1732774	-0.70647824	1.100342	0.45066884	0.38032678	1.0282698	1.1783587	-0.9301442	-0.5890126	0.6345875	-0.16514683	-0.6284789	0.90116405	0.53060055	-0.2822608	0.40062124	-0.5294288	-0.24673529	0.20508178	-0.39122707	-0.31734967	1.0117109	-0.61082363	0.091821834	-0.66805756	-0.026670888	0.27455464	-0.78545916	0.64291996	0.56822157	-0.8143649	-1.4468305	-0.91014695	-0.727231	0.025633637	-0.23697102
wake	0.24308729	0.63204354	0.86650217	0.8681308	0.38976243	0.34774387	-1.5178974	-0.4487396	0.44472754	1.1607314	0.5264393	-0.20568812	-1.1699177	0.5168409	0.69346833	-0.8528353	-0.1461901	1.6074824	0.35804012	1.0610052	-0.078515135	0.0015715808	-0.52681637	-0.48543912	-0.26041597	-1.3088605	-0.37465554	0.6293224	-0.7519462	1.5078284	-0.40551502	0.4230733	0.6130323	0.09246993	-0.4709497	-0.47755665	-1.291811	0.20410934	0.31421006	-0.23218946	0.9779406	-0.3677662	0.5364647	0.8024324	-0.5716351	0.056679066	-0.037430204	-1.0799075	1.181218	0.37834418
comment	0.32697183	0.40225947	0.9426547	0.8524132	0.49475005	0.1206316	-0.53378373	0.35499918	0.21331243	1.3223639	0.52142644	0.36669308	0.33337528	0.8446007	0.14423755	-1.2009923	0.15671873	0.4443673	0.2700377	1.0116633	0.5451528	-0.43741816	-1.2036302	0.3210721	-0.07015821	0.093777135	0.28810042	0.83934283	-0.06462319	1.111902	-0.6283731	-0.66533697	0.08619844	-0.67829406	0.31059787	0.28863668	-0.5828494	0.40735847	-1.0939964	-0.24208218	0.81031096	0.17864192	-0.40621048	0.9680728	-0.8807423	-1.4683474	-0.523136	-0.46374303	0.4175555	0.4386733
possibl	0.03625287	1.0404024	1.0718002	0.04256235	1.2825327	-0.2609439	-0.3384162	-0.77708083	-0.0059491843	0.15369809	0.7456713	1.1182636	-0.42214105	0.59841716	0.15627407	-1.0494549	1.0232764	1.1530273	-0.70283914	0.6665325	0.81173146	0.080797635	-0.02978665	-0.681394	-1.0026693	0.36408064	-0.51811373	1.1147506	-0.2382981	0.40274826	0.4832734	-1.108364	0.45501822	-0.3763931	-0.5147574	-0.024951322	-1.2104679	-0.35539088	-0.22658135	0.33175716	0.46901643	0.102459036	-0.38368523	0.9846748	-0.06038671	-0.78821266	-0.48041022	-0.8730222	-0.4303444	0.17331046
could	0.10973734	0.85578024	0.34789002	0.6729142	1.1326907	0.99184656	-0.71284336	-0.64034116	-0.98369014	0.4331472	0.35050696	0.826727	0.11019249	0.653016	0.35672152	-1.0692143	0.9590689	1.027961	0.18822037	0.67078793	1.0701594	-0.8222679	-0.6934514	-0.13221756	-0.5114738	-0.7938466	-0.28428435	1.1859841	-0.9445816	0.7928653	-0.266575	-0.9316265	0.7606995	-0.7214239	-0.066996925	0.3689248	-0.68118024	-0.6362782	0.18042639	0.78641486	0.84040785	-0.08027867	0.030647699	0.77747333	-0.8760408	-0.57849556	-0.10563207	-0.7220112	-0.40706882	0.5042974
