	0	1	2	3	4	5	6	7	8	9	10	11	12	13	14	15	16	17	18	19	20	21	22	23	24	25	26	27	28	29	30	31	32	33	34	35	36	37	38	39	40	41	42	43	44	45	46	47	48	49
yet	0.94406223	0.6454394	0.9679073	-0.008967094	-0.37721533	0.96082246	0.40583986	-1.1128142	-0.89780545	-0.08251301	-0.14622223	0.22372411	0.9436711	-0.5768308	0.8012141	-0.5062944	0.68875706	0.5556047	-0.2011132	-0.21040154	0.58842385	-0.42646682	-1.0086691	-1.1261833	-0.41265473	1.3199925	-1.0481896	0.2947804	-0.35064948	0.40452173	-0.67351127	0.73312163	0.3343053	0.2472566	-0.8531969	-0.75536644	0.090791985	0.7565	-0.3779157	0.66185045	-0.6374035	0.5468131	-0.6102948	0.47513968	-0.92510486	1.2023497	-1.1363709	-0.21283537	0.20233911	0.62623936
tribut	-0.94377416	-1.4390407	-0.7458401	0.22644661	-0.7573403	-0.6487193	-1.4188957	-0.32493058	-0.33179674	-0.64455754	0.58906305	0.24249732	-0.83246815	-1.8696836	0.9035624	-0.17727712	0.9079064	0.4848311	0.2168073	-0.3899448	0.018376883	-1.0990101	-0.2908457	-0.13045841	-0.69573075	-1.2299061	-0.2432684	-0.7395693	0.39597136	-0.7313826	-0.7929378	0.5745038	1.5959922	0.2996993	0.11444868	0.46683362	-1.789183	0.18198827	-0.14743172	0.17060983	-2.1833947	1.467729	-0.2977949	1.3349514	0.28315932	0.21505994	0.1191575	0.0023853183	0.012741506	1.3038306
contact	0.3947606	0.058246106	1.1595166	-0.21057981	-1.1625583	0.6057813	0.04097016	0.0005900692	-0.586426	-0.71330255	1.0657301	-0.4772495	0.43422353	-1.0449336	-0.6156835	0.48215455	-0.16357967	0.11006029	-0.88032657	-0.41678652	0.9365336	-1.195466	-0.8186208	-0.08103259	-0.5225391	0.7616156	-0.11959654	0.96532667	0.7951823	0.9717761	0.867675	-0.42651632	1.20054	0.801617	0.16250378	-0.4717881	-0.6472906	-0.6510577	-0.43782687	0.11436422	0.19397111	0.32515255	-0.029974923	0.056371618	-2.1039205	-0.004272785	-0.335473	1.177394	-0.42036632	0.33699393
along	0.8614038	-0.23492005	0.19773324	0.25376523	-0.5929157	0.74377024	-0.17951053	-0.76924884	-0.6469337	-0.24631912	0.21090156	0.6271015	0.002715895	0.5737084	1.2353978	-0.45735955	0.8389616	0.82859737	-0.236606	-0.15652896	-0.51020277	-0.049199343	-0.5238292	-0.5247429	-0.64756	0.2267999	0.397411	0.5302943	0.34159762	0.032711655	0.21713811	-0.14671296	1.4833254	-0.3878926	0.063352026	-0.653764	-0.16540174	0.40750208	0.14848699	0.27484637	-1.1350886	0.018712774	-0.12297313	0.9192178	-0.24914348	0.0579231	-0.6679464	0.79589	-0.09563975	0.66253686
press	0.098547034	0.051226526	1.0023043	-0.5315003	-0.31102726	0.46187747	-0.09266739	-0.40934914	-1.5658711	0.4321955	0.1808549	0.38253647	0.044726014	-1.1108605	0.33526236	-0.47615355	1.5980012	0.29153174	0.63888484	-0.4531229	1.1756983	-0.52142775	-0.19336581	-0.9185257	0.44513634	0.51567745	-0.6739334	-0.6966058	0.6820515	-0.17688797	0.7644756	1.0130833	0.5037834	0.89483285	-1.3296951	-1.7741704	-1.0198555	0.2967495	-0.67262983	0.7436084	-0.80604964	-0.5385041	0.09384077	0.92539704	-1.062321	0.23210776	-1.0306662	-1.1573646	0.6478605	0.31801948
monster	0.4503622	0.56563675	-0.12305367	0.6010791	0.18639208	0.90350854	-0.5500612	-0.8576447	0.2885705	-0.30566764	-0.66383153	1.0541248	-0.4055709	-1.3891909	-0.01414871	-0.25697196	-0.35677218	0.39758873	0.3356405	0.45440632	0.43559086	0.06737584	0.5719501	0.14737426	0.13326278	0.16516498	-0.8634671	0.7504396	-0.43814448	0.11783542	-0.6955909	-0.1961315	0.30165303	-0.044044286	-0.6398934	-0.51103544	-0.8028427	-0.55240405	0.5726667	1.5053868	-0.5249629	0.8798038	-0.4380845	1.6756436	-0.748693	0.12628387	0.0775937	-0.10728425	0.51437134	-0.024956167
gut	-0.6355367	0.2822799	0.57403797	0.2623206	0.08662176	-0.32369468	0.5118391	-0.17412847	-0.27760196	-0.3526508	-0.34983414	0.49079394	-0.4473456	-0.5566725	0.5229281	0.1561144	1.8712134	0.71209866	0.77893114	0.8452416	0.4762262	-0.51254815	0.53196496	-0.34908715	-0.38712412	0.08341311	-1.0021638	-0.4837692	-0.4777051	0.05424936	0.27723265	-0.1064103	1.2763667	-0.13501704	-0.9309571	0.1935519	-0.45103586	0.37379867	1.0399094	-0.13347314	-1.6014265	0.059365034	-0.36259857	-0.46906936	-1.7971863	-0.5947758	-0.25820997	-0.67289877	-0.5152023	-0.59898823
act	1.2798948	0.55186844	0.45872307	-0.39960778	0.67875814	0.49520695	0.38832563	-0.665503	-1.0574218	0.10885352	-0.2778353	-0.024889264	0.4864304	-0.55811435	0.19932248	-0.046772167	0.5177454	0.5347178	-0.73309577	0.14253655	0.48987246	-1.0206395	-0.16827996	-0.9307267	0.0019580033	0.9771805	-1.773448	0.5348638	-0.09786639	0.038750313	-1.1449316	1.4359186	0.9037353	-0.017535865	-0.6529762	-0.55453044	-1.4167836	0.8934945	0.124212906	1.6566206	-0.85477746	0.10500804	-1.425937	0.9382073	-0.8760277	0.78562117	-0.8704945	0.09746616	-0.14217132	0.28407678
wanna	0.05892378	-0.30769297	0.64254296	0.17115468	-0.63965267	0.21723193	-0.001308186	-0.88013726	-0.9395358	0.43884453	0.2841611	0.9275892	-0.15422615	-0.48419693	0.24771263	-0.062838614	0.12174226	-0.6920248	0.30987185	0.083997935	0.58558977	-0.7777461	-1.1746504	-0.36581275	0.42619765	0.6241742	-0.24705635	-0.4588023	-1.130822	-0.049718507	-0.95653176	-0.30476618	0.45174503	0.22904941	0.14881904	0.10990493	1.4084189	0.6118964	0.9248974	0.84388435	0.107145235	0.30030718	-1.018767	0.8907338	0.104880564	1.1306562	-0.47836292	1.4270446	0.46519184	0.6547463
crazi	0.67440176	-0.13836841	0.35335803	-0.28074098	-0.041394293	0.8720217	0.09950861	-0.75554544	-0.81049466	-0.13768633	0.092500865	1.1554382	0.012511106	-0.7026978	1.0553205	-0.076328814	0.76426804	0.8177882	0.361108	0.1458564	-0.19589998	-1.0089267	-0.27314344	-0.7858347	-0.31288928	1.2056282	-0.63281274	0.13599002	-1.0285572	-0.3314107	-0.5773275	0.14024536	0.8703344	-0.40588766	-0.89822066	-0.43034098	1.0240716	0.874881	0.18751	1.1850908	-0.8955461	-0.44577143	0.110830665	0.5934016	-0.75435317	0.95685554	-0.5605657	0.94022226	0.74071646	-0.14269158
wing	0.77869505	1.138722	1.0436397	-0.5312095	0.2553771	0.4724321	-0.16831535	-0.4562801	-0.5829587	-0.101317756	-0.3804073	-0.46357504	-1.0543654	-0.5563197	1.0213826	0.412758	0.29409724	0.20970455	-0.4569407	-0.36490738	-0.32683486	-0.8317744	-0.6326693	-0.5095562	-0.87724197	1.0812002	-1.3682387	-0.8404312	-0.8710835	0.016717156	0.06498034	-1.1444731	0.97235465	0.49542567	-0.8972329	-0.14725605	-0.4302838	0.58248985	-0.7410397	0.35101104	-1.5828577	-0.9717253	0.22887713	0.51579136	-1.2189782	0.86536396	-0.53577423	-0.41914448	0.9927855	-0.48354626
h	1.0978822	-0.8030677	1.1028732	0.06305671	0.2802701	0.5817332	-0.19776224	-0.14819714	-0.97165716	0.123531096	0.32628378	0.13465972	0.42440516	-0.25372544	0.83716446	0.5614421	0.713391	-0.112398416	1.0723653	0.71269226	0.19950572	-0.5329276	-1.5233494	-0.49359664	0.31915593	0.003625542	1.4437624	-0.15963492	0.1572451	-0.05980336	-0.26999617	0.49739248	-0.04997085	-0.1966936	0.13546237	0.32116878	-0.6212604	0.70545197	0.056038626	0.8202192	-0.15447187	0.7602253	-0.38567147	0.16194996	-1.383867	-0.1913898	-0.86486316	-0.14092919	0.34087265	0.063717276
east	1.3571115	-0.6838429	1.0534298	-0.008686915	-0.3363772	0.6271355	1.2343092	0.5648785	0.5535184	-1.3605886	-0.2675138	-0.32387182	0.22784641	-0.32317853	0.44474852	0.39738634	0.6142458	0.7071459	-0.016535334	0.21709573	0.60957456	-0.8210856	-0.58591604	0.098236024	-0.37592095	-0.37543994	-0.20786	1.0287843	-0.12577805	-0.3636626	-0.3611131	0.59197795	1.9352876	-0.052790552	-0.80617034	0.59374154	0.34804088	0.08644939	-0.8334037	-0.21115828	0.42776978	-1.1196434	-1.7676237	0.34300232	-1.1890042	-0.30116808	-0.74904716	1.0323858	0.17627008	0.34954566
review	-0.2622713	0.2471874	0.6783954	0.8646099	0.1510651	-0.2279925	1.1109176	0.54901594	-0.93564296	0.07655221	0.83538496	-0.7462096	-0.31039548	-0.30558258	-0.18695582	0.13715711	0.568303	1.1771742	0.53979623	0.62990797	-0.38762647	-0.3052893	-0.48666734	-0.01440829	-0.16096187	-0.21461256	-1.1314335	0.052419655	0.23734291	0.29075557	1.06589	0.29966235	1.2837061	1.2286963	-0.5069895	0.2585066	-1.3859441	0.49690515	-0.8504021	0.56035423	-0.73736477	0.06392743	0.18748266	-0.59870106	-0.30565348	0.43026295	0.113405585	0.9362343	-0.1252149	0.9287955
evid	1.1222981	0.63572925	0.4447043	-0.26370353	0.5632183	0.7203907	-0.0045496896	0.08490293	-0.24966109	0.15578826	-0.034617856	-0.4029691	0.10306579	-1.1253095	0.09493853	0.9035351	0.21746397	0.44313613	1.2582977	-0.6695832	0.72758794	-0.47930616	-1.266546	-0.59306115	-1.2196227	0.7073466	-1.0204889	1.1141425	0.2399104	-0.10447727	0.29857466	0.4039333	-0.10894759	1.618967	-1.5678058	-0.630188	-0.51626986	0.77764857	-0.41954476	1.2308834	-0.1642461	-0.41841957	0.26008397	0.2677797	-0.55356747	0.75155073	-0.6160477	0.24984775	-0.63438964	-0.14182335
pres	0.79618883	0.24559994	0.70889556	-0.7423715	-0.030096933	0.91805756	0.40540895	-0.6876328	-0.38841224	1.1618047	-0.62301105	0.64969087	-0.014113735	0.15467393	0.03442397	0.13196379	1.0307285	0.6977556	0.3867094	-0.44557938	0.4681356	-0.3714638	0.0441244	-1.4051168	0.8914683	-0.3372671	-0.30930263	-1.0821023	1.5064181	0.010470495	-0.35938323	1.3668132	-0.09677756	-0.13643745	-0.5105506	0.17033629	-1.1976566	0.6994685	-0.5984985	0.505653	0.3935563	-0.11434762	-0.7655813	0.43286407	-0.46869048	1.2369101	-0.8355646	0.5042013	-0.058650836	0.94604146
leader	0.43919036	0.6615299	0.5582289	-0.10723537	-1.115691	0.33356273	0.23032561	-1.0002108	-0.46911868	-0.52643126	0.24918798	-1.1871774	1.0420752	-0.55059993	0.9265528	-0.12695199	0.5228385	0.96951425	-0.4343599	-1.520256	1.0162427	0.5587276	-0.8055277	-0.114744894	-0.098630354	0.66567606	-0.07825147	-0.742366	0.41068172	0.5961462	-0.079616085	-0.2459965	0.32864332	0.3317073	-0.24400249	0.36837217	-1.5899694	1.6254867	0.32682094	1.582823	-0.7464421	-0.5729541	-1.4558551	0.39375335	-0.48199227	0.78352296	-1.0811855	0.110488586	0.5756043	0.55209273
broke	-0.8959172	-0.3897269	1.3063356	0.44341415	-0.68882966	0.1624861	0.5499615	-1.1619068	-0.18235116	0.40850648	-0.28680617	0.5186546	0.44662195	-0.38819814	-0.174433	-0.107925236	0.92099583	0.82395744	0.6606077	1.354904	-0.1416565	-1.1774831	-0.3346032	0.2596847	-0.9198762	0.82595766	-0.4599482	0.1560654	-0.80760765	-0.078047596	0.5578627	0.47447196	1.5149143	-0.18821394	-1.0120637	0.41958255	0.43259418	0.3773402	-0.52841806	-0.39598298	-0.8970903	1.2082275	0.16823716	-0.34378582	-0.27281958	-0.10603428	-0.17293172	0.6582144	-0.17878675	0.42249498
chose	1.0161117	0.83534586	1.1189468	-0.44142312	0.24968025	1.1551962	-0.4015293	-0.6546175	-0.4374708	-0.7120953	0.17855275	-0.18824239	-0.19157377	0.15918006	-0.68340385	0.04994327	0.70260465	0.0017161751	-0.046367254	0.60695463	0.9746554	0.30385238	0.06734522	-0.47374213	0.4046231	0.114451855	-0.29857934	1.1907731	-0.56843966	0.8160582	0.2291039	0.5130118	0.22805294	-0.16566026	-0.8544282	0.46695352	-0.54660296	0.354652	0.345666	1.6988623	0.7711979	0.6351026	0.53751135	1.1112691	0.71689045	-0.16494104	-0.52970266	0.5483892	0.1787943	0.12410581
count	1.696631	-0.91314185	1.0601661	0.39237434	0.50587726	0.7039474	-0.52178895	-0.22945592	-1.7307103	0.20517087	0.895632	1.292828	0.63157415	-0.5326586	-0.51283985	-0.16800416	0.28746778	0.84150517	-0.62279105	1.0238457	0.46655348	-1.3283584	-0.7773341	0.52309024	-0.02198138	-0.0016087145	-0.26112965	0.7861165	1.3871753	-0.6911118	-1.3602048	0.3658117	-0.005915173	0.94693017	-0.44815984	-0.5766081	-0.38747448	0.9074241	-0.99794114	0.7026393	-0.06403221	0.54905623	0.83750033	0.08782293	0.35150033	0.80346096	-1.4952798	-0.646503	1.216917	-0.46898293
prais	-0.20756376	1.5722731	0.11294391	-0.9226586	-0.65368915	0.0065683033	-0.11824684	-0.64051235	-0.72885513	-0.7891507	-0.22153476	0.60997736	1.2407929	-0.9465624	0.7825217	-0.07677579	0.3483904	0.11315423	0.07800177	-1.2813622	1.3983281	0.21772048	-0.880206	-0.18169302	-0.24446464	0.96585923	-0.33696666	-0.56075275	-0.9209743	0.016576689	-0.26071477	-0.42733935	1.0946581	-0.062495083	-0.41357517	0.4910912	-0.9734729	0.42123777	-1.1327555	0.5662039	0.13741241	0.8741383	-0.080437586	0.024342345	-0.8804969	0.63977826	-0.48258123	0.6465657	0.6329713	0.6814199
hmm	0.21133336	0.40405536	0.4334135	-0.3400839	-0.11525312	0.6585901	0.58465195	-1.2916927	-0.6640327	0.13319571	-0.2270878	-0.41841257	-0.42212376	0.8697179	-0.13084519	0.41026965	0.24652535	-0.34628582	0.087123685	-0.57148784	0.023084737	0.7205986	-0.34693965	-0.41097283	0.008211575	0.5833891	-0.53067625	-0.14998895	-0.41016415	0.2678436	-0.6956184	0.0018615276	0.06253971	0.0034809709	0.07856674	-0.28430712	0.63068306	-1.1685587	-0.3551561	-0.41476488	-1.0367165	0.20124617	0.3961571	1.181138	-1.0254226	1.4954417	-0.66491497	1.3674501	0.84816647	1.1538839
terrifi	-0.3549832	-1.6091151	0.05394757	0.13273835	-0.18030071	-0.2397379	0.3283713	-1.0282837	-0.46110412	-0.6533123	-0.5025494	-0.13620548	-0.08617014	-0.9049906	0.1432038	0.5424992	0.8458236	1.0473946	-0.59774053	-0.27213922	0.44842952	-1.0905586	0.28112537	-0.19696993	0.7281599	0.957133	-1.0864558	0.5732338	-1.5031667	-0.62020326	0.21025023	0.6040671	0.25854126	0.36460462	-1.204407	-0.28348044	0.6373155	-0.25886744	0.67187446	0.7264276	-0.44089288	0.7401481	0.055063844	0.4641428	-1.2870471	0.29047883	-0.30055702	-0.58533424	0.2481243	0.38932717
immedi	0.80910754	0.46413666	0.54231894	0.22230373	-0.55198246	1.2591336	1.2254337	-0.8824307	-0.4294512	0.49432975	-0.37087575	-0.24493028	0.38388103	0.058038667	1.2733481	-0.21823835	0.20009166	0.23293865	0.018227357	-0.3610107	-0.2516797	-0.7546425	-0.7171514	-0.6574966	0.52841115	0.44132608	-1.1891906	-0.07471663	0.06632724	-0.3868677	0.579607	0.25802314	1.0502696	0.29814997	-0.5821008	-0.42181846	-0.3761524	0.44165462	-0.7234164	0.80990636	-0.70055735	0.75923735	0.0038603693	0.41343492	-1.1189481	0.8938614	0.15397269	0.07546869	-0.8906245	0.078739956
moron	0.25569275	1.0540128	-0.21220088	-0.15450677	0.5193668	0.37796223	-0.10414221	-1.1042747	-0.60983056	0.57166207	-0.24831238	1.1837496	0.0280133	-0.8757514	0.56202865	0.41587418	-0.6499469	-0.10757416	0.8090161	0.13109668	0.12911989	-0.40360612	-0.62112105	-0.44142917	-0.08988321	0.7749865	-0.3902238	-0.7314272	-0.14651535	0.05203747	0.15420005	-0.10301903	1.2401586	-0.2590361	-0.59000456	-0.31441388	0.095278695	-0.13525712	0.41477883	0.6395956	-1.0018048	-0.2744863	-0.55527514	1.1862155	-0.6299598	0.14253575	-0.9053916	0.1914277	1.362529	0.04811591
today	0.7864084	-1.1487391	1.0838234	0.16840002	-0.8717996	0.9953246	-0.26622063	-1.2232339	-1.16011	-0.2504104	-0.20634285	0.6605921	0.44768873	-0.637974	1.1701086	-0.43774998	0.96768713	0.89476275	-0.5563886	-0.26509663	0.068433285	-0.97170293	-0.7699501	-1.0797195	0.06582564	0.5562976	-0.97018266	-0.13247949	-0.1403194	0.4691193	-0.5230341	1.109324	0.7907384	-0.34490624	-1.1491725	-0.7493892	-0.9127381	1.2429105	-0.053825542	0.92881525	-0.87972546	0.55561453	-0.7112547	0.42732203	-1.2177892	0.8395181	-0.83692276	0.43969938	0.8295193	0.5142653
other	1.1667907	0.14191225	0.72330534	-0.33475247	-0.8467582	0.7687495	-0.24599367	-0.7443075	-0.61906826	-0.96504444	0.24337903	0.6015364	1.3224401	-0.6761483	0.69136155	-0.4329512	0.88713264	0.93367016	-0.12880322	0.11744134	0.117313206	-0.99409723	-0.71002746	-1.0002558	-0.04336266	0.5233638	-0.78487694	0.46578342	-0.4945488	0.14647642	-0.2541799	0.44828135	1.0121908	0.4228356	-0.70569754	-1.509552	-0.5426539	0.9374664	-0.096983775	0.586343	-0.8746509	0.34332258	-0.40836436	1.2504336	-0.9585492	0.86039597	-0.58764255	0.5254597	0.8081056	0.63177174
crimin	0.21869995	1.3198342	1.3520684	0.75296843	0.535845	1.1791701	-0.24050847	-0.3026084	-1.1583623	0.876222	0.46705166	0.386349	1.2432611	-0.92848027	0.348359	-0.8340874	1.2610877	0.65792286	-0.0037433878	1.109128	-0.12665053	-0.24891227	-0.059503708	-0.20596185	-0.17041679	0.3606602	-0.577653	0.9123553	0.4267551	-0.1724869	0.026530609	0.09908989	0.7927396	0.09448522	-0.567304	-0.76736563	-0.23186249	0.18639338	-0.0996474	1.0242909	-0.29943436	-0.29561698	0.26975274	0.7751912	-0.36417437	1.4966137	-0.91918194	0.99569464	0.17084986	0.05660945
#liber	-0.6988926	1.2296078	1.1727545	1.2922661	0.4168612	-0.11883943	-0.28502566	-1.6918426	-0.94784176	0.3277424	-0.24658577	0.28824377	-0.7352103	0.20090997	0.32712066	0.24475837	-0.5068398	-0.9929433	0.2460053	-0.31943804	-0.39225987	-0.64796394	-1.4486244	-1.1091459	0.20589536	0.620429	-0.10485615	0.86855924	-0.11479437	0.022130985	-0.48340443	0.029735204	0.78875107	0.62903196	-0.67796916	-0.21258529	-0.1302842	-0.8413272	0.2750407	-1.0364896	0.0848808	0.12989642	0.028448552	1.5186228	-0.26334655	0.54723084	-0.11258587	-0.47991362	-0.047321588	-0.301903
st	0.12439166	-0.7282126	0.11760808	1.2378647	-1.2886517	0.7885311	-0.35936445	0.17810537	-0.36939365	-0.09911009	0.73753965	-0.17549893	0.14827013	-0.84029746	1.1532321	-0.6549086	0.23410884	0.9094889	0.47138968	-0.084201545	-0.2140763	-0.46867758	-0.29844537	0.3899181	-0.09223826	-0.22962703	0.7551588	0.6773548	-0.16864707	0.43628317	0.05302184	0.83576775	1.1112777	-0.28774607	0.07171842	0.7565003	-0.7081928	0.7304907	-0.8244586	0.51800674	0.2337909	-0.2354834	-0.63104165	1.9340696	-0.12539244	0.09509761	-0.70602477	1.0222859	0.6056541	0.002342552
like	0.7126411	0.16929173	1.0174996	0.09191145	-0.36247241	1.3842821	-0.27433974	-0.86915344	-1.089082	-0.26666993	0.27098945	0.3105025	0.22605038	-1.3565305	0.7656137	0.060446806	1.0544751	1.1795394	0.40557882	0.19767444	0.12736104	-1.0001755	-1.0019242	-1.0318673	-0.073251456	0.9242489	-0.7882021	0.15696836	-0.8784218	-0.28755212	-0.5951272	-0.043063086	1.1535479	0.46228307	-0.4868232	-0.8557683	-0.23152548	0.9264005	0.44167012	0.81053257	-0.7870713	0.49217784	-0.5335872	1.2434678	-1.3082533	1.4351037	-1.267242	0.7757175	0.9525056	0.8385067
consid	0.94896495	0.1651433	0.15296754	-0.08770046	0.48654768	0.84524584	0.64594376	-0.38631523	-0.96027005	-0.5073628	0.67970157	0.044359084	0.8838185	-0.37369257	0.82750905	0.14934239	0.40804195	-0.0051059984	-0.6684501	-0.32518858	0.4524126	-0.85339963	-0.22280154	-0.64014447	0.35708618	0.38774955	-0.7193266	0.6536482	0.16871151	0.10447062	-0.16891961	0.0010020584	0.8102337	0.24372491	-0.32698497	-0.3807226	-0.2632585	1.0571511	0.4189518	1.1379935	-0.26369113	0.38680747	0.3102094	0.9288001	-0.36256996	1.1196976	-0.5097858	0.1986701	0.50691676	0.43311557
#bluelivesmatt	-0.48237115	1.6708748	1.2731615	-0.115240574	-1.2887999	0.5890068	-1.9860721	-0.6904883	-0.48290327	0.89654815	-0.7913385	0.6776581	0.1483862	0.41438866	0.33055794	-1.1891723	0.898669	0.55550605	-0.48227513	-1.1430676	0.8817849	0.0813086	-0.5152185	-0.2641511	0.12804979	-0.88224447	-0.29314837	-0.3484205	-0.960553	0.27669474	-1.0554032	1.3678198	1.2718399	-0.08833879	-0.55399346	-1.1948879	0.14811403	0.49391273	0.45169953	-0.27360684	-1.3172827	0.057305723	-0.8239761	-0.19797516	-0.66446334	-0.037680842	0.15574387	1.1433556	0.16906528	-0.78462857
straight	0.6112468	-0.16808945	0.16406043	0.5762963	0.3672387	-0.012013276	-0.4657356	-0.6855924	-0.27466014	-0.1520351	-0.54662675	0.9258895	0.051907852	0.23143303	0.84362745	-0.42969412	1.5596614	-0.58563685	0.36644503	-0.024074882	0.37800562	-0.020624008	-0.6489959	0.053468943	-0.17652549	0.5753312	-0.464032	0.4758581	-0.83077073	0.020286068	0.06236504	-0.481462	1.1236176	-0.08388597	-0.28032556	0.3717663	0.8225739	2.109567	-0.06624049	1.0634831	-0.12271419	0.020231545	0.05383727	1.7135661	-0.17208701	-0.039023202	-1.1196125	0.5073068	-0.5635151	0.33452576
state	1.3062418	-0.031867355	0.68389094	-0.1299449	-0.82916343	0.68088365	0.74622726	-0.5887633	-1.6452065	-0.19324203	0.64536524	0.15573129	1.2528751	-1.1085618	1.3457737	0.052362606	0.40308902	0.9222685	0.7380792	0.011744132	-0.5124853	-0.21998958	-0.6609547	-0.3981916	0.101658925	-0.03532188	-1.3723205	0.64812195	0.6039218	-0.39874482	0.06557899	0.7916052	1.1461544	0.35522208	-1.0983698	-0.50133944	-0.53725624	0.9355039	-0.34668338	1.0100939	-0.96754664	-0.24994913	-0.8133682	0.22989881	-0.9148977	0.79016256	-0.6536194	0.30679822	0.318151	0.20707698
even	1.1607275	-0.07229168	0.734785	-0.11954511	-0.29739296	0.8677347	0.120447494	-0.92017394	-1.047354	-0.065622605	-0.12964673	0.41635013	1.0643162	-1.0922039	0.77607405	-0.26506048	1.2184223	0.6861839	0.47667015	-0.19357234	0.59936273	-0.79799795	-0.89682376	-0.553337	0.092195615	0.84977293	-1.1089237	0.081174776	-0.5899315	-0.071759105	-0.21400091	0.1611275	0.57241094	0.029817663	-1.0327666	-0.6296025	0.17409602	0.6318797	0.3857988	0.73585284	-0.6536578	0.79819137	-0.22620377	0.68299836	-0.4796138	0.95335746	-1.3037701	0.39075816	0.5676942	1.0077773
#massshoot	-0.16134706	0.011307269	0.98590624	0.94791144	0.45559052	-0.051260978	0.34703636	-0.820317	-0.84199727	-1.2344818	0.5031155	-0.31153882	-0.09705503	0.2573855	0.93345195	-0.084159136	-0.20605528	0.2729742	-0.110775694	-0.4696324	-0.875728	-0.033522032	-0.3966453	-1.4847105	0.11066167	0.6284315	0.12158388	0.11185372	0.31284377	0.56036365	-1.1833405	0.3080188	1.2129171	0.49870086	-1.2973653	-1.3711092	0.6297519	-0.042093784	0.48324534	0.59466255	-0.706787	0.5081909	-0.26999444	0.5293984	-0.30022833	-0.28664035	-1.2603967	-0.69143623	0.06943612	0.103408724
gay	-0.3260557	0.040948942	0.48540932	-1.1143348	-0.04434353	-0.21560098	-0.8270899	-0.3737678	-0.41931385	-0.8652475	0.44113684	0.4555561	1.6733763	-0.84973836	0.9902945	0.61463255	1.3729967	-0.8033863	0.15187126	-0.33029595	-0.31532133	-0.20542057	-0.70898414	0.021821082	1.1515677	0.9010329	-0.7468511	0.94943154	-1.3337018	-0.46793553	-1.0238271	0.34576303	1.527658	1.8967123	-0.21830562	0.85227597	-1.0744222	1.3242192	-0.51605535	1.8375028	-0.67801094	-0.014353737	-0.16530019	1.4045494	0.6450436	-0.12049018	-1.1503739	0.46618617	-0.4027998	0.8000746
upon	0.74817115	0.0011782348	0.21529037	0.6257059	0.5921577	-0.4726991	0.39482343	-1.1118594	-1.5226598	-0.945053	-0.7307136	0.14705871	-0.6209689	0.40620592	0.861495	-0.4640567	0.580988	-0.42236665	0.051769115	-0.28080422	-0.13434796	-0.47338736	-1.6061604	0.24674141	-0.371356	0.14911187	-0.69065225	0.16046292	0.49965006	-0.5165304	-0.040264443	0.47957096	0.79569685	-0.51744384	-0.16872257	-0.95346874	-0.684077	0.026223203	0.16097966	0.56520057	-0.118456654	0.06070727	0.4316402	-0.18450022	-1.6833262	0.46686298	-0.053493485	0.47554466	0.06573354	0.012484491
truck	-0.14784849	-0.061206937	1.4687821	0.18177189	0.37317163	1.805332	-1.2227018	-0.8502496	0.26524937	-1.8411744	-0.015846316	-0.40959892	0.10655607	-0.38339394	0.8117966	-0.2500533	-0.33851045	0.32474262	1.2113056	0.6586448	-1.0950748	-1.9413507	-1.7207696	-0.98988223	0.9960569	0.27763686	-0.7395236	0.3014604	-0.07060108	-0.16752346	-0.20672461	-0.11674909	0.7326258	-0.7545466	-0.28441393	-0.44515088	0.65616727	0.100833	-0.5969537	-0.65843093	-0.3556978	0.19978513	0.6039088	1.0964873	-0.38318223	0.41162392	0.41093117	1.541672	-0.22297795	0.8598605
detail	0.26621625	-1.0612413	0.5791687	0.8821747	0.078428134	0.9188452	0.66506433	-0.32830068	-0.9322688	-0.59139776	0.48513764	-0.21101753	0.5077759	-0.8912169	0.91336393	-0.4868507	0.67220473	0.42878422	-0.8175793	0.012784243	0.9955807	-0.24178308	-1.0870243	-1.0293037	-0.27815047	0.3003476	-1.2387145	-0.2179787	-0.4545807	0.15252894	0.6634125	1.1413609	0.01327829	1.311194	-0.123247534	-1.1630465	0.07137099	0.6529003	-1.6552724	0.3561055	-0.66639197	-0.0033375472	-0.4185379	0.807481	-0.34520245	0.02011222	0.06424175	0.022721812	-0.6399887	0.7189754
senat	0.71842027	0.13956428	0.3859718	0.26187038	-1.0343938	-0.03325876	0.5124295	-1.2759366	-1.4393878	0.9843967	1.4744344	0.52739656	0.8936854	-0.5010624	1.1371553	0.17637181	0.35049874	1.6086324	0.3837746	0.31921425	-0.24715196	-0.62043834	-0.53625953	-0.40307334	0.2835355	0.63914216	-1.6326532	-0.22699565	0.7177994	-0.1700455	0.04262068	-0.76037574	0.5545022	-0.09702957	-0.37243208	0.87746096	-0.84877205	1.3807483	-0.055119023	0.4184029	-0.15824445	0.2718148	-1.2241646	0.85453176	0.18195175	-0.01799565	-0.36333418	-0.38794437	-0.06353401	-0.24393132
present	0.18424597	-0.19638965	0.34257326	0.5098285	-0.4176194	0.13337101	-0.2733333	0.035528257	-1.4364492	-0.36198077	-0.3992871	-0.5364207	0.6305059	-0.19467402	1.1416214	0.29103526	-0.28085518	0.85529447	0.23149098	-0.054419186	0.106950976	-0.21713634	-0.024322825	0.25094512	-0.33596587	-0.09004333	-0.79089105	0.6101385	-0.03250689	-0.31661174	0.71478933	0.2799888	0.33897847	0.55819094	-1.0715437	-0.8006933	-1.0952835	0.2080814	0.13338059	-0.1453507	-0.3486211	0.9820477	0.51899254	1.3559204	-0.6503528	-0.02780585	0.0025331788	0.597651	0.33860317	0.85354376
lead	1.1369815	0.24634936	0.2352446	0.47235054	-0.56244963	0.1863336	0.41239887	-0.22061269	-1.018037	-0.28704315	0.052629516	-0.3862599	0.1977829	-0.8838125	0.46497744	-0.38353318	0.98388004	1.284965	-0.10276931	0.14916395	0.23723218	-0.73290944	-0.6422157	-0.2071815	-0.7536832	0.51076055	-0.1951479	-0.33724377	0.68578815	-0.26150116	0.13424292	0.3528985	0.38144964	0.71295106	-0.75269663	-0.5547987	-1.212426	0.64173186	0.24402875	0.5607548	-0.5780872	-0.47826844	-0.3326673	1.1530696	-0.6084956	0.06727215	-1.1415472	0.36528966	-0.007837772	0.33757323
bitch	0.44721806	-0.011574313	0.4532338	-0.53975004	-0.32576683	-0.13454956	-0.5441697	-0.14596686	0.6201762	0.46487486	-0.38378134	1.5274509	-0.39226407	-0.33336973	0.6649364	-0.07169372	-0.39510614	0.29510206	0.958328	0.7873632	1.2699347	-0.45276633	-0.4180833	-0.3503968	0.38872054	0.44105154	0.70214593	0.1327751	-0.70937884	-0.563855	-0.72891295	-0.16416746	0.81163085	-0.43932074	-0.78278154	0.5218507	0.5668814	0.42243642	0.9319545	0.5674174	-0.5539681	0.2771032	-1.0005467	1.4599607	-0.8649467	0.56722164	-1.2548615	0.45395085	0.12269549	0.7550506
below	0.84336627	-0.86733085	-0.4156096	0.45484552	0.6860564	0.3937685	0.4614846	-1.1694243	-1.4462637	-1.3901916	0.5738737	0.17500405	-1.219279	0.39314806	0.6733371	-0.10719645	0.42326173	0.13982071	1.0145715	0.27684438	0.2695526	0.32839552	-1.77725	-0.20043102	-0.85570467	-0.14135729	-0.3680069	0.13898733	0.012316063	-0.48097306	1.1145855	-0.42726004	1.2858849	0.3471871	-0.02830112	-0.6773351	0.08275315	1.1737877	-1.323755	-0.19919229	-0.31314772	0.1961146	-0.25814113	-0.20910439	-0.056088343	0.6699014	0.7636782	-0.34296077	-0.5600661	1.3244091
lost	0.5777746	-1.388818	0.74004483	0.058286265	-0.7153613	0.3344009	-0.5124086	-0.70271707	-0.30869496	-0.26892543	0.08322887	1.0423437	0.8016181	-0.68917966	1.1478058	-0.72515625	0.8147854	0.89839375	-0.70032656	-0.122426234	-0.037855163	-0.80725193	-1.2078385	-0.7616761	-0.3717174	0.7630088	-0.83836395	0.5031831	-0.490956	-0.263619	-0.74035287	0.5340572	0.48729527	-1.1119161	-1.161172	-0.8857665	-1.5344248	0.78106844	0.4696124	0.67737544	-0.6778445	0.9132412	-0.64140666	-0.051091965	-0.49516365	0.7436143	-0.7555752	-0.021769151	0.20771761	0.44873863
#endgunviol	-0.14452201	0.1914136	0.28553435	1.2470081	-1.1217842	0.16347505	-0.6043187	-0.008752875	-0.3755656	-0.5785576	0.12311005	-0.15265167	0.104641035	-0.2810558	-0.11233272	-0.5490668	-0.14546672	0.3657068	-1.4728342	-0.53733516	-0.54346895	-0.34268492	-0.3085487	-0.5832357	0.4625389	0.8862182	-0.9223131	0.2410438	0.72612363	0.16125512	-0.8427466	0.7295707	0.55610776	-0.4077747	-0.1413983	-0.033588007	0.17375317	1.5856647	1.3917454	-0.014437228	-0.43358064	1.1530552	-1.0565525	0.5835991	-0.4147139	0.01608666	-1.1921799	-0.49465647	-0.38322055	-0.030885905
f	0.57297623	-0.37673196	0.63146865	-0.14861605	0.066142574	0.09785299	-0.0553677	-0.48296338	-0.9806718	0.21482876	0.7646495	1.0641699	-0.25869915	-1.0564432	0.6602322	0.10110906	0.011920794	0.75010073	0.39660233	0.7641425	0.58948153	-1.0034146	-0.6115065	-0.21820271	-0.18365586	0.5264399	0.3345517	-0.44468835	-0.25779718	0.08474109	-0.57545054	0.113807805	-0.15720329	-0.21832402	0.36318532	-0.36793405	-0.2824424	0.5849199	0.45584148	1.0618861	-0.8435391	-0.051460892	-1.1285875	1.1785746	-0.78912824	-0.2497459	-1.1612382	0.38529176	1.0684927	0.2387942
cover	1.0134386	-0.26091957	0.9073441	0.2736705	-0.32508686	0.87953573	0.13532333	-0.63025856	-1.2877762	-0.12994906	-0.4287619	0.49810126	0.031565215	-1.3205192	0.7948067	-0.19701827	1.2456048	0.6681048	0.06949409	-0.4223883	0.09110163	-1.5341172	-0.55513954	-0.67630535	-1.0991659	-0.04468464	-0.19131452	-0.39089918	-0.4461667	0.03292887	0.011214502	-0.61104596	0.11681445	0.7268484	-0.8087125	-0.9285606	-0.31728137	-0.36170244	-0.9075612	0.42760572	-1.089345	0.2625494	-0.5789066	0.59393525	0.28494456	0.45482898	-0.6432747	0.24573249	-0.026044458	0.5286308
photo	0.931021	-1.1481905	0.6737641	-0.26406634	-0.35618868	1.4790235	-0.9238389	-0.8616576	-0.16490239	-0.6883516	0.5537872	0.23486513	0.3748247	-1.6878558	0.842497	0.14512718	0.29444534	0.1475655	-0.2519752	-0.20610431	0.7305268	0.46075857	-0.8585137	-0.3907611	-0.058182165	-0.20435233	0.5603751	-0.31472751	0.123621434	-0.46775305	-0.101546615	0.023741595	0.42256823	0.9100656	-0.53467846	-0.48185638	-0.3106128	0.5160466	-1.1365697	1.7193019	-1.1315049	0.88234687	-0.48975542	0.5592134	-0.62212896	0.45670894	-0.2688008	0.25948328	-0.2996502	0.51295185
gonna	0.17998868	-0.17724064	0.5356937	0.064326406	-0.28101778	0.6293415	-0.040643632	-0.21483389	-0.41523924	0.20921996	-0.0010328665	0.74171436	0.18589081	-0.3462932	0.9052882	-0.4329999	0.45763993	0.3414243	-0.09513263	-0.036221344	0.7285836	-0.5646897	-0.5341128	-0.58915186	0.20859632	0.8454994	-1.1895347	-1.0732231	-1.0124922	-0.10420091	-0.9153333	-0.37587824	0.5965082	0.09333119	-0.550406	-0.45650658	1.3090482	0.7781453	0.74230534	1.0765734	-0.43381643	0.003736779	-0.7095515	1.1498411	-0.8302921	0.4118098	-0.98516965	1.1704297	0.35085934	0.62008494
bodi	1.5077493	-0.18669969	0.82992756	0.19939372	0.6349845	1.0040536	-1.0899351	-1.6768175	-0.43878195	-0.5753474	-0.21126474	0.48191243	0.48718184	-0.38119817	-0.22633995	0.7503968	0.51682055	1.2209032	0.3348866	-0.2352854	0.5760307	-0.19362262	-1.5751235	-0.12487981	0.42177454	0.09907816	-0.17146783	0.2711414	-0.42420286	-1.2259549	0.20219964	-0.13909209	-0.8706563	0.54228276	-1.1745609	-0.6831527	-0.013814162	0.81875265	-0.6771239	0.7602201	-0.76671106	1.0382496	-0.645564	0.212776	0.056766875	0.6414155	-0.47993878	0.3437603	0.04242471	-0.47701964
date	-0.38717645	-0.9691981	0.49492073	0.52972984	0.13880911	0.69085944	-0.78008085	-0.15527041	-0.7349619	-0.4987275	-0.6218463	-0.56670606	0.93729293	-0.53802466	-0.40060237	0.69174826	0.7401168	-0.15886979	-0.833509	0.37678915	-0.1962374	0.006180268	0.36634797	0.14405417	0.5859778	0.38080883	-0.5359131	0.5496396	-0.24176537	0.19567615	-0.36306384	-0.6972237	1.2886574	1.2781451	-0.82520926	0.6800232	0.068819806	2.3348877	-0.6958846	0.33830684	0.5043484	0.4350919	0.43136668	1.1921704	-0.07596947	0.4412397	-1.1731608	0.92597604	-0.36519414	0.81480336
face	0.68393093	-0.3520514	0.82161814	0.34531814	0.3256477	0.58389056	-0.16264373	-0.70662034	-0.44466943	-0.31174612	-0.24032414	0.9899061	0.589741	-1.3471861	0.14921948	-0.4392329	0.78072083	0.8613403	-0.22206803	0.8422227	1.0029314	-1.0671444	-0.3398869	0.37127405	0.15059668	0.45134467	0.11744562	-0.14636537	0.4161566	-1.0438159	-0.73346436	-0.09069447	0.8635944	0.7818679	0.3277416	-1.1069447	-1.0421776	1.2564669	0.0027688146	1.14446	-0.7000187	0.8010459	-0.026988372	0.7720933	-0.21901473	0.8842753	-1.301067	0.01986207	0.14686377	0.1696518
cannot	0.8436364	0.324887	0.72857106	0.7024806	0.42741457	-0.012596849	0.24321651	-0.8576926	-1.2436073	-0.7051064	-0.21400231	-0.06730138	0.8823533	-0.872798	0.6189238	-0.7861856	0.38192552	0.5927723	0.25252697	0.07322194	0.27104738	-0.730028	-0.96683097	0.039943993	0.37550563	0.5673953	-0.9082545	0.8403528	-0.64458936	-0.19466892	0.17117047	0.74082184	0.27227467	0.027066678	-1.2337408	-0.7302654	-0.2598564	0.6791203	1.2313752	0.78732157	-0.82797134	0.16451113	-0.294911	-0.39480627	-1.060422	0.57367134	-0.6080765	-0.65671766	-0.8305362	-0.083452106
togeth	1.1390113	-0.59146637	0.46449405	0.2855356	-0.50995606	0.22233476	-0.6873957	-0.8847245	-0.23397548	-0.5596131	0.33151212	-0.37964043	0.7413477	-0.9709524	0.43072924	-1.1149671	-0.15814301	0.34014654	-0.3359449	-0.69155467	-0.30372673	-0.8949506	-0.60388327	0.28397343	-0.2527327	0.767017	-0.24088803	-0.8782983	0.049705885	0.26660043	-0.15565503	0.68982935	1.8270389	-0.526993	0.0035492014	-0.8561046	-0.6668761	1.4195608	1.031112	0.78670293	-1.2973913	-0.56752384	-1.1097534	0.63699025	-0.09115916	0.21495125	-0.3022985	0.6390108	-0.6707269	0.43184492
year	0.8305296	-1.2601979	1.139481	0.05485165	-0.7252389	0.8115151	-0.3965913	-0.93647873	-0.7444879	-0.9449584	0.26573	-0.14885294	1.7045431	-0.7651646	0.96920496	0.005320199	0.85050285	1.19122	0.0220892	1.4142323	0.4717387	-0.7131444	-0.39136326	-0.6351359	-0.42871228	0.72786266	-0.9329903	0.6021166	0.62672627	-0.054866917	-1.0129695	0.1527794	1.2644439	-0.059810996	-1.3708258	-0.40658024	-0.04781974	0.62025815	-0.15496656	0.40539974	-0.84017575	0.22559005	-0.13884403	1.04291	-0.9664363	0.87029004	-0.7937132	0.28723353	1.168297	0.4846794
washington	0.21279582	-0.76446795	0.1689838	-0.43445128	-1.485244	0.11121269	1.0764613	-0.64819026	-0.34783763	-0.8044574	1.2547985	0.26360592	1.1871005	-1.6981549	1.8964713	-0.38970408	-0.4041706	1.361241	-0.21652614	0.08641216	-0.24281652	0.01243034	-1.3894691	0.05195693	0.2782134	-0.20093548	-0.52053916	-0.21367997	0.5029463	-0.6656182	-0.58896005	0.4334817	-1.0478241	1.0237328	-0.19132182	-0.37331468	-0.81350935	-0.14472535	-1.12954	0.7173395	-0.3918749	-0.55682606	-0.24607094	0.43479216	-1.0449301	1.0542728	-1.4162866	0.008174948	0.6953207	0.33375096
game	1.3345604	-0.90091646	-0.20750044	0.80471635	-1.0090432	0.3096491	-0.46649352	-0.18824235	-0.32274303	-0.24334468	0.061829742	-0.4302283	-0.45841143	-1.5757191	0.6040875	-0.26246473	1.1105494	0.9599378	1.0174001	0.3375076	-0.32223684	-0.38315806	-0.35719734	-1.4453547	-0.14715284	-0.38355827	-0.74306786	-0.7791923	-0.39049378	0.46384567	-0.62364274	-0.295638	0.37528998	0.10555977	-1.1923068	-0.35267934	-0.62461984	0.6603372	0.5966889	1.0662608	-0.4276954	0.6012681	0.7092862	1.9072003	0.09839352	1.0218751	-0.73962915	1.259916	0.34093803	-0.41291368
thank	0.41324148	0.08691485	0.99038756	0.15683559	-0.6864263	0.28620428	-0.13437225	-0.55446327	-1.4735031	-0.5313894	0.19554186	1.1296839	0.67803407	-1.4068197	0.82299316	-0.16753513	0.8811662	0.64870316	-0.4100206	-0.6991853	0.7346902	-0.40634215	-0.23183846	-1.3695389	-0.35116386	0.6068771	-0.024727644	-0.39284202	0.2051369	0.26983148	0.057147674	0.054185186	1.0320756	-0.64862746	-0.58116484	-0.8454892	-0.8135042	1.1120309	-0.14417197	0.44999418	-0.82547486	1.2027075	-0.07800413	0.07799311	-0.9745375	0.7632491	-0.70282435	1.064537	0.5108942	0.1973404
report	0.76997983	-0.4558292	0.9830905	-0.09848469	-1.1047882	1.0379293	0.44177806	-0.7224114	-1.1814034	-0.563292	-0.3211368	0.6071358	0.9383605	-0.930048	0.8998246	0.6694966	1.0877972	0.622824	-0.068347886	0.46032444	0.01921368	-0.65325993	-0.50767434	-0.8066158	-0.043508396	0.06449628	-0.45389703	0.33991796	-0.7426608	0.34760967	0.4770769	1.1335151	0.9011072	1.948358	-0.9545084	-1.588994	-0.26481664	0.9860569	-1.8382893	0.7692921	-0.9402343	0.5481669	-1.0695148	0.60162604	-0.81694853	0.50778854	-0.9747172	0.110549085	1.1022147	0.09545529
smoke	1.2167106	-0.005614653	0.3158426	-0.6482918	0.6135318	-0.3691995	-0.20072663	-1.8785019	-0.3390703	0.3910166	0.793111	-0.18546462	-0.9540497	-0.33264792	0.7129849	0.5552583	-0.25275174	1.0597622	-0.018966109	1.6891906	-0.3535776	-0.502758	-1.3281814	-0.13917188	0.5008632	-0.9351449	-0.10434968	0.5243468	-0.39710662	-0.14956665	0.2207941	0.639171	0.9489057	0.10485157	-0.01086222	0.25671178	0.652181	-0.66573083	-0.060521483	1.086682	0.722517	1.0074592	-0.0371093	1.1780347	-0.6996148	-0.5209993	-0.90131307	0.4570636	0.51381534	0.5301834
innoc	0.8099674	1.0323528	0.3747084	0.0484038	0.123649046	0.59013003	-0.83152807	-0.7092318	-0.3192503	-0.35985523	-0.46601245	1.1265063	0.8756163	-0.3050691	0.8497484	-1.2392257	0.59294784	1.121089	-0.54388297	0.12313567	0.2224206	-0.91135895	-1.357747	-0.6871353	-0.12076445	0.61821145	-1.2872548	0.4333847	-1.1538826	-0.35816175	-1.0756576	0.86751974	0.6334213	-0.6225568	-0.8660785	-0.63020873	-0.25413412	0.4432514	0.5236101	1.4281349	-0.7175044	0.25653145	-0.6474608	0.31067157	-0.44212708	0.9441546	-0.7111937	0.17167687	0.66730976	0.38734832
ill	1.0100815	0.85785866	0.26177102	0.18081123	0.42682287	1.234813	0.7736254	-0.78690296	-0.5053397	-0.13369568	0.29667455	0.6614684	0.13937531	-0.5830141	1.3227847	-0.12755904	1.4386203	0.062943175	0.20724547	1.2404149	-0.13590471	-0.28437078	-0.59628755	-2.0572748	0.24244371	1.2567108	-0.35236853	0.8545278	0.3192791	-0.0103530865	-0.7820532	-0.30730653	0.16861236	-0.272703	-0.64001846	-0.38138163	0.06892888	1.1340393	0.41910762	1.1874695	-0.60685563	-0.3956643	0.08808023	1.4464302	-1.0177171	0.9562242	0.0008188933	0.39612198	-0.14585507	0.0058160275
oppos	1.094778	0.99324226	0.8082594	0.48654345	0.6258313	0.3427834	0.27372435	-0.8995966	0.17285964	0.20571116	1.306004	0.6635264	-0.13068873	0.23771182	-0.17174077	0.05435711	0.23643655	0.49573877	-0.16152456	0.16576199	0.08789541	-0.64001215	-1.1590589	0.64123553	0.70582044	0.6227971	-1.2341146	0.27197093	-0.34312633	-0.24505854	0.6203609	-0.43608445	0.6940067	0.21151939	-0.11521399	0.26514462	-0.67410135	0.78716385	0.35999396	-0.90110826	-0.8158449	-0.02570577	-0.54512584	0.1777336	-0.28089544	1.6751997	0.122184716	-0.42561015	0.9243312	0.5827946
supremacist	1.5394301	1.2491963	0.32352802	-1.0480154	-0.4976643	0.018031262	-0.4904056	0.05129168	-0.89151496	-0.14379388	-0.7002809	-0.84269965	-0.56588256	-0.7378972	0.31684154	-0.36900735	0.5351993	-0.38627267	-0.65069675	0.7042102	0.052386	-1.028608	-0.65457535	-0.1702279	-1.4302604	0.76736677	-0.53618085	0.16012104	0.22881229	0.7473869	-0.6679852	-0.4779222	1.0382203	0.31282467	0.009174945	0.19974136	0.5599578	1.0768323	-0.9999746	1.4814638	-0.19243163	0.2008046	0.5148118	-0.0395533	-1.199155	1.8437209	-0.80575776	-0.6028465	1.048738	0.7380997
must	0.45371634	0.58205044	1.0831907	0.7055447	-0.22055194	0.39197123	0.025214419	-0.70883024	-0.8702739	-0.54011166	-0.19839641	-0.25723678	0.8857919	-0.90697515	0.4457036	-0.69704527	0.5236027	1.0296217	-0.29245812	0.11664963	-0.19645508	-0.8841566	-1.1604382	-0.92064834	0.27895236	0.6218511	-0.83467066	-0.011931818	-0.1742372	-0.31284928	-0.7861482	0.54279244	0.9993911	0.06389398	-0.37042552	-0.83858985	-0.8746871	1.1632361	0.6867769	1.0916423	-0.80181515	0.29166698	-0.5589385	0.19427441	-1.4024742	0.84630513	-0.7361194	0.16295369	-0.021883652	-0.053816736
possibl	1.0248389	-0.12774181	0.3244967	0.028188169	-0.045466915	0.6817079	0.5588808	-1.0724077	-0.44106716	-0.29757312	0.080742866	-0.05608069	0.7954031	-0.51313215	0.5495882	0.6353182	0.34575874	0.7236335	-0.11796505	0.122714475	0.658553	-0.5099833	-0.7945955	-0.3395853	-0.155365	0.5304515	-0.17271017	0.81229115	-0.22471787	-0.015764333	-0.10150129	1.1060079	-0.33030176	1.4161963	-0.8508607	-1.5735917	0.20760864	1.1823013	-0.57329684	0.5348942	-0.36726123	0.006006703	-0.8593086	0.8703226	-0.5583049	1.4224646	-1.1315134	0.6800058	0.21298742	-0.20479213
time	0.72373366	-0.367977	1.1993833	0.42548862	-0.57832766	0.95127904	0.1855053	-0.9870219	-0.7019222	-0.6469591	0.26646852	0.23795322	0.8988083	-1.0270479	0.86577046	-0.2702254	0.97924876	1.3964607	-0.011875404	0.1503498	0.14843094	-0.8555535	-0.7132406	-0.8378795	-0.35662073	0.9866032	-1.2086775	-0.42344385	-0.16871753	0.033639133	-0.7489133	0.5847776	0.625346	0.29760313	-0.7912787	-0.9024379	-0.40968087	1.0524207	0.13011847	0.8659583	-0.7615068	0.7266079	-0.5842643	1.0179191	-0.94471115	0.44604054	-1.0605013	0.70955014	0.6412803	0.59287655
repres	1.5700794	1.1752468	1.1652508	-0.18289325	-1.4863601	0.3116415	0.53752244	0.35464573	-0.8911505	0.6796237	0.87519777	-0.01694461	0.39662576	-0.7447206	0.103492305	-0.20964882	0.84771264	-0.18666881	-0.37453163	0.16758445	0.15147585	-0.124080494	-0.43350673	0.0067056865	-0.11858471	0.56529605	-1.0971287	0.34075865	-0.2048981	0.2600873	-0.87837255	-0.31031123	0.956696	-0.054039747	-0.6143732	0.7112815	-0.7298485	0.6391355	0.67957556	0.98554444	-1.5643442	-0.025081202	-1.2661061	0.19200522	-0.9534921	-0.39814663	0.93802214	0.20239541	0.64563245	0.32173362
civil	0.2586798	0.8432497	0.05806922	0.70078576	-0.021361142	0.28840542	-0.6160737	0.07352118	-0.9068086	-0.14819412	-0.6966827	-0.5901323	-0.15216684	-0.5181719	0.84244955	-0.89338696	0.99683803	0.54740655	0.23482138	-0.12595618	-0.49015844	-0.7942669	0.44371492	0.6176913	-0.20257445	0.47760904	-0.36198738	-0.25901866	0.1308308	-0.39941156	0.34895366	0.03788721	1.82496	0.012749404	-1.5005138	-0.7249085	-0.15755224	1.3685775	0.33720312	0.51189417	-0.14539967	-1.6224484	-0.46793973	1.0337436	-0.6304232	0.95926523	0.16112913	-0.17568907	0.9513594	0.24487847
target	0.5765098	0.19893184	1.3481808	-1.2062271	0.20852302	1.1270989	-0.15689647	-1.0274789	-1.072436	-0.09702605	0.3361374	-0.8265999	0.43517357	-0.22276169	0.52165645	0.1631076	0.6305213	0.7664069	-0.078089274	0.16142316	0.13348392	-1.0698457	-0.26338887	-0.20394482	0.2096997	-0.0051661804	-0.7642574	0.87862664	-0.9437819	0.4227514	-0.10938123	0.70797515	0.19134165	0.5629171	-0.58997214	-1.4206887	-0.5308175	0.9784408	-0.14700462	1.4844449	-0.5074035	-0.20889628	0.18819611	1.0471787	0.05368102	0.50005555	-0.6973313	0.32818475	1.273479	0.4127097
easi	0.18825464	0.37045178	0.08250487	0.20815659	0.72752964	0.65851974	-0.3126129	-1.3422607	0.31493974	-0.29691675	0.4062273	0.46786353	-0.018219985	-0.77535266	1.0689149	0.18080878	1.1757284	1.3616221	-0.1549644	0.16976672	-0.65755403	0.07380018	-0.46021247	-1.1564472	0.38241255	0.34211126	-1.037355	1.0182934	0.29163703	-0.2816671	-0.57178473	0.052245766	-0.028867058	-0.07024053	-0.6294161	-1.0456907	-0.02489106	0.79899824	1.3269024	0.4914911	-0.49859488	0.086011186	0.5076609	1.0272777	0.02887145	0.9259708	-0.42589387	0.6488483	0.5217019	0.68708235
load	0.61772215	0.045799077	1.2811015	0.8338542	0.007711202	0.094785675	-0.84265214	-0.3800882	-0.28325695	-1.1705143	0.032662213	0.080807626	-0.5959012	-0.1624926	0.011917316	0.41664624	0.29107064	0.16064975	1.1340507	1.0570278	0.014141262	0.10397042	-1.7982566	0.17255789	0.56496453	1.1243532	-0.13793516	0.39082938	0.57500875	-0.31595802	1.0965567	0.6617731	0.5278654	-0.03322634	-0.818614	0.09623386	1.1922708	0.52593386	0.1492893	-0.10115996	-0.6708143	0.1761445	0.1967887	0.008227583	-0.5920025	0.15994743	-0.8143683	1.3459144	0.5159525	0.52371067
wouldn	0.3693728	0.38021123	0.41215682	-0.25317502	0.3772562	1.0063031	0.54893947	-0.8379471	-0.7661247	0.9994487	0.45976195	0.029505156	1.1633375	-0.25242805	0.39522272	0.28470206	1.4557484	-0.056928262	0.5146722	0.18218249	0.5470242	-0.92130077	-0.6454375	-0.15974528	0.31237692	0.7414613	-0.6201589	0.09431395	-0.16844237	-0.32834852	0.026956216	-0.2662763	0.92280674	-0.45397148	-0.41822246	-1.0187674	0.3799273	0.31684172	0.7173108	0.51338553	-0.5700746	0.8263691	0.29389393	0.56409425	-0.59706134	1.2015791	-0.9531305	0.95918524	0.60279536	0.11322868
harm	0.2444259	0.7228069	-0.015644163	-0.12770057	-0.16050842	0.5770089	0.0010660551	-0.050236434	-0.8200345	-0.5689033	0.005331598	0.47769174	0.05943844	-0.078232154	0.5665386	-0.391526	-0.36655515	0.3747664	0.24037296	0.03786528	0.41660848	-1.0748177	-0.5708797	0.04784794	0.5027344	0.40910283	-1.1175189	1.2250354	-0.38882667	-0.2561022	0.99448717	0.6157651	-0.16898106	-0.8147658	-0.5396243	-1.7411613	-0.5924834	0.2716325	1.1070065	0.3688482	-0.2790646	0.3968458	0.011505753	0.8248164	-1.0547613	0.78683376	-0.22068515	0.51509416	0.53167117	0.023538142
dozen	0.7675717	-0.3732026	0.32227445	-0.7727446	0.64353395	0.8101971	-0.5961516	-1.0123614	0.21360844	-2.2166765	0.59805286	0.32284975	1.899435	-0.2132327	0.15084873	0.45679832	0.8517699	0.2521832	0.3246926	0.14065489	-0.8981433	-0.7662393	-0.9252106	-0.3215905	-0.032202348	-0.11985853	-0.6207211	-0.28636464	-0.4263781	0.029047899	-0.75861776	0.4390689	1.4180716	0.3622101	-0.24048138	-0.28674635	-0.12588583	-0.6082897	-1.3063037	0.43034843	0.4977811	-0.03622015	-0.30157083	0.39729854	-0.35168996	0.17641346	-0.65107983	0.083789945	0.75631255	0.3097897
walk	1.4452124	-0.14746292	0.58438635	-0.3088482	-1.000722	0.6653961	0.043731038	-1.1541142	-0.88992965	-0.7919891	0.32768688	-0.18935671	0.47192454	-0.9910179	0.4238484	-0.78963584	0.38491303	1.0486879	0.081311926	0.54141295	0.029987622	-0.7670691	-0.6370107	-0.4441039	1.2315397	0.871927	-0.56393784	0.008848973	-0.66437554	-0.6032604	0.5337172	0.4283976	0.7576119	-0.8031738	-0.41435474	-0.33202288	1.1442877	0.5987896	-0.35445732	1.561271	-0.8260615	0.37696347	0.39518422	1.0851034	-0.4682272	0.35663557	-0.57974255	0.6273333	0.52370906	-0.17762752
latest	0.6379899	-1.0823591	0.83696765	0.39087474	0.15618213	0.05290137	0.21792665	-0.62289846	-1.4865041	-1.0495793	0.6810441	0.08611134	0.4406417	-0.47117552	0.7502506	-0.36996973	0.64536655	0.8537657	-0.2616361	0.10942226	0.11107437	-0.20260721	-1.0027165	-1.1845907	-0.13415493	0.10358851	-0.5952331	-0.63975024	0.052185304	0.024165422	0.15223476	1.1389568	0.97566164	1.2513756	-0.19560334	-1.3258564	-0.694419	1.1759708	-1.3909838	-0.19834015	-0.6131361	-0.78038013	-0.6335591	0.5953895	0.050886367	0.7192589	-1.0424819	-0.11223817	-0.24442692	0.641827
franc	-0.108927056	0.72685844	0.952642	-0.5913305	-0.40804824	0.11426674	-0.23087646	-0.19433568	-0.6215887	0.42117926	0.60993433	0.1269829	0.3830591	-0.5135523	-0.16413713	0.44470897	0.023432435	0.6572938	0.9563309	-1.2699572	-0.46224394	-1.3199198	-0.08526166	0.20911872	-0.1871953	0.22919913	-0.79054505	0.2889437	0.13459499	0.4359181	-1.1707033	1.0994275	1.3121853	-0.14795431	-0.2464624	0.66136515	-0.2242156	-0.30091518	-0.16997291	-1.2230322	-0.268378	-0.21538897	-0.30086347	1.1209521	-1.089384	-0.5614744	-0.26798752	1.6481947	0.84436285	1.3188236
t	1.0576819	0.44537216	1.3588471	0.064218566	-0.38492292	1.2590337	0.11713946	-0.96611625	-1.1581082	0.104086556	0.3452233	0.5255759	1.0418055	-1.1254013	0.7361667	-0.3410454	1.2923928	0.75352585	0.36181986	0.06835771	0.8148055	-0.9867202	-1.2670735	-0.9783195	0.2612152	1.2153239	-1.109262	0.17924449	-0.9116006	-0.0052378187	-0.7123555	0.021507263	0.9539883	0.31054863	-1.2181504	-1.1455711	-0.12967883	0.9046968	0.31466416	1.040312	-1.1231675	0.9083805	-0.9099841	1.1592932	-0.9702774	1.2322954	-1.4096396	1.1055313	0.7301734	1.1008697
v	0.9935513	-0.5115186	0.9779408	0.4205075	-0.020580024	0.09823936	-0.0066692308	0.40551102	-0.5553641	0.4730456	0.063025676	-0.63828075	-0.36422876	-0.30415267	0.48658144	0.3176923	1.5854862	-0.0069156196	1.3679107	0.60472274	-0.21031414	-0.17460701	-0.76632273	-0.062311023	-0.01998946	-0.43719643	0.7520292	-0.41829032	-0.3867306	0.047053516	-1.4070647	0.45039985	0.5822332	0.0305022	-0.39236355	0.38101646	-0.78603387	0.11033322	0.044851065	-0.16686067	-0.21538675	-0.045572475	-0.4557452	0.23215914	-1.4344329	0.53795177	-0.08978228	0.4844625	0.82153535	0.07886261
hostag	0.15592796	-0.15738073	-0.9783033	0.7750277	-0.24719587	0.17926401	0.033079706	-0.2337252	0.152921	-0.26840648	0.42362309	-0.08971523	-0.018357856	0.96832377	-0.33806917	-0.07894701	0.99348235	0.99477845	-0.74628854	-0.67572117	1.4787141	-0.76308274	0.05836285	1.0342679	0.86619335	0.634161	0.33621165	0.82920784	-0.6762488	-0.42994907	0.03253655	1.5370481	0.6190167	0.7553818	-0.41116667	0.15362287	0.50047076	0.32598153	-1.1891565	1.2741649	-0.7332171	0.45870823	-0.4302286	1.7174258	-0.30618018	0.2403646	-1.2943587	0.21824348	0.69600934	-0.71286863
might	0.5486914	-0.13446511	0.61123466	-0.102608785	0.05336553	0.9548728	0.7762719	-0.6337415	-1.0313554	-0.08887455	0.5362778	-0.096148424	0.7938616	-0.7875813	0.6491982	0.34178564	0.63282895	0.24521264	0.15677793	0.14487603	0.60599625	-0.78283095	-0.5553236	-0.46668202	-0.21790288	0.600199	-0.7895628	0.03500758	-0.43322015	0.054143935	-0.28389102	-0.51301205	0.83470666	0.2180267	-0.4944502	-1.1773698	0.23171404	0.34817004	0.6660348	0.38903853	-0.29479983	0.6412895	0.10258737	0.90506	-0.6133605	0.6037318	-1.1020296	0.86715627	0.5178025	0.31677356
extrem	0.7420545	0.607556	0.51478803	0.1365951	0.5739735	0.34596458	0.53962946	-0.8737922	-1.186947	-0.5763018	-0.65686965	-0.47253126	-0.47933453	-0.6746502	1.4174815	0.5054841	0.61372447	0.52976143	-0.5837068	0.14302096	-0.45203355	-1.177558	-0.45819616	-1.1751153	0.28261107	0.5580117	-0.92459047	0.29946554	-0.6597887	0.5293679	-0.21298254	0.071641356	1.0767939	0.11023712	-0.385166	0.46786997	-0.3542808	0.34014565	0.4525612	0.08030631	-0.60339344	-0.79051095	-0.1131285	-0.30523565	-0.7850831	1.1211078	0.12321856	0.5859111	-0.01299569	-0.022368282
rais	1.1914839	0.41739935	0.03703152	-0.35850194	-0.71317655	1.9008477	0.15079421	-0.9454434	-0.7093899	-1.8173156	1.6746777	0.65058184	1.1938148	-1.7361908	-0.051608883	0.410563	1.0091693	-0.36315396	-0.92986774	-0.33158138	0.07021008	-1.1724718	-0.5569663	-0.038588747	-0.74986863	0.1730734	0.20991482	-0.5891207	0.98163366	0.05137348	-0.9692016	-0.34915745	1.1306595	0.20976691	-1.3993299	1.5066383	-0.24152601	0.41458905	0.007694833	0.32251427	-1.3484714	1.3525647	-0.3573009	-0.51115584	-0.20833395	1.1342852	0.03878132	0.64165455	0.4692893	0.65069
team	1.3304923	-0.91547656	0.5774908	0.61852694	-0.28578502	-0.021649508	-0.81537724	-0.12677343	-0.3951279	-0.51741683	-0.2591295	-0.9410114	0.08333197	-1.7549646	0.5916495	0.69560796	0.7853886	0.6757948	-0.17770617	-0.27580702	0.2175558	-0.4404062	-0.3206945	-1.0926853	-0.9130615	-1.0461555	-0.504061	-0.0740366	0.1982772	0.3342322	0.4572688	0.52993035	0.42094803	0.05386573	-0.65409446	-0.21823514	-0.5157171	0.93231833	-0.39921322	0.5492072	-0.46938765	1.1346407	-0.2729349	1.1868263	0.054423187	1.1083708	-0.9238726	1.6952953	-0.058496505	-0.29119208
ridicul	0.77830064	0.5498131	-0.2717418	0.39311737	0.39663208	0.27686214	0.294822	-1.3483589	-0.48485255	0.15588799	-0.7925188	0.7844727	0.2356943	-0.5376366	0.008656209	0.27612877	0.9842602	0.79182005	0.56660736	0.18983488	-0.047365442	-0.03373471	-0.21907029	-0.36211434	-0.30477467	-0.0068498403	-1.4381158	-0.23774551	-0.90891045	-0.074112676	-0.4422297	1.0730951	0.43636996	-0.028880626	-0.9826482	-0.012427181	0.54134583	0.5774926	1.1139233	0.18361901	-0.20801713	0.31249756	-0.13712002	0.50999993	-0.8164911	0.6873343	-0.50460863	0.114353836	0.96998036	-0.028463721
realiti	-0.14319336	0.2808211	0.6810843	1.5970855	-0.44382933	1.01131	0.9186349	-0.38540524	-0.86962974	-0.70112956	-0.7795341	0.114567325	0.2649592	-1.2972546	0.37201214	-0.19889861	0.6039048	1.0881293	-0.064700246	0.15881741	-0.52701306	-0.8250272	-0.07088733	0.19999564	-0.17112142	-0.10900541	-0.91218483	-0.040806927	-0.33396402	-0.7188972	-0.5123331	-0.29620302	-0.32266212	0.86674875	-0.6776954	0.022738725	-0.30671424	1.6411028	0.698197	-0.048465177	-0.67334557	0.9179446	-0.104856834	0.6079353	-0.06405574	0.46814936	0.12601742	0.043901414	0.7301239	0.57711333
suppos	-0.0076456964	-0.40285712	1.201936	0.53317285	-0.05431807	0.15438156	0.31510484	-0.04960247	-0.54992723	0.18154082	-0.47071642	0.07712805	0.5500686	-0.14025232	0.82064986	-0.053613245	0.83525985	0.21078163	-0.32773414	-0.38580897	0.025970958	-0.3555835	-0.6729364	-0.40637803	0.033962898	0.47533944	-1.1511337	0.15679201	-0.9044432	-0.63542044	0.48452568	0.026972912	0.74228984	-0.39127564	-1.1242273	-0.24686985	0.5757346	0.18980746	0.37720308	1.0414561	-0.62152356	-0.12552954	-0.25734428	0.3751582	-0.38376263	1.0451263	-0.5956179	0.8626716	1.1376145	0.58406126
miss	0.40982345	-0.7726114	1.1639738	-0.11261982	0.13259107	-0.028303389	0.12943298	-0.6040229	-0.5814917	0.23444282	-0.5956541	-0.041422445	0.49483722	-0.55401665	0.7405944	0.31745884	0.45709082	0.63942784	0.4325459	-0.17688616	0.7255859	-0.41713226	-1.4648552	-1.6647186	-0.87960666	0.28930163	-0.4088735	0.34109613	-0.24112824	-0.057813928	-0.0015100464	-0.494831	0.7009218	-0.12252797	-0.6769576	-0.3382163	-0.24865353	0.5213738	-0.41289246	0.34198317	-0.63623214	0.75052047	0.24078372	0.54832065	-0.04952663	0.44561052	-1.2436515	0.5582308	-0.033931494	1.1296289
tv	0.13724595	-0.46705276	0.7101113	0.55757374	-0.9199478	0.6476579	-0.186669	-1.0661631	-0.81379294	0.01789088	-0.9051019	0.8048872	0.6849906	-1.3258762	-0.020390978	0.08988994	1.1931362	0.9479251	0.698965	0.35318714	0.11410589	-0.43015546	-0.5793758	-1.4188094	-0.026146926	0.11245732	0.3911483	-0.79256284	-0.75284576	0.0061710887	0.27647904	0.07472956	0.15343359	1.0965579	-1.0728524	-0.18127939	0.03931349	0.40121835	-0.7351345	0.32993963	-1.1162958	-0.17226279	-0.49564087	0.76761127	0.046878807	-0.02532047	-0.4579113	0.3720012	0.057906732	0.13140921
busi	0.31356555	0.1715298	1.3152685	-0.20146345	-0.2647384	0.63785535	0.0050589535	-0.9688188	-0.54151464	-0.4657427	0.38135165	0.66742074	0.0011441181	-0.9885516	0.75790614	-0.04777825	0.79834926	0.87706053	-0.060094267	-0.70016545	0.21912684	-0.83607376	-0.28659505	-0.8332107	-0.4445879	-0.20893893	-1.5889108	-0.2920731	0.031473354	0.4163428	0.75566983	-0.5091079	-0.047826648	0.16069181	-0.42551014	-0.19726187	0.12019262	0.29655695	-0.3209372	0.4756133	-0.3549774	0.45781198	-0.25266838	0.68406606	0.23707446	0.8095617	-1.3612669	-0.10033766	0.5446585	0.61809933
amend	0.99672604	0.7237539	0.97348225	0.9740799	0.8609412	-0.79906046	-0.63990575	0.13608894	-0.66333604	0.68154657	0.54659784	0.041713905	0.8667796	-1.0169107	1.9025276	0.10144842	0.7944824	0.8779046	0.6302858	0.1305294	-0.21131498	-0.38544083	-0.6686105	-0.2283296	-0.11637275	0.37422004	-0.92940646	-0.48561886	0.18226017	-0.45314202	0.122393586	-0.34569418	0.72109115	-0.3170678	-1.5723457	-0.57075703	-0.010306843	1.3593001	0.83495605	0.09380408	-1.457129	0.319839	-0.104818344	0.27647603	-1.5520862	0.26603985	-0.19461247	-0.35095203	0.8768358	-0.6970306
season	0.6047412	-0.9706881	0.4075194	0.90991855	-0.57440424	0.06767468	-0.45021066	0.07567961	-0.12340416	0.09282856	-0.26247257	-0.9252977	-0.8216191	-1.2629181	0.48329794	-0.19652903	0.4585234	0.80187345	0.7455155	0.38907912	-0.23850119	0.09884107	-0.32743728	-0.14733583	0.64179397	-1.1125029	-2.3084025	-0.41894743	0.14999288	0.4740206	-0.4593981	0.269188	1.4799621	0.49408555	-0.48730046	0.13134223	0.35240513	0.63699055	0.53202164	-0.3321112	-0.639722	0.33159032	0.9562253	0.47884685	-0.32326895	0.18104392	-0.041161366	1.591769	-0.28010103	0.48394963
punish	-0.33616042	0.78847283	1.035846	1.1231551	-0.46844092	-0.36228096	0.030557616	0.16493356	0.15592067	0.5535383	0.27644846	0.87097716	0.4228168	-0.5362307	-0.3805542	-0.48035753	0.9714396	-0.28865778	0.36660004	1.0696391	-0.055882793	-0.38115275	-0.54098994	1.4897091	0.31104898	0.54152936	-0.06462893	0.93938816	0.12230166	-0.63361704	-0.268677	0.28293848	1.0101967	0.9480646	-0.18938088	-0.39208546	-1.2617322	0.056199834	0.44204345	0.7968532	-0.4675333	0.31758857	0.27517802	0.5430509	-0.32500052	1.6379882	-0.2089454	1.4561331	0.8581302	0.39391798
toward	0.57047635	1.2865183	0.76011086	-0.6943796	-1.3875647	0.6677382	0.35734752	-0.7814952	-1.4292519	-0.7174771	-0.45922214	-0.718792	0.07286398	-0.36581644	1.2990052	-0.21438289	0.8705015	1.250797	0.49178988	-0.32482323	0.16120607	-0.96114266	0.4213794	-0.15966892	0.3764823	0.24715167	0.49988157	0.2658564	-0.58207816	-0.26906	0.15995505	0.17030412	0.3002752	0.07082936	-0.01390153	-1.0116426	-0.97713995	0.85419923	0.6312468	0.4017828	-0.72552896	0.95046055	0.32074386	0.33793712	-1.0637387	0.23640776	0.011533771	0.34065545	-0.68200624	-0.6968781
futur	0.6882621	-0.13340071	0.4353962	1.1690032	-0.2929823	-0.055554483	0.15151733	-1.2119776	-1.1920104	-0.7074007	-0.17657337	-0.21082217	0.74452305	-0.9063928	0.10125075	-0.44438845	-0.06484082	1.22488	-0.71130097	-0.4627179	0.4105305	-0.31399518	-0.0024671033	-0.11756389	-0.31376088	0.50748754	-0.5390057	-0.5183079	0.43665096	0.19175589	0.09850113	-0.39900178	0.45337975	-0.12964329	-0.21962655	-0.7245532	-0.73776793	0.0638293	1.4119766	0.20751396	-0.42774558	0.50422347	-0.46680844	0.66056585	-0.4871121	1.1540811	-1.3364933	0.12511265	0.20593119	0.11373533
open	0.41278946	-0.2966199	0.4612221	-0.6510696	-0.6403253	-0.23975378	-0.2558189	-1.0573361	-0.43560457	-1.1958106	0.9484433	-0.1720124	0.7499894	-1.4966094	0.70520025	-0.24515444	0.70266974	0.8057585	0.57928985	0.8954768	-0.33897343	-0.8429184	-0.8153169	-0.6607008	0.96928895	0.2632988	-1.2669984	-0.47109264	-0.4631147	0.46167642	0.16272448	1.2491654	1.4150813	0.26232675	-0.28151575	-1.2440552	0.13506816	0.99322724	-1.311101	1.2765689	-0.66258943	0.43943667	-0.09355989	0.79995316	-0.58723867	-0.042283162	-0.2760337	0.540775	1.1139724	0.33801776
blow	0.2903502	0.24558757	1.2388861	0.07574755	-0.24031016	0.34215498	0.4030852	-1.2824919	0.58262277	0.1500827	-0.22603004	0.4328472	-1.2123395	0.15112567	0.9209596	-0.6609927	0.09059977	1.2509028	-0.08681682	0.42735624	0.14967193	-1.4142209	-0.6696069	1.4837955	-0.55459607	0.44676372	-0.29156223	0.26672578	-0.56027687	-0.019592885	0.60165507	-0.11419965	0.3667789	0.34630758	0.08307985	0.102285504	0.80417395	0.156326	0.22800079	0.6729078	-1.174683	0.15312776	0.20057787	0.2648954	-0.30193296	0.6175629	-0.59594655	0.9063733	0.5056832	1.4306214
far	0.89076704	-0.1326842	0.6610438	0.036848336	-0.50577706	1.3016374	-0.32207006	-0.4517825	-0.3532644	-0.4162146	0.09795734	-0.031206213	0.5437507	-1.0042502	1.0144002	0.39178404	0.760997	0.83823705	0.040470567	-0.12903522	-0.11323014	-0.70140314	-0.650712	-0.8352839	-0.9783681	0.8370316	-0.6614958	0.31155306	-0.27324978	0.24503788	-0.7635355	0.6263207	0.60902053	0.7684689	-0.60085183	-0.6452907	0.21449587	1.0220313	0.19768095	0.08508104	-0.061847523	-0.15539034	-0.27076477	0.39113808	-0.8712035	1.2866273	-0.57131696	-0.36234248	0.97523725	0.10461943
bought	0.45883226	-0.17620227	0.48287892	-0.124455765	0.3080074	0.93656635	-0.9485066	-0.56039596	-1.0269238	0.8556543	1.5981631	0.9961767	-0.06985777	-1.0556933	-0.14688909	0.786076	0.7118571	1.2501864	-0.6795592	1.1466074	-0.42651838	-1.0738437	-0.054108713	-0.26824728	0.26960316	1.2411058	-1.0525141	1.0826831	1.2761145	-0.046092182	-0.15103036	-0.4178214	0.26887003	-0.021559328	-0.21880797	-0.16691117	0.34635243	0.10851261	-0.46627992	0.047945186	-1.0887161	0.46843296	-0.22687106	0.70453787	-0.43527836	-0.1311455	-0.8690767	0.4670694	0.47009104	0.36351752
1st	1.0630919	-0.91547275	1.0442183	0.9558789	0.55736786	-0.001649173	-0.4423564	0.31770533	-1.5848467	0.4220275	-0.18719378	-0.45110616	0.39402336	-0.3553675	0.8964805	-0.2849483	1.137496	0.7300582	0.21582833	0.07221296	0.39069834	-0.43366867	0.05183064	-0.12156674	-0.073175386	-0.06728641	-0.18409508	-0.4699907	0.46886203	0.19877829	-0.697338	0.077049665	0.8002175	-0.49497578	-1.1736965	-0.8728478	-0.6532512	0.886346	-0.9359814	0.7356219	-0.62958074	0.4815658	0.47661865	0.17805538	-0.8945718	0.3676352	-0.49839312	0.7201759	0.9035679	-0.66204923
puls	-0.49790293	-1.1602167	-0.33908474	0.10840052	0.2117213	0.71034324	-1.2099295	-0.26107696	-0.8018332	-0.37332827	0.8230077	0.24292758	1.6514984	-0.7934413	0.17909484	0.85812366	1.2801979	0.1480971	-0.21927145	-1.2224109	-0.43916774	-0.41748542	-0.5981554	-0.38385612	0.31141776	0.91921926	-1.0348806	0.51009196	-0.94102794	-0.9273182	-0.5141916	0.22613636	0.7667147	0.86640066	0.04955791	0.56698275	-0.9135054	1.0431292	-0.9813825	1.1575224	-0.20454904	1.4545181	-0.6248528	1.3695447	0.16521278	0.3548908	-0.51955336	0.32003337	-0.55421865	0.8097641
useless	0.6593596	0.8717228	0.17817554	1.1678308	0.07832125	-0.6761915	0.02516628	-0.060679417	-0.35666656	0.35106727	0.15647303	0.41953874	-0.19924831	1.0126557	0.35884774	0.02750969	0.6929869	0.84069383	0.9340652	-0.43197343	-0.02140832	0.083067365	-0.7475214	0.19890575	-0.36963016	1.261135	-0.58690155	-0.02030988	0.071375035	1.1003451	0.25120464	0.4380945	0.38545072	-0.44512418	-0.004074473	-0.5210956	-0.22372386	-0.13936988	0.5190277	0.17081793	-0.28499177	1.2507074	-0.5896973	0.6545619	-1.5302476	-0.69856155	-1.2523938	0.48452136	0.6787958	0.5253592
battl	1.0764744	-0.21761371	0.4440623	0.15360624	0.1576324	-0.08171205	0.5021278	0.075509004	0.16437101	-0.36008832	0.06925024	-0.39399883	-0.56631553	-0.44752097	0.02357947	0.04031062	0.36268395	1.2088482	0.32817775	0.4324696	-0.11581782	-0.28591675	-0.8835945	1.3173712	-0.14308685	0.052575633	-0.25707573	0.051016822	-0.44109246	-1.9406514	-0.6180068	0.66768175	1.2277957	-0.04266274	-0.6957035	-0.6550064	-0.4464774	1.3037877	-0.43602747	-0.94688857	-0.5686798	0.5060743	-0.025361046	0.71207654	-1.3010612	-0.6618552	-0.9594994	0.38899323	0.12894103	-0.23681313
ad	0.17517371	-0.6254848	-0.086947374	0.55773616	0.7736472	0.16741206	-0.30132005	-1.3948987	-1.0749243	-0.17483445	0.4940685	-0.14895622	0.041119788	-0.25024444	0.014169614	0.21945974	0.6012076	0.6079176	0.77392095	0.18903309	0.1699082	-0.4820633	-0.7472867	-0.03735055	-0.6854611	-0.121421896	-0.38102975	-0.75900805	-0.1338953	0.20809734	0.1476363	-0.07929289	0.37860918	1.1288393	-0.7778652	-0.17255093	-0.20569259	0.7112949	-0.16058299	1.1782675	-1.0099168	0.82080173	0.1782908	0.9260341	-0.03670024	0.7631493	-0.96843684	0.27805606	-0.15255794	0.8079208
neighborhood	-0.4965886	-0.6028611	1.6450839	0.6978927	0.08671382	0.9788618	0.5001259	0.060813986	0.24941522	-1.3088894	-0.11382824	-0.46904474	0.51919484	-1.8123529	-0.51060134	-0.8640074	0.49756157	1.6842414	1.2215476	0.33606142	0.94226104	-1.468594	-0.8218628	0.6751188	-0.43531692	-0.45459312	0.06409396	-0.36358508	-0.7089407	0.06589859	-0.06398382	1.416861	-0.86737263	-0.43044513	0.3279541	0.946708	-0.3276477	2.7168412	-0.1848653	-0.028199077	-0.5337875	-0.109730005	0.28903583	-0.4983529	-1.2974614	-0.2538673	-0.39134428	-0.14788347	0.56486887	0.23046899
divis	0.31076905	1.4721178	0.8019308	0.12340984	-0.76095164	1.1597073	-0.64607704	0.07242117	-0.0179595	-0.27015927	-1.0252132	0.2261489	-0.66323394	-1.2500212	0.45855802	-0.62179774	0.101938345	0.4834299	1.1033053	-0.1346574	-0.25562125	-1.0039673	0.3123188	0.30514872	0.15673602	-0.18560654	0.4904936	-0.39672282	0.5804944	1.0911503	-0.4184652	0.69775236	1.0332857	1.1049185	-0.205535	-0.64384425	-1.3413489	0.82978356	0.7149022	-0.55689293	0.77893966	-0.68266535	-0.33273286	0.70695126	-1.1419516	0.47270453	-0.27136332	0.61366343	-0.012997508	0.869887
mr	0.09485877	0.8243921	1.2905694	-0.13791232	0.082847655	0.7695191	0.50550866	-0.19246885	-0.25796053	-0.4769116	-0.36542553	0.6103551	0.7820879	-1.9399922	-0.21495801	-0.38347986	0.4001134	0.6334152	0.7216294	0.028097056	1.1922495	-1.4918559	-1.0828466	-0.7449992	-0.19438279	0.4711624	-0.23058715	-0.79687643	0.821995	-0.010749685	-0.6257914	0.3153547	0.02006891	-0.61839795	0.35589904	0.1100339	-0.73993266	2.3521667	-0.17118955	0.32764682	-0.12025151	0.97727555	-0.36421835	-0.3065295	-1.4471278	0.1134684	-0.37067795	-0.06987146	0.7007161	0.85477924
fix	0.20148104	0.5842342	0.13586815	1.0446832	-0.28786775	0.48555005	0.92463297	-0.9143864	0.15610546	0.33956784	-0.033697233	0.8031509	0.98019314	-0.22565562	0.5592692	-0.8307553	0.15892576	0.83905524	0.44746786	0.5692093	-0.6831733	-0.68248165	-0.93777	-0.7370837	-0.19058353	0.20995106	-0.44520867	-0.13536084	0.32298392	0.15982175	-0.6490851	0.0014902055	1.0713077	0.018643826	-0.8654849	-0.80868673	0.23099561	0.69956625	1.1998179	0.85328466	-0.9891573	0.16039295	-0.3715411	0.44740653	-0.3834285	0.49870965	-0.4072742	0.8686757	0.038289383	0.5954257
whatev	0.7728243	0.38920727	0.16369441	0.27387565	-0.10840568	0.9744836	-0.012378819	-0.060708717	-0.21599042	-0.06338074	0.6180496	0.39251918	-0.70611954	-0.9166614	1.2350585	-0.55411685	-0.277619	0.27198488	0.2004395	-0.11497854	0.6934769	-0.17084366	-0.83481157	0.24584201	0.4743268	0.7162133	-0.79625726	0.40703607	-0.2736769	0.6878192	-0.106871754	-0.1233926	-0.5401838	-0.0020026267	-1.0702162	-1.0061364	0.29651618	0.6394541	1.121268	0.76187783	-0.03760171	-0.062317	-0.21090114	0.60432583	-0.6061018	0.5721278	-0.5720212	0.97919136	0.29352504	0.6289527
word	0.8524327	0.4587099	0.720809	-0.63522196	-0.60362464	0.4187895	-0.21233787	-0.9532053	-1.1826198	-0.515782	-0.24850424	0.7847909	0.4014727	-0.67451113	0.46241733	-0.42586258	0.80178595	0.5256217	0.22327077	-0.19255465	1.1445587	-0.8737402	-0.87681174	-1.0435393	0.52897364	1.5444787	-0.4902643	-0.22500676	-0.25813392	0.65496624	-0.70972466	0.4994803	0.4692887	0.14994052	-0.69832754	-0.81440985	-0.65879405	0.79634356	-0.017256703	0.38175026	-0.48658276	0.8555559	-0.6782296	-0.26850513	-1.2594838	0.67155707	-0.71911645	-0.28858873	-0.14312589	0.7854187
abid	-0.029145936	1.876421	1.5839443	0.93471193	0.26382852	0.78275436	-0.043660447	0.5623821	-0.48778808	0.8425152	1.2876978	0.020922214	1.4682097	-1.3364346	0.41323525	-0.521274	0.8195852	-0.21927638	0.36466962	0.26638505	-0.62209684	-0.06538518	-0.32068658	0.0525271	-0.40485388	1.3812659	-1.2517282	0.28153092	0.151018	-0.24510217	0.5911137	0.64413834	0.86002076	-1.228062	-0.6673074	-0.35192388	0.19800039	-0.04966253	0.32073757	0.093927436	-0.25175706	-0.03081727	0.5432925	0.4467071	-0.7265413	0.7014534	-0.42963123	0.70761776	0.87387466	-0.931798
someth	0.5454177	-0.1338674	0.3670749	0.44044068	-0.43854833	0.92022955	0.2330377	-0.90107816	-0.76185954	-0.0044423565	-0.0075119957	0.48122662	1.0106646	-0.82841575	0.6475413	-0.32545853	0.09621815	1.1384394	-0.0051177014	-0.020180576	0.4502908	-0.9982353	-0.671502	-1.2648975	-0.17128348	1.2545888	-0.88580143	-0.2744746	-0.17445585	0.22659646	-0.67397505	0.015217733	0.73226196	0.013601616	-0.7493136	-0.90043056	0.49896204	0.6438476	1.1125035	1.1635977	-0.7395729	0.94997364	-0.8851334	0.76468086	-0.9610418	0.5826798	-1.0298364	0.14808527	0.23406948	0.8369696
penc	1.636498	0.3206889	0.03495224	0.19405162	-0.4893718	1.134671	0.78669024	1.2864139	-0.1848219	-0.54130805	0.23373456	0.4348206	-0.62747234	0.6697817	0.040176816	-0.4990263	0.4467368	0.56465054	1.1173346	-0.59673166	0.769609	0.24393599	0.10973477	0.4966902	0.7177737	0.76977444	0.32191008	-1.2968016	0.4195767	0.87978256	0.29344738	0.081305765	0.5493494	-0.6994625	-0.86724716	0.16210344	-1.5542791	0.9280025	-0.96783495	0.34195048	-0.67885023	0.40557465	-0.5197641	-0.061070915	-1.3806585	0.390456	-0.62979084	0.46828625	1.1277888	0.8507515
bad	0.7544773	0.5492763	0.871717	-0.19869947	-0.023486912	1.424068	-0.21331254	-0.35468706	-1.2775571	-0.031072466	-0.07869863	0.8738576	0.7110652	-0.8487756	0.965534	-0.15751621	0.90036076	0.6467433	0.49810362	0.038518652	0.1947391	-0.57966256	-0.6448542	-0.63760036	-0.25810134	0.580377	-0.65982294	-0.08786823	-0.8151219	-0.34046417	-0.4611966	0.07673483	1.0776367	-0.122173086	-0.52411896	-1.1928378	0.2535724	0.728063	0.6137049	0.37038487	-0.6251205	0.5510372	0.3162674	0.5032513	-0.26446497	0.6048002	-0.9729367	0.94058734	1.0324855	0.3665423
determin	0.77563775	0.52678156	0.4753852	-0.13111854	-0.22444011	0.23672728	0.629027	-0.702623	0.23015642	0.34871593	0.120482475	-1.0711527	-0.20672534	-1.3727794	0.014024312	0.116686344	0.058664877	0.13002506	-0.5828601	0.24697603	1.0344841	-0.61904496	-0.0782848	0.05086054	-0.3560893	1.0049522	-1.3728578	1.6547123	0.5208183	0.67718667	-0.0019697398	0.79209965	0.40692106	0.3798013	-0.14100708	-1.2721364	-0.39782938	-0.096910216	0.38219172	-0.21363275	0.49264133	-0.09260921	-0.41039613	1.5776333	-0.5113029	0.44133225	-0.9072988	0.007009864	-0.2976178	0.067801
offici	0.8595823	-0.60980225	0.55689484	-0.39622432	-0.63230914	0.67492175	0.34063983	-0.3823017	-0.51293075	-0.22944926	0.9251549	-0.073102824	1.4648952	-0.611995	0.34348375	0.5689748	0.9127165	0.52435946	-0.6282421	0.73519385	0.8817619	-0.02025454	-0.46742466	-0.42938116	0.18219453	0.19367594	-0.95356685	0.12849185	0.850737	0.6374016	0.3418556	0.7022065	0.53853816	1.669534	-0.9446032	-1.4853511	-0.6231072	0.70618105	-1.3178816	1.1753783	-0.5859171	-0.38788462	-1.7651241	0.10891712	-0.80375195	0.7127093	-0.8290597	0.1358798	0.35305935	0.103807166
dear	0.5087352	0.26636645	0.91028976	0.66036	-0.04365772	-0.0025508571	-0.12734288	-1.13205	-0.6691704	0.036408916	0.1653606	0.37588757	0.034339715	-0.6244832	0.8731525	-0.6376927	0.5298235	0.17792714	-0.7289572	0.34916162	1.2798187	-0.75565946	-1.5007298	-0.43495637	0.14853354	0.40647882	-0.41170257	-0.23584017	0.16977343	0.97955275	-1.1492028	-0.7074951	1.4002435	0.06517528	-0.2144767	-0.8610096	-0.571908	1.5245898	-0.39863336	1.0523448	-0.29682374	0.006989762	-0.8299322	-0.7115116	-0.84502673	0.6666145	-0.19579381	0.17473638	0.56921506	-0.9156319
nazi	-0.10699142	0.58097655	0.8128478	-0.64911354	-0.60609233	0.67483217	-1.3368875	0.15132403	0.26855838	-0.659464	-0.7409081	-0.8390688	-0.82167304	-0.8491694	1.1139319	-0.26675397	-0.13738732	-0.17920241	-0.3292931	0.48540306	-0.048012674	-0.34071922	-1.2526863	-0.8155963	0.082229875	0.39328793	-0.48502338	-0.03546918	-0.24535465	0.3280994	0.028620765	-0.63826555	0.6845398	0.12544441	-1.3151215	0.40195292	0.69356203	1.1630795	-0.26980346	1.6445146	-0.05363756	0.07602787	0.17180662	-0.1666499	-1.1339068	1.4445621	-0.75455844	-0.8326534	1.0452256	0.84847593
lv	0.39926344	0.21663934	0.99515694	0.31539306	-0.2595588	0.43534228	-0.18099815	0.61788726	0.082221664	0.41911343	0.6055588	-0.3775407	-0.43212676	0.24122506	0.6516447	-0.16731319	0.10762287	0.91232884	0.8070247	-0.6033315	-0.55061805	-0.187201	0.19290516	-0.12778857	-0.47164318	1.4209831	0.7150446	1.4592654	-0.780325	-0.46735075	-0.16780582	0.29047713	0.62621564	-0.78997517	-0.49750185	0.21598354	-0.48199284	-0.9781045	-1.2691474	0.37923166	0.6665033	0.54184043	-0.5616741	1.310878	-0.3726678	0.7145237	-0.029583864	-0.090312794	0.15954357	0.6057066
#resist	0.12208685	0.8215812	1.2100971	0.31734982	-0.3405555	0.25975308	-0.14764524	-1.1925101	-0.5233966	-0.38451812	0.1976351	0.42327517	-1.0763386	0.025745813	0.99898255	0.33062363	0.09147646	0.09447511	0.054247644	-0.1060313	-0.30302006	0.11210948	0.45502836	-0.6178061	0.14930086	0.70072836	-0.5219605	-0.43553144	1.6676214	-0.33266407	-0.57466316	-0.8159528	1.2783346	-0.14243183	-1.114409	-0.69520515	0.5166818	0.99797344	0.38987374	0.13016605	-0.4300381	1.049493	-0.5236196	0.7383367	-0.81555223	0.6853075	-0.9583847	-1.0525749	0.4491634	-0.43708655
rep	0.24153703	0.46226647	0.36133382	-0.10669482	-1.6758404	0.51509273	0.63179785	-0.5383521	-1.4672008	0.6436596	0.94305456	0.12097703	-0.47271106	-0.5641612	0.507012	0.13922751	0.3786056	0.8869965	0.8237444	0.40503687	-0.33088446	-0.5357108	-0.06120531	-0.9384376	0.25513744	0.7083609	-0.255219	-0.33112866	-0.16177207	-0.09685556	0.09019503	-0.50352806	0.21247187	-0.5534185	-0.7825914	0.3072856	-1.0788063	0.7067983	-0.3403796	-0.03386666	-0.07987528	-0.21357986	-1.3019366	1.294131	-1.0127965	0.30970335	0.013677651	-0.07117994	0.17114557	-0.6855321
least	0.9714912	-0.5956741	0.73373985	-0.4543671	-0.759132	0.25378263	0.09274252	-0.6975764	-0.14949055	-1.3588266	0.65599054	0.50496346	1.6868021	-0.2010521	0.55564046	0.31593615	0.6816545	0.95687497	0.31951368	0.7724546	-0.37379646	-0.2908383	-0.5967671	-1.1053337	0.028454421	0.28448677	-0.88040966	-0.08342719	-0.5337012	0.47768757	-0.45745325	1.3204732	0.71693254	1.1691105	-0.6729475	-1.6850417	0.173235	0.35821268	-1.4453604	0.64300853	-0.6922542	0.007739853	-1.1417375	0.48439687	-0.43445006	0.90790653	-0.8129076	-0.28425032	1.4280111	-0.011293381
into	1.2934965	0.12160672	0.46308494	-0.009190526	-0.2950926	0.4826755	0.30800277	-1.2199585	-0.54286385	-0.946198	-0.15950114	0.38288075	0.4847841	-0.95602745	1.1093504	-0.25632328	0.9909829	0.89245534	0.2950257	0.5660182	0.28023988	-1.1910813	-1.0992417	-0.6268114	0.23962742	0.97824264	-1.0451026	0.104056686	-0.21444409	-0.5209785	0.5162255	0.6823381	0.95280105	0.13355844	-0.7426686	-0.7682132	0.37448478	0.7993524	-0.64145917	1.0046835	-0.9091766	0.27526042	-0.1277143	1.2923169	-0.28950673	0.46018755	-0.97761273	0.9287071	0.22662425	0.22810932
fool	1.1397855	0.9719905	1.3923547	-0.4623658	-0.20874126	-0.25758797	-0.4148094	-0.64829344	-0.76679	0.13125154	-0.40106112	0.5858389	0.4928719	-1.7316823	-0.15180022	0.034856558	-0.85667104	-0.26806623	0.6676142	0.34718195	-0.4692344	-0.39484596	-0.12947805	0.06119415	-0.2785641	0.71982676	-0.2738114	-0.39924926	-0.3614983	-0.18247202	-0.1695067	-0.32657233	1.2632737	-0.28913736	-0.9605733	-0.1866322	0.17274064	0.09146426	0.71031946	-0.050668895	0.483804	-0.48272723	-0.4461328	0.7053026	-1.0141965	0.3719163	-0.32621107	0.7426725	0.2320915	0.2020074
fed	0.099617645	0.3456879	1.1628102	0.40610215	0.50722265	0.7407085	0.11303347	-0.3665161	-0.3797113	0.9767516	0.64602816	0.32949772	-0.80792916	-0.66872436	-0.28647384	-0.27261862	0.7874948	1.1219516	-0.5052851	0.6183624	0.40462568	-0.948856	-0.47553477	0.51662326	-0.37475115	0.12686336	-1.39643	0.6712298	0.37252516	-0.8795855	0.6958991	0.29084644	0.6125527	0.57724804	0.053181186	0.008535236	0.17374754	0.3180542	-0.15612657	0.77504385	-0.8595252	-0.8512591	-0.6915202	0.8718127	-0.49265862	-0.07084437	-0.6327659	0.78091687	-0.63143486	0.5274091
pig	0.07817373	1.179092	0.58847666	-0.41928735	-0.70959264	0.8456038	-1.6233627	-0.80751264	-0.32933003	0.03161649	-0.54963166	0.886183	-0.45072663	-0.59631896	-0.9204774	-1.1271075	-0.3422274	-0.039886683	1.1748122	-0.4159742	0.3206835	0.008529469	-1.3851838	1.0668479	-0.34566587	-0.83905756	-0.5939454	-0.1097309	-0.5719998	0.21782954	-0.63778085	-0.08896762	0.68603736	-0.25825638	-0.37601638	0.18818268	0.4720233	-0.28463408	-0.13705537	0.06635461	-0.0471641	-0.15457164	-0.2594006	0.3071395	-1.4687572	0.1137608	-0.8172074	0.49954346	0.6955395	0.77980465
famili	0.66523796	-1.1784791	0.9211428	0.13139954	-0.74834275	1.072876	-0.4323295	-0.9944593	-1.0355718	-1.0350236	-0.013384089	1.6832081	0.5229314	-0.59346473	1.0150735	-0.35148436	1.4711964	0.50771487	-0.93651676	-0.51811254	0.074387744	-0.79533535	-0.38800198	-0.7739009	-0.29898888	1.0001156	-0.9274924	0.45252427	-0.48498094	0.50095075	-0.6256694	1.3662797	0.5580096	-0.946713	-0.7937157	-0.75449204	-1.9504979	0.76420057	0.045803197	1.0168891	-1.0042398	0.9531572	-1.5065516	-0.2697609	-1.2110748	1.3942289	-0.70682853	1.1839285	-0.13079046	0.36519217
ve	0.8110545	-0.6805911	0.8643057	-0.009005368	-0.2762496	1.1826205	-0.088761754	-1.0414785	-0.99959314	0.06832716	0.13725412	0.057320036	1.2521749	-0.8497562	0.6347873	0.1767201	1.3069339	0.87204766	0.40497535	-0.20840466	0.6707213	-0.7935997	-0.70373255	-0.7302864	-0.33757305	1.0628119	-0.70091057	0.03142483	-0.46014345	0.083739355	-0.5537845	6.4611435e-05	1.09497	0.3644447	-0.20342332	-0.8532375	0.2891069	0.62504876	0.6637906	0.5934929	-0.36795682	0.7954856	0.32052365	0.41582906	-0.89038205	0.67616403	-0.75961214	0.29693225	0.39576417	0.55210423
lie	0.5505986	0.79893637	0.8086262	-0.0918933	0.00997065	1.1265959	-0.932881	-0.7353748	-1.5820146	0.41417396	-0.9467748	0.5526419	-0.07101174	-0.5864576	0.20857057	0.218167	0.88910353	0.7585327	0.8138355	0.015938878	0.24755861	-1.1548637	-0.9103935	-0.5015167	-0.2422536	1.1155746	0.027379707	-0.02807679	0.050309084	-0.57031596	0.08131221	-1.0660231	0.95545816	0.5806746	-1.6458207	-0.92535853	-0.47295216	0.90080756	-0.591303	0.7136557	0.21057129	-0.137183	-0.6254082	0.5073665	-0.45976472	0.321436	-0.9130584	-0.21671121	0.34545657	0.09945837
manag	0.4359203	0.027874053	1.159879	-0.0668104	-0.056195647	0.39103764	1.0363997	-1.3028439	-1.0883411	-1.0942268	0.27716058	0.6940787	-0.114689544	0.2222533	0.37521088	-0.012795031	0.8190565	0.47465485	0.019329317	0.10323081	0.45077968	-0.4917431	0.31353974	-0.38460958	-0.6557057	0.08574082	-0.18333071	0.31188682	0.038281813	-0.33446342	0.36684957	0.13441817	0.029557109	-0.095240384	0.062322427	0.2465697	0.20335719	-0.16913027	-0.07173465	0.13290715	-0.3827688	0.81448853	0.8858273	1.4901204	-0.7119042	0.49773806	0.17360039	0.7182551	0.511216	1.4099727
mad	0.6205311	0.055072814	0.62493384	0.31331706	0.18559785	0.7818996	-0.27237248	-0.82174283	-1.045471	-0.40262294	-0.53285027	0.88850605	0.63148236	0.3054707	0.33576414	-0.5784432	0.6187055	0.5869387	-0.15678038	0.230357	0.107249066	-0.48675096	-0.59900403	-0.14019981	-0.1837213	0.4301114	-0.8634094	-0.39994863	-0.87291795	-0.23666942	-0.95023644	0.4402691	0.85663205	-0.12339389	-0.64746416	-0.22967583	0.73943913	1.1861924	0.49887973	0.9108211	-0.89548254	-0.26301217	-0.740483	-0.09296131	-0.1638928	0.3618899	-0.57381296	0.5956513	0.08118647	0.06515992
while	0.88392675	0.28978485	0.81248677	0.09365173	-0.5006539	0.28643584	-0.118898794	-0.92280674	-0.7694683	-0.81506944	-0.40883204	0.4093145	0.87184227	-0.8911835	0.84325033	-0.6354352	1.094064	0.9694431	-0.19477901	0.060007036	0.4840102	-0.98855627	-1.0304425	-0.84983623	0.08616851	0.49077624	-1.0444067	-0.24405193	-0.6393646	-0.3392075	0.2755885	0.0005200114	0.55287004	-0.41268638	-0.991426	-0.37768865	-0.36347583	0.40466696	-0.45688835	0.8828305	-0.4160223	0.5050427	-0.40292218	0.9629204	-0.49585697	0.45755816	-1.1143649	0.41128942	0.4218279	0.054148875
quick	1.3807045	0.4553797	0.041239813	0.18491952	-0.12921287	1.0989413	0.5535716	-0.99633	-0.45244008	0.18402688	-0.3859924	0.12696703	0.3016427	-0.46868163	1.4494486	-0.25625554	0.49100024	0.70376515	-0.3090611	-0.94435	0.3144159	-0.19308938	-0.54436654	-0.46128088	-0.5366156	0.8755108	-0.63226986	-0.2055707	-0.6058738	-0.020652302	-0.40699202	-0.008329526	0.72511095	0.17060155	0.16269259	-0.84792376	-0.28136408	-0.18195918	-0.5800793	0.35108632	-0.6311778	0.693293	-0.08129874	0.87268066	-0.906199	0.87377983	-0.22491261	0.8422829	-0.31130797	0.35119325
network	0.7484423	0.56522065	1.5094395	0.5722926	-0.15542912	0.4008854	-0.6376778	-0.69642985	-0.62441957	-0.34825534	-1.1399465	-0.20276189	-0.34774935	-1.6792226	-0.3324222	0.30081204	0.8405801	0.62417924	-0.045503084	0.047086556	-0.48175696	-0.49900457	-0.9496199	-0.7105112	-1.2898855	-0.44118777	-0.25723124	-0.5501124	-0.33183625	0.72977877	0.50002605	0.34670272	-0.550709	1.6192107	-0.3203654	1.2120178	0.08144146	0.36218053	-0.8214127	0.20387197	-0.9061657	-0.57663393	-0.21214125	-0.2904801	-0.14049381	0.56295764	-0.50225496	-0.2571978	0.1855426	0.7865392
femal	0.8089052	-0.15159981	0.026467185	-1.0972493	-0.50383794	-0.33683527	-0.38015586	-1.3411634	-0.36003146	-0.36165297	-0.16151644	-0.88613653	0.61388683	-0.36500925	0.82501173	1.538496	-0.15353143	1.3144692	-1.3148772	0.09311164	0.15848447	0.16177164	-0.31033114	0.06737441	0.47880495	-0.54226935	0.8940433	1.0046985	0.35120207	-0.036425903	-0.5157385	-1.1002204	0.26760435	1.1652886	-1.0170455	-0.5476614	-0.22391841	1.0197904	-1.3721857	-0.356126	-1.1769714	-0.08522658	-0.9774711	0.27995887	-1.6430403	0.79886824	-0.9861958	1.0837942	0.14401306	-0.12868206
predict	0.49092323	0.13514137	1.1209654	1.1062814	-0.09299657	1.1711648	0.36185986	-0.63315314	-1.2726693	1.0415213	-0.54128325	-0.7088363	-0.86498535	0.0013256818	1.5459455	0.3111228	0.5274617	0.9686121	0.6906816	0.017327175	-0.09229087	0.22331256	0.14159732	0.1674678	-0.29352877	1.2264664	-0.80260766	0.32434908	0.32168385	0.2003736	-0.9420554	0.39467254	0.640169	0.5538969	-0.014694132	0.10286564	-0.58960605	-0.6253606	-0.23699023	-0.2254197	-0.08867569	0.38365844	0.20863575	0.92471004	-0.11447062	0.4798119	-0.63562626	0.18200105	0.40405118	0.30471992
church	0.8662713	0.09694597	0.47914827	0.49222463	0.12557293	1.4320068	0.29157642	-0.26298976	-1.2442815	-1.018237	0.5336218	0.30224168	1.0806186	-0.9883467	0.99344957	-0.93416274	1.238333	1.4616053	1.3844872	0.5150124	0.072527215	-0.6171261	-0.7389644	-0.50795376	0.4983136	1.3811193	-1.4771806	0.28568107	-0.99408317	0.7627982	-0.09597051	-0.52418274	1.140873	-0.8112806	-0.8631152	-1.2516408	-0.5841276	0.78379357	-1.330127	1.634711	-0.5733681	-0.081933625	-1.2949404	0.6932617	-0.28053585	0.9678987	-0.8697182	0.9985138	1.6202471	0.9310707
educ	0.7770715	-0.02056992	0.49551386	1.2296388	-0.16539487	-0.1470745	0.6439233	-0.97336346	-1.4953706	-1.1264923	-0.6928981	0.13973342	1.2644659	-0.50885314	0.15416087	0.055006772	0.54144275	-0.08668195	-0.4660493	0.5128002	-0.025424778	-0.69903445	-0.29871708	-0.53491867	-0.08037182	-0.1935043	-0.7002307	0.009149961	0.25173828	0.5347688	0.799986	-0.23301698	0.17959782	-0.23286518	-0.90243065	0.2526554	-0.6025244	0.61759734	1.6750538	0.5624779	-0.41385162	0.10955523	-0.58475673	0.76081115	-0.34241474	0.821001	-0.27042836	0.64522064	0.7890955	0.32858434
question	0.8644068	0.2611379	0.6085704	-0.060254052	0.07988104	0.9186607	1.1658752	0.09174737	0.1915757	-0.044610053	0.4261307	-0.24355882	0.79823726	-0.9432409	0.6194775	0.25532696	0.94166523	0.89348245	-0.098843604	-0.006908493	0.98787713	-1.054277	-0.42304754	-0.8468404	0.17639843	0.94044864	-0.6744359	-0.016560704	0.19128901	-0.7337301	0.34507677	0.044434197	1.1262345	0.64319867	-0.74947053	-0.7771694	-0.3539865	0.1377658	0.15648481	0.64956814	-1.5225523	0.41479763	-0.19776812	0.6777849	-0.22206919	0.8295154	-0.32085812	0.275133	0.27779803	0.9872999
left	1.0625892	0.04980489	1.3316478	-0.30894038	-0.27313763	1.0456023	-0.6123915	-0.8188411	0.013477752	-0.5774845	-0.12314524	-0.10418887	0.31427467	-0.7698253	1.7087429	-0.0025753677	0.52245367	0.5280807	0.6141108	0.6086838	-0.05684121	-0.48927438	-0.97504616	-0.41113144	-0.37644196	1.319341	-1.3564546	-0.42753384	-0.30680808	0.434291	-0.07484605	0.30099177	0.45861727	0.6379318	-1.0439136	-0.9105897	-0.61484736	0.77267885	-0.88363165	0.7463815	-1.0712446	-0.37547702	0.03565768	0.5587747	-0.6973007	0.79187036	-0.7903363	0.3022629	0.13725555	-0.39893386
bastard	1.2545652	0.14502394	0.6210793	-0.40413582	0.32483888	-0.31202695	-0.29085803	-1.1859655	-0.6666818	0.751931	0.61797607	1.9580852	-0.034808747	-0.7156837	0.19057783	-0.40216416	0.0787322	0.22163941	0.32298505	0.94896173	-0.026111513	0.5875047	0.28873697	0.68975437	-0.06870672	0.26165965	-0.46473962	-0.1220664	-1.062818	-0.39247027	-0.97511274	-0.41967732	0.58632016	-1.0861899	-0.6212987	0.5517381	-0.5723133	-0.27186084	0.13963339	0.46898872	-0.7819134	-0.47318777	-0.9475064	0.4811174	-2.0593936	0.6370777	-0.32654667	0.47040993	-0.4041997	-0.75773364
host	0.2826373	-0.34468073	0.6493665	0.0687609	-0.8159573	1.0257244	-0.42829382	-0.69697046	-1.1923357	-0.47775328	0.29111844	-0.011723451	0.16918264	-0.16692872	0.57409304	0.03291118	-0.062000785	-0.18384226	0.6802028	0.3291661	-0.4845969	-0.06479189	-0.48319012	-0.7563839	0.5899773	0.5407994	-0.31483424	-1.6415584	-0.7250217	0.6911664	1.1858027	0.88298297	1.1949792	0.46356732	-1.8601044	1.7121842	-1.793348	0.121209875	-0.79691446	-0.18885928	-1.3021095	-0.13404095	0.5454836	1.0190718	1.0588347	0.3993491	-1.3536047	0.45763195	-0.49836776	-0.10171297
vs	1.6468818	0.7388187	-0.27494693	0.5598124	0.008816406	-0.41439795	-0.29709303	0.56872857	-0.34745067	-0.34553486	-0.3176093	-0.25753093	-0.3599164	-0.87309337	0.6969688	-0.15014452	0.97727525	1.0118423	0.0019819736	-0.09970998	-0.42037064	-1.0323381	-0.78431165	-0.6625315	0.07553776	-0.08910809	-0.3216232	-0.45115218	-0.29187694	-0.2115939	-1.1553231	-0.040154144	0.9736689	0.34471714	-0.22436538	0.21502632	-0.24922399	1.0352862	-0.23915857	-0.4726311	-0.75373775	-0.06463832	0.43864864	0.9335984	-0.140246	0.692849	-0.24590704	1.1046137	0.76227266	0.20016775
stab	0.630481	-0.2263939	0.60411465	-0.15018904	0.004340291	0.33715162	-0.2516583	0.0071884654	-0.7124287	-1.1905739	-0.8518888	0.20226085	0.32453144	0.26232344	0.8981224	0.17388916	-0.44040167	-0.015812214	0.6250361	0.046103302	-0.66448796	-0.64565724	-0.5582284	-0.18990278	0.80313945	0.44707233	-0.051854573	1.3281918	-0.058053695	-0.021865286	-0.59245956	0.7434425	-0.27790028	-0.037394524	-0.1573161	-0.02685669	0.4217981	-1.016789	0.21010648	-0.6595681	-0.33655685	0.11671573	0.76662135	1.8980699	-0.6819832	-0.24789996	-1.5733337	0.64578265	0.6308978	1.4729512
huge	0.89803374	-0.053085297	0.72535026	0.023586363	0.033110052	0.15630877	0.100798376	0.13995893	-0.8675984	-0.76218903	0.42044586	0.29919088	-0.4889841	-1.026407	-0.0077806665	0.5053494	0.65280867	0.79233694	0.574882	0.10328194	0.052872032	-1.224484	-0.5072082	-1.0270681	-0.5390925	-0.2433491	-0.42114717	-0.036660828	0.020770632	-0.19524536	0.024518818	0.30648553	0.9776707	0.19257069	-0.45759898	0.1253493	-0.2174734	0.030744333	0.67903715	0.28997886	-1.1346426	0.42897862	0.88828576	-0.09611557	-0.4287765	0.67654526	-0.25883973	1.0466024	0.36448145	0.06193389
claim	0.8290592	0.4032328	0.66818714	-1.1016549	-0.46685088	0.7765477	0.1678066	0.09874399	-1.201333	-0.25287846	0.0011632093	0.3601824	0.21202567	-0.3403542	1.2157469	1.4506676	0.5426988	0.36399502	0.061155666	-0.24315341	0.04308708	-0.24663943	-0.5821676	-0.7292513	-0.31715453	1.3741913	-0.8190937	0.69714075	-0.4870109	-1.0193998	0.13581067	-0.5276003	0.589224	1.3377197	-1.4080827	-0.4111447	-0.7888273	1.0297272	-0.67400074	1.4455594	-0.31696776	0.33368027	-0.20686969	0.41774002	-0.18243578	0.6472877	-0.3399326	0.020488515	0.7681493	0.36144164
religion	0.65874463	0.74800664	-0.22414073	-0.15529141	0.06066701	-0.09021238	0.46630937	-0.547256	-0.087304175	0.15428302	-0.5401412	-0.752337	-0.1104372	-1.0354601	1.0435828	-0.28718957	1.0689708	-0.61129934	0.29717904	-0.42291397	0.04941953	-0.802107	-1.5493448	-0.05332789	0.9016949	0.88806546	-0.8716712	1.612949	-0.71869427	0.90264595	-1.3780162	-0.4018597	0.5763446	0.14801009	-1.266602	-1.138819	-0.62631506	1.1315999	-0.031740896	0.9716997	-1.5699048	-0.5054466	-0.5436315	0.2397104	0.03515753	-0.11667229	0.18200496	0.7857501	0.2044729	0.49723893
mayb	0.7501693	0.3137279	0.56780183	0.12811925	-0.21972336	0.86405563	0.29594654	-0.8273608	-0.8134934	-0.042862017	0.27303267	0.2925055	0.95378387	-0.4467032	0.5297134	-0.13736147	0.70480144	0.47381282	0.061440095	-0.09454446	0.13572699	-0.8900349	-0.6250111	-0.81784874	0.0005233716	0.72900426	-0.8091305	-0.29132235	-0.061162807	0.09402534	-0.26706976	-0.64208114	0.6473434	0.02921781	-0.6154356	-1.1898676	0.29508898	0.48143297	0.48791873	0.7892079	-0.5610144	0.61963785	-0.01947464	1.2097795	-0.5727227	0.9381442	-0.99315286	1.0810972	0.65019923	0.44960383
sadden	-0.64977664	-1.0147839	1.2120588	1.0154358	-0.017480642	0.36954427	-0.119374365	-1.0769258	-1.6099032	-0.58472645	-0.6910229	0.12937468	-0.28576815	-0.41333193	1.0518876	-0.63724864	0.4629889	0.61906844	-1.1486609	-0.5267427	-0.100976884	-0.8173679	-0.27756542	-1.0399382	-0.22323193	1.0590249	-1.1202698	0.5553863	-0.91125643	0.5751717	0.22738236	2.3957095	0.8200877	-0.8455323	0.18884677	0.15156204	-1.081795	-0.05442885	0.83624554	0.23423718	-0.18976858	-0.38932884	-0.3174687	-0.79025453	-0.25604245	1.420749	0.14019927	-0.81757	0.3626303	0.4065593
outlet	1.3237488	0.07046075	1.1621706	-0.2607627	-0.78942686	0.7568307	0.39524958	-0.96438396	-0.29511535	0.64038706	-0.48079842	0.66328084	0.22614579	-0.9251022	0.31487167	0.2054264	1.2356675	-0.17658892	-0.33330154	-0.19607705	-0.25828725	-0.85804003	0.40522408	0.16498964	-0.6331068	0.020050153	-0.39582917	-0.17890662	-0.38529938	0.7489225	0.3973589	0.007579416	0.5364585	2.1743793	0.39873174	-1.0859433	0.26247606	-0.5816651	-0.5765075	0.51703644	-1.4545021	0.0910954	0.05372505	0.4681892	-0.66146356	0.35189462	0.3016428	-0.7749295	0.5854609	0.63000524
russian	0.97560126	0.52463806	0.25065312	0.5140163	-0.4664216	0.3714429	-0.5548768	-0.28299975	-0.23566805	0.24791712	-0.2065141	1.2143333	-0.21658464	-0.5198498	1.4357324	0.49510404	-0.21780357	0.4586472	-0.28844655	-0.2661021	-0.6547362	-0.5201049	-0.7732203	0.11557648	-1.3016592	0.6521995	-1.3973258	-0.2102433	0.40562356	0.11575179	0.75285447	-1.3973926	1.6890374	1.5895696	-0.0562986	0.73638815	-0.38220972	0.3786924	-0.16133925	-0.123283274	-0.19430602	0.14183798	0.029870763	0.8769467	-0.4693372	0.37253517	-1.1987542	-0.6105954	0.043673396	0.5746537
will	1.2106693	0.02156073	0.93748	0.8051136	-0.6546711	0.89662987	-0.13920099	-0.97042817	-1.1939396	-0.32955813	0.20935279	0.3562712	0.76589096	-1.0296509	0.6753653	-0.79821265	1.2285769	0.81122804	-0.067043796	-0.40932426	0.3817498	-0.7689609	-1.0279267	-0.7033645	0.3646984	0.81419253	-1.3330252	-0.42875862	0.42978853	-0.11708263	-0.6353191	0.5160636	0.91830003	0.19464593	-1.1369574	-0.9488954	-0.7482803	0.8056467	0.3003742	0.92876965	-1.0692292	0.3518419	-0.9750062	1.2040908	-0.979074	1.1887368	-1.4880848	0.7566132	0.28410447	0.50294405
#lasvegasshoot	0.9133634	0.05212465	1.4807982	0.6016271	1.1413124	-0.26315314	-0.28072217	-0.4443896	-0.61814064	-0.41275588	1.0190494	0.52505296	-0.22330204	-0.4149614	1.2417954	-0.12100943	0.42955393	1.0003362	0.42620078	-0.957684	0.43089145	-0.99565357	0.03895369	-1.3326135	-0.14686102	1.7312305	-0.3045283	0.3591492	0.15163495	-0.37906453	-0.90133125	0.50367975	1.3039408	0.45719248	-1.2665257	-1.4835109	-0.013570845	0.30805427	0.1999413	1.1690843	-0.65399575	1.0183148	-0.96845794	0.48847154	-0.10281195	0.82197714	0.495333	0.038740505	-0.77010065	0.752904
deadliest	0.86755025	-1.3159834	0.45346406	-0.56014633	0.7381089	0.050436854	-0.41649246	-0.21099822	-1.4084468	-0.5520064	0.5326679	-0.70824456	1.8873582	0.033631742	0.7563524	-0.021737874	0.5568616	0.9685762	1.075494	-0.42174137	-0.81620395	-0.047596958	0.5683945	0.43997258	0.2587929	0.7443757	-0.4032123	0.3892017	0.8304151	-0.5883129	-1.5942348	1.0029455	1.8824673	0.48755866	0.45060655	-0.29121757	-0.8242552	0.5442828	-0.8615879	0.763369	-0.14385405	-1.2752562	-0.2618789	0.38398895	-1.3561407	0.754717	0.1447737	-1.8246638	0.6838848	1.4710156
creat	0.04772342	1.1179576	0.041162584	0.5038947	-0.40192667	1.2942109	-0.15307067	-0.9780314	-0.9538295	-0.7571372	-0.11112973	0.044307373	0.304219	-0.804566	0.46473262	-0.09404525	0.3851378	0.2945543	-0.0033436976	-0.24953312	-0.7677188	-0.86699617	-0.18534748	0.13889018	-0.6234068	0.023200452	-0.35627675	-0.0685444	0.22309561	-0.025606763	-0.05336816	-0.18470046	0.78235793	0.98347735	-1.106669	-0.4808595	-0.88970876	0.58329827	0.9995202	0.6765722	-0.8631182	0.085436195	0.012590915	0.95984936	-1.0994945	0.7295854	0.16643025	0.514241	0.26978555	0.41357973
fla	0.8428062	-0.8885684	0.2318065	-0.04761061	-1.1995234	-0.36163196	-0.08353466	-0.19901666	-1.0714812	-0.42773995	-0.21879923	0.26374888	1.0921497	-0.67135084	-0.09872793	1.246841	0.8225994	-0.30605355	-0.106924124	0.7707261	-1.0282133	-0.3995141	-1.2955319	-0.080522925	0.40374526	1.0503277	-1.0094963	0.066974096	0.72983027	-1.4594513	0.4731822	0.97165304	0.048164956	1.1218485	0.7372993	0.16080938	-1.1085944	-0.028277818	-0.72501534	-0.052386537	0.11281641	0.12505335	-0.7503863	1.0037975	-0.19572747	0.11648181	-0.35432178	-0.19021885	0.6437565	0.31427634
lunat	-0.32185388	1.0823984	0.109266125	0.058290064	0.38804936	0.23216596	-0.26445657	-1.027975	-0.38357264	-1.0367643	0.2814721	0.9714581	-1.2428563	-0.43262452	0.4171359	-0.26092803	0.37488484	0.13842115	0.37266308	-0.07485959	-0.3863537	-0.3217405	-0.74348855	-0.26177934	-0.07689908	1.1648786	-1.0617105	0.06262731	-0.42874473	-0.33343488	0.09797555	-0.09169039	-0.7464471	-0.6236554	-1.3975141	-0.6458868	0.23623657	-0.16627724	-0.14107046	0.53757274	-0.32335234	-0.2174878	0.5599604	0.94797933	-1.1259305	0.79915977	0.047459386	0.3005334	1.3915646	0.034836024
follow	-0.118953615	-0.37587816	0.99839395	0.10468055	-1.2092886	1.3148987	0.11702106	-0.36706007	-0.50318235	-0.21907344	1.0170386	0.066760406	0.09456336	-0.8224257	0.9867896	0.28231984	1.211437	0.86185825	0.33438465	0.05204234	-0.20988712	-0.21934971	-1.6213186	-1.45701	-0.16369161	-0.12768556	-0.6127269	-0.18070534	0.22127369	-0.04072939	0.38405758	0.59160066	1.3584057	1.3599119	-0.09461871	-0.72071344	-1.2105186	0.72975624	-0.3908705	0.40876108	-0.3400882	0.05107103	-0.40628442	0.50855446	-1.2589154	1.316549	-1.4926288	-0.018619195	0.4948902	0.4441283
charleston	1.0406392	-0.09408322	0.24877414	0.53204197	0.22211796	1.7021072	0.57004726	0.8753871	-0.3253501	1.2760854	-0.20383586	-0.6681839	0.5736282	-0.03755396	0.12393394	-0.5092841	0.7721211	0.3631714	0.051711127	-0.6020646	-0.88396734	-1.0468645	-1.141938	-0.45297036	0.0895251	0.6606992	-1.1452549	0.64699286	-0.6971529	-0.13401307	-1.8814461	-0.32334062	0.2171077	-0.45839787	0.2876591	0.8106936	-0.4814219	0.78969646	-1.730433	0.20224369	-1.0727687	-0.19331723	-0.14012632	1.0906348	-0.7384243	0.18050863	0.14609835	0.22446549	0.468908	1.0333257
folk	1.0333996	0.38208938	1.0381187	-0.10312593	-0.3314919	1.1164994	-0.22546539	-0.21137142	-0.5262561	-0.0014474969	0.13825624	0.7453817	0.30721804	-0.38166845	0.67662925	-0.71041495	0.43535656	0.26700792	-0.18835515	-0.5873262	-0.123724	-0.4613285	-0.7677829	-0.80328035	-0.13513382	0.8070787	-0.5059518	-0.19771194	-1.0207589	-0.0036500823	-0.18937373	-0.13002233	0.56742144	-0.34057796	-0.12639044	-0.7119771	0.38130838	0.60343075	0.026626132	0.82701355	-0.83300006	-0.26870474	0.15216926	0.78518224	-0.7264881	0.7983335	-0.6977402	0.6760285	0.37889674	0.2661835
#gunsens	-0.120011404	1.0657473	1.2982244	0.95257765	0.030815408	0.69958514	0.19722222	-0.9372467	-0.96314263	-0.019154657	1.207785	0.014444113	0.08556648	-0.089557216	0.3375947	-0.051194787	0.85932183	0.37918165	-0.8508214	-0.4107116	-0.5576166	-0.19732179	-0.5801724	-0.89874095	0.44524676	1.120461	-0.8824644	-0.1920225	0.6306282	0.02801282	-0.80458385	0.030020379	0.84065425	-0.08957243	-0.7048712	-1.0009414	0.4621582	1.1881106	0.53294635	0.11890198	-1.1544546	0.60278577	-0.52983934	0.64586467	-0.4046921	-0.50763553	-0.89228773	-0.22565782	0.7833009	-0.65770876
nigga	0.372224	-1.0625074	0.073489614	-0.723354	-0.35818923	0.38456333	-0.48429352	-0.0526307	-0.41496834	0.2802093	-0.28743565	1.4666846	-0.31717286	-0.1691243	-0.6919919	-0.12467617	0.15345496	0.066186026	1.0875793	0.13682076	0.26809454	-0.7952229	-0.09573257	0.69735456	-0.97305906	-0.5771264	-0.2039413	0.14850686	-1.3495828	-1.2139564	-0.16253583	-0.2501436	0.40257	-0.14096028	0.45292163	0.40958026	2.0359693	0.9320534	0.3996768	1.1354561	-0.7209363	-0.4084161	-0.46063513	1.8756623	-1.2632766	0.063532464	-0.8001489	1.2468082	-0.06836903	1.0589985
yell	0.49552813	0.36000767	1.1494111	-0.6213853	-1.1726772	-0.858513	0.512113	-0.45299476	-0.87536544	-0.090291664	-1.2397435	-0.49896723	-0.011600867	-1.4039464	-0.00018891506	-0.63492894	-0.92576236	-0.58044904	-0.22969344	1.4953879	-0.18769705	-1.3629928	-1.8312461	-0.5335446	1.1669323	0.9050573	-0.25830168	-0.63193524	-1.1220863	-0.3190612	-1.4815814	0.12073101	-0.041516274	0.37027395	-0.8485613	-1.0375907	-0.27598062	0.24029934	-1.1669341	1.2040436	0.38799444	0.11169635	0.42757922	0.25651506	-0.46269205	0.2833977	-0.5057544	0.797662	0.8185602	-0.8403924
late	0.18328905	-1.0847944	0.76036084	-0.57492584	-0.21494794	0.4836433	-0.316545	-0.4601817	0.31333262	0.34957182	0.4471474	-0.09087414	-0.060923185	-0.70518756	0.31397146	-0.20915604	0.32419437	0.48747945	0.57373714	0.40509647	0.20619324	-0.55817723	-0.1762698	-1.54813	0.2252228	0.42426634	-0.82500446	-0.7190666	0.025129154	0.62580734	-0.7210714	1.015235	1.6319124	-0.052478343	-0.20105413	-0.68446547	-0.16381729	0.2896429	0.396102	0.24374215	-0.18621367	0.2284916	0.6595576	1.0510206	0.17552638	0.9102789	-1.7629573	0.34493908	-0.21692745	0.43869415
shield	0.6492628	0.1274988	-0.035934947	-0.1820119	0.11343755	-0.58094215	-0.9565561	-0.33286607	-0.03441065	-1.5599964	-0.5866581	-0.46132568	0.7535587	-0.10160953	0.82901764	0.6051227	1.2313035	1.0434339	-0.6248867	0.812058	0.9506916	-0.17067191	-1.0840324	0.23958029	0.22312206	-0.38379508	-0.100692235	0.38865376	-1.0764608	-1.3958044	0.55704534	-0.9386618	-1.1740785	-0.7691038	-1.0883996	0.19294134	-1.5076325	0.26269013	-0.83352923	-0.20958689	-0.4218055	1.4343274	-0.85330844	0.62030363	-0.9583795	-0.33361015	1.0333574	0.2687409	0.34856024	0.0009587556
pistol	0.8251858	0.29034525	0.20715883	-0.52138674	0.7544258	0.37615904	-1.0790747	-0.47820485	-0.5096346	0.34662	-0.0373085	-0.0698756	0.6752916	-0.9036714	0.4084472	0.98706794	-0.19858354	0.13622583	0.2478307	1.543974	-1.4492487	0.2961049	-0.78148055	0.32917938	0.3441401	0.26581064	-0.53344303	0.4274185	0.19475791	0.06918158	0.77097565	0.40511125	0.1517272	-0.097390026	-0.3138794	-0.5569576	1.1038125	1.8227739	-0.41894346	-0.0036492795	-0.54576916	1.0169767	-0.26263288	0.6458024	-0.751255	-0.38380802	-0.7773429	0.66671205	1.1907032	1.3672343
rule	0.4968783	0.7600165	1.033133	0.41403145	0.40379068	-0.0802334	0.9778477	-0.626464	-0.70086956	0.48728436	0.6900674	-0.39136094	-0.15283835	-1.1677605	0.13000906	0.17814228	1.3820684	0.46008414	0.51220626	0.64524525	0.018418722	0.030196164	-0.21519247	0.32823256	-0.1165899	-0.069226965	-1.2548494	0.5146308	0.5635672	0.43209642	-0.18189634	0.14111893	0.5674169	0.8138942	-0.48708585	-0.24645287	-0.18286231	0.8017198	0.3986206	0.46881253	0.08086888	-0.6470033	-0.53961587	0.15332097	-0.96799004	1.3935306	-0.8696037	1.1064923	0.080996975	0.49906993
investig	0.78218615	-0.09746277	-0.08661075	-0.006011471	0.41645902	0.6966593	0.5871483	-0.5622953	-0.44767177	0.07428467	0.11555894	-0.08431089	0.61232024	-1.2760514	0.92831266	0.7129291	0.5714378	0.8083223	-0.72861207	0.4370931	0.9238199	-1.0975776	-0.9088079	-0.56576705	-0.8194487	0.6586803	-1.0660217	0.8718866	0.86767966	0.20848589	0.7128931	1.235888	1.0879927	1.5207707	-0.3816804	-0.59363127	-0.65209186	0.13303754	-1.2302904	0.82525676	-0.11968014	-0.9775287	-1.2991037	1.3319976	-0.11498232	0.11384381	-1.5043383	0.9617065	-0.5702522	0.55764866
islam	0.6203364	0.95118237	0.7144562	-0.9755229	0.19558984	0.17859894	0.22869927	-1.1317115	-1.2053673	0.47883534	-0.5085697	-0.69818413	0.93975645	-1.5103366	1.0549865	0.8738414	0.6939949	-0.15661491	0.048056807	-1.0598555	-0.20068325	-0.205303	-1.4400489	-0.49146563	0.13072333	1.3734922	-0.84571165	0.74689233	-0.30618748	-0.08062461	-1.574516	-0.18212056	0.27476254	0.9635432	-1.4899733	0.08798172	-1.2692102	0.26045552	-0.61240894	1.3055432	-0.9417261	-1.4642403	-0.8360486	0.18680465	-0.62860453	0.32516706	-0.077344984	1.1245811	0.34902552	0.623942
paul	0.031436	0.20112653	0.05432684	1.0903238	-1.4008528	-0.045517337	-0.19894826	-0.33973554	0.45527864	0.7798438	0.5023488	0.11896856	-0.2627918	-0.78768885	0.82667136	-0.53861725	0.2784475	0.84118307	1.1770879	0.34617633	-0.24564534	-0.38971263	-0.5340723	-0.014402628	-0.07148147	0.49661216	-0.5329701	-0.1978396	-0.027995288	0.41045243	0.055507235	-0.26492488	-0.026958767	-0.52544844	0.14063272	0.6423076	-1.0641513	0.8364891	-0.77702326	0.6585588	-0.5691097	-0.030630127	-1.1664274	2.0993366	-0.92685723	0.36216643	0.5350225	0.47959593	0.6511559	-0.07365684
roll	1.0668651	-0.25935417	0.35849142	0.8633381	-0.14452495	-0.5954353	0.4762473	-1.331629	0.12397455	-0.3376912	0.009457916	0.47650093	-1.34195	-0.03238789	1.047339	-0.11020002	0.5998403	0.80703866	0.6447545	0.66053355	0.068238765	-0.12313391	-1.0449941	-0.6585524	-0.745815	0.56722283	-0.07652733	0.07848589	0.28503543	0.38198897	0.19284776	0.23792729	0.5814544	-0.40524995	0.1950649	0.807979	0.16352844	0.39609456	-0.13257957	0.23684177	-1.5493612	0.2058976	-0.5189985	1.0481234	-0.4391719	-0.27396125	-0.26966342	0.9492984	-0.63548166	0.6169935
speech	-0.4550302	0.5995437	0.66399217	-0.15475616	-0.43469915	-0.024946595	-1.2213552	-0.54131156	-1.0389998	0.6787668	-0.5092151	0.061024923	-0.137039	-0.5357499	0.5640345	0.29542136	0.747803	0.29780465	0.99013805	-0.21595195	0.92599094	-1.2063982	-1.5792351	-0.6640436	0.40877682	0.9763204	0.09187696	-1.2971184	0.87959826	-0.29320452	-0.19201553	0.94350666	-0.12910871	0.6378647	-0.42266095	0.06575562	-1.3072791	1.1805737	0.8692105	0.19252908	-1.722778	0.12950249	0.22652227	0.8409294	-0.42356265	-0.15226758	-1.0226083	0.2459387	0.48489243	0.4757736
result	0.6114225	0.54628456	0.3315882	0.4795647	-0.33688903	0.5006263	-0.24660313	-0.029319791	-1.0230355	-0.36304423	-0.53058136	-0.060477175	0.7633415	0.017379593	1.1320933	-0.087551355	1.3824118	0.67815036	1.156065	0.34938717	-0.21528754	-1.1260641	-1.0812727	-0.29481268	-0.34824473	0.3538247	-0.46365488	0.5300881	0.51377505	0.14840111	-0.29975718	0.7676786	-0.08976668	0.8324855	-0.85600054	-0.7321425	-1.221677	0.76516366	0.09702234	0.25629488	0.037082244	-0.48529902	0.20958287	0.5131508	-1.2817664	0.6957705	-0.53867054	-0.46355072	0.6047652	-0.3051964
rhetor	0.34885946	1.4120691	0.7462563	-0.47596937	-0.6819425	1.4438202	-0.82472396	-0.6456909	-0.63614583	0.5828271	-0.6922337	0.46284637	-1.1318581	-0.058383357	0.8148768	-0.34618312	0.57788664	0.7412632	0.43717903	-0.32472268	0.67582446	-1.6301584	-0.45427668	-0.36066926	0.6060491	0.90678084	-0.55535895	-0.42314702	0.2731424	0.6539526	-0.26069447	-0.15485618	0.7811262	1.2570521	-0.90998757	-1.038781	-1.3877044	1.0950253	0.638235	0.2619251	-0.4918918	-1.2036664	0.82623607	0.5614375	-0.9882494	0.5290296	-0.39605802	-0.13698356	0.23617037	-0.62037086
