	0	1	2	3	4	5	6	7	8	9	10	11	12	13	14	15	16	17	18	19	20	21	22	23	24	25	26	27	28	29	30	31	32	33	34	35	36	37	38	39	40	41	42	43	44	45	46	47	48	49
love	-1.3579457	-1.2561533	0.21559551	-0.7213358	0.97573805	-0.22568811	0.755883	-0.9668913	0.25631934	1.0233967	0.40246964	0.07784405	0.9523211	1.0973535	0.56324506	0.94309545	-0.5289761	0.7484616	-0.54068434	-0.73041844	0.45779884	0.21607314	-0.5828965	1.3804492	-0.62903666	-0.048652485	-1.183939	-0.85093975	0.47482055	0.9088863	-0.3410018	-0.7978407	0.6383478	0.6790568	-0.30916315	0.37906373	0.58414924	0.7473844	-0.49550277	-0.6409639	-0.24425903	-0.104234494	1.1207156	-0.75977814	-0.03310384	-0.7323328	-1.1139121	-0.37511277	0.92762774	-1.2052405
someth	-0.83702433	-0.59122825	0.83472085	-0.7752527	0.87147015	0.021786897	-0.44888577	-0.484321	0.8661926	0.4412486	0.59776	0.4845286	0.81640077	1.534143	0.7496556	0.6281742	-0.8256333	1.0369358	-0.8619668	-0.74813277	0.4046641	-0.0024399436	-0.7206876	0.13107342	-0.050802957	-0.123971775	-1.0302955	-1.077671	0.9538635	0.3445073	0.171182	-0.7715883	0.437534	1.1353712	0.013327543	0.6642212	1.0026586	0.5705496	-0.89074606	-0.08992113	0.028998747	-0.25585765	0.38864034	-0.8827772	0.37745106	-0.97282004	-0.5702808	-0.8458499	0.1674443	-1.1250579
activ	-1.8049549	-1.5369583	0.021390151	-1.2703273	0.8236686	-0.17233858	-0.50836325	-1.1486397	1.3318388	0.23505016	0.07291	0.2914746	0.7277527	-0.40301043	0.43654123	1.0326121	-0.43945962	0.0558867	0.9368876	-1.5726933	-0.37933362	-0.56657016	-0.5848911	-0.77288055	-0.37920064	-0.7951919	-0.7341477	-0.623023	0.9386902	-1.1616055	-0.011444754	-1.8696564	0.12338403	0.79897827	-1.0907419	0.67350245	1.0706639	0.28511345	-0.31438193	0.009782523	1.1801844	-0.018080011	0.7286409	-1.7035773	-1.3243127	0.12863463	-0.8282732	-0.62840444	-0.72408354	-1.1367911
taken	-0.51787764	-0.9566879	0.97740066	-0.29923797	0.2475813	-0.22017485	0.7753702	-0.055216316	0.28010482	0.6592189	1.1355689	0.72917086	0.9284099	-0.32407796	0.7046803	1.3187727	-0.76307803	0.9040021	-1.0043874	-0.2808806	-0.57615757	0.39171538	-0.70144075	0.21128489	0.20228583	-0.7052268	-0.645228	-1.2279556	0.7008183	-0.6082107	0.1559695	-1.3027306	0.18839276	1.1655804	-0.4688968	0.5812626	0.97184443	0.6853899	-0.2689957	-0.06855013	0.9943104	0.5961841	-0.2766372	-0.6939434	-1.0177824	-1.405824	-0.10272728	-0.7799795	0.08586041	-0.558301
we	-1.0873585	-0.89434135	0.970634	-1.125613	1.219502	-0.2860275	-0.14816582	-1.178313	1.3424965	0.9470665	0.51911914	0.8890991	1.02513	0.83540976	1.4199919	0.97720635	-0.8985645	1.4024017	-0.8947937	-1.0893735	-0.0049662096	-0.48802614	-1.361382	0.66259736	-0.4551024	0.35687134	-1.0980397	-0.8006029	0.61229926	0.588215	-0.11493397	-1.2285793	0.053623915	0.9583993	0.31639162	1.3356285	1.3977492	0.7017966	-1.0146077	-0.20854771	0.15510403	-0.1821677	1.1135552	-1.0633502	0.25128102	-0.88063174	-0.7100606	-1.2996297	0.9893266	-1.3914979
few	-0.63520074	-0.31004956	0.75795126	-0.572598	-0.5787094	0.46510628	-0.1980261	-0.70340216	0.8458044	1.2777288	0.28683254	0.82101214	0.58812726	0.7528809	0.17831746	0.19728296	-0.9607977	0.0138791	-0.613138	-0.2934929	0.12703484	-0.31875575	-0.24043271	0.4567784	-0.4812569	0.081359595	-0.43965542	-0.3667662	1.0112599	-0.20407009	-0.45763174	-0.85327756	0.4974443	0.7087506	-0.2014016	0.7462317	0.8594836	0.66068923	-1.1751864	-0.05549355	0.316987	-0.33374763	-0.115445375	-0.54543966	-0.01835352	-0.87249327	-0.9472124	-0.63442975	0.324915	-0.72975403
kill	-1.3419356	-1.34179	0.9660078	-1.404901	0.41773808	-0.38908058	0.96298605	-0.64260674	0.8027483	1.0866177	0.09432009	1.2366052	1.206719	0.6862354	0.75271356	0.77980536	-1.4858398	1.1957076	-1.2807933	-1.1123885	-0.42938316	0.35279325	-1.2458558	1.4762747	-0.95910627	-0.6972929	-0.72499746	-1.345439	0.76796734	0.3730017	-0.36276302	-0.23687714	0.5868214	0.68726844	0.48596936	1.1016958	0.87231064	0.15128598	-0.95941323	-0.57301253	1.5232532	-0.32191056	0.23862694	-0.89947283	-0.93728495	-1.1962693	-1.0149083	-0.98650455	0.360258	-0.74744177
human	-0.24704775	-1.1139398	0.4626978	-0.5155729	1.1726623	-0.9443288	0.6424119	-0.46930176	0.65092176	0.81887555	-0.16300741	0.075609185	0.25185293	1.471875	0.83514965	0.71715117	-1.0898228	0.760515	-0.89159024	-0.48643228	-0.14964676	-0.13991156	-0.74344665	0.5058336	-1.1035318	0.06421215	-1.1426592	-0.83803016	0.38449517	1.1387911	-0.39075983	-1.0934381	-0.16025198	0.23555769	0.27671862	0.7772379	0.52224034	0.6233306	-0.902228	-0.103811085	-0.54359436	0.25318447	0.2706855	-0.69112575	-0.08103838	-0.40967685	-1.3491285	-0.59844506	-0.035875574	0.23268312
anoth	-1.0056565	-0.5916507	1.024242	-0.87465394	0.8291236	-0.35367918	0.37176	-0.85308796	0.9692312	0.7316324	0.18258369	0.39774582	1.2298557	0.6579659	0.6055037	1.349098	-0.82434916	0.8243391	-1.031158	-1.2364457	0.15174368	-0.018839475	-0.6462419	0.07960045	-0.3532194	-0.5171545	-0.7209213	-1.1468425	0.8021682	0.28433186	-0.01963538	-0.50508153	0.75061977	0.79747367	-0.06115582	0.8586714	0.710554	0.40991762	-0.7222418	-0.73129344	0.69259	-0.1496107	0.7097945	-1.5177374	-0.30768108	-0.9529708	-0.3808926	-1.0230348	0.12999693	-1.2351743
releas	-1.1020757	-0.7018211	1.3448827	0.30724436	0.32998934	-0.30328375	0.9306458	-0.22002867	-0.030838907	-0.14917776	1.5110152	0.45278454	1.3958406	0.10048325	-0.048300065	-0.44676623	-0.35311025	1.014544	-0.097251296	0.4727047	0.5374688	-0.48590577	-1.0447142	0.6902372	-0.742615	0.5107129	-2.1719937	-0.6268281	1.1292716	-0.28733185	0.34647602	-0.08796504	-0.67438143	1.6678509	-0.13413371	0.7122774	1.2878771	0.79030144	-1.2727873	0.09688911	1.2259498	1.0911089	-0.3990522	-0.54778445	-1.1528944	-0.59037125	-0.4087451	-1.4607339	-1.2424564	0.5662546
her	0.00900526	-0.6631533	-0.3326873	-1.267262	0.29314432	0.86033595	0.33970502	-1.3968747	0.6744456	0.57747436	0.6069568	-0.8589958	0.8939003	1.4207044	0.85751164	1.1629095	-1.342567	0.47049996	-1.0223802	-0.5010736	0.652192	0.3470958	-0.043313876	0.8820729	-0.80128217	0.43706977	-0.47884405	-0.24524644	1.0710621	0.050903488	-1.0546777	-0.56187546	0.5392595	1.4999195	-0.74957514	1.3164868	0.029337548	0.90305746	-0.49838215	-0.78186387	0.7228881	0.12798138	-0.47975823	-0.81697416	-0.06683833	-1.7099121	-0.75545377	-1.3436618	0.3379466	-0.5944336
put	-0.117869705	-0.42237544	0.28888404	-0.98868096	0.75903445	0.45908594	-0.21040586	-0.6493199	0.8062731	0.8038521	0.42987162	0.2588995	0.36223274	0.47496486	0.6978337	0.900951	-0.7908282	1.3597	-1.2649789	0.10388884	0.27130002	-0.26563394	-1.1818386	1.1739924	-0.6029105	-0.08953537	-0.667811	-0.78199315	0.43310678	0.105202794	0.1021326	-1.0964158	-0.070545346	1.0579486	0.10266264	0.46288425	0.6596312	0.6750978	-0.9982135	-0.8023208	-0.058108736	0.49431777	0.50918484	-1.4464097	0.072721094	-0.88211775	-0.4332122	-0.8203699	-0.4012636	0.025751285
sad	-0.8905011	-0.8299916	0.8808947	-1.0802709	0.28362375	-0.20792925	0.76774925	-0.37127557	0.2141498	0.97640777	0.24066725	-0.026584301	0.93205625	1.0720491	0.7600094	0.7107583	-1.1300387	0.8316997	-0.9575168	-1.5204811	0.28530598	0.047741555	-0.44465756	0.33255848	-1.1114329	-0.1563817	-0.9096985	-1.0230075	0.68725556	0.070531026	-0.35267213	-0.75370353	0.91830355	0.37601918	-0.6491667	0.29862633	0.981135	0.68992066	-0.7789353	-0.18332727	0.3978786	-0.24981478	0.62566173	-0.8945781	0.35565504	-0.8250452	-1.0652807	-0.94066966	0.26908588	-1.0312454
year	0.13356546	-0.13348663	1.2891644	-0.6206921	0.18271247	-0.4078399	0.5542716	-1.2191286	1.4669685	1.0843893	0.5245706	0.77668506	0.9324051	1.2394311	0.7252842	0.57499725	-1.2122325	0.057219297	-1.0555319	-0.38570452	0.27192533	-0.67300785	-1.248492	0.9342122	-0.4673779	-0.3711819	-0.2968002	-0.80792314	1.1366203	-0.22850245	-0.3977177	-0.34641516	0.40038252	0.2064774	0.0684599	0.7688019	1.7417362	1.0772393	-0.20406592	-1.4902147	1.1822338	-0.021760454	-0.13755701	-0.49247822	-0.84300923	-1.2542701	-0.81383693	-1.5001214	1.012479	-0.7361936
place	-0.98931044	-0.99372613	1.6087792	-1.3015494	0.6679034	0.48640043	0.112354085	-0.5778663	0.41989183	0.47890097	0.28666222	0.4095379	0.57671547	0.4747566	0.68033135	0.9043318	-0.35596144	0.81297415	-0.47364894	-0.6434097	0.2786322	0.11990106	-0.29596213	1.4766128	-0.32045108	-0.47536516	-1.1986434	-1.0795982	1.5651375	-0.87457126	-0.31638688	-1.0917072	0.36509752	0.7883112	-0.3719309	1.277716	1.166883	-0.41859454	-0.08749618	-0.42061105	-0.4210807	-0.6228471	0.47986656	-0.8237965	0.14243221	-0.23923714	-0.3751135	-0.76848245	0.37151358	-0.56792134
of	-1.2683197	-1.2229238	0.9972739	-1.2300179	1.107927	0.013261564	0.36832982	-0.863544	1.3782167	1.1274763	-0.10894052	1.1884098	1.0318651	1.2593756	1.3637395	1.0953118	-1.319022	1.2350459	-0.39352435	-1.0055463	0.14112751	0.15971376	-1.1299353	1.1915774	-1.0300338	-0.27729437	-1.7287731	-1.2607687	1.1649888	0.7117064	-0.36103082	-0.9990178	-0.20194405	1.3833416	0.10512389	1.1510241	1.1408741	0.98237616	-0.82360446	-1.1340729	1.0044804	0.13563263	0.92218107	-1.4162881	-0.8843125	-1.1442552	-1.3842123	-1.1758802	0.27563202	-0.70049393
themselv	-0.33745676	-0.989115	0.592923	-0.9550805	1.0827992	-0.15047505	0.34700733	-0.4271077	1.1074369	0.62468076	-0.24909735	0.0013697147	0.57729673	0.60551155	-0.1257377	1.19081	-0.7725487	0.7771886	-0.43841553	0.17338604	-1.2302884	-0.46621042	-0.89761674	0.72238946	-0.38053155	-0.08868892	-0.9901764	-0.41958863	0.7293288	-0.19776465	-0.30247265	-1.0734112	0.35746288	0.8626955	0.72191024	0.3027898	0.8268256	-0.49837008	0.055509564	-0.2121261	0.014947794	-0.48397326	0.30540347	-0.34598094	0.9526402	-0.59392834	-0.88804805	-0.0142590385	0.085743695	-0.28737682
must	-0.5207436	-0.65794146	0.88549715	-0.99882114	0.9136853	-0.43940002	0.06459005	-0.9909338	0.50532115	1.0271232	0.031730823	0.4714278	0.81179804	0.52603877	1.3763232	0.93792963	-0.65460205	0.7941339	-0.95669305	-0.91858983	0.24254131	-0.00087386	-0.7712235	0.44019985	0.18868168	0.4337965	-1.2287171	-1.0204197	0.5232288	0.11544984	-0.442031	-0.61432004	0.03367144	0.923909	0.15552285	0.73436654	0.9418653	-0.15110885	-0.1417591	-0.25493237	-0.1276804	0.05671774	0.8517046	-1.0463325	-0.10350857	-1.0092516	-0.6229433	-0.5172271	0.16887797	-1.2941862
world	-0.6375825	-0.64307594	0.7131072	-1.2221016	0.44537395	-0.7096547	1.0914121	-0.54663956	0.69548607	0.9948178	0.34413594	0.2676189	1.1676409	0.94281673	0.75481176	0.8693713	-0.62059623	0.6953193	-0.561336	-1.172158	0.78800416	0.21944027	-0.91717327	0.88521385	-1.478599	-0.16075316	-0.65834355	-0.72421515	0.02411914	0.21184725	0.3215512	-0.65451264	0.33132526	0.46425322	-0.13069281	0.64921546	1.0976269	0.38598412	-0.62145907	-0.031887792	-0.13802046	-0.27472606	1.3501425	-1.4438334	-0.04596083	-0.08020416	-0.7426809	-0.7742019	0.03526488	-0.66027737
involv	-1.1017032	-0.6226709	0.078751676	-0.52135503	0.6373985	0.04447338	0.2942674	-1.2051046	0.5987948	0.95916605	0.78928375	0.34901553	0.4395029	0.5246178	0.7582067	0.7119442	-0.5871452	0.06328205	0.15066324	-1.7186381	-0.19218768	-0.06933834	0.13313001	-0.3114603	0.29182887	0.26532322	-1.1777769	-1.67101	0.21168736	-0.04467316	1.1692522	-0.22651282	0.30378008	0.4220538	-0.5492383	0.73063326	0.8420174	-0.06562889	-1.2239192	0.048179753	1.0854568	-0.49915943	0.74705106	-0.74527216	-0.92573714	-1.2388458	-1.1308558	-0.13177563	0.65489936	-0.78861296
affect	-1.3796039	-2.0600176	0.19057941	-0.22566672	0.041698694	-0.18239251	0.7126533	-0.26644638	0.4948627	0.7369524	0.33799803	0.29449683	1.6262316	1.6123621	0.4924515	0.8338279	-0.45546395	0.50772417	-0.1836888	-1.4596295	0.78394186	-0.33339614	0.087686345	1.2060982	0.3310091	0.25528628	-1.0418159	-1.2699391	0.13676482	0.10933632	0.3700205	-0.5169244	0.6035799	0.5158514	-1.6683885	0.3145408	0.29196927	0.7088252	-1.053012	-0.7527678	-1.4373705	-0.4547214	1.2842572	-0.24271247	-0.6932282	-0.14567825	-0.9516095	-0.008055419	1.1140063	-1.7733192
see	-0.6644117	-0.42317504	0.7106366	-1.0449173	0.5124748	-0.038848564	0.14522117	-0.67481893	0.47053456	0.9168921	0.64186496	0.52167016	1.1534141	0.8293459	0.7105918	0.9455496	-0.79967767	0.57943594	-0.43318152	-0.41002917	0.14765456	0.97752595	-1.054045	0.31885615	-1.2101557	0.02428339	-1.1419581	-1.4549963	1.1862475	0.2599234	-0.14429387	-1.2562591	0.16888404	0.86861646	0.39228296	0.5816438	1.0017498	0.6012596	-1.0294617	-0.17390835	0.98966384	0.23974371	0.61267185	-0.7813809	0.1642979	-0.50793016	-0.9032037	-0.55804694	0.15719847	-1.0780399
hous	-0.81921875	-0.54417217	1.0589964	-1.0081258	0.4130157	-0.2615775	0.29805616	-0.5591253	0.83554196	0.876101	1.0955243	1.9656553	1.3619784	0.4966209	1.0259082	1.1148398	-0.7652315	0.79400206	-1.0115823	-1.036735	0.38515422	0.57607913	-0.9432592	0.48490167	-0.51350766	-2.0726085	-0.93989444	-1.422593	1.0869164	1.1351619	-0.56230056	-1.6714654	-0.8410324	1.0829296	1.0702351	1.0193844	0.35497683	1.1811426	-0.7585929	-1.1187192	1.679637	1.2003524	0.038601603	-0.9523883	-0.04671257	-0.4878187	-0.47773182	-0.7437434	0.9580678	0.16403617
ve	-0.50101584	-0.18929261	0.97817314	-0.75756264	0.2466627	0.10503547	-0.53545666	-0.30571562	1.0846813	0.7696548	0.657848	0.3522801	0.6854571	1.464859	0.5609361	0.43722808	-0.9836508	0.8345263	-0.24975586	-0.6130544	0.35256815	0.30689538	-1.2753313	0.78438056	-0.5681666	0.018075574	-1.2056144	-0.9111403	0.79439294	-0.3373304	-0.17968193	-1.3510983	0.23320235	0.30913088	0.05262179	0.26139802	1.2558665	0.22401926	-0.72537166	0.042245064	0.4377061	-0.5091224	0.37494582	-0.6051178	0.10248166	-1.090225	-0.69043297	-0.46057874	0.17104249	-0.87338114
crime	-0.06853428	-0.9374126	0.9425215	0.36877185	0.6716171	-0.38888115	0.036408354	-1.2226467	0.6906866	1.0238695	0.061651938	0.44609204	0.22710122	0.05833317	0.8394086	0.93730456	-1.1658304	0.5555725	-0.36805347	-1.0500324	-0.043563075	0.5864209	-0.5627567	0.47138572	-0.46587622	0.019915167	-1.359497	-1.0156686	0.95609987	0.57629347	-0.033657	-0.37753475	-0.3068365	0.90888834	0.055526778	0.99427867	1.4042044	-1.1330023	-1.0239275	-0.5674169	1.0151286	0.393535	-0.1214616	-0.9319538	-0.5146642	-0.3579002	-0.5582237	-0.06563482	-0.09311432	-0.37317157
or	-0.9229933	-0.93424547	0.9217715	-0.9401956	0.7645066	0.13393486	0.1690931	-0.86096346	0.9411425	0.7870027	0.032788496	0.97773933	0.73546404	0.7143142	1.0168617	0.86395097	-1.0414311	1.051883	-0.72319245	-1.0656598	-0.08925684	-0.29726702	-0.82917356	0.5225195	-0.9454894	-0.16151586	-1.3492986	-1.1084158	0.97633386	0.45165056	0.19676615	-1.0906947	-0.12822536	1.2662585	0.8433013	0.78677505	0.8280524	0.059025608	-1.1957612	-0.4517049	0.7235061	-0.22687921	-0.09864403	-0.5729051	0.20400164	-1.003622	-1.0451356	-0.9822384	-0.06283965	-0.8555893
well	-0.42978293	-0.27443534	0.36854723	-0.62709117	1.0350795	0.2568115	0.050610848	-0.48878306	1.0987725	0.5395344	0.49285483	0.84847534	0.8087649	0.62885916	0.5511552	0.3997128	-0.72383714	0.6606873	-0.40229177	-0.67186344	-0.31096822	-0.06716781	-1.0802172	0.6394316	-0.04694221	-0.21880004	-0.9905744	-1.1375731	1.0035517	0.336564	0.30289543	-0.70024693	0.0706742	0.9023868	0.6354277	0.95598745	0.81362593	0.37146264	-0.7582508	-0.7286662	0.5434009	-0.22101943	0.15645188	-0.9081032	-0.19943792	-1.2984084	-1.1356245	-0.3441893	0.42474496	-0.8448193
white	-0.73357964	-0.4990423	1.1927631	-1.2370394	0.21898499	-0.32836825	0.24623689	-0.86671126	0.49694782	0.8298499	0.48360258	1.6974194	1.4243196	-0.031646334	0.9079757	0.8726143	-0.72929746	0.97595215	-0.70865726	-1.0668021	-0.24128123	0.29106718	-1.3826652	0.49513263	-1.4820747	-0.68717575	-0.8575311	-0.9722053	0.943372	1.5496776	0.323834	-0.85565865	0.3198021	1.4222395	0.7670157	1.5668569	1.1656965	-0.13886109	-0.65523344	-1.5307477	1.6923308	0.19348271	-0.98587686	-0.651296	-0.6200451	-0.33169603	0.21954648	-0.59720767	-0.101748146	-0.94944656
issu	-0.41298297	-0.7858763	1.6591861	-0.77149224	0.73081464	-0.19918144	-0.03719946	-1.1967262	0.6513216	0.8296983	-0.3058533	0.4605214	0.73154795	1.0295529	1.0186063	0.16262728	-1.2428206	1.4536939	-0.3205803	-0.68497217	-0.012429347	-0.013590146	-0.47809413	-0.27600926	-0.48694825	0.46472955	-0.643033	-1.1386998	0.723501	-0.050706178	0.3161538	-0.4340359	-0.97023517	1.0206728	0.9681927	0.75134695	0.73838514	0.30519223	-0.841643	-0.63867706	0.007654637	0.57249314	-0.034612168	-0.82614994	0.12665072	-0.82539725	0.27087933	-0.22619727	-0.05186017	-1.2716081
media	-0.28342253	-0.86038756	1.0753639	-0.7417264	0.9775171	1.4315331	-0.16481873	-0.48730993	1.0579135	0.8306768	-0.26167867	1.1867033	1.5536532	0.8415867	0.9530326	1.4254348	-0.7023714	0.9908041	-0.062121816	-0.6443887	-0.56428057	-0.14842668	-1.2057297	-0.08024462	-1.5735972	0.2846287	-0.8023227	-1.1141813	0.7991667	0.70867306	-0.36344853	-0.51512027	0.26521584	0.8388904	-0.8457464	1.0796933	1.1263449	-0.3431009	-1.0941172	-0.69825476	0.89116466	-0.4361053	-0.60594106	-0.9875988	-0.40738505	-0.36743012	-0.93650085	-0.26307523	-0.28030613	0.014768723
mani	-0.7779096	-0.84450126	1.4691705	-1.0651349	1.1087265	0.037198834	0.27439812	-0.97213894	0.86636794	1.0915848	0.20279044	0.56222105	0.41607177	0.73042226	1.0123944	0.2965259	-0.7996969	0.6087162	-0.8697997	-0.6319423	0.12463453	-0.5779842	-1.0134976	0.33417624	-0.1847059	-1.0763893	-1.1838412	-1.3290746	0.83932054	0.37870252	0.23047104	-0.9927194	0.74017644	1.0621097	0.39193243	0.1472832	1.1541376	0.5910747	-0.12791549	-0.19803497	0.6182033	-0.48315865	0.7962855	-0.7864462	-0.33726984	-1.0783846	-0.8565249	-0.92409265	0.5606605	-0.56074965
long	-0.45083448	-0.46876252	0.9217247	-0.9031175	2.0386207	-0.6585743	-0.23768984	-1.0637045	1.4101506	0.077808954	0.67880666	1.290242	0.78327405	-0.20867051	1.0478137	0.049007162	-1.1161467	0.48785585	-0.052491754	0.2695967	-0.121452846	-0.52997243	-1.5792623	0.792835	-0.23879015	0.4089074	-0.20922905	-0.59601045	0.22500111	0.07030475	-0.25564298	0.012215473	0.025974661	0.41765678	-0.43713823	1.2409849	0.8256315	0.01435139	-1.1409192	-0.11309923	0.43373835	-0.08057642	0.115503155	-0.45396975	0.4357978	-0.6247709	-0.04346198	-1.5986421	1.7131417	-1.4302092
know	-0.6975441	-1.1098759	0.6328211	-0.64645064	1.0698963	0.35823238	0.041463986	-0.63069075	1.3220863	0.4980926	0.66207755	0.55167484	0.86823833	0.9519303	0.7731332	0.5133214	-0.76330215	0.8783821	-0.42451155	-0.9824845	0.08284585	-0.20937519	-0.8863044	0.5862382	-0.6311072	0.009759957	-1.1919868	-1.1114842	0.85342455	0.6823998	0.05027761	-0.9584281	0.26339966	1.1987923	0.2166021	0.5681465	0.9771578	0.30210698	-1.1607099	-0.12471026	1.0666581	-0.36046904	-0.124853596	-0.8281294	0.20306283	-1.0062609	-0.8447586	-0.85242	0.24204913	-0.801558
injur	-1.7400808	-1.55253	0.5027072	-0.32164013	0.30050159	-0.8392755	0.83362234	-0.28137806	0.8392595	0.9980353	-0.46852463	0.17371377	1.045994	0.36892086	0.6017879	0.70218694	-0.98760295	0.873056	-0.53547704	-1.8705547	-0.25403643	-0.537589	-1.2489616	0.7070731	-0.13932352	-1.356246	-0.56575227	-1.3705671	0.5880319	-0.2163744	0.4756099	-0.18736696	0.57559806	0.44640842	-1.6320118	0.9181795	0.6180425	0.1848195	-1.2448142	-0.09689522	0.97666097	-0.2362856	0.57155424	-0.10161306	-1.6539335	-0.38277256	-0.7079767	-0.9370631	0.34231567	-0.10789386
told	-0.41189498	-1.2160887	0.31745645	-1.8363669	0.07111899	1.1150243	-0.57208604	-0.47316116	1.0154235	-0.14632222	0.9679878	0.8944225	1.2806168	0.73516023	0.19298357	1.1177644	-1.3017136	1.3061774	-0.14049348	-0.57931656	-0.09451582	0.2626731	-0.51074755	0.48861364	-0.5661931	-0.5167511	0.055179156	0.08757576	0.34401312	0.11593923	-0.58089614	-0.46772254	0.2331435	1.7070385	-0.11956827	1.2604468	1.0277771	0.32739156	0.09460802	-1.2177446	1.6430634	-0.2323562	-0.27401415	-0.6496265	0.1641973	-0.49874532	-0.6454576	0.044561632	0.033811197	0.48152202
exact	0.10426682	-0.57708085	0.91095257	-0.7247958	0.4453334	0.18451953	-0.21222395	-0.5587156	0.6362857	0.5699391	0.16720028	0.9454832	0.31737584	0.83360106	0.8766182	0.48220485	-0.68795633	0.8709799	-0.34355006	-0.24098569	-0.20969713	-0.18677977	-0.6195905	0.032026	-0.52846104	-0.10295741	-0.9007286	-0.8386204	0.9350797	0.057778835	-0.094158806	-0.60374975	0.38101828	1.3318737	0.3756102	0.50724334	0.8341466	-0.12075407	-0.779332	-0.5685007	0.35848814	-0.43643326	-0.030297637	-0.45648623	0.11126459	-0.4541872	-1.1658083	-0.80227625	-0.18529236	-0.92005193
these	-0.22214404	-0.7441754	0.8112154	-1.2584572	0.9686539	-0.4134677	0.27482367	-0.8202616	0.48350096	0.8593513	-0.044706598	1.0365609	0.748072	1.1208637	0.87806153	1.2737887	-1.0742888	0.73557115	-1.0663967	-0.35092247	-0.2760335	0.28250307	-0.9672305	0.7391468	-0.4505803	0.12576377	-1.1035426	-1.2235632	0.4581048	0.33732992	-0.058476422	-1.3483623	0.5811035	1.1451405	-0.12998867	0.6619559	1.0238456	0.55227065	-1.1307895	-0.680367	0.5891167	-0.29238063	0.7134257	-1.0181272	0.27200502	-0.9783134	-0.8481847	-0.31137007	-0.016544018	-0.7953163
never	-0.59148943	-1.288403	0.27817053	-1.2259424	0.5551077	0.22129905	-0.17566413	-0.8377459	1.3228998	1.093791	0.70635164	0.5917599	0.67956495	0.92273116	0.5055307	1.0917184	-1.1814134	1.0665832	-0.8842879	-0.64946926	0.049458377	0.24362558	-0.76266044	0.42502153	-0.18563104	-0.3427235	-1.3229531	-0.9982697	0.99626195	0.6341804	-0.19549447	-0.73021036	0.47506428	0.67467046	0.29059163	0.67202276	0.8865136	0.47800788	0.012689484	-0.33231986	0.77976215	-0.47754765	0.021238048	-0.6385114	0.8185714	-0.8101368	-0.48969862	-0.7851764	0.068320006	-0.43442658
it	-0.7040942	-1.088949	1.2388974	-1.1571088	1.0714107	0.33618456	0.13304716	-0.9276459	1.0765133	0.88255167	0.27131838	0.9725851	1.2000157	1.1478566	1.0707489	0.90628076	-1.0746062	0.9496169	-1.0332493	-1.2211976	0.21367034	-0.026188195	-1.138384	0.6256328	-1.1469603	-0.1855326	-1.3487463	-1.029227	1.022187	0.38820207	-0.08402187	-1.1341894	0.23538098	1.133565	0.79968894	0.9676759	1.0694673	0.41368413	-1.2825582	-0.8174771	1.0355673	-0.26954293	0.38880205	-1.4245524	0.17080012	-1.0369234	-1.083579	-1.073194	-0.07475821	-1.0514172
said	-0.46338755	-0.82486355	0.6008025	-1.7280927	1.1280506	0.35820895	-0.42600143	-0.78248346	0.98809814	0.7805536	0.7917721	0.89422524	1.1350148	0.65413773	0.91798997	0.42789355	-1.1869116	1.1497576	-0.02008348	-0.49053517	-0.1564245	0.39116967	0.0081732925	0.5294151	-0.42245513	-0.47395676	-0.3324029	-0.96800566	0.90701425	0.77554923	-0.062421948	-0.47860354	0.27836227	1.2301098	0.09771691	0.71052396	0.58424795	0.34917367	-0.79328626	-0.5682813	1.1767306	-0.49428475	-0.5926976	-0.61524284	-0.48829076	-0.88474965	-0.88586503	-0.7561773	-0.22335099	-0.6306566
them	-0.7323444	-0.8187741	0.3145663	-1.310899	1.3385893	-0.0324523	0.5729135	-0.72094697	0.93066406	1.1824777	1.0923257	1.186832	0.9983148	0.9004832	0.9553093	1.0098377	-0.9138428	1.2597679	-0.9709929	-0.07687349	-0.6579647	-0.2023367	-1.1775208	0.6427021	-0.067684546	0.4399759	-0.45217437	-0.81006646	0.961557	0.076352045	0.12187162	-1.0969764	0.1970771	0.92009914	0.28318453	1.3105696	1.2953913	0.05754251	-1.1793056	-0.8891162	0.3096211	0.23767471	0.291287	-1.0250664	0.29806066	-0.49190766	-0.6375599	-0.9985262	0.9992422	-0.65746045
absolut	-0.099259414	-1.7256148	0.62306476	-0.2715286	1.2100751	-0.4824813	-0.084860004	-0.8499836	0.35981622	0.6539098	0.9232192	0.12613675	1.3356235	1.5421336	0.39690918	-0.06286024	-1.0137892	0.6827693	-0.8527489	-1.3146758	0.34337413	-0.073259205	0.28169337	0.21705139	0.4450691	-0.44000775	-0.7788719	-0.46642542	0.12592316	0.4420008	-0.4524467	-0.8360646	0.49866033	0.48982447	-1.0400026	0.7868159	1.1456549	0.22390051	-0.1784418	-0.11669464	-0.04896015	0.25781828	0.3245464	-1.1222415	-0.23224518	-0.3349356	-0.9848111	-0.49552178	-0.24611391	-0.5151528
was	-0.45620862	-0.8103067	0.89006925	-1.3205037	0.5275048	0.1502521	-0.072368175	-1.1281744	1.3754603	0.6972574	0.52053046	0.89127505	1.1271002	1.075601	0.92506516	0.6623471	-1.1030897	1.2149625	-0.58132654	-0.5945682	-0.20862123	0.012796487	-0.70945966	0.9872031	-1.4327676	-0.6210862	-1.2972493	-1.0699629	1.3423624	0.24132785	0.008405351	-0.60513306	0.51083946	1.3497595	0.2529621	1.1335409	0.61968005	0.33272547	-0.7925837	-1.3847346	1.765012	0.0050592124	-0.26099202	-1.1319201	-0.6842655	-1.291864	-1.4401748	-1.0602342	0.6410057	-1.45888
rip	-0.2923295	-0.042673223	-0.52890015	-0.8153614	-0.11136916	-0.41712505	1.4561188	-0.3685442	0.17163223	0.5658228	0.18719542	-0.08757724	1.1437227	0.5174567	0.78428376	0.49356446	-0.6375266	0.3590873	-1.3795152	-0.77080643	-0.7275546	0.26749092	0.049710713	1.4687839	-0.5878782	-0.52302814	-1.1138213	-0.95676255	-0.29519206	-0.12068892	-0.7855255	0.17910236	0.8547079	0.15999933	-0.34975705	0.60162747	0.21566981	0.8581749	-0.6928339	-0.33499283	-0.07925572	-0.1284008	0.18930513	-1.1050239	-0.867808	-1.6674523	-0.61410886	-0.85960793	0.8299496	-0.81332064
offic	-2.0502944	-0.9656481	0.5244043	-1.3975525	0.68482447	-0.42080396	-0.3983286	-0.764022	0.8466878	1.0056506	0.6080521	0.044196565	0.85128057	0.0042008515	0.8005721	0.3928874	-1.276084	1.3148646	-0.57864326	-1.0182831	-1.90927	-0.16601929	-0.62157786	1.2219934	-0.31435722	-0.7913764	-0.89377964	-1.6200011	-0.1885244	-0.61612415	-0.45714933	0.010649839	0.13580947	0.27959406	-0.8952079	0.96138084	1.2861197	0.14988407	-1.004391	0.021023005	0.8025574	0.008468509	0.3410809	-1.0102718	-0.89445734	-1.4588412	-0.93545735	-1.1770991	-0.44645047	0.0072347447
everi	0.24592005	-0.74194944	0.059840016	-0.8530003	0.73390603	0.43609157	-0.25843698	-0.58094835	1.6248546	1.1097078	0.030953098	0.7552568	0.63070583	0.8065549	1.2033893	0.37688467	-1.3309858	0.90048844	-1.105605	-0.7674267	0.42971724	0.086473584	-0.47837955	0.224049	-0.4747705	-0.047398973	-1.5127261	-1.1897573	1.0542021	0.07073015	-0.05337646	-1.1626637	0.57145023	1.0781169	-0.11205777	1.0369585	0.8886092	-0.12375829	-0.7766632	-0.7149619	-0.6963602	-0.26772758	0.8127343	-0.4991783	-0.24380264	-1.0888779	-0.9094806	-1.1463447	0.021766592	-0.121399045
move	-0.6973878	-0.21301311	0.4058931	-0.35792014	0.7070476	0.6754513	-0.34114206	-0.7780906	0.7434372	0.41562325	0.11025955	0.23680753	0.9416419	0.13356444	0.7984933	0.27930638	-0.6621345	0.39601716	-0.4710915	-0.5962277	0.43659145	0.40184343	-0.4957731	0.31050292	-0.607206	0.25589168	-0.34497684	-0.4878677	0.4145583	-0.32763943	-0.54299235	-0.07676726	-0.063176125	1.4969707	0.36991	1.4141278	0.8121291	0.91511756	-0.56442416	-0.37690264	0.3913675	-0.12120804	0.47369194	-1.0925854	0.05035639	-0.81981736	-0.29636383	-0.6376336	0.39808804	-0.27838355
past	-0.25874877	-0.16000155	0.07114074	-1.05255	-0.55398476	-0.74942404	-0.8442572	-1.1436124	1.3962623	0.3323019	0.038704872	1.2675464	0.39123905	0.9655453	0.65652037	0.03612884	-1.011828	0.17443338	-0.58733815	-0.6199255	1.024865	0.34320596	0.34162298	-0.17575407	-0.07704298	-0.0182311	-0.81248975	-0.6068928	0.90661395	-0.54830974	0.15131333	-0.46229738	0.105475485	0.1707687	-0.4946934	0.8219085	1.8263535	0.17961152	-0.50585985	0.021062568	0.5653297	-0.06965116	0.06811379	-1.1907711	-0.14666145	-1.1123738	-1.0070263	-0.23458982	0.90468913	-0.03548514
got	-0.8657605	-1.0715063	0.50464505	-0.8156515	-0.12091944	0.36636287	0.133588	-0.6558831	0.5357696	0.26016316	0.9344688	0.9088867	1.0147076	0.91345364	0.37844938	0.51821554	-1.1450074	0.7863985	-0.7587334	-0.09486726	-0.15791878	0.74476844	-0.57456565	0.7540126	-1.0578324	-0.5749945	0.07742498	-0.8263755	0.7287779	-0.46839285	0.5327095	-1.4597921	0.32232174	0.8914509	0.42158073	0.969874	0.8248382	0.42751044	-0.7760159	-0.4504072	0.82637095	0.40142348	0.12184782	-0.9840786	-0.19156526	-1.1292162	-0.49216557	-0.8025611	0.24303906	-0.7283225
enough	-0.58628273	-0.7640626	0.61262184	-0.87729335	1.912292	-0.734807	-0.29123726	-1.0175978	1.2613914	0.24437875	0.86051536	1.1383913	0.77838224	0.36777958	1.16963	0.60846865	-0.9310467	0.58059466	-0.9612118	-0.80588365	0.049027443	-0.6293273	-0.9801916	0.22487164	0.56706065	0.65542096	-0.050293848	-0.6612123	0.29474312	0.29209906	-0.11687842	-0.7896232	0.34693238	0.684484	-0.14418699	1.0836561	1.1298559	0.44698438	-0.79291105	-0.0697622	-0.47310773	-0.46957603	0.5410728	-0.9652817	0.46864575	-0.6548882	-0.28798667	-1.4290371	0.96700966	-1.1751025
him	-0.3570593	-0.7286025	0.3431858	-0.5855579	0.9488816	0.117660515	0.2152817	-0.31850523	1.2253463	0.96212536	1.4274776	1.117675	1.2047038	0.88969946	1.069238	1.4279847	-1.1732886	1.2157942	-0.5386813	0.23677829	0.0024177143	0.46048564	-0.4307654	0.91240954	-0.9919858	-1.2968287	-0.93823326	-1.2739413	0.73625505	1.3104057	0.17411241	-1.3199861	-0.85549426	0.7685489	0.4613449	1.5426853	0.80428576	1.2583647	-0.44084138	-0.36035	1.3851331	1.2312329	-0.6673571	-0.6580092	0.14868796	-0.7435932	-1.51137	-0.1125754	0.74385536	-0.44841582
get	-0.84848356	-0.7763494	0.74798286	-0.509091	0.6225208	0.13904294	0.25929612	-1.0538476	1.0243118	0.7501643	0.6930975	0.67434764	0.97982514	1.0330971	0.7155856	0.93347335	-0.93190914	1.016381	-1.1663193	-0.37183297	0.020762416	0.23331182	-1.1930189	0.85194474	-0.8119899	-0.2253724	-0.5461434	-0.8030449	0.91840374	0.0018529324	0.29889333	-1.348002	0.2045128	0.90409356	0.63941556	1.1632661	1.0192791	0.42987928	-1.1536007	-0.53111106	0.6750331	0.23967871	0.4875406	-1.0215757	0.2553209	-1.1109384	-0.768047	-0.7649325	-0.28195274	-0.64207584
your	-1.1618373	-0.80089855	0.33857012	-0.7717713	1.3215266	0.66524947	-0.29262266	-1.3089553	0.92745614	0.75041056	0.058211464	1.1443337	0.5978766	1.6010289	1.1059778	0.8574436	-0.76293683	0.78380644	-1.144406	-0.38251853	-0.16225502	-0.039194614	-0.9105095	0.72626656	-0.7186873	-0.51421076	-1.1539614	-0.82175255	1.2927859	0.8248032	-0.25596267	-1.2083114	0.53288245	1.0648155	-0.26985824	0.6888093	0.70736533	0.2290148	-1.0045877	-0.96260834	-0.26450914	0.18430519	0.49918056	-1.2123256	-0.057856947	-1.0068843	-0.9460523	-1.1449174	0.4996384	-0.8570718
local	-0.67757523	-0.23524562	0.890344	-0.6211451	0.61529267	0.24110304	-0.10841611	-0.5551069	1.0213335	1.0606071	0.2538522	-0.5551694	0.9419221	0.52870536	0.68194735	0.24735333	-0.75559306	1.4681263	0.7061275	-1.0514886	0.061280165	-0.7975644	-0.39067778	0.5430676	-0.24169149	-0.41548616	-0.7031315	-0.9033076	0.9724832	-0.45907027	-0.57328904	-1.0156893	-0.34232867	0.10231991	-0.71253765	0.5087185	1.5894071	-0.22270958	-2.0055048	-1.3993297	1.1657083	0.53766453	0.47977644	0.11058755	-0.7666955	-0.18440531	-0.50050026	-0.09909774	0.1839253	-0.138581
that	-0.8955631	-1.1925157	1.1600103	-1.3264422	1.265762	0.2908912	0.075295635	-0.7586825	1.3047341	0.91378987	0.71792924	0.9995514	1.0249043	1.0632224	1.2478292	0.98430634	-1.1852266	1.1017455	-0.8109009	-0.88551694	0.011624968	-0.25970426	-0.95353127	0.92737657	-0.92120576	-0.28303525	-1.0755706	-1.2174604	0.9698779	0.50493604	0.023762148	-1.1293068	0.09579301	1.0902086	0.61287165	1.151384	1.1497929	0.43509585	-1.0425724	-0.7898125	0.99052775	-0.15816823	0.3810717	-1.0819414	0.15856922	-0.8401701	-1.1656718	-1.0850056	0.30861008	-0.90444064
s	-0.9003898	-1.2215533	1.2055455	-1.2151818	0.9365734	0.31073582	0.6253027	-0.86173993	1.3336232	0.98120487	0.31470537	0.86780125	1.1925256	1.1784816	1.1430253	0.6038239	-1.2245541	1.0110087	-0.5909838	-0.9509716	0.2586551	0.2143543	-1.2598339	0.74994445	-0.97624016	-0.38670582	-1.150079	-0.8387338	0.93531644	0.45558274	-0.20541516	-0.92370564	-0.044445425	1.1203014	0.5041809	0.9359842	1.255544	0.5947413	-1.044695	-0.94463885	1.2931408	0.22708187	0.40103492	-1.2236745	-0.3130691	-1.278602	-1.3917527	-1.2306476	0.0852937	-0.66722465
head	-0.69717765	-1.0071445	0.5062964	-0.19029492	0.7105279	-0.16185415	0.22757336	-1.4126468	1.0092986	0.7467619	0.38298064	0.17761758	0.5634616	0.66596144	0.7476988	0.2226815	-0.5701538	0.70495963	0.09088454	0.035894394	-0.049065717	0.37022504	-0.8698864	0.19108942	-0.40855116	-0.34668225	-0.14071274	-0.90575063	0.8147242	0.26721436	0.44226444	-0.30873808	0.2719095	0.548669	-0.31391945	1.1939886	0.21441025	0.5065384	-0.96382093	-0.1435516	0.3594504	-0.0654625	0.45290753	-0.8098203	0.07554313	-1.1308498	-0.46392357	-0.4556255	-0.2342985	-0.41129816
support	-0.49396828	-1.2204428	-0.20906195	-0.6909783	1.458925	-0.31259197	-0.35375214	-0.8599583	0.8406074	0.8786894	-0.37772298	1.2538543	1.7487752	0.6699003	-0.112785056	0.9218645	-0.29092854	0.77772784	0.15795599	0.12436478	0.29036355	-0.43696928	-0.075913675	0.9726949	-0.74800897	0.4380799	-0.82970655	-1.0298389	0.94291896	1.0398968	-0.602342	-0.9454502	0.17269535	0.72529364	-0.102269724	0.98431003	0.9536946	0.036725633	-0.63754547	-0.9565779	0.30728343	0.12164493	0.35750642	-1.0974464	-0.386442	-1.1549562	-0.82991374	-0.5292832	-0.07991037	-1.3116903
turn	-0.30602697	-0.49224645	0.24245416	-0.6585327	0.555545	0.14473124	0.44604206	-0.4318344	1.1181595	1.2421061	0.16548567	0.50444466	1.516787	0.8155249	0.8463691	0.7852573	-0.6800109	0.3910994	-0.340252	-0.51181006	-0.3508545	0.36678135	-0.43755955	0.6095687	-0.69373024	0.1430348	-0.22351554	-0.8600372	0.5545954	0.10663524	-0.15577634	-0.6427039	-0.09677759	0.74331343	0.38588896	1.0651096	0.63346136	-0.032560777	-0.084985286	-0.23646834	0.7298279	0.076557994	0.113487326	-0.83465075	0.2159949	-0.8344257	-0.9064183	-0.3828687	-0.20458715	-0.74149156
area	-1.004707	-0.8455804	1.0075719	0.4224639	-0.5396212	0.023904137	0.41852558	-1.697469	0.71850425	1.5343055	0.91613775	0.42629704	0.6217208	-0.6498278	0.7187569	0.6827456	0.032825835	0.66588366	0.32191914	-1.1953213	-0.41356292	-0.2300117	-0.070601635	0.25727004	-0.5852097	-0.75698715	-0.480924	-0.5272737	1.1310781	-1.1657671	-0.08198777	-1.0610766	-0.4939906	1.3640258	-0.56984204	-0.1308946	1.4068234	0.10127361	-1.4636683	-1.0132182	1.1909354	0.73840904	0.39245957	-0.24614736	-1.3980935	0.39119372	-0.20890468	-0.42387468	0.8074893	-0.54222435
video	0.13968901	-0.107865594	0.6247206	-0.86382174	1.3605506	0.44914162	0.32797974	-0.92822087	0.94716835	0.7653178	0.39039272	0.19623332	1.0122995	1.1706374	1.810575	-0.04666637	-0.43245804	1.1323218	-0.06811787	0.26156515	-0.15324533	1.1411351	-0.9659288	1.0700853	-0.81716394	0.1591865	-1.1874797	-0.8779818	0.5315106	-0.6905972	-0.14409727	-0.7931937	-0.11012319	0.9293043	-0.3893404	0.6547235	0.12916648	0.72217464	-0.7617318	0.5885793	1.4583011	0.10089952	0.92162657	-1.0537777	-0.7072991	0.06306277	-0.24663599	-1.2463317	-1.312582	-0.75902575
his	-0.38280293	-1.0609274	0.8976437	-1.0502893	1.18548	0.22543415	0.54571676	-0.8770608	0.53084683	1.3437907	0.8679445	1.0698216	0.6616566	0.7915776	1.2246675	0.7831501	-0.9231621	1.2211204	-0.60697657	0.28670004	-0.22393048	0.054440506	-0.9548938	1.0240932	-0.8405026	-1.1903315	-0.98611283	-0.65617883	1.2379956	0.6947125	-0.31907344	-1.3561484	-0.2014351	0.8394251	0.08088967	0.8460166	0.39884937	0.9347098	-0.61735713	-1.2986374	1.2929676	0.98422337	-0.79002213	-1.459093	-0.22639906	-1.6147071	-1.2390431	-0.8134911	0.72511876	-0.42593104
word	-0.039491497	-0.688249	1.1573179	-0.7724793	0.88519645	0.42404598	-0.1631088	-1.0553567	-0.545365	0.86221194	0.21605146	1.2521908	1.1464206	0.5806566	0.7156925	1.0105067	-1.40258	1.0491672	-0.7261154	-1.2132077	-0.3210345	0.32874888	-0.7455542	0.67438895	-0.16879189	-0.17026742	-0.85795176	-0.008375233	1.1320666	1.75849	-0.5530001	-0.9501531	0.5437341	0.95890343	-1.4791417	1.246934	0.382474	0.69811106	-0.82624817	-0.3243	0.009475011	-0.5286764	-0.32801747	-1.0190655	0.12990764	-0.52539593	-0.8967711	-0.40443593	-0.015785305	-0.13283834
hate	-0.60121953	-1.3721439	0.74988234	-0.8387767	0.8683237	0.15486512	0.5835527	-0.96089506	0.8455054	1.1984024	0.021627808	1.1413792	0.40241396	0.97386235	1.222743	0.6356992	-0.8288244	0.9650229	-0.16324082	-0.67437285	0.13381004	0.54638183	-0.7767805	0.80957085	-1.2452431	0.5858607	-0.8554189	-0.4094671	0.22282612	1.5514252	-0.17522831	-0.2556183	0.41994253	0.6781131	-0.15677759	0.5842596	0.9514506	-1.2206604	-0.6286713	-0.69771814	0.7769041	0.06104385	0.53152645	-1.1119994	-0.5514596	-0.72101873	-0.68732727	-0.0010218145	-0.29554588	-0.6358017
which	0.06372132	-0.9812354	1.13222	-0.40639603	0.8123479	0.24247488	-0.67830855	-0.8389553	1.0722091	0.9816682	-0.3415411	1.1270792	0.88834786	0.5577657	0.6640258	0.7440327	-1.1534019	0.70447046	-0.6696733	-0.74564934	0.34909415	-0.16617814	-0.6876178	0.16608934	-0.5042151	0.32053745	-1.0600746	-0.9456209	0.468255	0.042408295	0.41205904	-0.8559605	-0.16118298	0.7537283	0.45071378	0.8707808	0.44952053	0.07807888	0.2149829	-0.9317312	0.9531991	-0.18855485	-0.13399866	-0.97235775	-0.53478086	-0.97099686	-1.1605692	-0.6916295	0.42962724	-0.34954637
carri	-0.40601766	-0.31108475	0.19187173	-1.1894513	0.93170834	-0.3569414	-0.32432312	-0.53200996	0.6567416	0.5341555	-0.43527412	0.638815	1.364975	0.18939695	0.04702235	0.6500645	-0.92677665	0.5915287	-0.5408272	-0.930262	-0.20318864	-0.19116396	-1.0718185	1.8279672	0.33312917	-1.6570196	-1.4425958	-0.513819	1.1955605	-0.47429705	0.27466887	-1.3632538	-0.23425092	0.75358844	0.9639858	0.5309619	0.3559892	-0.5283234	-0.47312498	-1.0989857	0.51628727	-0.2236283	-0.10864126	-0.60030365	0.33304024	-0.24996865	-0.5008373	-0.42017108	-0.054442033	-1.1130742
y	-0.9247117	-0.6684016	0.49011433	-0.5464688	0.1643958	-0.23494706	0.45568085	-1.1330308	0.70957446	0.099021584	0.7267389	0.37363687	1.0258347	0.85726035	-0.0627729	-0.50132376	-0.46236196	0.5847897	-0.8469442	-0.19290487	-0.00552598	0.32489932	-0.37862748	1.0798756	-0.9688743	0.21119212	-0.25026715	0.064020775	0.34236264	0.56466067	0.60628164	-0.68868935	1.0873809	0.9334574	0.04821705	0.56682384	1.1785952	0.33004183	-1.3521149	0.10735391	0.8632769	-0.30426705	-0.14110306	-0.15555635	0.024803862	-0.96716803	-0.10009639	-0.8667517	-0.3981571	-0.64486265
gunman	-0.2368662	-0.72617036	1.5492766	-0.6974448	0.55130726	-0.43424052	0.24682999	-1.190239	1.216778	0.4604663	-0.048951514	0.42756417	0.76946026	0.22813028	1.2514787	-0.35187775	-1.4969498	0.5394012	-0.4902679	-0.6101599	0.2701142	0.24153572	-1.7268848	1.4271067	-0.255782	-1.7716398	-0.3935014	-1.6808435	1.2416562	-0.0857558	-0.64264643	0.14742728	-0.1470643	0.8229892	-0.4362396	0.7316031	0.36146724	0.23317832	-1.2702063	-0.25449616	2.151163	0.5497658	-0.10863162	-0.69154966	-1.3384457	0.21658704	-1.3083677	-0.2061077	0.13754216	-1.5356393
disgust	-0.024188008	-1.243048	0.054791577	-0.37527677	1.5126657	-0.6553862	0.7156966	-0.22147357	0.59652483	0.18160759	0.5414719	0.35554332	0.9290247	1.445708	0.2421792	0.52493155	-0.75833887	0.5305201	-0.4548072	-0.8995969	-0.645779	-0.0986332	-0.29317546	0.23371671	-0.57864153	0.21510167	-0.7180272	-0.911602	0.39972177	0.9323289	-0.75298893	-0.92608297	0.38581562	0.13977602	-0.532315	0.23923975	0.88731253	0.06823715	-0.92535985	-0.623806	-0.013504364	0.21793202	-0.25905636	-1.5872984	0.3011027	-0.23022738	-1.1867719	-1.0669904	-1.3724421	-0.50052536
dure	-0.8870644	-0.7672176	0.49463183	-1.6457751	0.38859653	0.07781573	0.45386767	-0.66473925	1.1885517	0.7937547	0.7388471	0.7068387	0.38982785	1.010667	0.9595832	-0.06972562	-0.89448607	0.63751197	0.17916162	-0.65343004	-0.9789346	-0.21923794	-0.43465525	1.2537386	-0.10541299	-0.41916573	-1.1874479	-0.31512985	0.5726006	-0.30897513	-1.274863	-0.55808896	0.15848666	0.505189	-0.88482404	1.3675746	-0.40438664	0.8023639	0.044902064	-0.4604719	1.4001675	0.0059949383	0.20581281	-1.0411067	-0.4642026	-0.8225262	-0.72823125	-0.9733063	-0.3310442	-0.8189323
aw	-0.7690511	-0.76941955	0.46171817	-0.36145946	0.7304319	0.14154258	-0.02991258	0.7754166	1.1003559	0.46249467	0.052590013	-0.3590835	0.6869595	0.97534096	0.5528839	0.29290476	-0.87642056	0.95022845	-0.96868587	-1.3399755	0.29697254	0.24488261	-0.9131814	0.28508955	-0.8475003	-0.23969203	-0.75048506	-0.3659736	-0.118722536	-0.24201107	0.3420675	-0.63383424	0.7128388	0.3516707	-1.151746	0.5896027	0.15724017	0.55667007	-0.9026735	-0.35256228	0.073013075	0.07434073	0.43002778	-0.7051037	-0.40784702	-0.08892834	-1.0764333	-0.9193325	-0.12708464	-0.3772823
show	-0.9819593	-0.7809296	0.33901262	-0.86378807	1.593653	-0.17159876	-0.16855478	-1.6407049	0.621151	0.94875205	-0.26465207	0.35790876	1.1140698	0.9368448	0.67475116	0.6551873	-1.0037614	0.84433293	0.2558208	0.010841832	0.05918504	0.47392	-0.4766479	0.65432954	-0.93070006	-0.50557256	-1.305592	-0.40348703	0.580366	0.15923701	-0.16031837	-0.9734508	-0.2884205	0.41143042	0.37913004	0.7895547	0.32784873	0.96907306	-0.87471926	-0.72461236	0.70066786	0.10889456	0.408269	-1.271388	-0.0699356	-0.14469346	0.01428327	-0.86380833	-0.64659	-0.6617664
author	-0.5067227	-0.8400499	1.211612	-0.9180022	0.9939915	-0.9500713	0.9304526	-0.05946391	0.01377323	1.6841633	1.0934341	-0.3014273	1.0696954	-0.15287748	1.6163154	0.27479285	-0.2613366	1.5600495	-0.10841638	-0.2549521	-0.13898978	-0.33682853	-1.1708772	-0.2547023	0.6909913	-0.72226155	-0.44142002	-0.7163563	0.7006553	-0.7550991	0.15630718	-0.2915368	-0.40011352	0.52179015	-0.29595444	0.6365351	0.8400988	-0.0034888089	-1.325675	-1.5980535	2.0427136	1.3365048	-1.1446059	-0.48201674	-0.76853323	-0.5405104	-0.6324183	-0.23340249	1.08341	-0.18673033
still	-1.2295973	-1.0797964	1.021306	-0.51075584	0.55180234	0.017127998	-0.12324445	-0.48465207	0.8215328	0.8443977	0.6368574	0.8422867	1.3356822	0.11137202	0.77387494	0.6693214	-0.78121275	0.573853	-0.8080212	-0.8580143	-0.26316625	-0.39105237	-0.7260561	0.34677014	-0.76789856	-0.6106529	-0.9299922	-0.7971108	0.81004536	0.22124264	-0.1371676	-1.1416819	0.19087069	0.9850049	0.16615807	0.6984334	0.8310182	0.28851086	-1.1196805	-0.21550405	1.1691973	0.24313052	-0.06785001	-0.917732	-0.10350107	-0.78264177	-1.0123453	-1.14849	-0.025352892	-0.3880646
isn	-0.41207653	-0.7122958	1.0183201	-0.6120113	0.678141	-0.06460848	0.018504642	-0.8442613	0.67293394	0.8028963	-0.1325536	0.49847996	0.71362805	0.5749582	0.73298496	0.23324686	-0.523803	0.8544575	-0.99187493	-1.0909264	0.10308738	-0.19313315	-1.0368593	0.24413303	-0.8652557	0.18766148	-0.6150062	-0.81096363	0.8446443	0.83673215	0.5378951	-0.8059107	0.4182661	1.1621525	0.77778864	0.727879	1.2966301	-0.293086	-0.74820566	-0.05380454	0.77011466	-0.2557428	-0.14978352	-0.8496684	0.0888703	-0.37438726	-0.39375025	-0.61891943	-0.29173025	-0.8388824
law	-1.0913985	-0.8697487	1.2939007	-1.0465655	1.3976353	-0.7915667	-0.6473715	-0.268489	0.99745756	0.9530844	0.07868797	0.78206277	0.6267201	0.55743283	0.86934316	0.7843789	-1.0449634	1.020759	-0.8996909	-0.51713085	-0.07001282	-0.31045276	-0.867463	0.9512764	0.69895387	-0.39344165	-0.20247611	-0.28200063	0.99680245	-0.18649204	0.81836104	-0.8607807	-0.22397913	0.8336465	0.3136618	0.7317846	1.9891762	-0.14214596	-1.3784251	-1.1011283	0.6117095	0.643247	0.4623526	-0.81937456	0.74521625	-0.65307593	-0.44506449	-1.3554738	1.0582013	-1.6590095
a	-0.7926058	-1.354372	1.222914	-1.2139096	1.0198028	0.061950468	0.04233432	-1.0376167	1.4242785	1.0485256	0.1432984	1.110255	1.4069997	1.0180366	1.1677334	1.0714238	-1.3708771	1.2701671	-0.9746019	-0.90555453	0.021860836	0.11089127	-1.1749195	1.1003695	-1.3421965	-0.94722223	-1.235044	-1.1326833	1.2701396	0.43569326	-0.35335165	-1.2294651	0.18930876	1.2893257	0.63825893	1.2390065	0.80473316	0.9677154	-0.8413625	-1.2282907	1.6612446	0.03080684	0.5269951	-1.2380123	-0.6617398	-1.1565095	-1.2283137	-1.1656909	0.1566296	-0.9065976
again	-0.6685631	-0.6694852	0.90411836	-0.971436	0.74945736	-0.28723326	0.03274939	-1.0838001	1.064541	0.8449842	0.3463838	0.5779077	0.96394587	1.1594927	0.56541836	1.405535	-0.54363704	1.0666244	-0.71417534	-0.6918293	0.297833	0.21466717	-0.8221003	0.21771869	-0.13884985	-0.15473093	-0.82447946	-0.59176755	0.7037401	0.34978712	-0.009946254	-0.7108989	0.1449091	0.4807601	-0.22448112	0.7223048	0.8121202	0.31877068	-0.68621093	-0.8860239	0.42994916	0.12360284	0.24884503	-0.9661188	-0.16315661	-0.9944954	-0.45170623	-0.6589849	-0.13869861	-1.2370589
such	-0.2632382	-0.6595388	0.76177895	-0.91102636	0.99934864	-0.26958108	0.4217498	-0.54189724	0.37361342	1.0676169	-0.053921062	-0.015028693	0.9459388	1.4961832	0.47453892	0.9367997	-1.0854275	0.6827891	-0.32503623	-1.219477	0.44914588	0.20156038	-0.33662736	0.5445722	-0.49366388	0.055676363	-1.514323	-1.1263065	0.39616415	0.30960044	0.37988037	-0.98513794	-0.30460185	0.44542795	-0.12566881	0.46066332	0.24730213	0.1235516	-0.5426817	-0.77490634	-0.15256093	0.05049339	0.3413607	-0.5908784	-0.07910855	-0.389154	-1.0518682	-0.27864116	0.71411896	-0.5414733
happen	-0.70456564	-0.49396223	1.127275	-1.0033518	0.47694194	-0.1289173	0.077753656	-0.4300778	1.230988	0.9205214	0.6878836	0.52939844	1.0538511	1.276539	1.0440642	0.54193527	-1.0888577	0.6965553	-0.6556484	-1.1188856	0.17805484	0.2385805	-0.32361013	0.14092028	-0.29046196	-0.17254305	-1.0912044	-0.90597034	1.0817434	-0.31213453	-0.19126867	-0.9422848	0.70257545	0.9933153	0.08367093	0.45439053	1.3473505	0.2647944	-0.7041472	0.045138836	0.4359159	-0.6967099	0.4681821	-1.1391389	0.27018332	-1.1004636	-1.0421576	-1.125656	-0.11325891	-1.0601857
shooter	-0.71767735	-0.9749824	0.99799514	-0.94061357	0.90395176	0.28283253	-0.27883795	-1.1770295	1.4398333	0.71672225	0.247329	0.5828542	0.87455714	0.03453789	1.0468442	0.9855111	-0.9673717	1.290724	-0.24246952	-0.38433412	-0.14054571	-0.28102428	-0.9931135	0.6540112	-1.2768571	-0.9131783	-1.3442996	-0.7684866	1.0537007	0.38784373	0.45028016	-1.2741086	0.26021767	1.2113523	0.34044355	0.971197	0.8072972	0.079307	-0.78650194	-0.77966905	2.4951718	0.37466717	-0.35443932	-1.0191485	-0.8968518	-0.9182359	-1.3656496	-1.2857493	0.18495679	-1.5684763
polic	-1.5783166	-1.185724	0.7839285	-1.232203	0.6407386	-0.33266443	-0.07138491	-0.8305848	0.5495643	0.9594222	0.9701281	0.50882536	1.0572364	-0.004294273	1.0616353	0.49356315	-1.412572	0.9728668	-0.39809868	-1.1930646	-1.4391317	0.16244715	-0.92611754	0.8774693	-0.36919892	-0.9348701	-0.9592277	-1.4929758	0.46723622	-0.49451524	-0.36551225	-0.17359024	-0.18105334	0.96529627	-0.45977926	0.851599	1.0396659	-0.42317876	-1.461185	-0.11688451	2.1622806	0.46327752	-0.006413865	-1.1163821	-1.197283	-1.1211431	-0.44025326	-0.9270278	0.17541654	-0.20969248
murder	-0.3409776	-1.1361583	1.1064482	-0.7293359	0.53224355	-0.21595715	0.56190825	-0.74729747	0.73717785	1.3269136	0.78767484	0.9572613	0.45206004	0.42264462	0.32874244	1.1747311	-1.5608059	0.8575752	-1.5818102	-0.15922682	-0.16955215	0.382172	-1.0787488	1.1129758	-0.4826223	0.25390425	-0.9169156	-1.0997715	1.2086223	0.5378289	0.18190369	-0.28644675	0.24298882	0.5469099	0.48853353	0.8018124	0.9454974	-0.17909627	-0.6364195	-1.2797946	0.5494896	0.35060373	-0.19213185	-1.0938488	-0.8461626	-1.0028386	-0.70250463	-0.98336923	-0.28727645	-0.1016942
lot	-0.95410943	-0.45611155	0.5021281	-0.6015111	0.74338216	0.22474623	-0.47632608	-0.6750382	1.3003352	1.1811526	0.04531136	0.34101883	0.7856608	0.289516	0.5799836	0.22990048	-0.11414938	0.7060409	-0.3385705	0.084334224	0.10461855	-0.024942592	-0.22550747	0.46340096	-0.9953546	-0.16490664	-0.97974014	-1.1714646	0.6791642	-0.119635865	-0.015278426	-0.95802295	0.71646297	0.89604676	0.5200466	0.5884732	0.8668419	0.5222454	-1.1699026	-0.40443385	0.6780902	-0.6281937	-0.023858313	-0.6359046	-0.4846583	-0.65370286	-0.9598198	-0.47047722	0.30259198	-0.44009444
sure	-0.8768743	-0.6231201	0.87560964	-0.7342194	0.74666077	0.44549227	-0.39719132	-0.8464929	1.1590436	0.7035122	0.52308726	0.46681857	0.887346	0.67601657	0.60930663	0.3458799	-0.5287307	0.24227458	-0.45381904	-0.5234383	-0.017579194	0.1839731	-0.89092517	0.76695234	-0.58274424	-0.23240516	-0.56926835	-0.5860996	0.8747084	0.50750417	0.2241737	-1.0280588	0.14524503	1.0460882	0.6526101	0.667634	0.5852982	0.17651922	-0.9925518	-0.22284278	0.35574144	-0.22124763	-0.0064392574	-0.69440156	0.17716834	-0.9010817	-1.1220288	-0.3485977	0.084202066	-0.79282284
f	-0.21442647	-1.0955265	0.9806287	-0.50626516	1.1324797	0.9408131	-0.13138646	-1.0122831	1.176364	-0.636748	-0.47165394	-0.3326954	1.1117043	1.6989372	0.36542746	1.1261178	-0.11473109	0.23422965	-0.8852367	-0.9549352	0.36500227	0.8596162	-0.8094896	0.7857975	0.3201152	0.3817112	1.1492612	-0.28656703	0.6407619	0.62916124	-0.23511426	-0.21257223	0.023819089	1.7242861	-0.1561469	0.8585814	0.6140475	-0.35111392	-0.8010006	-0.51513773	0.13508499	-0.67496026	-1.0221543	-0.31364822	-0.88638675	-0.9376396	-0.63871074	-1.1534517	0.35068274	0.6247154
will	-1.2795908	-0.8439841	0.72676075	-1.0408108	0.74218565	0.07405317	0.28264424	-1.0329291	1.3389642	1.042442	-0.060181677	0.8166879	1.1327324	0.7587786	1.3327994	1.0987293	-1.1210563	1.0405247	-0.843008	-0.86311257	0.350271	-0.30492932	-1.0879506	0.6968138	-0.3696459	0.2265101	-0.95028156	-0.9058261	0.9914816	0.7200128	-0.20387253	-0.7829441	-0.528717	1.0346707	0.58823514	1.0359514	0.99997413	0.85856855	-0.83878005	-0.4150449	0.17949304	0.26594576	0.76578176	-1.0303831	0.03164523	-1.2745322	-0.636814	-0.84841245	-0.05430028	-0.65883446
who	-0.94101673	-1.0172601	0.65541846	-1.0268348	1.2348368	0.028816085	0.27154696	-1.0834371	1.0942421	0.75425464	0.57796216	0.8938331	0.97011733	1.4236367	0.9414281	0.73689276	-0.96893835	1.2127568	-0.90894926	-0.51404274	-0.5672562	-0.013266719	-1.0922518	1.1537728	-0.84236234	-0.4934441	-0.94300425	-1.3180093	1.1978598	0.9420463	-0.45684576	-0.98251426	0.40251172	1.2080833	-0.019072063	0.61816955	0.5901314	0.3882093	-0.5365786	-1.2772195	0.82055664	0.255004	-0.15422976	-0.8864203	-0.76925325	-1.3410875	-1.2250516	-1.0168247	0.82684594	-0.6587869
nra	-0.6248549	-0.8377098	0.7946948	-0.4109133	0.89764786	0.061355684	-0.44516337	-1.0209781	0.30241364	0.3647447	-0.6503676	1.018868	1.127568	1.2511501	0.6355022	0.8647593	-0.8030601	0.78883886	-1.1408722	0.33965015	-0.010885842	-0.21148509	-1.1543336	0.260105	0.9108422	-0.109989	-0.42907047	-1.7201755	0.6208923	0.5158985	-0.53821075	-1.0692427	0.55852103	1.0704497	0.77384233	0.84779656	1.0754125	0.3381249	-0.9570607	-1.6052532	0.3174409	0.28351426	0.74410105	-0.90355337	0.17556514	-0.8457859	-1.3143247	-0.9578149	-0.34652707	-0.72169113
their	-1.1905854	-0.8178977	-0.029885199	-0.9744997	1.036865	0.36993125	0.02884499	-0.74724734	1.1604704	0.99616516	-0.070623316	0.57360375	0.820326	1.3827307	1.2610443	0.96534556	-1.0986804	0.8672856	-0.97591245	-0.57093215	-0.5681822	0.01406279	-0.94624126	0.9794369	-0.583387	0.071083754	-1.6339403	-1.1525962	1.3441106	0.45321357	-0.22172222	-1.1768317	0.545501	0.93999904	-0.4618984	0.8391607	0.76062155	0.01613539	-0.99371785	-1.4740621	-0.3465072	0.3417248	0.7240715	-1.3910892	-0.2052832	-1.1784167	-1.1441658	-1.0246339	0.2909703	-0.63493407
heart	-1.6920984	-1.0779109	0.63653207	-0.6438212	0.71532595	0.011164082	1.3236003	-0.7600548	0.07566446	0.47566733	0.59573305	0.07182162	0.6598283	1.3354194	1.6656489	0.8574488	-1.4210253	0.83726513	-0.84448236	-1.1364437	0.58992684	0.17641668	-0.3564331	0.96185184	-0.26329824	-0.15954466	-1.6365917	-1.159744	0.4611783	-0.42090788	-0.40261352	-0.46695817	1.0701269	0.85784864	-1.3821149	0.9529822	0.76210535	0.4096113	-0.03458774	-0.62923306	-0.9949455	-0.36627966	1.054785	-1.2553484	-0.025421366	-0.5419308	-0.82647705	-0.06859042	0.914187	-0.9190866
an	-0.26465887	-1.2397461	0.37615573	-1.2727786	1.0052334	0.100408055	-0.19533543	-0.98836935	1.1066887	0.9959382	0.010515144	1.1288537	1.1801319	0.8651398	0.980095	0.7004888	-1.0420544	1.0041258	-0.6552064	-1.0696126	-0.12512432	-0.43495822	-0.7193688	0.6888013	-0.56166404	-0.9748517	-1.3047092	-1.2022004	1.3259703	0.6129688	0.19830391	-1.0562468	-0.04065214	1.1029047	0.2292158	1.1425457	0.6238323	0.3869589	-0.4765459	-1.0092778	1.3247066	0.28696012	0.5518029	-1.2116039	-0.4422726	-0.5117255	-0.96475315	-0.97511363	-0.017463138	-0.62985504
evil	0.1345275	-1.4019446	-0.15580523	-0.5953777	0.588055	0.19569743	0.34527674	0.021594737	1.3954728	1.6089284	-0.6809136	0.37427354	1.1124561	1.1207054	1.2990396	1.0436107	-1.015806	0.59306395	-0.874715	-0.46595567	0.053785127	0.63876116	-0.28654942	1.1299078	-0.21954283	0.022468016	-1.4581825	-1.2429552	0.8964319	1.3681595	1.0947561	-0.74553484	0.24383035	1.0198704	-0.8955369	0.9607332	-0.29339546	-1.139345	-0.777385	-0.71820587	-1.3419566	0.32679826	0.4372272	-0.5202655	-0.3236349	-0.09475611	-0.6852484	-0.74975765	0.3790182	-0.28213167
wasn	-0.591152	-0.40369734	1.0625823	-0.8925461	0.10668129	0.06729242	-0.19178548	-0.53241634	0.88765264	0.50513047	0.5371141	0.4527842	0.87771225	0.51297	0.47460732	0.124830276	-0.9544727	0.50937146	0.10084483	-0.6875696	-0.064332366	0.3536879	-0.6940019	0.63959795	-0.6155446	-0.23846714	-0.4221233	-0.51138955	1.0856116	0.62018186	0.37401056	-0.6330379	0.68553615	1.0096599	1.1527301	0.95193094	0.78694475	-0.44731376	-0.46884114	-0.058347613	0.96487606	-1.0447474	-0.74500513	-0.8619032	0.033502284	-0.6857891	-1.1151092	-0.3844991	0.72910583	-1.2043972
tv	-0.5432401	0.3217553	-0.043969072	-1.1988145	0.9356371	0.90833616	-0.15652779	-0.060377933	0.80530775	0.3537435	0.05544357	0.15802804	0.72792387	0.6864662	0.878149	0.06737475	-1.0799155	1.0670539	0.38555253	-0.14844334	-0.36845738	0.6323832	-1.4260852	0.014217481	-0.47815758	0.14017579	0.22481325	-0.8926168	0.79485905	-0.51092464	0.0150842	-1.3997235	0.038935423	0.3037176	-0.602128	0.48220548	1.3320905	0.83096325	-0.4184977	0.42133442	1.0663953	0.24452993	0.5772747	-0.49535912	-0.037906907	-0.3767447	0.21841589	-0.33060682	-0.63457614	-0.43861932
post	-0.7213906	-0.67881584	0.96561843	-1.4309225	1.523013	0.45591462	-0.11192721	0.025817465	0.7171478	0.52326024	-0.04224519	1.0010453	0.5665176	0.64787567	0.8781185	0.39631468	-0.49796015	1.2124133	0.12387895	0.6672267	0.7875905	0.84101295	-1.3063908	0.9949401	-0.80464065	0.7703984	-1.122284	-0.7973705	0.3590214	-0.37728053	-0.30626506	-0.50572836	0.098908305	0.23865068	-0.4766633	-0.14086446	0.8913057	0.5725633	-0.45910978	-0.056897372	1.7007499	-0.070256695	-0.0692502	-1.1455717	-0.97453475	-0.3933295	-0.570397	-0.5252449	-0.22004592	-1.1704051
terrorist	-0.51764655	-0.477327	1.3613007	-0.8219714	-0.27439657	-0.10517576	0.3670135	-1.0645789	0.20358169	0.54953957	0.1401714	0.8264315	1.6318996	-0.062074155	0.99994195	0.5072682	-0.93432415	0.916999	-0.4216666	-0.5847473	-0.08683063	-0.1453234	-1.2260227	0.7717717	-0.8868239	-0.1008942	-1.2963148	-0.9202933	0.8836857	1.5867279	0.37094018	-0.6950695	0.63859916	0.9300162	0.9552573	1.1342448	0.7782812	-0.9395832	-0.7639959	-0.63561976	1.2051964	0.04398331	-0.17386708	-0.57557344	-0.91738456	-0.7131746	-1.1455661	-1.0317624	-0.17410716	-1.3938456
give	-0.86635196	-0.43993747	0.26634845	-1.0416342	1.123467	0.8524236	1.3254516	-1.4410734	0.1351732	1.2756991	1.2991657	0.51087725	0.7190907	1.2563899	0.42545503	0.51402634	-0.2454617	0.36653778	-0.65144086	-0.16061746	-0.19762826	0.5157366	-1.8228886	0.38844395	0.42015916	-0.28109497	-0.7166153	-0.8930824	1.2353714	0.7382629	0.41405952	-1.1814207	-0.031857327	0.49700114	0.56622404	0.85759175	1.3402939	0.52137405	-0.705045	-0.9056016	0.5532125	0.6478832	0.19270447	-0.5540323	-0.2651469	-1.063273	-0.88826126	-0.46674752	0.54329413	0.19010842
#shoot	-0.5487876	-0.5675179	0.2663973	0.20957974	0.746927	0.15387017	0.9701417	-0.57113063	1.0919559	1.3285059	-0.09034745	-0.16122782	0.40604484	-0.0031363461	-0.20962417	1.0881474	-0.84381545	0.75795746	0.027401924	-0.532611	0.039133016	-0.4107179	-1.206206	-0.5689789	-0.47006285	-0.7723937	-0.18116844	-0.8471129	0.5993159	-0.43456748	-0.073955506	0.40936524	0.1847867	0.9433614	-0.72850746	0.13623598	0.8194435	-0.1998529	-1.2650924	0.7574072	-0.2718127	0.034558088	1.0681025	-0.86158156	-1.0317483	-1.187848	0.30903924	-0.8131716	0.05480248	-1.7060343
also	-0.35147732	-1.0008042	0.6226239	-0.6787448	0.7952887	0.25890312	-0.21345729	-0.5698251	0.7253922	0.9688885	0.2065365	0.5552751	0.52802485	0.7530842	0.5562247	0.41754845	-0.7999607	0.92825586	-0.3525829	-0.9842844	-0.1748861	-0.20645158	-0.9157927	0.95984113	-0.55804324	0.10697208	-0.86310774	-1.0968318	0.857707	0.16242218	-0.07600923	-0.97139907	0.100135535	0.9342076	0.34983552	0.9498157	0.9286237	0.2212832	-0.6816543	-0.93153894	0.9967127	-0.2397798	0.17038086	-0.5922383	-0.61046886	-1.1267135	-0.87981594	-0.32460454	0.6965085	-0.7029786
due	-1.5518904	-1.2113425	0.8183773	-0.83763695	0.098274715	-0.015940934	0.26489544	-1.2298907	-0.026304077	1.4625775	-0.12325036	0.13260669	-0.106783405	0.5248423	0.51719356	0.37687546	-0.6526271	-0.014999744	-0.08244346	-0.7235962	0.19832838	-0.6903665	0.10025439	0.7326705	-0.574483	0.040892486	-0.35268816	-0.6183151	0.6808856	-0.16318564	0.77003074	-0.55627394	-0.5516085	1.1182828	-0.121302985	0.53048134	0.47827342	-0.13295275	0.04292502	-0.3429487	0.15414196	0.6629528	0.6514907	-0.5507699	-0.12902972	-1.7732728	0.34184718	-1.3607585	-0.13962223	-0.7737396
inform	-0.8763483	-0.90532744	0.76129407	-0.2901106	1.1834607	1.1626205	-0.19903763	-0.21667	0.323067	0.5111309	0.32352188	0.38582098	0.42192873	-0.37890565	0.73134434	0.66663706	-0.07011732	0.4302483	0.4085607	-0.88406	0.13047588	-1.2818444	-0.6724854	-0.27001357	-0.38273287	0.39314443	-1.9990001	-0.47385097	0.4920305	-0.4384563	0.48313066	-0.49614382	-0.6237355	0.5064549	-0.9185208	0.3100303	1.128386	0.373281	-1.469945	-0.36720306	0.8056271	0.37503937	-0.09395073	-0.40977415	-0.22346687	-0.42611495	-0.70876026	-0.46153545	0.3509359	-0.5801475
what	-0.6705764	-1.0136507	0.99070346	-0.9442593	1.1182098	0.053508677	0.16101837	-0.71031696	0.9545566	0.9777753	0.4850849	0.77570504	0.9718684	1.2588881	1.062067	0.5787983	-1.1043382	1.1764643	-0.72293735	-0.8664597	0.06100674	0.04379302	-0.8617785	0.71554744	-0.8774549	-0.43430722	-1.1716413	-0.9665837	0.8261559	0.55486864	0.039729707	-0.98381686	0.25963604	1.020151	0.49897605	1.0744989	1.0830144	0.3463189	-1.0314122	-0.30510715	0.8348976	-0.22324952	0.44692838	-1.107679	-0.024094386	-0.9266362	-1.1412494	-1.0171951	-0.055646144	-0.8580409
seem	-0.11862089	-0.67341685	0.8503493	-0.5243826	0.58429736	0.47011083	-0.24305226	-0.64677835	0.93313515	1.0504042	0.29403922	0.2842303	0.4494822	0.36841267	0.5252988	0.675834	-0.97730523	0.63711226	-0.29472697	-0.93405867	0.10708475	0.26450643	-0.863056	0.09406616	-0.79089546	0.10168709	-0.84291387	-0.9414053	0.8691213	0.32525867	-0.087766714	-0.819028	0.19955206	0.37954402	0.46848577	0.6645638	0.950797	-0.18121134	-1.3100104	-0.32114714	0.5191257	-0.38135687	0.0785131	-0.58981276	0.03538703	-0.6762788	-0.641675	-0.43024164	0.16064292	-0.7623886
point	-0.7015437	-1.3797634	0.82932365	-1.0374159	0.6662863	0.31349677	-0.5618614	-0.26016834	0.7322849	1.2025777	-0.20237797	0.6583917	0.66197854	0.63739	1.7068181	0.77162176	-0.34301493	0.23873687	-0.63520944	-0.43714556	-0.4329163	-0.6296748	-0.6172574	0.3963892	-1.3255273	0.21118337	-0.93784964	-0.9533778	0.8421277	-0.13332318	0.49354815	-0.75577545	-0.13338004	0.4054922	0.23846143	0.47229663	0.592798	0.38026443	-0.279531	-0.24688074	0.6236611	-0.07326372	0.21672322	-0.8987641	0.5135993	-0.6313724	-1.0506907	-0.37511668	-0.045623824	-0.3389958
stand	-1.2128184	-0.7024614	0.16278179	-1.3866847	1.053411	-0.41997808	-0.39007017	-1.5824549	0.66041005	1.6300533	-0.10880974	-0.16003773	0.72163653	0.3977664	-0.23723903	0.9361981	-0.650543	0.996935	0.039111733	-0.31116933	-0.19879529	0.098263964	-0.7574803	0.51960355	0.25163674	-0.029602986	-0.8959615	-1.1235285	0.13931745	0.59071064	-0.89817894	-0.813499	-0.018917263	1.1914184	-0.23654184	1.0141577	0.5969742	0.1491851	-0.027410187	-0.9168501	-0.69590247	0.026677847	0.68113846	-0.5444362	0.4319319	-0.74921167	-0.25989074	-0.83205426	-0.20208916	-0.3571796
back	-0.045577392	-0.58365357	0.89922154	-0.69417846	0.2614196	0.416344	0.9271593	-0.8616151	0.61155367	1.4955097	1.825967	1.0975031	0.9852987	0.9215497	0.4077013	1.0568831	-0.7838688	0.6121355	-0.76071393	-0.04705829	-0.28856242	0.25150275	-0.7012706	0.5344447	0.056280714	0.35432518	0.23035088	-0.8167565	1.1810884	-0.53771627	0.5437324	-1.0660112	-0.27988416	0.7630994	0.42125258	1.3748565	0.6001078	0.45020878	-0.8929193	-1.2827122	0.9555775	0.6984779	0.39528117	-1.8823153	0.08996926	-1.1516612	-0.7482624	-0.6686346	0.92236227	-0.22118711
safe	-0.9515486	-1.0926957	0.3307841	-0.8608625	0.994962	-0.6705251	-0.040430475	-1.3791554	0.7705628	-0.027530625	1.4509529	0.32268614	1.3904533	-0.5056624	0.9819006	0.94562376	-0.7737539	0.48900712	-0.6385069	-0.97781414	-0.28791004	-0.6614585	-0.6435616	0.5636964	0.10240379	0.18545341	-0.2800296	0.19728982	0.981782	-0.544954	-0.12931237	-1.4977562	0.5453965	1.0513049	-0.6303322	0.88939095	1.175096	0.19138423	-0.83986145	0.050084725	-0.49215776	0.018568844	1.0038235	-0.473768	0.84980464	0.37480062	-0.7445322	-1.909514	1.2748841	-1.6923897
serious	-0.16096403	-1.2123301	1.0120618	-0.7911927	0.821152	-0.05793307	0.19074509	-0.9147296	0.7513213	0.641652	0.11318139	0.36932445	0.35353884	1.1238283	0.40007323	0.33672735	-0.87862015	0.6932274	-0.7334016	-0.5645382	0.22670537	0.19195706	-0.5435788	-0.17189382	-0.48674756	-0.21230082	-0.48762542	-0.69657385	0.6987273	-0.14933123	0.6260886	-1.0547237	-0.029411495	0.93741226	-0.14156607	0.32493258	1.0803576	0.17810291	-0.69774157	0.24942245	0.14446196	0.1955242	0.027088776	-0.9014051	-0.16013113	-0.8968725	-0.2811848	-0.71885	-0.10840541	-0.49369055
alway	-0.105920404	-0.87122107	0.9423539	-0.9559089	0.73889893	0.024543911	0.027699187	-0.7440456	1.6447287	1.0920819	0.380705	-0.23590761	0.6737468	0.8477332	0.43030062	1.0353926	-0.5591804	0.5682262	-0.26578045	-0.8051349	0.4476514	0.47998667	-0.9814719	0.14002922	-0.77076447	-0.29810596	-1.0569179	-0.5016843	0.6298585	0.51285285	0.32996485	-0.71814895	0.08277768	1.0497327	0.2801583	0.3032223	0.55072117	0.35159087	-0.66014194	-0.62672436	-0.057310857	-0.35328346	0.027380187	-0.61138093	0.6595956	-1.4825277	-0.09621061	-0.27894214	0.31785822	-0.90994084
save	-1.3337221	-0.6726266	0.76073617	-0.606238	0.8761432	0.26384827	-0.28912655	-0.7718036	0.60934186	0.6747991	0.21452084	0.53597575	0.3447085	1.2184308	0.50111336	0.27437392	-0.40849143	0.40327668	-1.3093796	-0.3347716	-0.62867045	-0.27170005	-1.362598	1.3360071	-0.048306867	-2.4489956	-1.1480379	-0.38787514	0.11378363	1.0357476	-1.2031918	-1.702366	0.15867773	0.5676514	1.0530016	-0.055008844	-0.14260802	1.1373649	0.2647471	-0.30820674	0.20478308	0.43264678	-0.27567223	-1.2411873	-0.5516857	-1.0380423	-1.0267648	-1.4213369	1.0827129	-0.3907264
both	-0.18885058	-0.73951614	0.6110271	-1.2444594	0.46347797	-0.2303476	-0.117304936	-0.5904349	0.70566213	0.7620677	-0.038637307	0.52688736	0.27639306	0.60990417	0.45403758	0.4524124	-1.0674474	0.46419287	0.040424332	-0.36792487	-0.5909796	-0.30028504	-0.75429773	0.5030602	-0.53155035	0.35373855	-0.7793295	-1.2052786	0.37707895	0.3494927	-0.05072871	-0.62209743	0.02621299	0.7883722	0.4741785	0.89666164	0.719307	-0.45522684	-0.8391268	-0.4728374	0.8012152	-0.17618814	0.09052278	-0.8189578	-0.2743073	-1.1560059	-0.73985934	-0.3941915	0.81590974	-0.6687428
now	-1.2405195	-0.97902167	0.7045163	-1.0672889	0.62136424	0.024380364	0.25017765	-0.88358724	1.2168887	0.8295975	-0.14236328	0.89107215	0.82089365	0.83783334	1.0215693	0.71953464	-0.66042745	0.94198394	-1.0323417	-0.93060803	-0.12594315	-0.16420409	-0.91322345	0.11790073	-0.5654286	-0.36932558	-0.76758325	-0.938428	0.8910931	0.041816123	0.025305085	-0.7464279	0.66938376	0.9102129	-0.0019814707	1.2483437	1.2442211	0.6280513	-0.973663	-0.24900979	1.1744773	-0.18981312	0.5506276	-0.89831924	-0.1108485	-1.3545184	-0.8272586	-1.3657026	-0.16354309	-1.114683
week	-1.2288593	-0.87278664	1.1600492	-1.5669653	-0.08433635	0.31324768	0.41944242	-0.22182582	1.1689825	1.1840456	0.08085434	1.5229337	0.4976775	0.6594868	0.7103299	0.23284322	-1.1974092	0.8051214	-0.27382913	-0.79360175	0.7040646	0.2703624	-0.50293505	0.41590348	-0.95015675	-0.027756426	-0.40238887	-0.92346954	0.86197174	-0.68332225	-0.81381977	-0.028370865	-0.3126862	0.6484078	0.16079581	0.8267002	1.2950969	0.9157348	-0.7328659	-0.8467008	0.08211348	-0.44191894	-0.1630718	-0.6931313	0.04446194	-0.74442095	-1.1919464	-1.0891974	-0.45051056	-0.44020852
wake	-0.52021813	-1.0607854	1.1524084	-1.1220608	1.2155323	-0.10630676	0.2618189	-0.7866132	0.6169331	0.60687363	-0.7749012	0.5108253	1.1055753	0.51410764	0.73799217	0.51135176	0.21580832	0.71184134	-0.31250155	-0.5704861	0.4067053	0.6702651	-0.30125925	0.7820277	0.2539716	0.4593585	-0.9797306	-0.8784007	1.0871199	0.009053946	-0.8414353	-0.19256964	-0.0794242	0.60418695	-0.0153870955	0.5718148	1.4026098	0.117744066	-0.6959821	-0.21994026	0.4428726	-0.2174045	1.5603402	-0.8308838	0.14268327	-0.76318	-0.32159483	-0.5481721	-0.44293714	-0.3162081
me	-0.3963675	-0.81180775	0.48967195	-1.1215026	0.65865886	0.4767045	0.17570758	-1.1566659	0.6989423	1.1210418	1.1528833	0.46687782	0.3590477	0.7570648	0.37794203	0.30497926	-0.41087642	1.328157	-1.0823019	-1.0391862	0.5438826	0.33108377	-1.0635924	0.68153614	-1.2813649	-0.105349064	-0.7813113	-0.7506644	1.1629658	0.2591617	0.08897321	-1.3735155	0.7133636	1.0675538	0.28629172	0.513273	1.124512	0.70389754	-0.8367585	-0.7855582	0.886757	-0.026030425	0.60425466	-0.66393125	0.20765206	-0.9553087	-1.1917278	-0.5955693	0.07731712	-1.0222188
might	-0.9013128	-0.07983762	0.83900183	-0.49874288	0.75178975	0.46820202	-0.5503815	-0.6576201	0.9932807	0.61554253	0.39894503	0.27716947	0.21308148	0.8431928	0.7925017	0.28759217	-1.1018171	0.58577096	-0.6029647	-0.2427985	-0.033923928	0.25336292	-0.9093679	1.0950954	-0.37233812	-0.22312832	-0.95106614	-0.6283989	0.5626842	-0.0024350286	0.22885911	-0.35501093	0.09625754	1.0819023	0.6943965	-0.31665528	0.8722389	0.26384413	-1.1049223	-0.090410516	0.30099094	-0.70748574	-0.5058262	-0.75482714	0.28097335	-0.74604225	-1.3534473	-0.63009715	0.28928578	-0.27342632
god	-1.5300621	-0.27715826	0.492458	-1.4922457	1.067948	-0.1640954	0.59845626	-0.88489723	0.60175514	1.4443959	0.39220375	-0.014788248	0.27262682	1.5777115	0.48256207	0.8890605	-0.43475884	1.0921515	-0.7283168	-0.46598876	0.07897744	0.4030522	-0.21009436	0.90727764	-0.11583509	-0.9391827	-1.1575068	-0.14139836	0.79597235	1.2785096	0.92913413	-0.45093322	0.6543706	0.11971866	-0.1907082	0.59051824	0.7143755	0.60692024	-1.2635562	0.17327577	-0.04260602	-0.18905616	0.35409337	-1.6413864	-0.9043689	-0.37773275	-1.0370314	-0.8844064	0.60878855	-1.1181717
alreadi	-0.700178	-0.6918428	1.4132901	-0.09426712	0.5199164	0.12687424	-0.008868553	0.2863516	1.1889976	1.0926131	0.23610735	0.92885375	0.643766	0.7940937	0.43822968	0.763947	-0.4010626	0.7241487	-0.35039014	-0.466949	0.3871767	-0.38299435	-0.4209206	0.65374935	-0.40729526	-0.09584485	-0.15379715	-0.6942605	0.5267835	0.17122215	0.113173135	-0.9948193	0.08148825	0.82366073	0.67012465	0.5428056	1.2193527	-0.010926504	-0.8744546	-0.28898865	0.82866585	-0.17243537	0.089449175	-1.2116442	0.346595	-0.86545885	-0.6263341	-0.9214549	-0.123023786	-1.1403933
shock	-0.5312327	-0.23424223	2.432713	-0.45799714	0.4123724	0.92587936	0.09554958	-0.5787548	-0.2248578	0.5010538	0.789065	-0.14987178	0.76770407	1.5419718	0.56456995	0.15074082	-1.0040606	1.2062485	0.1428736	-0.545598	0.8189948	0.3403266	-0.33710903	0.8513981	-0.6027385	-0.21707147	-1.5318171	-0.94925857	0.79449534	-0.29745573	-0.451115	-0.6015643	0.9102937	0.24514884	-1.3003854	1.5019166	0.9458803	-0.9897725	0.37500697	-0.6725561	-0.45648986	-0.6338111	-0.0008780658	-0.6802595	0.05173905	-0.57788163	0.25592205	-0.7393196	0.43017793	-0.28428397
found	-0.5935931	-0.52877533	0.088793784	0.11824874	0.5110656	-0.61506516	-0.10540986	0.35339478	0.18724748	1.5516362	0.7091599	0.07297462	0.07993071	0.11976122	1.2356853	0.6390263	-0.6113733	0.63206726	0.7328898	0.016508892	0.30985484	-1.2409594	-0.7243501	1.0409986	-0.3957701	-0.812838	-0.64309263	-0.57281303	1.2793069	-0.5399525	0.5783025	-0.43106443	0.04774347	0.91683364	-0.60137826	1.6583383	0.9885988	0.07769486	-0.7282987	-0.10963954	1.8746896	-0.21501413	-0.72694397	-0.86144775	0.23868638	-0.9465192	-0.9496602	-1.0635577	0.20413756	-0.79260564
believ	-0.50934935	-0.65346026	0.6318426	-0.85642684	1.2920883	-0.3560824	0.110449664	-0.3772237	1.0603907	0.90714264	0.57620174	0.34560102	0.55705833	1.1319981	0.3900783	0.79016125	-0.9740262	0.45677948	-0.26120916	-0.6278607	-0.3988062	-0.268609	-0.47477564	0.5100026	-0.67773753	-0.09020855	-0.80118746	-0.78111124	0.71069086	0.054790996	0.125487	-0.48233876	-0.17006758	1.2136405	-0.13687031	1.1414042	0.75459766	-0.3239856	-1.0203507	-0.03515009	1.0145116	0.2174471	0.11235436	-0.448729	-0.10634887	-0.62790436	-1.0508311	-0.6807373	-0.16789968	-1.019989
peopl	-1.1753831	-1.5098119	1.4667358	-1.1618935	1.0512648	-0.16327016	0.40859914	-0.5753972	1.1516695	1.2290566	0.27860343	1.0851527	1.1729541	1.150394	0.8404912	1.015787	-0.89848256	1.0594132	-1.0721474	-1.0602483	-0.016162004	0.09690374	-1.3538129	0.98263574	-1.0399392	-1.1142354	-0.6056328	-1.0302246	1.1419338	0.40041667	-0.13330108	-1.0107069	0.49621785	1.0388141	-0.0394447	0.9888612	1.0200493	-0.024102155	-1.1653459	-0.5426912	1.0636911	-0.09553084	0.5608425	-0.9461941	-0.8132913	-0.71789956	-0.97697496	-0.89591223	0.16269764	-0.635021
import	-0.048889674	-0.42774487	0.42855734	-0.35451907	1.0115608	0.5510355	-0.038613427	-0.6560337	0.2969896	0.44129914	-0.1989924	0.41376537	0.48145747	0.8759401	0.43576765	0.015595496	-0.7825682	0.8767798	-0.60176986	-0.8101247	0.05541808	-0.51298577	-1.3662091	0.2259122	-0.48804533	0.8218885	-1.0623286	-0.71936035	0.68201745	-0.06349662	-0.59935546	-0.92866355	-0.18965772	0.22826084	0.2371022	0.66137195	1.0746486	0.50765824	-1.0825667	0.13992354	-0.04015755	-0.14323348	0.1579923	-0.5797224	-0.0806163	-0.7765043	-0.7384695	-0.56408703	0.50650936	-0.46833044
may	-0.75189316	-0.43596226	0.7439476	-1.1285973	0.19939017	-0.067883536	0.17340681	-0.56064403	0.82775015	1.456775	0.25022507	0.05556468	0.3226745	0.74103314	0.5558405	0.49728435	-0.99909294	0.57961035	-0.43219525	-0.3043031	-0.13094178	-0.36451733	-0.056308124	1.0447803	-0.271748	-0.13148917	-1.230098	-0.893051	0.8258854	0.36427295	0.8104727	-0.10131086	0.013795003	0.6677518	-0.2450697	0.7440965	1.0751296	0.87285316	-1.4570949	-0.08933244	0.10565587	0.053787887	0.104044616	-1.9946295	-1.137281	-0.92666477	-0.71398604	-0.89505434	0.90186036	-1.0743654
wonder	-1.0264738	-0.2574225	0.7551418	-0.2638709	0.9490652	1.0483546	0.7429495	-0.89689064	0.534727	0.7068071	0.19029549	0.83657765	0.6205957	0.62129533	0.4031025	0.038114086	-1.2776185	0.6838097	-0.10784287	-0.11115083	0.07412931	-0.5915128	-0.5608032	0.42334962	-1.1352658	-0.8286842	-1.1247101	-1.567254	0.8004142	0.6701454	-0.32064956	-1.3597126	0.665529	1.2569504	0.42735466	0.06300926	0.68999815	0.2850682	0.16497344	-0.031767234	0.51040214	-0.2733973	0.05045596	-0.4251131	0.13090977	-0.92963004	-0.87052464	-1.2871792	1.2027336	-0.2513655
heard	-0.8843323	-0.4592039	0.08372116	-0.5172079	0.36330348	0.30699685	-0.63934356	-0.6966839	1.242173	1.6928834	1.2132139	0.75323915	0.22460645	0.90797186	0.42241323	0.10560653	-1.127184	0.91090405	0.33706945	-0.99819374	0.15418348	0.49507213	-0.35495013	0.25453904	-0.59947455	-0.58142555	-0.5260526	-0.94069946	-0.13099892	-0.06966769	-0.2578363	-1.2231996	0.17272735	1.0940539	-0.105950035	0.8536495	-0.0466697	0.8405148	-0.6593449	0.09323782	0.7191287	-0.7305224	-0.3039906	-0.036288075	0.3420207	-0.27137977	-1.2168324	-1.1855459	-0.40666014	-1.2490456
can	-0.99032646	-0.92459714	0.8307024	-0.81671447	1.1161845	-0.058048695	0.13705006	-0.85791266	1.1841972	0.759781	0.42038333	1.1413058	1.011965	0.80205595	1.0379535	0.9350297	-0.8245307	0.86382353	-1.2318882	-0.68601346	0.081658304	-0.3066035	-1.2984366	0.8461517	-0.5985109	0.14763612	-1.0675628	-0.6891502	0.7860596	0.22162181	0.25482085	-1.3016471	0.2767567	1.0863674	0.5347929	1.2737389	1.1005943	0.25591257	-0.95449877	-0.33266708	0.43778476	-0.1601768	0.5467905	-0.8421032	0.531021	-0.5241779	-0.936425	-1.0822582	0.23619792	-1.0441977
down	-0.643347	-0.7801527	0.82543325	-0.976885	0.35981286	0.5628308	-0.03838945	-0.9889202	1.109602	1.1905979	0.18302879	0.7059496	0.74326706	0.21797952	0.7863119	0.99681926	-0.096827835	0.8719418	-0.8587964	-0.5386515	-0.53589404	0.65388733	-0.86420214	0.45325196	-1.036515	-0.94320345	-0.28576666	-1.0495076	0.40505758	-0.132103	-0.43612382	-1.1627462	0.37231916	0.7871574	-0.28917745	1.2404106	0.84224355	0.36331257	-0.8300954	-0.48778194	0.69692	0.26428837	0.58499914	-1.0354786	-0.1861243	-0.90803134	-1.2374933	-0.7229327	-0.37826365	-0.5416077
about	-0.85740393	-1.2078702	0.978464	-0.9046235	0.6345309	0.75315946	-0.22472072	-0.69457674	0.94998586	0.7429646	0.059985742	0.99421597	0.8880832	1.1619086	0.957495	0.70529896	-1.0008873	1.2542956	-1.0062991	-1.199202	0.2034601	0.28731984	-1.1065438	0.2541172	-0.81150293	0.0007413607	-1.115494	-1.0735259	1.0575106	0.8893232	-0.3202464	-1.1403384	0.61896807	0.88389206	0.15177272	0.96365416	1.2573578	0.8560157	-1.1072358	-0.60901487	1.1368005	-0.26200536	0.0292011	-1.0760094	0.43152273	-1.1203835	-0.82645804	-1.1503808	0.15061519	-1.0204477
target	-0.58898413	-0.9025284	0.92422974	-1.4366908	0.7019938	0.12196184	-0.16673192	-0.7215637	1.6191018	0.8249462	-0.20898451	0.26544946	0.32398903	-0.33958876	0.17977396	0.40790164	-0.563426	0.2545938	0.072110966	-1.16587	0.08531019	0.080756985	-1.5907319	0.6738592	-0.42142588	0.33330584	-0.7865907	-1.1919017	0.63939345	0.55156034	-0.29500926	-0.2988053	0.3313547	0.90243196	0.052541405	0.3072158	0.37083572	-1.1687673	-1.0008314	-0.8319434	0.9781189	-0.72530276	-0.33694202	-0.51332545	-0.8244226	-0.2971528	-0.9065212	0.20221385	0.41673416	-0.085797206
event	-0.5982698	-0.9831296	1.0508257	-0.66097236	0.5249758	0.36379445	0.0232919	0.12510358	0.58902	0.64536786	-0.051064517	0.6528566	0.61999166	1.3618469	0.8800291	0.56016374	-0.04257021	0.51174	0.020466536	-0.9691075	-0.15436539	0.19159162	-0.17595725	0.70340204	-0.32940465	0.7534435	-1.3183312	-1.4345797	0.86380816	-0.41617757	-0.13323733	-0.7104721	-0.14073403	0.4086915	-0.3662358	0.052604295	0.61775434	0.76946104	-0.50704837	-0.31553942	0.4998644	-0.26353407	1.1029423	-0.7780634	0.09041695	-0.16213164	-0.6044321	-0.7000134	-0.20568472	-0.9694389
number	-0.24614236	-0.34024918	0.7905228	-0.40722477	0.4315496	-0.5234822	-0.2637499	-1.1800101	-0.17258789	1.4774878	-0.97566044	0.026730493	0.19598311	0.32763478	-0.3732465	0.83785343	-1.18354	0.7865796	-0.22164577	-0.9118602	0.2567759	-0.9219059	-1.4256222	-0.7143485	-0.21097094	-0.11866505	-0.6667072	-1.7784421	0.6417185	-0.7845973	0.7178243	-0.4537672	-0.22723788	0.45580742	-0.35146597	0.19753	1.4943173	0.53711283	-0.65110844	-0.16972065	0.5522392	-0.42168462	0.099182405	-0.4128868	-0.8624914	-0.14415799	-1.2177875	-1.3244061	0.20099828	0.57701874
than	-0.29371208	-0.7887425	1.2532159	-0.6282753	0.22618183	-0.3880669	0.08733581	-1.5943389	0.43296427	1.029238	-0.28764355	0.6371425	0.7732577	1.0753884	0.84052503	0.9090475	-1.3141848	1.2134938	-0.47938576	-0.7527541	-0.24229795	-0.7172443	-1.5263124	0.839739	-0.4382424	-0.1954855	-0.69465196	-0.3143922	0.7843752	0.5117332	-0.56116307	-1.0987723	0.1686872	0.5559104	0.034303583	0.6484946	1.0964878	0.673214	-1.3262157	-0.24161811	0.30487025	-0.7817805	0.24088533	-0.92058724	0.026913218	-0.8261024	-1.3051896	-0.4549482	-0.08500476	-0.44121426
are	-1.0247972	-1.0902824	0.96063787	-1.1858516	1.3879422	-0.18102805	-0.3226939	-0.6861981	1.1585331	0.94975376	0.11750351	1.0167981	1.0928118	1.3108349	1.2513038	1.0673046	-0.9186335	1.1686736	-0.82210106	-0.8790096	-0.59802496	-0.16284463	-1.4329178	0.50611234	-0.9414457	-0.27373022	-1.1467907	-1.0717853	1.0885463	0.65850264	0.03822876	-1.2931693	0.58337545	1.1730411	-0.12978607	0.92623746	1.1486645	0.29193094	-1.337786	-1.0211217	0.41395295	0.004121721	1.123625	-1.1170139	-0.497846	-1.3104295	-1.2181554	-1.2514622	0.5650966	-0.904508
ani	-0.90735364	-0.6477046	1.2415664	-0.8364217	1.1775198	0.8018198	-0.29516035	-0.6650101	0.028477939	0.91134727	0.038622107	0.90180314	0.66715705	0.81543225	0.88234514	0.8768574	-0.96133876	0.8369068	-0.6224989	-0.55460835	0.19035845	-0.45060077	-0.5957186	0.75518364	-0.3325426	-0.036950942	-1.1160922	-1.3062105	1.0755862	0.10448044	-0.012309825	-1.23616	-0.10569241	1.2062142	0.101438254	1.1512659	0.93296313	-0.4268221	-0.57344	-0.180807	0.22058672	-0.19128422	-0.24394596	-0.5919932	0.26559296	-0.69612384	-0.7654307	-0.8195292	-0.019763244	-0.58515924
claim	0.3878637	-1.3681244	0.7240386	-1.2006149	0.5904428	1.0986373	0.4514511	-1.0278385	0.8767297	0.4282512	0.13663161	0.5677695	1.0726091	1.1066189	-0.5297283	0.5808343	-0.4978199	-0.046982862	0.54920477	-0.07331833	0.01523244	-0.6965254	-0.7958798	0.7923932	-0.5911989	-0.20747495	-0.8240459	-0.4010459	0.45953453	0.34099555	0.41885135	-0.5160218	-0.2957787	0.70650494	-0.08269336	0.58842194	0.4404598	-0.6083862	-0.9239712	-0.19743219	1.1533504	0.1225688	-0.10982807	-0.21409903	-0.8005054	-0.31487113	-1.1204852	-1.0892279	-0.8015752	-1.5200272
horribl	-0.68572474	-1.0463309	1.1397188	0.23695216	0.73877287	-0.5974834	0.680407	0.84376425	0.6208248	0.8214793	0.6430783	0.30908322	0.03742593	1.1781657	1.0197241	0.64779615	-1.1917355	0.76693344	-0.08032046	-1.9687154	0.18771128	0.53430885	0.44085687	0.2056511	-0.34773713	0.061783597	-0.905633	-0.7331558	0.4690854	0.2119205	-0.18876252	-1.0179245	0.49261987	1.1766979	-0.6509095	0.951223	0.50079286	0.12314209	-0.38490576	-0.134042	-0.32690042	-0.48755115	0.9464296	-0.53404444	-0.72588927	-0.39893186	-0.59592783	-0.7556336	-0.25957	-0.6936229
right	-0.8381942	-0.8043084	1.0791063	-0.97740996	1.0095398	0.119944	0.10855119	-0.6556477	1.1737568	0.8884906	-0.053978924	0.7395519	0.8990948	0.7823873	0.2507581	0.7730702	-0.46298134	0.5693884	-0.8817719	-0.4607056	-0.3127271	-0.12437521	-0.91728294	0.27558473	-0.72545844	0.21278088	-0.6517594	-0.65082574	0.95959306	0.49151158	-0.14216581	-1.4753597	0.468332	1.0200499	0.67529786	1.0362774	0.7679895	0.07796768	-1.2312604	-0.68008226	0.6646278	0.03306262	0.325182	-1.3909614	-0.31959292	-1.0121267	-1.0201192	-0.8990906	-0.15676077	-0.9227302
thought	-1.8389752	-0.51733345	0.5445974	-0.56073415	0.8523351	0.028552826	-0.30429584	-0.44894755	0.91050625	0.3054506	-0.08058384	1.2124938	1.1740019	1.8167527	1.0704343	1.0679617	-0.662616	0.7828835	-0.91412246	-1.4742974	-0.3122108	0.38086146	-0.65309584	0.10377129	-0.08927519	-0.057702288	-0.8774979	-1.0563672	1.663527	0.6653175	0.32248083	-0.45953172	0.7668443	1.2240512	-1.027071	0.28746265	0.08346624	0.4289801	-1.3658054	-1.1512108	-0.47160906	-0.19467977	0.7147543	-1.123162	-0.27789447	-1.193083	-1.3717976	-0.49256337	0.7824512	-1.1118116
wait	-1.0527233	-0.43725947	1.3171577	-0.3510217	0.582685	0.707683	-0.37374514	-0.9379433	0.83439624	0.6986582	0.7436167	0.9897915	1.2998815	0.06387024	0.35248527	0.5665389	0.11844656	0.7946231	-0.7266904	-0.65159726	-0.21264687	-0.5140218	-0.80367327	0.5858829	-0.35482395	-0.08186822	-1.0752838	-0.3744333	1.2395132	0.79420906	-0.37738833	-0.7456325	0.20804305	1.0158734	0.24191216	0.9364747	0.45992193	-0.06547508	-1.1558475	-0.29183403	0.75753695	-0.007822871	-0.14345314	-0.77607775	0.18611735	-0.98673594	-0.7192961	-0.8971245	-0.59369683	-0.71500343
next	-1.0553777	-0.67121565	0.88009465	-0.3787386	0.24145675	0.78110605	0.092384405	-1.2372652	1.9876451	0.012526733	0.2779344	0.3050018	0.99788517	0.518103	1.0433707	0.83971214	-0.5747362	0.009149689	-0.84235513	-0.68805826	0.84279287	-0.17480263	-0.8134435	0.286385	0.14329983	0.43715778	-0.4999631	-0.21877968	1.0590711	-0.22577001	-0.43004692	-0.838899	0.033344418	1.4414873	0.089461766	0.76161695	0.37178087	0.49361685	-0.8676132	-0.30985326	0.17040123	-0.25734234	-0.2154571	-1.1004021	0.0024544457	-1.0572512	-0.51693493	-1.1307721	-0.22824079	-0.51396286
worri	-0.6983714	-0.7895082	0.28648788	-1.1544595	-0.562086	-0.10263196	0.28557473	-1.1993752	0.40833807	-0.079250276	0.20442905	-0.46710643	0.77419704	0.36369473	1.0961277	0.5005888	0.007944278	0.813118	-0.71416634	-1.2453988	0.4969126	-0.5254303	-0.9595455	0.16455048	-0.5673874	-0.02931327	-0.106967494	-0.19767955	1.0248659	0.43177	0.53909624	-1.1727254	0.7268573	0.7175417	0.5869058	1.1875687	0.515769	0.32415205	-0.38335136	-0.16594785	-0.26015404	-0.79672134	-0.6775136	-0.9440554	0.44343096	-0.47980124	-0.53225887	-0.7770407	-0.25024903	-0.68885434
tweet	-0.649528	-0.8854914	0.61809283	-0.69311535	0.5785452	0.47710615	-0.8336464	-0.48345935	0.8788127	0.6266527	0.39639264	1.4952683	0.5065872	0.7601112	0.6362529	0.43489277	-0.40432268	0.78921807	-0.37101078	-1.0079813	0.58206356	0.31823403	-1.0170631	-0.12873581	-0.7727512	-0.5298549	-0.95284766	-1.0275838	1.0719776	1.5465487	-0.31460792	-0.57462806	0.23301253	0.20272195	-0.6496786	-0.12919258	1.4132406	0.836566	-1.076333	-0.17181203	0.57326716	-0.08130036	-0.66934955	-1.3421052	0.18514112	-0.8397001	-0.88145137	-1.2504303	0.0060137166	-0.95100033
oh	-0.7884271	-0.7074163	0.8331015	-0.94798756	0.6313758	0.29104406	0.22480541	-0.7812947	0.9189886	0.46870494	0.6058671	0.6972863	0.8280474	0.54019314	0.48898953	0.5542275	-0.4673221	0.86116356	-0.7366175	-0.6315069	0.2353498	0.260987	-0.71118045	0.36345994	-0.59400177	-0.7550681	-0.24871549	-0.33140016	1.1200331	0.6400093	0.8726175	-0.9786093	0.86794287	0.63983345	0.08766615	0.8440053	0.580812	0.032229584	-0.88427633	-0.43785238	0.75614756	-0.18294862	0.10924844	-0.35675246	-0.48701906	-0.55303967	-0.8077626	-1.0943743	-0.1805375	-0.9380667
way	-1.125267	-0.7454375	0.6007659	-0.89627135	1.1513867	0.2959495	-0.25722018	-0.25104573	0.88600516	1.276525	-0.016893331	0.36027187	0.8124244	0.91318977	0.951908	1.0079106	-1.2758837	0.7143667	-0.6679609	-0.38233596	-0.08262201	-0.19634518	-0.6667861	0.823471	-0.9216945	-0.3701114	-0.72377336	-0.30846483	0.6758139	0.14130205	0.58004475	-1.1070389	0.026282877	0.8712794	0.31545997	1.1061896	1.2812052	0.36968654	-0.84354323	-0.6108305	0.55703366	0.25364286	0.69438326	-0.68230915	0.6811514	-0.65360254	-0.65995276	-0.25676537	0.1748277	-0.60308003
coverag	-1.1679349	0.0019055177	-0.3453941	-0.21495184	0.41757154	1.8186033	0.08375417	-0.44696113	0.65371466	0.6059835	-0.8886379	-0.24218152	0.93634623	0.5407285	0.50466853	0.5395539	-2.0064244	0.4441339	0.7526381	-1.1722074	0.11663468	0.19596487	-1.308147	-0.33118454	-0.6319299	0.33486947	-0.53891563	-1.1852827	1.2125926	0.09093094	0.29792398	-1.2854698	0.13648543	0.18853748	-0.8272759	0.81619334	1.0448778	0.47137558	-1.0385959	0.19565612	1.3636477	-0.28701797	0.07529516	-0.48006874	0.59039533	-0.5718713	0.4934023	-0.9386062	-0.35066408	0.50795585
check	-0.47885597	-0.075105414	0.5915599	-0.51485145	1.09023	0.607793	-0.6103173	-1.1666598	0.2787506	0.55359983	-0.7013427	1.2353793	0.98186743	0.38735068	1.0640018	0.6764767	-1.0419425	0.8649516	-0.5676842	-0.39445448	0.83368933	-0.19357187	-0.10552414	1.4751213	0.42061043	-0.17316377	-0.76428163	-0.5977254	1.1007776	-0.616927	0.3465315	-1.844183	-0.82071173	0.4905817	0.6499951	0.20186123	0.5798576	-0.007566862	-1.2355504	-0.95215374	0.85005915	0.4281567	0.19796889	0.14364737	0.05114965	-0.35353696	-0.32084203	-0.67662287	-0.14916512	-0.9464363
fox	-1.4949408	0.24620466	0.67152905	-1.4070227	1.6120529	1.8891917	1.0403807	-0.09325262	0.670617	1.0781759	-1.0156305	0.06326297	0.6781095	0.40221602	0.97187626	0.4433507	-1.8530241	0.9015317	0.3436793	-0.34089026	-0.17268664	0.18435779	-0.3392524	0.7343239	-0.8469806	-0.54703975	-0.07209382	-0.29619157	0.9311966	-0.002886638	0.22904485	-0.86504465	-0.09728652	0.6128721	-0.04810991	1.0117806	0.68335575	-0.5361873	-0.9993752	-0.17670305	1.4868243	0.34634724	0.23045303	-0.46601582	0.1703216	-0.08908636	-0.3168707	-0.38743386	-0.9319702	0.23572469
victim	-1.7559359	-0.9695939	0.28504714	-0.6135355	0.7841637	-0.21517241	1.223041	-0.92542076	0.9661184	0.7629775	-0.4334536	1.2250992	0.64172494	1.2034396	1.2777843	0.8537815	-1.2625285	1.4556718	0.22768857	-1.1542187	-0.19653891	0.28178138	-0.73758477	1.5279057	-0.85987914	-0.0925435	-1.3351123	-0.8316938	1.1747046	1.2859176	-0.56321883	-0.82577217	-0.34260836	1.2852492	-0.7684851	0.8998583	0.7319746	1.7899456	-1.1654508	-1.0468882	0.035330653	0.065420225	1.0090208	-0.893464	-0.8136971	-1.222517	-1.2721319	-0.83389056	0.44019404	-0.4849707
let	-0.38641518	-0.552391	0.9206984	-1.0107417	0.5034478	0.44614992	0.52842903	-1.3850427	0.4284011	1.1732609	0.43558553	0.9713522	0.7141937	1.0738745	1.0121257	0.7201501	-0.44148487	0.7559203	-1.3279339	-0.7307787	-0.5622106	0.43181363	-1.3126378	0.45904076	-0.6989274	0.04821556	-0.5062215	-0.83760035	0.96332943	0.6992718	-0.089036554	-1.3821118	0.3262192	0.5111614	0.6450429	0.56094116	1.5621233	0.5217078	-0.5605897	-0.7149186	0.4968429	0.3131358	0.4030189	-0.74049556	0.0609879	-0.8417587	-0.5233213	-0.42978996	0.19365785	-0.9087615
photo	-0.4962378	-0.8415297	-0.36901775	-0.41397765	1.3317363	-0.21168502	0.731889	-0.91948044	-0.4262814	0.78449166	0.44583273	1.2889628	0.6518326	0.39781868	0.6302377	0.51987624	-0.35854232	1.2620076	0.94775057	0.76642877	0.07299692	0.34921628	-1.1657429	0.62698	-0.44216007	0.17246236	-0.6752869	-0.5655031	0.9379362	-0.06866766	-0.7410016	-0.5558756	-0.4593442	0.3960923	-0.8624667	0.47775	0.9208551	1.5332007	-1.063498	0.2628694	1.2226439	-0.022177964	-0.45887434	-0.5062158	-0.7277819	-0.20330855	-1.0483354	-0.9686369	-0.23034804	-0.43445283
ask	-0.86746395	-0.6911521	0.34649682	-0.98027986	0.4808979	0.59916615	-0.16062754	-0.8365563	0.9196494	1.092043	0.38451266	0.47524706	0.65029925	0.7454177	0.81643355	0.39932066	-0.48348835	1.2759131	-0.24070553	-0.6046959	-0.28610563	0.4243674	-0.238146	0.38872442	-0.05877711	0.24461493	-1.3095901	-0.6721923	0.81962675	0.30380705	-0.1133871	-0.6438865	-0.3845446	1.5797995	0.2969374	0.26212406	0.93717897	0.40328842	-1.0837632	-0.22710703	0.25066978	0.01590231	-0.2192158	-0.14702703	0.22200382	-0.98359907	-1.3132969	-0.9640925	-0.18361104	-0.44003543
goe	-1.1303492	-1.4377422	0.050814457	-0.34437472	0.2733602	-0.039046332	1.0831124	-1.1393628	0.9337644	0.47989005	0.277048	0.34699517	1.0062579	0.5470855	1.2884725	1.1919047	-1.2557397	0.16867912	-0.38720384	-1.6485927	0.33631855	-0.13069238	-0.4878381	0.7700367	-0.3128714	0.3982955	-0.6541527	-1.5488436	0.313379	0.27812308	0.6177776	-1.0199091	0.69231325	0.4732952	-0.98884577	0.4411068	-0.11818732	-0.060535897	-0.6001849	-1.2803986	-0.35175544	-0.41054547	0.4308979	-1.3542714	-0.19126908	-0.62464595	-0.5671278	0.57305205	0.6428051	-0.8589976
protect	-0.4079752	-0.7224381	-0.0058124363	-1.392715	1.0442291	-0.33839464	0.13705269	-1.116218	1.4167635	0.5827268	0.17050317	-0.24276608	0.66755533	0.7152554	0.42978862	1.1954893	0.040100407	1.0118797	-1.1780111	-0.42541766	-0.93028957	-0.53988284	-0.7248509	0.9706848	0.4213777	-0.16167802	-1.0489988	-1.1717858	0.61647034	-0.14950398	-0.693683	-0.7266417	-0.023123294	0.57015586	0.563465	0.64681244	1.1292231	-0.6322016	-0.65603614	-0.4746158	-0.620543	-0.012954712	0.13877814	-0.9706764	0.1255988	-0.9138393	-0.67881465	-0.97526896	-0.12508744	-0.68698865
whi	-0.49724406	-0.83727944	0.8883725	-1.0308712	0.7296087	0.116979115	0.28190768	-0.79893637	0.87194806	0.8806859	0.3862758	0.63745826	1.1255474	0.72625196	0.8498136	0.57355225	-0.88100153	1.3381633	-0.56421167	-0.6433108	-0.045721106	-0.044442333	-0.96055466	0.57123065	-0.6337773	-0.19195434	-1.2258825	-1.272239	0.85820305	0.39542645	0.0024566692	-1.1865525	0.17104976	1.0177144	0.8616483	0.81370187	1.1952676	-0.028575694	-0.8960695	-0.49023074	0.76568645	-0.1696826	-0.23731232	-0.93898803	0.06785937	-0.7007485	-0.6275454	-1.172972	-0.2875195	-0.8279896
unit	-0.058511674	-0.21809554	1.2451892	-1.3751853	0.1450027	-0.7312131	0.1261697	-1.2904804	0.58705455	0.90678895	-0.5058819	0.46341494	1.4702191	0.83312637	-0.07145348	0.7229403	-0.042084355	0.26599222	-0.14667699	-1.2354232	0.065720476	-0.23776269	-0.48606393	0.50731623	-0.21201971	0.1680612	-0.76798093	-0.6919	0.39588284	0.30548912	-0.43877137	0.81756	-0.77905595	1.0840764	-0.4344551	0.54186356	1.4308565	0.10334914	-0.5098418	-0.81501526	-0.09212239	-0.036800116	0.53782815	-0.88685054	-0.5392523	0.17154184	-0.5162156	-0.5876271	0.6775092	-0.05814913
hear	-1.2925272	-0.23052768	1.0192816	-0.17296822	0.6861503	0.54709613	-0.02221884	-1.1117952	0.65813506	0.6220436	0.9687867	0.20275545	0.64077973	0.6448381	0.71130896	0.44927797	-0.97751254	1.3239764	-1.0094514	-1.6907148	0.32174358	0.19165331	-0.7172396	0.3226941	-0.22579321	-0.09381801	-0.90778494	-0.45003837	0.7709801	0.2941519	-0.6379632	-0.8800298	0.6328515	0.16324033	-0.5503785	0.79949397	0.019015603	0.36357617	-0.6140721	-0.29575866	0.5646172	0.24219073	0.6949306	-0.81334424	0.120670386	-0.607437	-1.1301333	-0.56675017	-0.36847517	-1.6740649
act	0.17687595	-1.0316038	0.67543006	-1.1729481	0.5680173	0.33624512	0.15841833	-0.68856406	1.1799189	0.911058	-0.23731765	0.6487287	0.7388966	0.6810677	1.4606204	-0.056542307	-1.1400294	0.37062395	-0.70036376	-1.139606	-0.093410425	0.25077504	-0.93849164	0.8133435	0.24490175	-0.8634396	-1.7298138	-1.6741724	0.06613831	2.0752766	0.5341449	-0.13662955	-0.1531131	1.0487788	-0.41152275	1.4376439	1.1692796	-0.18776701	-0.24845786	-0.7800541	-0.18643479	0.9171325	0.9804325	-0.40641168	-0.024693737	-0.500563	-1.3115029	-0.98319227	0.2585858	-1.0936631
hour	0.22320803	-1.3456585	1.1621468	0.0701876	-0.34584922	0.601045	0.47940582	-1.5059292	0.27752262	1.2798188	-0.049985103	1.144916	1.5221641	0.2817015	0.043776553	0.18255319	-1.0586774	0.6258064	-0.16904481	-0.0813718	0.15085141	-0.8705771	-0.27790284	1.1608236	-0.511249	-0.3957163	-0.46810964	-0.5716593	1.027397	0.18984847	-0.49329862	-0.6847706	0.35734233	0.86376435	-1.6440941	0.62382865	0.7472762	1.594304	-1.74259	0.37461004	0.25916892	-0.66685754	-0.20420678	-1.3385466	0.6736907	-0.51242995	-0.28693962	-0.5342889	-0.12696749	-0.51373875
question	0.22998102	-1.0687923	0.73511255	-0.609059	0.68653905	1.1449981	-0.11876888	-0.7292978	0.9338579	1.2980562	0.2858923	0.31824732	0.75892353	0.45220396	0.8694433	0.52911323	-0.23266524	0.7990576	-0.18818803	-0.10358332	-0.11647324	0.21422136	-0.36281103	-0.04984778	-0.38537398	-0.34198767	-1.0178984	-1.0684628	0.64925545	0.049111113	-0.16937608	-0.593949	-0.30071115	1.0557911	0.24664868	0.61083007	1.1568158	-0.07587002	-1.0722315	0.024729699	0.61244106	0.0569762	-0.017297596	-0.17969462	0.7446245	-0.43800196	-1.2944634	-0.9618053	0.065824166	-0.1168677
one	-0.6668352	-0.9496355	1.0165886	-0.98313665	0.97420716	-0.18238032	-0.0034028105	-0.43375272	1.0303581	0.9738841	0.29224846	0.5276409	0.986951	0.69819266	0.92261374	1.0412467	-1.1203581	0.99218553	-0.67811507	-1.0180233	-0.029594261	-0.122724354	-0.7862158	0.83279365	-0.8763007	-0.46022546	-0.95080674	-1.1960218	0.8177169	-0.11910843	-0.090522826	-0.9968518	0.4772045	1.2280545	0.06050692	0.71355474	0.86369735	0.66899824	-0.86705965	-0.6530707	0.8405775	-0.5086491	0.8106729	-0.69446164	-0.6647897	-1.679245	-1.1540025	-0.7507755	0.36153656	-0.8454846
prayer	-2.2124057	-0.49899295	0.07469499	-0.89901817	0.8454373	-0.1480748	-0.085351914	-0.6201906	1.1278756	0.4478277	-0.32507378	0.9492823	1.1879352	1.8323233	1.087204	1.033062	-0.7530371	0.86297345	-1.2906203	-1.5144167	-0.49586734	0.5031455	-0.3611173	0.3459869	0.3483678	-0.09890655	-1.0401874	-0.9018346	1.4898146	0.82814646	0.5425103	-0.4517033	0.99303585	1.0615714	-1.3462261	0.5131986	0.20060831	0.45848897	-1.6506019	-1.2896421	-0.9579065	0.0035771057	1.1299512	-1.2712048	-0.69971836	-0.97712386	-1.1333672	-0.88817644	0.6037131	-1.1092844
tonight	-2.1977897	-1.355583	0.10880552	-0.66597027	0.5439182	-0.048806094	0.19959468	-0.4984523	0.74684143	1.91587	0.3398313	0.19693811	1.4725899	-0.1322169	0.7926694	-0.48937395	-0.42131618	0.77470267	0.39146128	-0.3568312	-0.11311272	0.9000163	-1.0835462	0.8687631	-1.4598706	0.42767525	-0.99618745	-0.2706899	0.41684178	-0.18447419	-0.6826024	-0.14589283	0.18917379	0.04262129	-1.0289087	0.9960275	0.87580216	1.134238	-1.0080793	-0.48755673	-0.56828904	0.105817765	0.63502586	-0.6364802	0.18871191	-1.0237656	-0.32694393	-0.52650857	-0.05922654	-0.017444968
if	-1.0659802	-0.69190526	0.75252134	-1.0581603	0.9872558	0.20030847	0.17666471	-1.1468728	1.1530197	0.7952593	0.75695384	0.67309743	0.76366955	0.95751035	0.96537185	1.1282086	-1.1673124	1.0463951	-0.64664257	-0.81075835	0.19201234	0.024766387	-0.87618625	0.6210058	-0.87677455	-0.23017338	-1.012647	-0.94658625	1.0505385	0.69996583	-0.033503976	-1.0412234	-0.47119525	1.4759188	1.3837798	0.910532	1.1189799	0.34075725	-1.2239989	-0.10143182	0.63718504	-0.038013726	-9.480491e-05	-0.8380335	0.03213943	-0.80718887	-1.6088245	-0.8387791	-0.09997691	-0.6748126
they	-0.9856241	-0.9792648	0.6539939	-1.0674571	0.87820387	0.19088274	-0.06913546	-0.69180775	1.0539644	1.0467899	0.56860334	0.72906727	1.075963	1.2291362	1.0201286	1.0793548	-0.9259794	0.9904771	-0.7401862	-0.27951902	-0.41992936	-0.21846372	-1.1632411	0.9135773	-0.7948074	0.17209496	-0.997939	-1.2425716	0.9058893	0.2261236	0.07370959	-1.2696862	0.35489622	1.1218512	0.67303634	1.0111407	0.98100567	0.009486388	-1.3102863	-0.6132134	1.1263698	-0.18842384	0.21158439	-0.94253254	0.20062307	-0.94294953	-1.001036	-1.1028476	-0.27104193	-0.90721375
dead	-1.4374735	-1.2304873	1.2953839	-0.84922767	1.0285574	-0.78944635	1.4033697	-0.4036048	1.2529699	1.1697804	-0.13378663	0.7607063	1.2149146	0.38817585	0.9686742	1.1048558	-0.983389	1.0399975	-0.62459433	-1.0355351	-0.28104284	-0.18968806	-1.4286565	0.22713184	0.040513	-1.083745	-0.046584226	-0.94209576	0.5956081	-0.40848127	-0.026911719	-0.33860153	0.63711464	0.61960465	-0.9185294	1.0227544	0.9033593	0.18269336	-1.469081	-0.2705812	1.9416566	-0.17614968	0.6283728	-0.49248135	-1.0277421	-0.9788163	-0.9105691	-1.0740782	-0.14445308	-0.43132293
anyon	-0.65742826	-1.0872265	0.69326895	-0.57798314	1.0535767	0.16307744	0.07466199	-0.600549	0.5164763	0.8050715	0.29836947	0.6877073	0.8064678	0.6367785	0.7280334	0.76377356	-0.53967625	1.0866351	-0.63932	-0.7008748	0.07386769	-0.1210994	-0.5712508	0.58358085	-0.6491908	-0.19158655	-1.0517268	-1.3172686	0.640386	0.13162562	0.23647124	-1.2074271	0.049631	1.0655954	0.15051252	0.17117721	0.56809235	-0.27327165	-1.0841541	-0.05433694	0.30532175	-0.15724853	-0.25843823	-0.47595817	0.27179044	-0.60103804	-1.1467886	-0.36082542	-0.30212283	-0.8271208
trump	0.11946155	-1.3301067	1.3996029	-1.3849269	0.7659152	0.27237484	0.26604486	-0.60372937	1.3660649	1.073435	-0.13310531	2.1278298	0.975819	1.190866	0.845888	0.6281611	-0.7225611	1.1725776	0.5404471	-0.70930445	-0.18670592	0.054222833	-0.7097269	0.69705486	-1.1120296	-0.6057925	-0.47194102	-0.83149993	1.5312124	1.7231369	-0.4027788	-0.82466006	-0.82840425	0.8354688	-0.3327961	0.8038092	1.1420949	0.6313477	-0.5668632	-0.9393889	0.31635284	-0.044141423	-0.4178638	-1.5755012	0.7391592	-1.0828373	-0.87922025	-0.79704165	-0.5888424	-0.10837346
sourc	-0.30191538	-0.5584725	1.2506632	-1.3165267	0.84375054	0.33360308	-0.43668047	0.85927516	0.6064224	1.1788765	0.37473854	-0.06871846	0.33891934	-0.6041893	0.97641456	0.93354696	-0.14679801	1.3454057	-0.17158261	-0.24143922	0.65083784	-1.0447161	-1.4179717	0.8556097	-0.9545342	-1.2695115	0.25335854	-0.1223468	0.65933615	-0.36725414	1.2945039	0.32639605	0.33148992	0.16002715	-1.1216266	1.6063333	1.0498221	0.12952486	-1.2957602	-0.9098904	1.7819605	0.17848846	0.17609474	0.32910973	-0.3718327	-0.74920654	-0.92536736	0.14102402	-0.17999399	-0.69929045
and	-1.1315188	-1.1361439	0.79566145	-1.0874981	1.1982363	0.15261526	-0.093701184	-1.0545902	1.2885988	1.1012311	0.18206853	1.2218877	1.1941589	1.3407198	1.2356234	1.1346493	-1.2074419	1.0905187	-1.0078118	-0.8418103	-0.3371084	0.044933528	-1.0572551	1.0591879	-0.87909126	-0.6066402	-1.3526769	-1.4376947	1.2613395	0.5096476	-0.07485103	-1.0824254	0.35265875	1.2563034	-0.20125009	1.1864088	1.0381992	0.69292796	-0.9338378	-1.3502365	0.8877568	0.17882726	0.7932422	-1.4374207	-0.37354013	-1.0790079	-1.1815639	-1.2095971	0.7545687	-0.9462323
first	-1.4114721	-0.41119605	0.78954417	-0.5402627	1.3501741	-0.35752305	-0.68181866	-0.66543484	2.1068048	0.25547403	0.5331698	1.4600154	0.8518945	0.90048814	0.8241823	0.313416	-0.7089541	1.1981621	-0.4353088	-0.12868777	-0.70946634	0.066461034	-1.3639293	0.76289254	-0.40827778	0.31975883	-0.86745465	-0.0864301	1.9220223	0.41351843	0.29868287	0.009377342	-0.011557877	0.64070165	-0.918241	1.3363173	0.5848259	0.7730319	-1.0378399	-0.79377645	-0.43807927	0.22537677	0.5990274	-1.1312705	-0.23139349	-0.41213042	-1.3913207	-1.4268508	0.9721849	-0.4967116
death	-0.7187182	-1.1474767	1.272464	0.03533138	0.7403779	0.051771984	0.4158126	-0.6633712	0.36989278	1.4390565	-0.38652802	0.18671222	0.11298759	0.65905964	0.20045131	1.4661596	-1.4960136	0.47680452	-1.2223177	-0.97101116	-0.10931307	0.1660194	-1.2863182	0.7453221	-0.11632582	-0.11970158	-0.6158904	-0.8549098	1.2506273	0.15502396	0.1455544	-0.07317691	0.1263102	0.5038301	-0.0041932464	1.0215743	1.0317903	0.03258669	-0.1821826	-0.37572455	0.41302407	-0.36861017	-0.01129356	-0.6436149	-0.7464618	-1.343458	-1.4383339	-1.1450584	-0.18538958	0.2383553
best	-1.0721533	-1.5476944	0.1414732	-0.4458935	0.83600056	0.117054194	-0.29684824	-0.3488798	1.3597772	1.2383922	0.18591045	0.12902004	0.889351	1.3252606	0.29077277	0.54872936	-1.4956927	0.4706512	0.072663024	0.02422978	0.5881772	-0.104528576	-0.4446897	0.9246978	-0.7757257	-0.5715513	-0.8391816	-0.49142617	0.42460573	-0.087887265	-0.21175821	-0.8480978	-0.012583405	0.37161803	0.12964459	0.3884715	0.4908473	0.22394304	-0.5937784	-0.121677496	-0.325871	-0.26820993	0.6233497	0.008627709	0.76644546	-0.3187009	-1.1179453	-0.6517296	0.42452812	-0.31716245
out	-1.3294365	-0.80525625	0.28678268	-0.6265922	0.6648563	0.19177108	0.45936674	-0.8337312	1.5215056	1.026953	0.66502225	0.76077276	1.0799544	1.0392176	1.5346882	1.3801093	-1.0857384	0.86831075	-0.48709813	-0.9653632	0.43926096	-0.09023336	-0.6419139	0.9263706	-0.4975016	-0.39132982	-0.9575017	-1.3177943	0.3505739	0.88393164	0.22557677	-1.3037868	0.025356323	0.9346467	0.054806456	1.1592724	0.5372168	0.8445658	-0.90252244	-0.68254435	0.6536119	0.15304604	0.8198909	-0.9904516	-0.20733105	-0.6254313	-1.3903682	-0.6521904	-0.03076533	-0.8714812
here	-0.5560819	-0.426756	1.208241	-0.8480525	0.4849168	-0.03831179	-0.13693842	-0.84621423	1.0913087	0.7456603	0.5052829	0.563475	1.0285823	0.9122857	0.59451824	0.7283976	-0.27441168	0.9264914	-0.09149907	-0.5511408	0.60669744	0.15748411	-1.0012851	0.48244634	-0.83826756	-0.076473415	-1.2686841	-0.58993983	0.83282685	0.15173778	-0.40285254	-0.97392666	0.27188975	0.6805047	0.09041344	0.88289076	1.0342038	0.5535262	-1.1210274	-0.6452645	0.86348003	-0.2998432	0.56942624	-1.0805254	-0.45286828	-1.073709	-0.7718799	-0.7330562	0.011382153	-0.9000309
clear	-0.6506498	-0.30076295	0.8196604	-0.98127294	1.214119	-0.22276965	-0.58596385	-1.1077957	0.40227646	0.82576597	0.28516936	0.57030505	1.3620688	0.32575983	0.36308682	0.37781912	-0.6982477	0.763155	-0.07414843	-0.08574137	-0.6610621	-0.97054774	-0.12226671	-0.17488258	-0.69285256	0.2581137	-0.76179785	-1.129452	0.6216547	-0.010895036	0.10227158	-0.56197035	0.061181724	1.4615648	0.031595275	0.057977136	0.79907596	-0.3967234	-0.5903012	-0.0795165	0.83873737	0.11170134	0.038346797	-0.66189003	0.22244316	-0.4617658	-1.0360571	-0.2536823	0.03197357	-0.50151473
day	-0.69664055	-0.96341896	1.1086448	-1.0007454	-0.3174703	0.52232623	0.16219804	-0.53639066	1.310775	0.8506642	-0.59995914	1.6606908	0.9287542	0.9054923	0.5743811	0.97054017	-1.2694639	0.7391236	-1.2036755	-1.1987301	0.31826603	0.3234652	-1.0593574	0.30208594	-0.42693508	0.19073455	-0.58941007	-1.0426693	0.94604665	-0.30763498	-0.4213478	-0.5437479	0.3316966	0.45429134	-0.13543737	1.0678099	0.97011423	1.2870474	-0.8868403	-0.3411645	0.503599	-0.847229	0.22958499	-1.0323031	-0.06863561	-0.8669425	-1.1670063	-1.2262619	0.18479392	-0.5436126
most	-0.011717919	-0.67909306	1.0505309	-0.48611912	1.7782818	-0.5494244	-0.2874235	-0.6470102	1.2826455	0.5475488	0.7349763	0.9365452	1.2788364	0.53433955	0.7964524	0.67742926	-1.5320088	0.8742714	-0.3769947	-0.19519581	-0.3807639	-0.45471454	-1.1348474	0.4030182	-0.57841015	0.55202436	-0.6943823	-0.39038086	0.59310424	0.3103242	-0.08318447	-0.7564059	0.255737	0.3573283	0.048955522	1.1865664	1.427427	0.21972728	-1.0318688	-0.37998345	-0.015923627	-0.42603058	0.43642473	-0.3856579	0.31208512	0.15505388	-0.49775863	-1.6388662	1.3964877	-0.4461913
new	-0.22071077	-0.72113484	1.4142227	-0.43106335	0.8171273	0.2292722	-0.09914115	-1.1876159	0.5428518	0.5230903	-0.42035592	0.30947918	0.6855792	-0.115040645	1.2308801	0.03638193	-1.206655	1.6042286	-0.12359098	0.003495589	0.68873286	0.7073116	-1.6053209	0.18487841	-0.6070547	-0.055349164	-1.0408823	-0.5256262	0.116260484	-0.36677766	-0.07659314	-0.33983654	-0.039046742	0.5701164	-0.26684308	1.4277122	1.3737444	0.8527765	-0.6705382	-1.3009788	1.0236926	0.6485363	0.26819608	-1.0596529	-0.5233259	-0.33175835	-1.3012233	-0.9956567	-0.22990322	-1.0271177
